{"in": [[[159171310144660808849580245813035008, 773132349533750995129683302059868160, 707323469667019518938139499522162688], [852102363732118002231621956635983872, 777470553936418897668135401853812736, 912675696321925965137123394623373312], [934790562565718672076246643409682432, 819227003366986408699695570832326656, 701561885411571628821689409296400384], [791437938233053393796499443462176768, 878015911921594657747068833174126592, 829049758023987011959747747652829184], [686192480082645202759568915251068928, 529391849605564071577133900208537600, 978137403467643333173402204660301824], [607195729884374240887191922974654464, 899253143512219833045747655321321472, 769459611003872686456829926268993536], [875525571302137082460949151326666752, 905349315078055472853261931732008960, 878899508021791928128005251081961472], [390668195900968457628571893929869312, 955806155875142623557665841800544256, 317897360852441809853589055401361408], [764772770358354077326876658708250624, 817542251768019748791085333628321792, 698396679207362476625572468208173056], [830918087477103471651109848534220800, 89290468797192929331595843706290176, 416900244375856390386138320165928960]], [[21564038529804373679738784862699520, 124834200298711062016947601604083712, 101019143307703019436928302103658496], [898013986088237561613604320628965376, 267533414530880335665019949661814784, 74417362171673606182845737018064896], [22083112884501379488001495478042624, 639575094022533000396282831445164032, 897414753683917650316929906337906688], [340537839125285361591543938290810880, 266943577771092040721646423596072960, 757156053400529010228232096084656128], [537806377277787614683130425904201728, 655654358648736392403875180224446464, 915044555322720651288679744498827264], [259388949621496418498438216479145984, 931645919439548083830207673505153024, 895087706828045931556592301526482944], [596732492154831625943755905558380544, 835791249437404265312162866603753472, 437188744507928882882969449122496512], [151597991101908310079829963626774528, 745592633963059161117082720290209792, 758908391516642904228756601385779200], [149609639851604149416690222781956096, 729812486195530257578258311986282496, 373825804678432385839397749540257792], [776094384318571624485778405969625088, 611521452399336332790010979760996352, 267437272791195900907136051381796864]], [[863862767916225052353724300925075456, 88544579529258436157439732000751616, 188118101124087351290782324680032256], [446059005695225165907537529243959296, 536203199834733414416414436419960832, 359935226501319065405942353459412992], [301536013319989483031781601422868480, 205269198076443416467102059907252224, 946866616612165410069994608649043968], [192584278660269718395576300139970560, 295457430611532317957440637465788416, 671233220110806728196724913604657152], [640595754071868803627299787939774464, 256410938657877796940612789040316416, 119539900696204239084647625921658880], [384411467201420039389480265367683072, 121478834971778701604687264855621632, 396612766212281618100259637910568960], [580686779548411450479678600201109504, 991963370723973300747577055137234944, 809429714965597730205260671661113344], [428545066666959259662110155864014848, 580751051395154140581414143019450368, 178981822176542671348342480898621440], [598358610693843031133127027447562240, 539167349035998519813866215096451072, 582694232161625227416499626199482368], [734422977030743513595009069609910272, 501038076695012147750987349589229568, 556188133153858056660925366493249536]], [[702200348743891556346431078362251264, 652997838617521173858993502498586624, 67209058429937072775758631386742784], [984395860996606161260820222214930432, 492179284708902035797813867640258560, 291107573267516256557980242174541824], [403627013783817373797669717097316352, 312145515851412930021869923847897088, 338772566094994630799169102813331456], [630588554016737296289539144655306752, 357604237434804951770146663032684544, 469401530992174285529297582827765760], [138041373084244255960706896025878528, 60588519870016682601848027628961792, 550805087401687595763844395378409472], [760853085445330442842943058471813120, 656032328313485905607989846863773696, 768557894265301485249897698619817984], [821093321019202119723545920654016512, 286252984195685255392690265103794176, 519872203895423426518966012645212160], [529348909548683653879549703728660480, 986768232460898305415437734390005760, 451723514223614441254787041567178752], [267262092856670156971402065367531520, 856575647503531993546154138069368832, 959552364650536590420913003090149376], [191107279732280492349793229829308416, 502061473520169749726015337560801280, 50494109948060365746026987468619776]], [[18808717983980206895196932841406464, 254287514038177636506092848881336320, 327725135154048551146988188467200000], [130366296016952274873916723105366016, 758043671818217346423988798095360000, 532688950706481809635431743265701888], [377119572966067932922363569974018048, 722742328676682520778605144775327744, 950323990740689614438198775816126464], [75638362164763833168142373710987264, 933593105751863046072814640939663360, 157961248884251352768311150115815424], [620451461806050305723568341412478976, 645809227407024634304977328274407424, 155771399662181468838141989576769536], [789056082206593931641883359273025536, 854326120412576705713617568327008256, 874259036097889242656297718747496448], [803166263932878542153840428914311168, 519244233175028819680988230020235264, 458010544377194781973471921329668096], [643719027521253884633857475838214144, 556730767949949636894773862949978112, 854552732852505205188726040960172032], [425224506827976449106749294666317824, 757961774619209190824436328566882304, 737943324614926858727277962740105216], [904213200705842527835521253780750336, 944325262588247072676177835391451136, 841800716485828935966639421481025536]], [[773463261740755853127912758991388672, 848115493423481102740754561979383808, 978974572529443839055880731106476032], [922913900875078572447311588170399744, 874559503928025891318344541248946176, 811512752285126468564185300594589696], [314666833229342854731036598470705152, 229687882301993354339637203180716032, 329379464831743437379118898905874432], [322652551036862740972065841420959744, 608666667742671552200498560641269760, 749665505533932829126297826923380736], [896906814466416550109120195475800064, 226520978274841327888299645391077376, 387904766529772378907547272510177280], [733309623485673413959338398601707520, 607140742447717433160663575914610688, 535811878316594995055434527284396032], [492161996367537150177929024268926976, 424094296988999149850962826866196480, 778365695565463747773853572999938048], [18685501489869694408816769978335232, 697528483877688107260945765163335680, 529086277433752370617291023226765312], [842730958769206212992348160421527552, 306583962181422716210299244476628992, 704657794095505719489299528441397248], [868489499794575228872368425707503616, 69292785658408905417793649007132672, 735603567186071645740498485227028480]], [[411835245401874146288689286993674240, 63093876957170394765242288360652800, 30125474068855687334847013508349952], [47898551210630023534675299724689408, 395286843987227286738352815980150784, 142389642809073746311824653934395392], [378925871041476690058896884415594496, 736187443624994741164799438824144896, 704101958222426155856918732871827456], [544057061423966935500290576806313984, 76722441097137107247433472813301760, 107983530547514303558693274960003072], [105305932636806433899618069198667776, 463457679608919028779684429356335104, 952313571557659357320751329342128128], [146407454211864751557052352140673024, 477926458677983782144977297519673344, 695505596198805907915560532089765888], [396335018951781689426907135553306624, 682474926483070610463192138817470464, 715400495541909583375446260412579840], [893540672225323490376299871163383808, 928896690781682494075139466775756800, 185249828253696531963515773846028288], [856847364053297769527550630835519488, 405465737389540321506823852116672512, 89021309521015052445769604825874432], [456947385499195124497525841290330112, 577207394497325956869286953452830720, 105786208243838112178934871027089408]], [[367855942936817053921362907381104640, 176672262085555306737880348055568384, 464071887893671477287367896794660864], [116402231320876472626503162108313600, 375875361115548664981136574028709888, 933145224485535540819219628465061888], [38401408078140412640617005829849088, 731180100213754321171207347108839424, 236030652926759744069562680737792000], [541170323502511751457995511073603584, 857146589619748529838995352934416384, 49566101561443918519889524655390720], [84947664129841894843931294309548032, 879664379592867153257508802396160000, 376501641192181031519011817020981248], [950114461962523956189408245854502912, 233337706159432955866156639226691584, 268898205073523805060371020785909760], [861363170585036940315451261829775360, 160721383842972743559881882242908160, 33232756717677226032412655471296512], [316582152649938060777866434604695552, 256750170883927701266108415251316736, 592403915852235345024158264423612416], [78671279274685316792652259475324928, 731613373249635939032367289824444416, 960396190648122212981943454599741440], [954769362582709934851177303265771520, 683300056439137029178775913709436928, 995818754886710095093520475143274496]], [[735411549866786756187555437492568064, 304825947217761348503602789926043648, 111670079167642491513239918302199808], [203158059766762154373258229982429184, 459390575652981811753132273369612288, 908830045767803924875862479525117952], [620374479504696214033598465068498944, 77815084176558135136827457126006784, 859933737393714903517783116656672768], [166250199689153464356176867828432896, 961408049131634435847760364921946112, 474148500157170171022042972555313152], [106829368479589347217193506430779392, 361840275096540704991460749580697600, 522630436013246029512953889720107008], [556620282938957167644055746868412416, 18364737317944967742377462847242240, 907875425950277228530340490089857024], [799307069158986995452920090939359232, 760487543584898339036066641206050816, 121069023123069663480436974598225920], [454913287839619843212190048166346752, 940615784615227265816534405900926976, 487578147212192383989562821012619264], [129182046507286487548703627683037184, 188069728234344095226226224947789824, 588129250066928883926851255103651840], [804310000030451229043176488868773888, 972997973676414779862508689946574848, 56322229310840301412348130804891648]], [[339113685680049939956886658992832512, 994905304820387191672371611634237440, 614615191900327976029962497572208640], [783846667327171751349981000513880064, 733168640758945697847499404055937024, 859133505808499923873612735329599488], [384921658881441263030006217340616704, 563174319474954280737024679836909568, 596377152786360889140039145240920064], [360797302064305871977033076425359360, 53327510861837405562767438260469760, 590087793922963068549105774137180160], [802257019978236918332755683531816960, 889270177009243942034290310945701888, 876531146240051695778026776745213952], [621738668867005515896695114937925632, 621842831084094367828774914824863744, 907954772908133753374247235828580352], [158948136012292747176688172077678592, 546618121181380033665544842135994368, 831199928763794091567729364711768064], [448613764984414906653857167209136128, 281226788055348949658305905213571072, 371934764268284183797255211050860544], [407477858563138916961821337799622656, 244978883579953117621809365869658112, 551744085472183724850412658205130752], [318850102262657320675197938885984256, 477131739769685265614951836597354496, 236148569978969846770138073817677824]]], "weights": [[[[89226394891738890234911678693113856, -12069195508956909805469919556403200], [95124244689941404601266147262726144, 79700708389282227598662739918061568], [-106933251023292538179271866657538048, 11905372142791749578016705977778176]], [[55349647998809820200052223899598848, -271235316991806036467764210327093248], [-238274306058883681980267326334828544, 169450312852859514254862271951929344], [-20704418420791625709047262469947392, 140111625194549568484037170722504704]], [[-263449639081954977017005765203853312, -147867843508720407110009087022071808], [200233995914459233480026503151353856, 161291241645812997886514343272513536], [-149971544742584236450439666270732288, -130827650427818305114516209891540992]], [[-52112340927124021121563694836219904, 244466841220855721196137403973107712], [-186103269457817095661514717466198016, -43945550918579104427517743785312256], [-265386432409286512976910198385934336, 45939624309539797436489419773181952]]], [[[257476031780242924029161813183561728, -32398566603660583017571197273505792], [-170099467039108269311056468154253312, 189800709486007701861330391150886912], [151705473661422733134109989247385600, -238412275910377518524011487522979840]], [[137879759073257460334671033840697344, -91348052024841318713015880931868672], [1190751791000366328049568246136832, -7973134517669678528123717449416704], [-247020125389099141035953763018342400, -138846039772033690452985462384492544]], [[108750581741333008843753623014866944, -150537505745887763703861208831492096], [-24231642484664917393664667916697600, -259205669164657620977990293757362176], [-232033744454383871339490748072460288, 61730682849884034139412772318871552]], [[57480067014694213873351683819438080, -265266835689544675693196851118342144], [-212788581848144545712612755636224, -32541170716285705180684522054746112], [-162627667188644413163585500860121088, -204299226403236406463255315503644672]]], [[[164101541042327882549652201981083648, -177933335304260261850911328062930944], [195380657911300683379160585536012288, 183013111352920553784555019331174400], [-132887929677963254361824189963304960, 11586606502532959939431539016728576]], [[-101354628801345823451981722907836416, 25569826364517212868326762638999552], [14838755130767823797406468795269120, -228026866912841809950725657554059264], [-170267224311828613114478839069671424, -205271184444427482458750124522733568]], [[30023515224456786306858612091256832, -259240210056304931055460476105261056], [-37529796361923219296861458570149888, 269733667373657233818009734511329280], [18460065126419068849695306035494912, 202887982130050653568544556760170496]], [[28933763504028319292346184807481344, 154086738824844362218073231273754624], [-189923465251922623429434688065765376, 121185868978500370751786176259031040], [255532920360565182606987333287804928, -162540823221206671424084376215879680]]], [[[-124473601579666134921001625045696512, 76049178838729864185487815664992256], [-3660440444946289093542198898589696, 23682653903961180701787908336517120], [229330360889434828521677277626368000, 256998419761657743361176908213518336]], [[-261349916458129892707963116732809216, -253867387771606472659783285448114176], [-79969659447669982856380253042900992, 239941000938415552394053731777249280], [-145047560334205626656667162447446016, -71907922625541691614536510669324288]], [[-268330514430999779867853655185031168, 57022869586944586913915234666151936], [-117865175008773801753807872529006592, -186005204916000378815711281185554432], [161419004201889052964298258124898304, 268087506294250485039740796614475776]], [[-181928724050521859497024987187904512, -171299442648887629281524525649887232], [-110691815614700329811484264611446784, 157881140708923341042396618492477440], [-113486051559448249076086034197905408, -204881250858306899115212947186515968]]]], "bias": [0, 0], "out": [[["-811051029307312151898080091259013408", "-1472109697883872855085104222700990006"], ["-528539552873451841296887387802887946", "-479910753097361964472240108640655029"], ["-859536355090285293603582494722226955", "-670518221637687591501448018045711492"], ["-77675673238639598916850751879067826", "-132028915984577730731287477184728367"]], [["-973791923027617402137438972479106354", "-529895757470201620182206632643141082"], ["-1068758558577939368141318995900977305", "-330698196577790148366400564712521445"], ["-968582927650604267027127767242160672", "-615391447297339813950840270560399175"], ["-349524047948521414307381813385449474", "-394712802987869376369174007174918150"]], [["-1195008336948108945640918772722080227", "-391453675833271485890705066425298906"], ["-1035539474474336745928350434338370235", "375449144451453718974060701074107917"], ["-468574096206261610672918401549766744", "-461492881731804944422419395904964084"], ["-157987822858060281896825874562638157", "-145297327207434479738146166840718303"]], [["-717832718354692660291274590189907309", "-640793387586819749749055661801718428"], ["-818234976163909363095633653303124629", "-486529556567947364827511906932334658"], ["-488975320390965478682141686514332960", "-593549900211690891912136829366038418"], ["-88817120440234533520269026413841619", "-188924963686509380494214483287084738"]]], "remainder": [[["57546413369690632436021828010377216", "844338365610010970536479881582084096"], ["713605335486457688719381102919155712", "375215677051519710413966252668092416"], ["755914587195177990836477246220271616", "818027579922420637827386176052396032"], ["66541310804045710582849369230278656", "347409709477862532129959056406216704"]], [["289886146631823524117043901901045760", "747073207457187946361744580709187584"], ["596964332285599153985153944246026240", "55475850457661407668048488535425024"], ["170834380408647470600498462609899520", "509441462772270674298218142377181184"], ["34071275330636135911467390225874944", "138225886497714127955769149616029696"]], [["799025578005122329965199425850572800", "638105259408657768502010079451545600"], ["646664651333832093639422680485593088", "675100193761157594649844145046159360"], ["445458083786331341876221205003894784", "502163711096538860296377604167958528"], ["47026304856349756806446693973229568", "831593504386261794099030491582693376"]], [["939137107020160348118700928203227136", "113237806886600667494639994056736768"], ["659213932223174550761216604282814464", "197300411875572149344585017353830400"], ["421437083594697043343248459305058304", "120269150227163283149044634810843136"], ["198117022230724190125402300398698496", "310521369112965179461249563143176192"]]]}