{"in": [[[573578318342437025844851866425360384, 796897075929102617762369594491666432, 544813853709568530836070618837811200], [950964808512243091948221705113042944, 63020991177631942013592578962751488, 534246864759300757335855534585151488], [145553273162883481564471617673756672, 168014069645222242011527365934448640, 918377427067427353453418389608333312], [140426938484365606594402473039888384, 264667746275250807784404837319311360, 75491098918846425947581327949692928], [193541506598040702303784498423136256, 897966980662074461603530364592062464, 180806663312596539664229464283283456]], [[848938644943171838323721255004405760, 946893746765754170995422226555076608, 768897933131184028070406971585462272], [912801056444623171008965891011379200, 812119034248563567653941176875089920, 506148778166511590361123171143254016], [726299972329744035058453094326075392, 96207737897536896527190301501030400, 50742547072808897124511004495970304], [301789259811556599819892346689945600, 485486502032339103829549531168505856, 464866287179084526270412742325174272], [875588607670153614680019680937115648, 932891851707191663462868731918548992, 339653173344804033759485646264598528]], [[237265950183872320398504585615900672, 92539353472303921531909154417934336, 85988770955032665647971390548082688], [244847082330976307871225285122719744, 8112524408893539994207368429699072, 236428844273952725283544611891970048], [659751238345296368251004385155350528, 636339039183294843043782526962237440, 825077716305557216991914246402998272], [531007310948199867694301878014705664, 724330536345950423826530223955902464, 663737513567450936766727588333748224], [439166246656338740466881160898674688, 743472567205232394663525661517283328, 677226299867745725736978696823111680]], [[874121934955878104176816691842383872, 538534223430679464327474931591806976, 347726279820595664077109546547412992], [773851100708451725315764067596500992, 975657286487747620319763447391715328, 944268611874408052782348044693667840], [215372314814578868225208595744030720, 657746228084012664949295522158477312, 894050164467754304522655814498910208], [741111797690731997653584571294285824, 687926089998044122195818245588516864, 327261898856574746857668546142404608], [448878343890703267942854989155663872, 924485996489381566675746159104884736, 482698411338606487321031874749399040]], [[139523373279942021389818047177424896, 796598027167266997218949056595755008, 976033348284549093920013784130256896], [660994593288569905303091763568705536, 69341432375643946894064073402482688, 998540588907763631143940943779987456], [316093678592279445721052906812080128, 495961038159453158592866196205338624, 937970692966970988133652679045939200], [49413224909801158568130981876727808, 247095544932269935825119489411776512, 583844162475215139440723570525732864], [715278042019727128024286358891659264, 489768637551234821572637878669803520, 987635686311730664114239575842357248]]], "weights": [[[[-223889976739883438974480414821842944, 182179450988769526980719757565624320], [-312540173530578612367366987190370304, 139334559440612791523818767365701632], [-144911438226699839338211669549514752, 11686950922012330194202493232087040]], [[-184420511126518259849192222901665792, 166687548160552971364293392512057344], [-150520324707031259246079775103516672, -127768903970718397153279061885190144], [-176604077219963084012262368328286208, -255772858858108525284918825947496448]], [[-327348411083221455632540069993119744, 65518230199813848675511947019419648], [23358047008514404274419529662070784, 305796265602111814573319260595027968], [50124526023864744999691541270233088, 51966935396194458503048216038080512]]], [[[-152963533997535716062692648819884032, -286536753177642827878558535144964096], [317600071430206318641788425301131264, 275960147380828863380341414965542912], [61409443616867069727730049321271296, 284595370292663576978075748665393152]], [[-271937012672424322146439224864276480, 302216708660125731526730788911448064], [347241044044494658554346293661007872, 350840210914611820177063825035493376], [-261212855577468885938913667830513664, -104776054620742800821305038629502976]], [[183119535446167002871030033657364480, 156187891960144058736559209685450752], [216080427169799798654929942775595008, 77634811401367193379228793098469376], [-176951438188552874579061318755549184, -299460560083389290857424393370337280]]], [[[218642294406890891751406281464741888, 238958597183227540631916579255222272], [-297664105892181404654557333611872256, -300561219453811641381297073246175232], [-357277274131774953904931896050057216, -363140106201171886485940135356530688]], [[-42309552431106571048104260356014080, -152798458933830258622761475474718720], [68972945213317871191629614314160128, -81471890211105347292681833950478336], [-303670346736907976036272459671928832, 212895214557647712730549686833774592]], [[-292076885700225858726145735778107392, -227672487497329711878256654156824576], [-290411472320556670589050515393347584, -240332305431365987041979825326653440], [-204085990786552442503615118510653440, -230043768882751482065503977736241152]]]], "bias": [0, 0], "out": [[["-738206413373029545006965393527124494", "-173320559228639935825945330543413025"], ["-1034698083357167138897799627355946893", "-434089078628623353676508551211157060"], ["-830734559502817036444813835112148949", "-686578771866623630758607927275546159"], ["-285424960673894669036410085848276078", "77035899885765173133597720803628368"], ["-41293201078409047199874417933080796", "28777494655737863382696013669386951"]], [["-606713676308333020774846244444307246", "388466467207809267549922375129065936"], ["-1102737485952039787132334772316590877", "711672842283067459049106389539428334"], ["-1279246107747464951673577203827572661", "-104057682619248993879676863654015882"], ["-1137502411882990109129978808062308003", "-285737283216816113761016693211231047"], ["-703798773277911056745141956845225462", "355407338114374779173330249858051758"]], [["-1546951103062535866431703941066730304", "-509754977574520651977576289008629976"], ["-2007190678249673958423804906616390874", "-255124530399913653884258580354194679"], ["-1987955686599915815112948301772925117", "92785353760923841311068732708486389"], ["-1501354303867896914042548115076362343", "-140005761885967356612636419407991713"], ["-758589315783580773280487949446211355", "437520880361906870599644364227465106"]], [["-761417923444182653301008173638043967", "91771720385437306243354293205033102"], ["-1688165103880073226811051249397561256", "-253090840416308272240635021911178871"], ["-868411975706764838263900420928401111", "427029536451544469306217379046517378"], ["-1632207770832291707418877818442334628", "313343146963309014974813849350304619"], ["-1123607486465218134583708408995464790", "277056825693143901704758542110909098"]], [["-543826042689234949496060048498817249", "415061953419939109346123158429653654"], ["-1006898403524974693098527575437710832", "646952095929760474345606121011841547"], ["-1339156364320875137533821288468963984", "424307047679243230200796457433761030"], ["-633848388019879384336947814123500320", "638133921526842615943818078787826079"], ["-911192101070039979166490878519403558", "572640728975516234503728848776059996"]]], "remainder": [[["732636700329184288172821299452706816", "163633766656393366871975061931163648"], ["106376739450670706774435272610283520", "224263678919132314456428282264944640"], ["302563808180207575103565765357338624", "724302115124451087131827274648649728"], ["414653571797565705485911652130881536", "793412538503882240528593488489480192"], ["802744020509610387937821108140507136", "304480836101726291197711385865748480"]], [["859770729700736535878340696623546368", "892305185639885971968166660350672896"], ["159017773966938546227144022541991936", "243286973980475632014665402361577472"], ["45707991996386548824583584683655168", "305057405020119480420035216424304640"], ["513655874550133048911800632902418432", "966709976332017469863264280209522688"], ["198125756383956075595551934970331136", "988945351929415067553212891893071872"]], [["787267116688540528237625132699353088", "820149329025927193528840575260819456"], ["472980868351632170335228269959315456", "763189020330031063201267188022378496"], ["644197050565810210754859371753111552", "989731482915520051484045079570546688"], ["948204822800878014118539586611183616", "748247265754602884949081086979211264"], ["716169397100995271731495802811449344", "485403242675801265137341039288254464"]], [["43352138962814326789218918981435392", "405166142631707980272441068569493504"], ["810091229170266512829629243259355136", "269653910662555626980942633563586560"], ["676839398629154231820514533721505792", "419805522694742694500594416384737280"], ["745383827341964610018052023030644736", "256049836598014041054468595098058752"], ["675940914936064095590762595072606208", "261569026192941931124614732445646848"]], [["945584600952117166014909825389953024", "419123852798410471873927944123449344"], ["610870231548665514822003410375540736", "444338394948450192884055088832708608"], ["392811864299264176482313886100357120", "482398655357498430014877178936688640"], ["865948833234167064622566980785799168", "886966130974971444248685772183437312"], ["195220905237827872879130999353507840", "356250510761353797733544351900893184"]]]}