{"in": [[["0", "0", "0"], ["0", "0", "0"], ["0", "0", "0"], ["0", "0", "0"], ["0", "0", "0"], ["0", "0", "0"], ["0", "0", "0"]], [["0", "0", "0"], ["573227047920227", "-826614677906036", "-844913721084595"], ["-359043389558792", "1194272637367248", "-949842035770416"], ["359888762235642", "392219066619873", "110045418143272"], ["637399911880493", "301511675119400", "-1053370237350464"], ["463744610548019", "-128481864929199", "-1255699634552002"], ["0", "0", "0"]], [["0", "0", "0"], ["671234905719757", "-977980077266693", "421997934579849"], ["1409971594810486", "1148633003234863", "373946875333786"], ["-1757465243339538", "-1238162755966186", "-51878795027733"], ["-194021567702293", "-86266070604324", "482468307018280"], ["227684408426285", "1036435484886169", "-1077187657356262"], ["0", "0", "0"]], [["0", "0", "0"], ["-92020213603973", "-94067484140396", "1775928616523743"], ["815106689929962", "-344112128019333", "363628387451172"], ["-1087333083152771", "449536293745041", "780092179775238"], ["1558175444602966", "1578632712364197", "-829705178737640"], ["102086141705513", "-462291836738586", "-1316184520721436"], ["0", "0", "0"]], [["0", "0", "0"], ["517251133918762", "-459525704383850", "666641473770142"], ["-204882681369782", "-1838339567184448", "-41208446025848"], ["-841691732406616", "681301295757294", "1228365898132324"], ["1022987008094788", "461613684892654", "477357625961304"], ["595772266387940", "-609227776527405", "281886696815491"], ["0", "0", "0"]], [["0", "0", "0"], ["820794582366943", "-409486860036850", "-261046946048737"], ["-253976851701736", "2037312030792236", "1521821141242981"], ["1709234952926636", "1058840870857239", "-1421064376831055"], ["-227210268378258", "686791896820068", "2836795568466186"], ["344718247652054", "1040667295455933", "503696382045746"], ["0", "0", "0"]], [["0", "0", "0"], ["0", "0", "0"], ["0", "0", "0"], ["0", "0", "0"], ["0", "0", "0"], ["0", "0", "0"], ["0", "0", "0"]]], "weights": [[["-319719374179840", "-204160809516907", "-188254922628403"], ["49976706504822", "-285759031772614", "-188558340072632"], ["220832630991936", "295872092247009", "232007071375847"]], [["332949459552765", "-320886075496674", "-220132112503052"], ["-232057541608810", "78897796571255", "-32677613198757"], ["-325831413269043", "-196086645126343", "244830891489983"]], [["99743090569973", "-57411354035139", "-125200152397156"], ["-182040572166443", "61227917671204", "-20936807617545"], ["12144804000854", "19964456558228", "-74059888720512"]]], "remainder": [[["251727036316879", "394159405885148", "577271073436350"], ["367493806974380", "853116310398036", "596572341675710"], ["487274496757891", "108681576326490", "506651616898125"], ["358946887339698", "940914831306145", "54298366962030"], ["895244824063411", "58748384068167", "305012266682752"]], [["614637089354801", "373825196074904", "499740942468634"], ["957037461048458", "173321541329642", "487266035786888"], ["33476738390164", "259210329237249", "651325620507123"], ["416494883131236", "13824306890456", "178389236356452"], ["779402179265162", "334968686554930", "757317034760490"]], [["839945988147520", "763673305998964", "427914214349585"], ["375564026675420", "333631559238711", "720953508880484"], ["612217387992132", "529226780425233", "390018468242488"], ["378236063828808", "233345966385968", "132761284694425"], ["981027675254154", "445495152289368", "427535462506057"]], [["259302522317739", "575447789422469", "496015806511423"], ["376419152365997", "555268954787607", "196079078777984"], ["381944312764972", "970542732902686", "895099903369555"], ["201372741816158", "135928523719485", "948801053906209"], ["162417163144710", "179458064812934", "392759064303391"]], [["966858609783230", "99632740348170", "112464482532232"], ["979026645916747", "178151783358771", "720740963675780"], ["979752862825990", "363634116278263", "500004374363925"], ["114661140178214", "646916122350376", "457367647526553"], ["887174863193650", "87639642937575", "285463259802782"]]], "out": [[[-121102202108763, -336346841488311, -241470662174310], [-54153764682384, 384322019465015, 187152409056377], [47465430998537, -554879610898923, -133866440567822], [-316401284766404, 9619127318885, -221066681213989], [43806411138324, -38476395726962, 235061647732085]], [[-639167932567322, 274542920860526, -47403232352379], [176423408283503, 584072808402315, -41858690881290], [1512202280674849, -637251285857114, -49237277186334], [-985973282049529, 44640684027706, -364320384352849], [-161214517975679, -34324565519041, 495503842144465]], [[4031514206449, 614531912942477, 27275991850071], [-319082194675307, -652591562956284, -547394482424707], [-420252797567852, 86598134369009, -313266205283936], [-417339459104551, 632024228938452, -982637762248344], [562096345697394, -885397327695268, 272273150166535]], [[-30373939727792, 264887530473597, -389615562261478], [472912034219908, 288752410224863, 39498658845133], [-516308679703707, 923580185812498, -693114510835316], [-47663696619452, -740366160992905, -431539258922788], [-376142786306737, -362094758989634, -75632506122638]], [[-127112209884732, -844397045819342, 245857757232442], [-586189654103143, 905230821968302, -172923893441489], [-157821179408131, -387668067098913, 292859880228187], [961291308779324, -940900683532220, 87586647524334], [-452938035480403, -58426683920581, -783946407349372]]], "bias": ["0", "0", "0"]}