{"in": [[["0", "0", "0"], ["0", "0", "0"], ["0", "0", "0"], ["0", "0", "0"], ["0", "0", "0"], ["0", "0", "0"], ["0", "0", "0"]], [["0", "0", "0"], ["1885255694389343", "-613535523414612", "-403978705406189"], ["148718640208244", "-740069329738617", "-721906840801239"], ["401190876960754", "815901637077332", "-759790360927582"], ["1646221756935120", "-860967636108398", "298874557018280"], ["1239524960517883", "284633755683899", "2051949501037598"], ["0", "0", "0"]], [["0", "0", "0"], ["-677928447723389", "-1336887598037720", "722747206687927"], ["1537933945656", "593890249729156", "-1102510452270508"], ["1503571629524231", "-27588602155447", "1445665001869202"], ["1475357532501221", "-408817291259766", "80894872546196"], ["-819211065769196", "-837749660015106", "974863052368164"], ["0", "0", "0"]], [["0", "0", "0"], ["-103733092546463", "-213351562619209", "1641408085823059"], ["-243484377861023", "-120261549949646", "-146817877888680"], ["651787877082825", "281874865293503", "687140583992004"], ["2090752840042114", "-30004410073161", "1079028725624084"], ["-821512222290039", "-961170256137848", "-1598848462104797"], ["0", "0", "0"]], [["0", "0", "0"], ["-213626936078072", "-371315151453018", "-915234327316284"], ["497377604246140", "-203508615493774", "1716603755950928"], ["260466367006302", "-207071766257286", "-2160558938980102"], ["939869761466980", "527904927730560", "253000885248184"], ["1103393673896790", "600397944450378", "112540856003761"], ["0", "0", "0"]], [["0", "0", "0"], ["254730433225632", "-1367055654525757", "424995899200439"], ["1054371953010559", "766410171985626", "98192147910595"], ["2447615146636963", "623328924179077", "-119756624102592"], ["-676271617412567", "-806228876113892", "-162967234849930"], ["431261450052261", "-283643126487732", "-1020943641662598"], ["0", "0", "0"]], [["0", "0", "0"], ["0", "0", "0"], ["0", "0", "0"], ["0", "0", "0"], ["0", "0", "0"], ["0", "0", "0"], ["0", "0", "0"]]], "weights": [[["-207945436239243", "26914238929749", "-238044381141663"], ["-41577778756618", "95076009631157", "-185675427317619"], ["129900902509689", "33363699913025", "-21238764747977"]], [["-213594168424606", "-184338897466660", "-175248265266418"], ["-278856247663498", "-179687112569809", "-70883274078369"], ["29141467064619", "-66779337823391", "11398832313716"]], [["-160676121711731", "1137495040894", "-191285848617554"], ["307523727416992", "290434658527374", "-80528542399406"], ["-22128503769636", "-18670639023185", "-176549524068832"]]], "remainder": [[["47386861890118", "19663680210215", "713067157566911"], ["503435541424551", "100754501410620", "733513577581107"], ["134691013226984", "552799469551246", "819184814934488"], ["280945501544920", "939794788671861", "111285607454192"], ["769816763000563", "667941674822941", "701615787926130"]], [["321910779852260", "593255527470319", "114358551767509"], ["674849465580337", "936607421682311", "822387975691526"], ["459934245329350", "529505951544593", "686488292290505"], ["13431067076454", "365290003432165", "873677683033748"], ["108062629267806", "747121554348269", "453010218450800"]], [["917001354657259", "871182602480985", "514950819082060"], ["856588450180425", "614931809853260", "96757380812051"], ["882646919111721", "666375676633379", "972871009210394"], ["184309614982340", "649712933392948", "969221591603854"], ["195278320476063", "654924004074928", "899996062791615"]], [["595842729879223", "123089444856305", "768130346598809"], ["893105428684066", "506695421452605", "491499752864911"], ["116708363500948", "768913750485808", "348718445505256"], ["90820895911747", "53188611164842", "11300119502721"], ["597677906509489", "550461679660657", "179549171763938"]], [["3428623462241", "179400049004471", "993740474552169"], ["9888774620777", "889965547306929", "922429958964585"], ["616667596332263", "415369861533691", "497289617273964"], ["585757084936631", "920592243783176", "880499319019691"], ["920246108202264", "112327974580694", "446999983738351"]]], "out": [[[-729894564811157, -239701037052925, 156852354824163], [-356331379063464, 363074717553863, -191392256244008], [333822688248543, 47607144651374, 263971571714683], [-278382373215433, -117830044189778, -319804646943800], [-1186254213537389, -136211756983393, -291804491516796]], [[103510899886964, 57818586091533, -79716265963229], [-230542550780450, 41480534874666, -209158971883904], [-17077918686639, 33999628546556, 180481968170808], [-190888259990169, 93639631806792, -102239729412271], [-1069115195915892, -49407985767391, -613070169709183]], [[-26483906862242, -164967202473325, -458165457704218], [626787904544895, 6015808468221, 150826090506725], [39379598672542, -96983922147323, -217416214217525], [-1003831781436982, 91932076970755, -221946274466358], [-301916580571546, 262564848100084, -333489222416568]], [[101753648583177, -355335977358903, -268768910605494], [260038417663782, 320471129999134, -432034629174366], [741894024009183, 258992190585410, -240720766424580], [-1225534542543610, -352266932690146, 248300376266397], [-667760948372335, -380685839701111, 101083344750578]], [[33184705931907, 152368956204861, 104472156505417], [-219522338757940, 36410876418747, -137782204535982], [-919615108710004, -206995925350336, -23415498951413], [-271554820145873, 113556084189695, 485843865732950], [-217130561584150, 270877956633696, 19806042486867]]], "bias": ["0", "0", "0"]}