{"in": [0, 0, 0, 0, 0, 0, 0, 0, 0, 0, 0, 0, 0, 0, 0, 0, 0, 0, 0, 0, 0, 0, 0, 0, 0, 0, 0, 0, 0, 0, 0, 0, 0, 0, 0, 0, 0, 0, 0, 0, 0, 0, 0, 0, 0, 0, 0, 0, 0, 0, 0, 0, 0, 0, 0, 0, 0, 0, 0, 0, 0, 0, 0, 0, 0, 0, 0, 0, 0, 0, 0, 0, 0, 0, 0, 0, 0, 0, 0, 0, 0, 0, 0, 0, 0, 0, 0, 0, 0, 0, 0, 0, 0, 0, 0, 0, 0, 0, 0, 0, 0, 0, 0, 0, 0, 0, 0, 0, 0, 0, 0, 0, 0, 0, 0, 0, 0, 0, 0, 0, 0, 0, 0, 0, 0, 0, 0, 0, 0, 0, 0, 0, 0, 0, 0, 0, 0, 0, 0, 0, 0, 0, 0, 0, 0, 0, 0, 0, 0, 0, 0, 0, 0, 0, 0, 0, 0, 0, 0, 0, 0, 0, 0, 0, 0, 0, 0, 0, 0, 0, 0, 0, 0, 0, 0, 0, 0, 0, 0, 0, 0, 0, 0, 0, 0, 0, 0, 0, 0, 0, 0, 0, 0, 0, 0, 0, 0, 0, 0, 0, 0, 0, 84, 185, 159, 151, 60, 36, 0, 0, 0, 0, 0, 0, 0, 0, 0, 0, 0, 0, 0, 0, 0, 0, 0, 0, 0, 0, 0, 0, 222, 254, 254, 254, 254, 241, 198, 198, 198, 198, 198, 198, 198, 198, 170, 52, 0, 0, 0, 0, 0, 0, 0, 0, 0, 0, 0, 0, 67, 114, 72, 114, 163, 227, 254, 225, 254, 254, 254, 250, 229, 254, 254, 140, 0, 0, 0, 0, 0, 0, 0, 0, 0, 0, 0, 0, 0, 0, 0, 0, 0, 17, 66, 14, 67, 67, 67, 59, 21, 236, 254, 106, 0, 0, 0, 0, 0, 0, 0, 0, 0, 0, 0, 0, 0, 0, 0, 0, 0, 0, 0, 0, 0, 0, 0, 0, 83, 253, 209, 18, 0, 0, 0, 0, 0, 0, 0, 0, 0, 0, 0, 0, 0, 0, 0, 0, 0, 0, 0, 0, 0, 0, 0, 22, 233, 255, 83, 0, 0, 0, 0, 0, 0, 0, 0, 0, 0, 0, 0, 0, 0, 0, 0, 0, 0, 0, 0, 0, 0, 0, 0, 129, 254, 238, 44, 0, 0, 0, 0, 0, 0, 0, 0, 0, 0, 0, 0, 0, 0, 0, 0, 0, 0, 0, 0, 0, 0, 0, 59, 249, 254, 62, 0, 0, 0, 0, 0, 0, 0, 0, 0, 0, 0, 0, 0, 0, 0, 0, 0, 0, 0, 0, 0, 0, 0, 0, 133, 254, 187, 5, 0, 0, 0, 0, 0, 0, 0, 0, 0, 0, 0, 0, 0, 0, 0, 0, 0, 0, 0, 0, 0, 0, 0, 9, 205, 248, 58, 0, 0, 0, 0, 0, 0, 0, 0, 0, 0, 0, 0, 0, 0, 0, 0, 0, 0, 0, 0, 0, 0, 0, 0, 126, 254, 182, 0, 0, 0, 0, 0, 0, 0, 0, 0, 0, 0, 0, 0, 0, 0, 0, 0, 0, 0, 0, 0, 0, 0, 0, 75, 251, 240, 57, 0, 0, 0, 0, 0, 0, 0, 0, 0, 0, 0, 0, 0, 0, 0, 0, 0, 0, 0, 0, 0, 0, 0, 19, 221, 254, 166, 0, 0, 0, 0, 0, 0, 0, 0, 0, 0, 0, 0, 0, 0, 0, 0, 0, 0, 0, 0, 0, 0, 0, 3, 203, 254, 219, 35, 0, 0, 0, 0, 0, 0, 0, 0, 0, 0, 0, 0, 0, 0, 0, 0, 0, 0, 0, 0, 0, 0, 0, 38, 254, 254, 77, 0, 0, 0, 0, 0, 0, 0, 0, 0, 0, 0, 0, 0, 0, 0, 0, 0, 0, 0, 0, 0, 0, 0, 31, 224, 254, 115, 1, 0, 0, 0, 0, 0, 0, 0, 0, 0, 0, 0, 0, 0, 0, 0, 0, 0, 0, 0, 0, 0, 0, 0, 133, 254, 254, 52, 0, 0, 0, 0, 0, 0, 0, 0, 0, 0, 0, 0, 0, 0, 0, 0, 0, 0, 0, 0, 0, 0, 0, 61, 242, 254, 254, 52, 0, 0, 0, 0, 0, 0, 0, 0, 0, 0, 0, 0, 0, 0, 0, 0, 0, 0, 0, 0, 0, 0, 0, 121, 254, 254, 219, 40, 0, 0, 0, 0, 0, 0, 0, 0, 0, 0, 0, 0, 0, 0, 0, 0, 0, 0, 0, 0, 0, 0, 0, 121, 254, 207, 18, 0, 0, 0, 0, 0, 0, 0, 0, 0, 0, 0, 0, 0, 0, 0, 0, 0, 0, 0, 0, 0, 0, 0, 0, 0, 0, 0, 0, 0, 0, 0, 0, 0, 0, 0, 0, 0, 0, 0, 0, 0, 0], "conv2d_1_weights": [-323, 245, -231, -56, -193, -216, -16, 222, -643, 277, 279, -58, -576, -356, -55, 94, -892, -361, 290, -135, -577, -267, -110, 329, -242, -410, -209, 387, -307, -641, 197, 132, 261, -479, 538, 299], "conv2d_1_bias": [95128, 80453, -40111, -63827], "conv2d_2_weights": [-12, -209, 66, -262, 38, 113, -19, -277, -134, 23, -27, 7, -173, -9, 8, 261, 184, -216, 77, -57, 115, 354, 62, -78, 120, -187, 109, -124, -23, 164, 160, 246, -28, -162, -82, -89, -111, -179, -23, -77, -250, 264, 61, -118, 99, 50, -150, -34, 72, -360, -62, -229, 24, -31, 165, 90, 21, -12, -319, 50, 57, -46, 220, 279, 420, 228, 86, -137, -17, 141, -103, -252, 290, -43, 89, 148, -377, 149, 282, -189, -358, 30, -67, -238, 104, 87, -308, 101, -110, -88, -58, 69, -130, -64, -183, 264, 242, 181, -197, -255, 283, 198, -229, -83, 72, -132, -241, -125, 93, 423, -305, 368, 298, 60, 6, -72, 237, 186, 71, -263, 89, -178, -177, -86, 53, -131, -29, -399, 16, 25, 19, -265, -148, -167, -13, 228, -420, -131, 35, -180, 148, -22, 449, 379, -40, 21, -227, 97, 61, 154, -185, -125, 18, 274, 149, -23, 299, 19, -61, -166, 259, -282, 117, 1, 55, -259, 380, 2, 358, -40, 124, 148, -149, -288, 230, 25, -261, 105, 213, 48, 254, -190, 214, -296, -61, 337, 57, 73, 332, 141, -253, -254, -64, 37, -159, 125, -166, 191, 109, 99, 95, -240, 37, -21, 14, 288, -9, 53, 464, 320, -328, 7, -105, -63, -219, 333, 154, 295, -226, -195, 19, -313, -209, 66, -28, -218, -230, -113, 67, 50, 458, 171, 137, 199, -192, -216, -129, -200, 358, 65, -218, -167, 220, 92, -60, -53, -162, -148, 32, -144, 122, -42, -59, -222, -190, 116, 396, -68, -3, -56, -250, -244, -208, 373, 150, 14, -341, 36, 234, -147, -270, 55, 81, -432, 25, -167, -78, -92, 315, -113, -152, -51, 83, 163, -168, 71, -8, -198], "conv2d_2_bias": [-52873943001032, -28398277238011, -77845364809036, -62251962721348, -102683901786804, -8040543645620, -18125817179680, 53248528391123], "dense_weights": [-54, 130, -133, -118, -139, 84, -30, -195, 61, 44, -198, -31, 68, -59, 128, -116, 64, -89, -87, -2, 44, -75, -204, 147, 156, -83, -54, 157, -51, -54, 64, 203, -78, 167, -6, -112, 136, 271, -179, -34, -105, 264, -71, 164, -12, -208, 33, 205, -119, -91, 30, -148, -61, 40, -13, 80, 38, -23, 265, -179, 50, -70, 45, 104, -120, 14, -229, 10, -9, 113, 154, 65, 11, -53, -159, 146, 58, -118, 117, -65, 194, 183, 19, -335, -61, 47, 477, -223, -97, 22, -70, -144, 8, -162, -133, -152, -10, -232, -5, 222, 173, 33, 71, 108, -59, 4, 59, 35, 98, -107, -154, -116, -51, -108, -38, -173, 196, 155, 76, -99, -39, -158, 136, -87, -254, -188, 201, -182, 9, 134, -111, -113, -7, 44, -87, 22, -165, -124, 110, 48, 37, -131, -68, -199, -87, 1, 94, -141, 39, 182, 98, 124, 151, 95, -170, 17, -133, 3, -89, 33, -29, 361, -62, 78, 44, -157, 419, -57, -135, -526, 108, -72, 83, 93, -415, -57, -77, 2, 53, 10, -31, 45, 61, 87, -119, -159, -234, -57, -29, 158, -53, 60, 128, 110, 32, -57, -144, -13, -55, -195, -126, 18, -12, 130, -216, 10, -125, -189, 126, 174, -37, 104, -4, -35, 209, -25, -114, -139, 43, -178, 96, 193, -135, -485, 2, -18, 322, -288, -70, -99, 264, 73, 76, 188, -472, 183, -57, 283, 11, -99, -85, 223, -49, 213, 77, -15, 183, -105, -22, -268, -41, -25, 79, 206, -308, 144, -61, -35, 43, 44, -27, -239, -203, -96, 82, 167, 68, -45, 241, 22, 50, -243, 143, -29, -140, 17, -14, -83, 198, 92, -164, -271, 61, 118, -271, 125, -12, -116, 93, 186, 224, 126, 64, -60, 156, -331, -52, -225, -268, -51, -41, 359, -309, -115, 149, 293, 88, -5, 63, -389, 0, -34, 126, 221, -418, 98, 64, 249, -103, -7, -74, 129, -57, 81, -77, -111, 174, -291, -75, -7, 85, -106, -79, -113, 170, 245, 126, -75, -12, 51, -56, -4, -44, 87, -122, -5, -86, 49, 260, -203, 85, 3, 57, -63, -86, -160, 269, -72, -26, 118, -122, -72, -310, -194, 153, 24, 332, -120, 0, -152, 267, 432, 123, 94, 351, -406, -5, -260, -24, -209, -137, 25, 13, -45, 88, 162, 58, 11, -32, -139, 82, -118, 180, -13, -455, -180, 47, -149, -198, 159, 109, -36, -183, -368, 49, 319, 221, -33, -68, 5, -160, -166, -44, 32, -166, 4, -108, -31, 143, 132, -22, -86, 70, -226, 3, -11, 122, 229, 54, -67, -4, -164, -122, -34, -135, -63, 7, 32, 5, -21, -27, 149, -178, -116, -30, 7, -63, 11, 96, -72, 151, -204, -141, -105, -9, -11, 197, -176, 104, 102, 149, -133, 180, 49, -30, 96, 11, -252, 178, 289, 131, -97, -12, 115, 147, -77, 48, -120, -72, -173, -127, 208, 14, -343, 364, 83, 163, -26, -158, -314, 126, -118, -4, 122, 110, -81, -164, 153, 66, 137, -186, -2, -254, -55, 7, -153, 41, 344, 30, 18, 16, 43, -194, -219, -48, 236, -77, 94, 244, 137, -2, 71, -51, -62, -181, -12, -228, 32, -45, -48, -117, -160, 25, -209, 0, -14, -120, 38, 66, 51, -52, -113, 42, 40, -129, -114, 236, -380, -53, 25, -190, 232, 207, -1, -399, 16, -139, 258, -107, -300, 31, 126, 77, -6, 247, 6, 1, -88, -199, -223, -91, -149, -114, 126, -66, -115, -221, -14, -88, -31, 73, -111, -4, 59, -28, -72, -64, -97, 109, 251, -18, 126, -161, 78, 64, -72, -123, -235, 16, 28, 111, -103, 9, -6, -136, 28, -70, 117, -75, 39, 23, -71, 77, -92, -259, 83, -163, -31, 309, 172, 86, 120, -7, 16, -40, -17, 121, 35, -156, 118, 43, -1, 157, 95, -303, -8, -229, 234, -66, -53, -127, 229, 101, 176, 183, -585, -196, 220, -118, -24, -89, 19, -188, 14, -199, 33, -137, 13, -66, -13, 95, -261, -102, -16, 179, -147, 31, -59, 92, 117, 88, -34, -154, 204, 29, -55, -321, -23, -85, -71, 110, 181, -40, 192, -64, 5, -246, 21, 84, 111, 39, 163, 199, -40, -203, -328, -116, 18, 51, -101, -117, 174, -81, 52, 153, -135, 149, 14, -49, -68, 42, 155, -88, -3, -217, 205, 142, 97, -216, -62, -46, 173, 179, 205, 1, -337, -147, 255, -35, -11, -70, -63, -78, 127, 114, 138, -153, 201, 62, 7, -23, -339, -10, -86, 22, -182, -32, -6, 183, -68, 67, -159, -17, 10, -123, -141, -139, -36, 149, 85, 43, 92, -228, 127, 20, -25, -261, 45, -2, -110, 294, 129, 185, -171, -96, -613, -280, -149, 304, 33, -240, 50, -49, 186, 241, -47, -175, 192, -8, -197, -107, 30, -40, -12, -482, 298, 234, -56, 89, 49, 99, -152, -355, -263, 266, 47, 138, -3, 16, 108, 75, -20, -43, 68, 276, -73, 165, -7, 91, 22, 44, -126, 170, -175, 71, 33, 85, -4, 136, 0, 34, -8, -184, -298, 22, -132, 143, -41, 60, 171, -48, 30, -210, -337, 210, -19, 15, 85, 32, 25, 120, -348, 100, -92, 59, -155, 4, -38, 0, -31, 151, 6, 121, -1, 106, -168, 43, 110, 3, -32, -91, -119, 275, 111, -41, -56, -71, -48, 39, -154, 145, 122, -211, -245, 149, 66, 99, 110, -46, 71, -112, -86, 51, -127, 31, 70, -15, 91, -5, -160, -43, -63, -119, -211, 22, 188, 19, -158, 113, -4, -106, -252, -176, -237, 0, -9, -12, -95, 113, -14, 59, -104, -126, -304, 325, 141, 11, -131, 139, -95, 72, -172, -190, 29, 84, -48, 73, -64, 162, 18, 73, 240, 87, 175, 102, -229, 262, 82, -143, -146, -253, 95, 137, -120, -14, 113, -351, 6, -165, 53, 182, -26, 41, -273, -69, 147, -96, 187, 16, 108, -235, -179, 87, 67, -236, -13, 151, -181, -26, 29, -303, -41, 0, -9, 176, 77, 65, -323, 82, 22, 4, -229, 108, -78, -78, 126, -155, -226, 55, 70, -200, 144, -189, 225, 57, -136, -23, -190, 174, 280, -180, 104, -263, 304, 23, -61, 91, -259, 303, 39, 118, 135, 16, 143, 57, -159, -69, 328, -203, -170, -49, -107, 137, 74, 101, 33, -280, 81, -216, 49, 203, 196, 101, -250, 107, 13, -209, 94, -186, 121, -344, 92, -145, 108, 103, -273, 29, 14, 127, 95, -8, -256, -45, 14, -175, 76, 37, 72, 14, -93, 100, -246, -9, 118, 186, -57, -42, -45, 22, 99, -90, 202, -46, 121, 130, 33, -34, 150, -14, 100, 57, 89, -8, -65, -185, 232, -28, 111, 57, -227, 67, 28, 166, 199, -112, -204, -94, -56, 192, 108, -85, -261, -38, 112, -336, 226, -30, 201, -164, -133, 142, 41, 69, -58, 98, 45, 66, 54, -65, 103, 73, -206, 123, -164, 237, -122, 54, -71, -1, 78, -44, 72, 161, 73, 145, -94, -120, 71, 21, -274, 98, -165, 21, 22, -17, -13, 58, 103, -89, -9, 306, 146, 122, -174, 163, -381, 187, 160, 116, 227, 127, 191, -138, 15, -135, 280, -32, -40, -356, 9, 28, 11, 153, 192, -38, -56, -254, 7, 176, 170, -235, -69, -77, 114, -52, 369, 224, -16, 194, -50, 238, -171, -33, -60, -51, -156, 279, -41, 41, 249, -59, -328, 276, -205, -34, 158, 4, 59, -17, -370, 111, -27, 182, 6, -158, 32, 146, -70, -128, -153, 196, -127, 36, 134, -50, 39, 115, -200, -181, -93, 205, 4, 1, -154, 48, -84, 29, -72, -21, -106, -4, 6, 14, -150, -44, 20, -121, -78, 288, 16, 50, -14, -4, -241, 90, 69, -42, 134, 174, -73, -39, -58, -88, 36, 45, 6, -206, 8, 108, -85, 131, 129, 17, -59, -85, 12, 216, -33, 58, -278, -122, -152, 207, -1, -17, -58, 111, 167, 54, -77, -68, 145, -96, 86, 23, -118, 233, -49, -139, -36, 124, -126, 124, -5, -52, -50, 163, -195, -48, 4, 85, -125, -10, -212, 31, 1, 70, -122, 21, -101, 91, -174, 130, -184, 59, -17, 200, -9, 278, 117, -9, 172, 320, -269, 5, -104, -2, 56, 319, -415, -323, 191, -99, 140, 170, 197, -437, 25, -111, 190, 9, 90, 21, -291, 12, -13, -20, 61, -106, -121, 169, -289, -59, 27, 111, 33, -18, 40, 70, 165, 34, -85, -64, 24, 181, 89, 1, 61, -103, -66, 169, 9, 120, -67, -19, -64, 176, -129, 146, -145, -143, -68, 161, 151, -35, -97, 174, 140, 68, -122, -22, 14, -37, 165, 70, -95, 318, -78, 139, -282, 104, 122, 243, -146, -106, 146, 31, 148, 109, -129, -155, -343, -43, 135, 185, 123, -78, -31, -176, 96, -46, 35, -198, 1, -121, -28, -116, -105, -77, 161, -135, -150, 65, 126, -18, -57, 43, 3, 29, -103, -96, -39, 170, -15, 64, 95, 134, 2, -47, -111, -22, -59, -42, 20, 82, 97, -1, -27, 67, -37, -89, -136, 79, 6, 244, 5, 8, 127, -144, 103, -163, 0, 152, 55, -316, 22, 46, -108, 111, -81, -50, -35, 123, 29, 127, 8, -42, 94, -156, 288, -229, -17, -38, 64, 73, 16, -15, 37, -12, -211, -46, -93, -202, 13, 99, 49, -88, 108, 66, 140, 77, 5, 32, -74, 106, 40, -124, 60, -38, 111, -323, 182, -4, 172, 97, -11, 111, -26, 122, -25, -233, -82, 8, -52, 90, -1, 113, -36, 136, 13, 32, 61, -35, 144, -89, -34, -68, 71, -282, -90, 58, -125, -244, 101, -308, 183, -131, -482, 255, 131, 114, -262, -177, 44, -60, -17, 166, 44, 83, 105, 39, 84, 156, -159, 91, -11, -234, 34, 136, -82, 286, -191, 282, -89, -46, -256, 152, 42, 115, -82, -46, 82, 107, -55, 16, -33, -37, -83, 160, 64, 141, 95, -141, 239, 115, -118, -124, 287, -229, 51, -46, 22, 249, 6, -94, -158, 27, -13, -91, -90, -102, 199, 81, -84, -146, -96, -45, -80, 100, -240, -184, -41, -157, 61, 111, 135, -33, -136, 20, -3, 99, -231, 39, -174, 43, -67, -93, 167, 22, 39, -30, -219, 13, -78, 158, 86, 43, -45, 29, 24, -72, 148, -5, -317, 134, -265, 77, 124, 57, -190, 193, -50, 16, 21, -57, 8, 27, -17, 189, 87, 4, -151, -108, -19, -161, 202, -256, -264, 88, 253, -87, 39, 173, -77, -44, -127, 32, -107, 144, -132, 175, -93, 101, 33, -21, 165, 42, -391, -63, -164, -102, -14, 55, 24, -49, 87, 83, -40, -55, 183, -594, 38, 31, -126, 280, 7, -409, 279, -340, 133, -104, -91, -82, 134, 84, 126, 6, -49, -145, 57, -502, 131, -381, -283, 107, -104, -423, 228, -80, 143, 21, 101, 76, 129, -174, 88, 31, -273, 45, -67, 239, -134, 173, -111, -278, 107, -21, -293, 16, -33, -52, -87, 21, 14, -42, 87, 129, -17, 129, -91, -45, 196, 215, 124, -27, 35, -3, -23, -43, -182, 158, -65, 91, -66, -111, -151, 42, -35, 8, 42, 136, -61, 96, 271, 39, 173, -335, 108, -149, 196, 0, 253, 188, 48, -176, 47, -61, -268, -101, -56, -335, -13, -255, 21, 38, 83, -119, 66, -23, 79, -39, -106, 185, 217, -130, 48, -213, -130, 201, 4, -200, -305, 235, 72, -323, 54, 239, -123, -44, -21, -76, -109, 143, -155, 63, 14, 63, -42, 166, 14, -26, 222, 62, 92, -77, -40, 61, 9, -96, -215, -360, 115, 61, 126, 290, -108, -256, 484, -69, 103, 84, -509, -277, 216, -97, 146, 4, 40, -44, 30, 112, 104, 84, -176, -17, -93, 48, 27, -91, -57, -119, 96, -170, 58, -51, 64, 54, 56, 206, 99, -171, -80, -121, -14, -39, -69, 50, -210, 121, -126, -77, -52, 344, 15, 96, -53, 48, -325, 7, 227, -145, 134, 122, -14, 31, -130, -42, -34, -4, 51, -201, 4, -141, 250, 146, 30, 90, -161, 78, 77, -353, 82, -33, -14, 142, -137, -319, 85, -98, 176, 115, -121, -228, 146, -143, 88, 50, 138, 29, -72, 0, 94, 104, -176, 59, -124, -48, 121, 84, -60], "dense_bias": [0.0, 0.0, 0.0, 0.0, 0.0, 0.0, 0.0, 0.0, 0.0, 0.0]}