{"in": [0, 0, 0, 0, 0, 0, 0, 0, 0, 0, 0, 0, 0, 0, 0, 0, 0, 0, 0, 0, 0, 0, 0, 0, 0, 0, 0, 0, 0, 0, 0, 0, 0, 0, 0, 0, 0, 0, 0, 0, 0, 0, 0, 0, 0, 0, 0, 0, 0, 0, 0, 0, 0, 0, 0, 0, 0, 0, 0, 0, 0, 0, 0, 0, 0, 0, 0, 0, 0, 0, 0, 0, 0, 0, 0, 0, 0, 0, 0, 0, 0, 0, 0, 0, 0, 0, 0, 0, 0, 0, 0, 0, 0, 0, 0, 0, 0, 0, 0, 0, 0, 0, 0, 0, 0, 0, 0, 0, 0, 0, 0, 0, 0, 0, 0, 0, 0, 0, 0, 0, 0, 0, 0, 0, 0, 0, 0, 0, 0, 0, 0, 0, 0, 0, 0, 0, 0, 0, 0, 0, 0, 0, 0, 0, 0, 0, 0, 0, 0, 0, 0, 0, 0, 0, 0, 0, 0, 0, 0, 0, 0, 0, 0, 0, 0, 0, 0, 0, 0, 0, 0, 0, 0, 0, 0, 0, 0, 0, 0, 0, 0, 0, 0, 0, 0, 0, 0, 0, 0, 0, 0, 0, 0, 0, 0, 0, 0, 0, 0, 0, 0, 0, 84, 185, 159, 151, 60, 36, 0, 0, 0, 0, 0, 0, 0, 0, 0, 0, 0, 0, 0, 0, 0, 0, 0, 0, 0, 0, 0, 0, 222, 254, 254, 254, 254, 241, 198, 198, 198, 198, 198, 198, 198, 198, 170, 52, 0, 0, 0, 0, 0, 0, 0, 0, 0, 0, 0, 0, 67, 114, 72, 114, 163, 227, 254, 225, 254, 254, 254, 250, 229, 254, 254, 140, 0, 0, 0, 0, 0, 0, 0, 0, 0, 0, 0, 0, 0, 0, 0, 0, 0, 17, 66, 14, 67, 67, 67, 59, 21, 236, 254, 106, 0, 0, 0, 0, 0, 0, 0, 0, 0, 0, 0, 0, 0, 0, 0, 0, 0, 0, 0, 0, 0, 0, 0, 0, 83, 253, 209, 18, 0, 0, 0, 0, 0, 0, 0, 0, 0, 0, 0, 0, 0, 0, 0, 0, 0, 0, 0, 0, 0, 0, 0, 22, 233, 255, 83, 0, 0, 0, 0, 0, 0, 0, 0, 0, 0, 0, 0, 0, 0, 0, 0, 0, 0, 0, 0, 0, 0, 0, 0, 129, 254, 238, 44, 0, 0, 0, 0, 0, 0, 0, 0, 0, 0, 0, 0, 0, 0, 0, 0, 0, 0, 0, 0, 0, 0, 0, 59, 249, 254, 62, 0, 0, 0, 0, 0, 0, 0, 0, 0, 0, 0, 0, 0, 0, 0, 0, 0, 0, 0, 0, 0, 0, 0, 0, 133, 254, 187, 5, 0, 0, 0, 0, 0, 0, 0, 0, 0, 0, 0, 0, 0, 0, 0, 0, 0, 0, 0, 0, 0, 0, 0, 9, 205, 248, 58, 0, 0, 0, 0, 0, 0, 0, 0, 0, 0, 0, 0, 0, 0, 0, 0, 0, 0, 0, 0, 0, 0, 0, 0, 126, 254, 182, 0, 0, 0, 0, 0, 0, 0, 0, 0, 0, 0, 0, 0, 0, 0, 0, 0, 0, 0, 0, 0, 0, 0, 0, 75, 251, 240, 57, 0, 0, 0, 0, 0, 0, 0, 0, 0, 0, 0, 0, 0, 0, 0, 0, 0, 0, 0, 0, 0, 0, 0, 19, 221, 254, 166, 0, 0, 0, 0, 0, 0, 0, 0, 0, 0, 0, 0, 0, 0, 0, 0, 0, 0, 0, 0, 0, 0, 0, 3, 203, 254, 219, 35, 0, 0, 0, 0, 0, 0, 0, 0, 0, 0, 0, 0, 0, 0, 0, 0, 0, 0, 0, 0, 0, 0, 0, 38, 254, 254, 77, 0, 0, 0, 0, 0, 0, 0, 0, 0, 0, 0, 0, 0, 0, 0, 0, 0, 0, 0, 0, 0, 0, 0, 31, 224, 254, 115, 1, 0, 0, 0, 0, 0, 0, 0, 0, 0, 0, 0, 0, 0, 0, 0, 0, 0, 0, 0, 0, 0, 0, 0, 133, 254, 254, 52, 0, 0, 0, 0, 0, 0, 0, 0, 0, 0, 0, 0, 0, 0, 0, 0, 0, 0, 0, 0, 0, 0, 0, 61, 242, 254, 254, 52, 0, 0, 0, 0, 0, 0, 0, 0, 0, 0, 0, 0, 0, 0, 0, 0, 0, 0, 0, 0, 0, 0, 0, 121, 254, 254, 219, 40, 0, 0, 0, 0, 0, 0, 0, 0, 0, 0, 0, 0, 0, 0, 0, 0, 0, 0, 0, 0, 0, 0, 0, 121, 254, 207, 18, 0, 0, 0, 0, 0, 0, 0, 0, 0, 0, 0, 0, 0, 0, 0, 0, 0, 0, 0, 0, 0, 0, 0, 0, 0, 0, 0, 0, 0, 0, 0, 0, 0, 0, 0, 0, 0, 0, 0, 0, 0, 0], "conv2d_weights": [-3189401, 13958921, -12029566, 12732859, 7279066, -968781, -15153006, 462513, 1142588], "conv2d_bias": [12680965], "dense_weights": [-209552661, 400334418, -197865307, -308531761, 130120099, 183293387, -14585414, 322698116, -269461513, 64879037, -78514211, 363099426, -116263233, -286044419, 151655719, 265216708, 13003227, 159472555, -320926785, 137955874, -216119245, 367327899, -128977090, -392756552, 266372204, 217867970, 85537180, 328534067, -400313914, 31217907, -135703042, 422482640, -82785234, -356116682, 166261584, 270520627, -95701791, 295119524, -363005280, 25281122, -84950268, 336872220, -283880562, -391848832, 187994033, 117934644, 102450766, 173261926, -340954095, 145352572, -197189569, 416594684, -54145243, -450501502, 129123107, 148307204, 69924325, 316122919, -303907722, 121236794, -231228426, 334177285, 68472922, -366554856, -118981428, 129666120, 107587673, 153586090, -403864771, -34916714, -96957467, 297520131, -85047640, -512947202, -93966745, 207642853, 133333474, 56586221, -113207810, -41936111, -119193211, 368911088, -86894296, -132653892, 14443048, -21255838, 114612862, 172288895, -203019425, -93719780, -117605865, 402534932, -174091727, -219670862, 44078197, -28945617, 44029661, 80415249, -147275120, 25912911, -162645057, 382979065, -12531603, -285764694, 101775192, 163912624, 74562602, 78374587, -250728667, -90050235, 127803877, 263976872, -164618909, -141806543, 41844577, 86054750, 120479546, 157879010, -314761221, -1510276, 98339215, 278903216, -206188276, -64608663, -28166838, 31141184, 83272330, 57161108, -80485567, -4529712, -104273796, 500251591, -62227454, -96582122, -155391157, 31603530, 111641213, 134840786, -219688296, -177104622, 89006491, 325582355, -6274964, -246915340, -130660743, 114108086, -136134043, 184397057, -169387266, -8144668, 239822030, 180748567, 162214488, -152237892, -256218016, 18704070, -76521419, 50719321, -179318249, -154508159, 124684833, 67524254, 57913911, -105868071, -224811196, -138972476, -56245964, -36908217, -108814560, -277476728, 187588885, 205049425, -162246197, -40849213, -105977640, -15044125, 194468811, 11106790, -266512215, -226674601, -297452629, 324631482, -72407879, -91236591, -62882766, -127434835, 133090153, 246698603, -172242224, 107151136, -198177904, 359993607, -100454427, -256614000, -50834507, -20275464, 200554296, 151780263, -265825301, -73274396, -221019924, 287396491, -123215318, -267716527, 69459625, 108138710, 112926528, 191543773, -161141366, -110196173, -222015351, 433069408, -169577688, -499399334, 18426063, 96355237, 192626983, 330650687, -246501833, 61197825, -283864468, 178292423, 12583860, -596799254, -27051575, -17644214, 65836929, 213487282, -535844088, -79436064, -333016753, 330616802, -204518259, -421775997, -4623538, 80660708, 18607922, 343149781, -184517801, -40710051, -217569798, 295382142, -102615654, -436264873, 174896389, 4205502, -31305552, 260243654, -290533543, 26879670, -267581940, 343829513, -132408008, -432955861, 289507508, 93752161, -24082866, 307070732, -323131382, 143639311, -141569421, 437529236, -94441019, -444871962, 232010812, 161666363, -74954338, 195823267, -251155883, 129554316, -169144899, 455071777, -151513726, -411361247, 225972414, 256487072, 53582657, 229169935, -354683042, -26275864, -281251907, 377669215, -256380737, -367289782, 197513565, 132225454, -131149754, 24631046, -288107425, -4726222, -6701933, 439613700, -140298963, -114486769, 193328977, 34064062, 8690980, 149781525, -298357785, 100904606, -44565450, 301371723, -224233642, -147161841, 16312135, 21938760, 174070567, 273265690, -306684852, 19181386, -171227410, 310935795, -22699583, -192245141, -17619982, 14631368, -43514576, 17936612, -316936523, 75144216, -152595788, 350473672, -123524129, -153481916, -273802131, 79990812, 253236651, 228454620, -230456069, 63686669, -135883793, 59294380, 4882083, -57492860, -334021658, 225788981, 155730978, -14425999, -69348611, -84059387, 24775963, -75205989, 159365430, -122579910, -142251328, -18944323, 129314825, -109386407, -159557998, 57124432, -82900383, -21083385, -2821899, 25969123, -321420252, -48634984, 99478036, 115105294, -84689349, 73007211, -89475930, 63336499, 78552753, -99404201, -344448328, -185280278, 254872859, 19956425, -133115187, -35530232, 211292565, 220287353, 84850319, 109594829, -373005480, -66781104, 1510048, -119214304, -244797170, -39017670, 114472181, 114971459, 11785109, -108286619, -328766912, -32159019, 63904829, 33804890, -227413580, -114409968, -592147, 207318872, -78352749, -55328827, 20877829, -91589928, 81488252, 11633615, -311487764, -173164502, -278840393, 10533406, 103222936, -166432172, -90349928, -188307986, 96486300, 99492975, -73862389, -131523862, 62067211, -92727952, 169865578, -148642957, -243228570, -91742255, 54974224, -76098777, -278066546, -90556830, -2562743, 72163224, 81471853, -102978796, -300936252, -148500741, 237996593, -62913157, -150891155, -174680173, -63650243, -43535963, 149173051, -243685097, -297991186, 12515724, 275278896, 102977693, -5084441, -144916102, -325286686, 65699272, -215166047, -165386677, -261976749, 47878876, 324800462, 48978534, -96194029, -151667610, -104987979, 162618071, -77508502, -186432391, -278815180, 40825274, 123587504, 61305232, -113449618, -86228646, -150943220, 244482040, -113996625, -223047331, -173689559, -10939200, 18647246, 142521456, -102045469, -86001687, -138270110, 158055097, -165670678, -178166956, -80688111, 123753980, 114358246, 81279740, -203504518, -275044680, -37843250, 101107873, -148219153, -194650933, -169827551, 114987656, 191120446, 204640046, -69808885, -144954145, -114638388, 315685719, -37511487, -201411620, -66029660, -62252019, -43454211, 203518122, -184794530, 11929234, -292499512, 323256314, 83107665, -176814556, 93330517, -61126590, 11287478, 303161174, -126997724, 91414340, -1587887, 292961329, -12119523, -394605219, 230716333, 88787287, -23767222, 310286283, -204791084, 59605718, -244494125, 388197660, -292166799, -333670437, 317493916, 65767869, -69878057, 221430823, -178897902, 51390283, -216337621, 333223224, -197029158, -212582201, 201413378, 214817569, -21347079, 240720212, -430522144, 15763452, 94064452, 414442748, -296871811, -176613241, -53077158, 14240629, -8288290, 194523275, -308022499, 22182787, 143043667, 322487295, -109862261, 14763149, -135792598, 144531965, 42040877, 170359269, -286616504, -61272446, 102715895, 382090122, -141630068, -23910630, 2389660, 256704777, -229630530, 72636589, -319273174, 64214580, 23826167, 337891757, -54955676, 67323066, 38875859, 15912075, 5098938, 127946690, -72461411, 34275807, 21083197, 267134488, -77145308, -94792806, -319597274, -35293397, 223876953, 1960961, -104326323, -60878128, 93941756, 2382738, 39808691, 67554161, -317335457, 97427487, 87344036, -34981698, -53137701, -100989811, 54367706, -155605897, 162297204, 84380172, -179920182, 46386540, 32769859, -152562469, -103348374, 16250186, -252888620, 5150015, 176022962, -70622236, -377453417, 70014916, 162460670, -140241534, -101695694, 7500785, -216604874, 59780829, 116248935, 209236860, -287637353, -54119650, 122455321, -218565419, -267307609, -92261374, -10725459, 27264614, 210902482, 180523902, -584487736, -211980850, 44668239, -271668404, -195050240, -175103918, 96555591, 147415385, 211826384, 175214007, -446018368, -143828213, 51693983, -253051400, -309003204, -329534203, -32315433, -69800891, 89403093, 170137495, -227686808, -116872460, 48246350, -215557456, -206913680, -379488140, -135486245, 25574021, 114934742, 34994733, -151510164, -81247188, 108182482, -90690225, -90102911, -244602159, -156826422, 55569775, 109679699, 73462710, -181948692, -47404606, -45820542, -174832523, -147919551, -288170010, -76933123, 110056244, -22921292, 97840324, -138684615, 103203617, 60223997, -137582555, -328326404, -244964331, -115775406, -39753012, -62968783, -25027473, -181299627, 127177313, -52271571, -40325839, 5447842, -70406623, -23223560, 44946093, -157799825, 24784485, -132659867, 79006948, 115841866, 17711444, 33383712, -10958785, -110396788, 37681572, -123421125, 156435296, -270331860, 36418639, 30433008, 88929921, -232061446, -129568383, 27573332, -110558599, 73979251, -36670383, -320651233, -62294, 247991711, -35070978, 5682807, 13503919, 26369151, -98077357, -59650879, -406538993, -250211358, 9679577, 244756609, 29350426, -131916597, -149251342, -150040954, -50393101, -221966431, -354794979, -139560342, 44280306, 253598124, 50672859, 36213428, -104968302, -11951188, -64552642, 98981686, -307076156, -181980565, 62874421, 163042739, 203527182, 66886030, -145576045, 91242813, 113207258, 141067222, -240858838, -65946557, 72586708, -122539848, 121637374, -40434804, -199865848, 72301157, 217631310, 107072756, -149708211, 143404290, 24884596, -103194557, 219696850, -130647793, 22197077, -107118569, 494458407, -235510111, -421930879, 182603940, 237070322, -32384809, 228207007, -345525116, 82398668, -88364311, 468266338, -246186987, -250012606, 67853741, 83732925, 9696731, 180887237, -299635112, 18979756, -82075976, 382541448, -216658533, -41522611, 45382835, -13070271, -79143390, 191471010, -373066097, -27092315, 86091414, 282996595, -279072881, -71441874, 2651056, 171529040, -36589146, 237991869, -214877352, -126893312, -26201719, 99151529, -117625952, 11703806, 16532103, -50582036, 135307416, 19376621, -320435286, -101886258, -225107983, -53463023, 37266396, 179228067, -158791050, -24602229, 117828988, -52389592, -272830367, 27823925, -202442512, 56482594, -2404462, 51907577, -157710180, -66143915, 51901232, -11431758, -126341432, 22849711, -72058350, 84652327, -58290586, 113414988, -205346629, -46288095, 39103258, -320736468, -124838792, 4503867, -53536180, 18416205, 113480218, 82762696, -290619493, -160164699, 32697320, -445992053, -34076300, -65098368, -104657158, 40792856, 71334556, 135824010, -242072642, -54991707, 35500303, -423257232, 11907163, 25856461, 40061973, -165972292, 146790028, 41958023, -184597448, 20558514, -34802940, -268325806, -48770614, -572434008, -17415870, -56020506, 127286047, 130919755, -189996988, -17775230, -7441752, -486629158, 14790614, -361599058, 12854405, 85018262, 93881696, 84117368, -239893258, 51010951, -30597206, -197270676, 74170887, -323941946, 89220725, -25895640, 135674268, 113274843, -231027305, 4121603, 11122309, -237884715, 38094267, -285014987, -25424557, -29892774, 94610773, 140091076, -183413282, 126361534, 8484368, -318318933, 46900228, -302328795, 3021965, -5141935, 49208116, 65413825, -278377205, 16969787, -36959250, -363391459, 42710617, -448244214, 43535125, 5981029, 51277015, 68452977, -126677722, -4824183, -60181320, -313129395, 41535664, -229069859, -51845908, -39395723, 1550713, 97280815, -136063993, 55506043, 8345335, -374124974, 4970822, -163211375, -22814665, -164186046, 24964735, -18477289, -70205420, 127925470, 32123253, -206335932, 26599906, -247846052, 32498863, -92132412, -32569889, 94380848, 17176989, 64479619, 6909511, -82938336, -66371515, -302522749, -110216036, -82160868, -43134671, 37887324, 52932829, 107459523, -22394346, 18097704, 61448842, -297050625, -247155994, -212682545, 30781286, -123902202, 62746421, 87134406, -31490181, -152221918, -460343, -291524291, -149816215, -69431186, -222962484, -182702646, 14778480, 53138755, 141980112, -106352955, 126429901, -194617614, 83018385, -138262630, -150461897, -332342535, -16425567, 93513101, 38486805, 51192179, 72569080, -70344806, -109530993, -299025118, 76082692, -223825455, 181198463, 43985777, -47035545, 99371813, -55538639, 9078892, 4190086, -292549640, 53411789, -228061378, 39246250, -1966506, -11932889, 181022897, -91356553, -59334569, -307282865, 383102030, -193479761, -317743421, 130599886, 81620462, -32551087, 284544170, -339031637, -39911773, -381268442, 415236056, -136747792, -150181592, 86008891, -69155492, 6086598, 142821044, -250597596, -30504238, -204994306, 384875923, -189267054, -22880064, 71879588, 122824870, -393227100, 59542954, -37930198, -182861492, -78175031, 144525051, -88436544, -24045672, 106393710, -28246034, -43268267, 119450226, -100997582, -104218893, -195663095, 93333833, -96681632, 170989215, 80031015, -297201663, 11734593, -27544603, -256044090, -76525286, -183086231, 73418885, 192400143, 39628416, -96718960, -126795694, 44368412, 57172600, -83676189, -121592492, -79063758, -36632583, 134304374, 54593220, -129369557, -72641142, -75420462, -161353618, -69368832, -144135937, -20016190, 5305651, 83884254, -8006634, 83572552, 2894492, -93438253, -60842671, -30165721, -93563080, 72247595, -118869863, 31619497, -11089384, -74702032, -91018610, 41087154, 181864679, 56769952, -196425900, 55575833, -10852177, 79921700, 53172566, -87584801, 9138118, 31647425, -68691403, -40442891, -280180454, 106482342, -44576447, 94760284, 43284677, -82381524, 75325757, -44755075, -165045321, 16594995, -106463142, -41636258, -145458952, 34961365, 51343951, 13398678, 46673596, -133790731, 7340670, 34329336, -46936993, 34535784, -55043243, 78821622, 55294715, -61119188, -44597831, -56360822, 23554187, -28448934, -46957448, -29352583, -36933366, 50278831, 28663563, 11839857, -38764417, -63854650, -150986254, 54128077, -48102267, 22992874, -44174407, 84701434, 23357349, -62869489, -5634664, -114197619, -107450508, 61487637, 12185641, -69458701, -64194806, 63039236, 114427872, -27764225, 48708670, -47602743, -67335337, 62415764, -86025335, 25131391, -8531083, 103254586, 46075575, 81370592, 42734947, 32026988, -129681781, 94035886, -22876954, 30049449, -182690442, 37582215, -39879479, -66591851, 102780037, -47992561, -18103229, 26576210, -79191223, -48288081, -47090989, -9959884, 95012188, 20648079, 37265353, 13990099, -209930614, 61337601, -60912840, 45364887, -17659958, 43180641, -30719373, 8663606, 11025616, 20869164, -244607747, -2160922, -143917397, -143489823, -22758951, -36313649, -23923581, 64636894, -12127700, 52800503, -117864124, 4235904, -188101649, -13716077, -4762032, -77592410, 9046269, 65950312, 100679196, 53112704, -226166844, -21591125, -384893507, -53412806, -31464551, 62531963, -43234896, 190083638, 61201334, 204830527, -142617613, 17273523, -380108923, -96232124, -60193881, -186420411, -387050480, 220016465, 135777757, 52968413, -159088477, -29322891, -128606409, -211240008, -305721968, -21913221, -247461632, 146534070, 150604263, -71401872, 67593910, 132132947, -153820291, -179672390, -481895059, 198378518, -97644813, -120754771, 86791642, -64181477, -58011889, 129280731, 30955948, -243341327, 358616471, -213983819, -362500966, 203269944, 114303775, -7348535, 217849150, -262136281, 74253052, -413650781, 367942691, -138360322, -212074071, 128177315, 123995401, -201706216, 58928125, -118887432, -134903386, -216225401, 125036404, -43221783, 152304977, -139155865, -84753282, -383100003, -19392479, -29667987, -196684793, -185838550, 242732987, 86748332, 56842908, 20522820, -233757764, -49822126, -33785019, -10338086, -232885823, -149315074, 235945895, 56751929, 2803405, 191709489, -79428576, -71967684, -81415460, -129839748, -71472622, -75430557, 201877132, -64336583, -9435159, -111879803, -57594366, -137925804, 183458194, -239329532, -110953771, -29295363, 78826547, -23985336, 85265987, -88507444, 5898335, -60947869, 185194701, 11145419, -482978344, -70953034, -111036949, 46790216, 65759704, -38844869, -28929213, -3277841, 255592287, -52595783, -166206554, -66033155, -246137485, -32355100, 39163575, 41888606, -68189405, -5762863, 124860525, 12927235, -167291120, -79515293, -69741875, -20514349, 51471788, -46372190, 40311560, -82434498, 108018219, -69463372, -39325356, 27016044, -168592647, 67442201, 44758454, -38123209, 4517496, -55220380, 96845232, -25800915, 5525321, -120167628, -157970861, 6759723, 25590243, -77660695, -22241820, -161309332, 38934030, 23369001, 71328528, -94659857, -105586082, 61793737, 54645985, -45987591, -6546045, -103200629, 148005053, 46524405, 112352766, 25470734, -85691229, 36577653, 101443842, -136022776, 12469671, -49372874, -49636211, 1519633, 49476989, -37871394, -105694205, 3806206, -30615464, -97476810, -37003957, -73215790, 44225916, 31198986, 78009695, 40938042, -66344768, 92107601, 101155572, -73701262, 50548129, -79337485, -27733076, -378821, 64716190, 29088983, -161178604, 79243891, 24248155, -131242812, 13310932, -25018279, -27623624, 104432195, 37739556, 2160723, -143294394, 48929863, 52814946, -36520388, 73378876, -41342329, 7596324, 7942082, 70279732, -38266696, -102069393, -33323232, -22459930, -44770680, -23402311, -2030570, -63641824, -16472599, -14333442, -44839330, -140149519, 49376070, 37856564, 9044219, 98483443, -10468162, -77992313, 35832033, 51596127, 11082649, -71852788, 38318697, -10571186, -78918837, 92488170, 89173548, -231917113, 59391282, 36633685, -22139335, -87191693, -23663238, -7987637, -133931443, 8386830, -102860689, -108216919, -39363600, -34478612, 31203194, 429423, -67669965, -35805002, 58536220, 58157519, 84377959, -55677388, -33439077, -398734838, -173402801, 13199583, -71628302, -87902211, 6460475, 94413564, 106639124, -284537941, -21310547, -266910791, -256806761, 3489283, -197308630, -162630513, -45219216, 187989652, -15334207, -32850608, 119403131, -70191525, -405588746, -460955590, -76776043, -138721615, -54467808, 197297469, 49908191, 11190563, 27319631, -68189703, -54777160, 240812823, -72489090, -54235436, 195635870, 35743915, 3355065, 57291638, -368672162, -243213311, -82770817, -40573824, -24372458, 18286221, 156874985, 21755705, -163312331, 106411353, -99746190, -64638570, -101834856, 45682400, 20263642, 5352526, -122806288, -153108209, -253159910, 249064624, -146299049, -42658351, -297497362, 222849324, 60406070, -9492300, -114725143, -156798542, -102549702, 104596496, -173746377, -112179264, -21695813, -143235117, 96051231, -10547982, 84311351, -83638981, -85042305, -70239298, -133540705, -371896237, -46488356, -122544609, 14948493, 138017088, -58640666, 57403035, -81871405, 126973599, -75267054, -480344206, 96813604, -78900926, 47858179, 2906575, -24920626, -6098789, -74006081, 61435930, -77380545, -59191275, -27071754, -204235062, 3667887, 375747, -54052278, 42086154, -23509854, 75205743, 18501986, -108526185, -150212392, -45772694, 22410624, 18250374, -45846187, 20724088, -152867213, 21453129, 911859, -77625856, -75527176, -42680990, 83610900, 65244973, -35397753, 28661277, -17560357, 40986929, -60954668, -7342428, 38551070, -78427888, 40565070, 58565516, -69854103, 30363308, -117773615, 132628828, -631769, 16876884, -46165872, 3714202, 33927117, 21922963, -68066381, 10272031, -4521440, 72177321, -3081545, 57952780, -20868635, -60873285, 59451483, 26756573, -113427252, 7542937, -151293069, 71065433, 6259984, 93868122, 130942732, -99678047, 55963177, 51039249, -119585209, 52305110, -88124849, 18843634, -14971999, 100582093, -17714603, -125045985, 42323895, 29389504, -124567516, 12450266, -22118736, -19286839, 26706126, 74349463, -12408663, -139477953, 30525483, 84596910, -142438591, -13501434, -95127590, -64498566, -7504918, 72789386, 2482547, -181218550, -1755893, -2860821, -83231345, 30779708, -57467986, 17294558, 16732851, 83806813, 51136859, -116666600, 864530, 52122165, -131363943, 43140296, -92559740, 50360769, -16313177, 110682033, 112481624, -149869621, -17275535, -16720062, -164260298, 28045943, -93391180, -58375966, -8500237, 19272944, 14156999, -60771987, -34967568, -43676205, -99781767, 51335692, -26380697, 17835209, -3690911, 40885955, -12958096, 49566135, -75307190, -23628550, -68517447, -34526162, -98290138, -15452697, -8082804, 2876402, 27695019, -59228130, 33404704, -71914591, -86626761, 62288281, -56853410, 64675994, 11209329, -37689049, -42380568, -101095073, -82973137, -93289271, 34944739, 20411167, 5083358, -147318766, 10331426, -137827650, -38166128, -72090723, -279549927, -2224110, 20310139, 142860100, 89253888, -122414574, 8807400, -177655548, -284300327, -254981726, -63111484, -46450712, -23939500, 220574394, 69423907, -55732984, 74851729, -72827689, -329906493, -426729560, 82558684, -166505828, 1468150, 169372484, -139449954, -69683805, 116340540, -86745411, 158462495, 152854443, -91806673, 82333907, -9796929, 11519885, -48081726, 176768690, -506410778, -313351721, -153692842, -96523948, 53288590, -45811675, -54874193, -11149494, -110528812, 137669906, -286068588, -10143112, -97942330, -117800161, 2200988, 108132608, -51728379, -202671915, -268736780, 222585961, -163088441, -112891085, -292327285, 102799632, 54178365, 16896049, 42316891, -229290232, -113114707, 167701885, 18625049, -255455464, -151547298, -104928300, 26129259, 80095463, 128419265, -126038447, -74459970, 69220655, -28447084, -234616086, 63789129, -84377691, 36507502, 8072322, 98517649, 10788807, -69328718, 63788526, -4967491, -84417939, 46433903, -54896686, 16122036, -8702456, 38224444, -58197152, -205348492, 162208810, -6883466, -140112117, -121262506, -155249760, 5329521, 26308728, 10123409, -28902713, 6576122, 109476797, 29592268, -55959638, -2679583, -207583860, 71006633, 22192528, -2487078, 23382990, -25127148, 102368779, 893731, 11721759, -53730488, -28639778, -28993441, -6241379, -21246683, 35140868, -74659646, 40255751, 16615082, -45639377, 7882426, -104820691, 40026512, 11979823, -75152919, 48222173, -36599018, 47820590, -14781076, -47901817, 18210810, -73849194, 50691064, 25071219, -57174366, 17016245, -26452255, 81914552, 18993182, -19229194, -18125946, -33992063, 9886811, 56381647, -90626054, -2852566, -653293, 50219834, 16187923, 81686161, 33445861, -9477837, 56432471, 48937522, -133475602, 40609688, -74532665, 48581310, 12143835, 92711188, -28022643, -57187628, 44846911, 58103632, -124797016, -4342685, -91507651, 3643915, 25022976, 78990750, 62714137, -171436444, -38817752, -7355119, -188857406, -20626014, -152287543, 64441919, 22847565, 46466619, 64469099, -117743723, -17970692, 20973690, -139356136, 64903557, -131469190, 24006292, -21923278, 29233279, 81349865, -73849596, -10073284, 26629427, -66370234, 23191035, -43810338, 67729473, 14205714, 33715833, 4805686, -20128876, -49804252, 6177831, -46468001, 7990614, -142340288, 54152649, 29034069, 4793232, 10139962, -55592950, 15222708, 56507844, -5646472, 35370205, -61194483, 60598325, 30618692, 30265013, 24852538, -51627737, -526054, -46609569, -59708025, 56921434, -42860243, 72848126, 5083355, 36216646, 43038417, -55219315, 4066517, -18452939, -37521277, 29846994, 11731984, -19299088, 11089669, 14798645, 29192466, -23013052, 22464113, -66122130, 5348969, 84461607, -185849205, 12963495, 92112161, -70808746, -21114349, -166216269, -189905882, -147517592, 554441, 78200929, -15472529, -16144712, 33803672, -50856568, -193116099, -488184065, -150719985, -120323524, -12398675, 243725359, -40555671, -212904379, 50532334, -145609915, -410609663, -329847157, -136475876, -331260830, 140758842, 125155568, 2944123, -186900914, -17151663, -220400110, -11574340, 61980747, 34882128, -52086059, 11553564, 107379593, -178225234, 358034968, -546063244, -185435176, -66247880, -89254819, 168625623, -32839928, 65900505, -104948334, -228296295, 378849328, -154072434, -226395279, 62115047, -51997781, 47757946, 107966952, 56712605, -296890974, -331529737, 140098140, 82158871, -346073359, 58647327, 93972676, 41747592, 71962953, -178934827, -267446756, 56109209, 34955848, 84560417, -211266771, -225503683, -132203981, 93922034, 96046828, 145561785, -275052369, 55170037, 61088666, -57541333, -127259672, -203335747, -191866204, 17789932, 33470728, -13844320, 985926, -88539928, -885422, -19869693, 49738336, -5287157, -50959218, -101170793, 6484250, -32319557, -86643390, -124620415, 135418355, 60940120, -125437170, -94361797, -22569606, -45298297, -7974315, -58929469, -18979289, -131189808, 23429116, -23288282, -62897317, 42002965, -77633791, 25047345, 13691625, -15607412, 41217625, -41521691, 123276338, 69613300, 72328620, 79685986, -108270019, 40194426, 38920511, -62025100, 344647, -60699057, 66341512, 2273850, -12332342, -89331701, -77640183, 72478525, -27941905, -28163293, 66909626, -115195759, 38231291, 7635897, 65093279, -12381020, -72698042, -17641446, -30488698, -99733599, 26146173, -110260822, 94847962, -7627218, -32263096, 104365431, -74397422, 48139628, 27355703, -125201270, 7677801, -102631874, 101575829, 95612116, 46432722, -5199030, -46110738, 12180530, -42760666, -118532658, -61342530, -122689530, 14083558, -38736075, 70983052, -31414662, 11798531, -24878923, 92108376, -116575941, -71019053, -104036614, 105560839, -100916512, 51075704, 39524589, -53495318, 42394124, 52410394, -127869159, -67677177, -183196127, 89511998, 22322500, 53554572, 51212471, -10888419, 24537349, 17861621, -84228329, -51976353, -108356789, 57831813, -46634737, 43404538, 84939368, -23253344, 6631351, 55008143, -60516406, -12811387, -141902626, 135448650, 36329400, 46763267, 25720898, -131477743, 31552158, 38408462, -115660742, -20913886, -205527827, 42263214, -18218802, -25405400, 86737864, -18257327, 41671485, 50580688, -87508447, 5309620, -156801939, 26913462, 28609624, -19713860, 36232278, -113977246, -34532681, -29247288, -21044748, 16968280, -128661081, 15146361, -13687138, -18741727, -72674327, -103363827, 16367262, 85809804, -72036065, 7440097, 5511891, 21347893, 51362101, -5251816, 13419596, -112033367, 30619465, -86224094, -64022012, 47585133, -203645185, 11797750, -27804395, -124456815, 81393696, -208994150, -78930601, -265187114, -79009123, 212899178, -244915813, -7021853, 57436179, -153236687, -113986611, -316016525, -469630331, -478704184, -35977907, 228563771, -215728164, -122144036, 114245981, -109395735, -698266327, -439808488, -187616423, -235710010, 22825284, 153531402, -159603655, -145552069, 148943827, -353305280, -158602193, 206033990, -153833598, -111275017, 209770188, 72189577, -66844970, 338480264, -537218273, -51313434, 167818353, -79542659, -217457101, -70728533, -160100549, -83445735, -297006339, 403196543, -143834531, -146164298, 121812686, -68381064, 36992665, 127510950, -305881560, -485966563, -348114610, 58759719, -43253858, -128943339, 44877417, -118293591, -43856677, 41053310, -231591538, -62026437, -119912118, 72544888, -56183074, -50093763, 147505313, -123897888, 95706895, 100073278, -136859506, -30284369, -143595725, 98534606, 37738018, -107783288, 140125886, -243305892, 71892671, -41583505, -96460178, -6659238, -121532895, 29048115, -4480909, 14772240, -28697694, -10938987, -23869433, -8999021, -45018259, -21552663, -75472988, 95524713, 3514496, 63289709, -109077051, 41500960, -63673399, 13647394, -36449868, 66519924, -53087857, 26719056, 33076048, 30117223, -63078180, 13621809, -9861197, 12422054, -62476639, 86264119, -38589619, 42186495, 47418956, -33903643, 24283499, -97267821, -7216322, -19487249, -51446177, 73144726, -119577460, 10606359, 17033815, 167532, -24928225, -3217974, -32529518, -77477768, -60608014, 88050909, -98659091, 9222336, 7809804, 26756408, -27753320, -35965968, -11384652, -58947694, -26775312, 98638192, -5412358, 78309730, 31073628, 29007450, 26384540, 50045777, -21054851, -70652634, -7824219, 101856828, -138300911, 43054022, -17007796, 55725075, 53830389, 67706868, 88665582, 47892071, -112181552, 5015993, -75105496, 66477329, 24530105, -54324057, 13088034, 11021700, 76138318, 3277212, -173152745, -48320279, -151739702, 155950248, -91914475, 72041281, -29833004, 74673861, 34476638, 66617377, -111732148, -102653399, -109922677, 104698844, -56034785, 22821130, 71117982, -67312084, 28377982, 75063042, -89630343, -74477345, -218134165, 182751402, -29558554, -6892312, 111275665, 28744619, 35316452, 4620066, -39783552, -61093591, -189403653, 132568195, -18992059, -13962194, 86613677, -77208482, 43019548, 25462773, -4753062, -52296460, -143175259, 101909205, 45540895, 10069232, 21827361, -133374378, -49911108, 42581078, -55711873, -94550744, -121490665, 90086326, -37488010, 3540826, 10985776, -36925301, 8729634, 70633009, -26986396, 45403130, -56935009, 31830709, 81503332, -61547477, 12645861, 35850152, -25792388, 50103448, 25360914, 92623115, -192011997, 59782952, 68003044, -82510874, -20552978, -168409228, -63803799, 17453000, -59967835, 1779668, -86646371, -66019729, 83928764, -62545434, 123063825, -122306108, -128834262, -104540281, -59995286, 203547135, -98123997, -44013202, 10670653, -121375524, -128105998, -314826012, -245705441, -544676065, -70549905, 264682621, -216018796, 36734115, 86610787, -105849154, -516585946, -252332300, 30930329, -182527438, -223718926, 197649360, -253273100, -46322230, 115529172, -120268859, 78493372, 376199126, -217459664, -162351161, 14344221, 30257601, -87795652, 137502924, -342594296, -56357760, 307849675, 180588618, 267289, -25045214, -300347209, -77311516, -159074605, 239917025, -43216102, -162130386, 13399897, -54178011, 115745708, 153691560, -155058533, -242599502, -281995058, 151665881, -298720986, -277728260, 65759070, -88908680, -13968020, 190254554, -138647452, -80416486, -15492502, 117024712, -54407030, 9165114, 67178920, -134954691, -61937816, 14901075, -34137968, 38600780, -74650750, 41947704, 118055142, -53484984, -30502563, -248196259, 77166148, -52637085, -19418741, -71098730, -35657097, 65956250, 19065052, 28730145, -124587782, -276744097, -13463674, 43910980, -42231563, 5372983, -3678726, 23132166, 79135008, -21064905, -30273147, -91962367, -23955522, -60627669, 27127666, 42658124, 1647094, -46620540, 58983576, 21380179, -29528059, -144269541, -74389182, -127529681, -8737562, 36345094, -128374815, -24919292, 81999302, 18091394, -18990807, -90304695, -74083745, -159348503, 39958015, 84841676, -22665916, 81047580, 54071624, 77905439, -16608676, -10889778, -63185833, -160175309, -9672790, 70155457, -132014081, -13225815, 51524501, 23049293, -39417036, -81706777, -7305389, -173154488, -29326273, 68857618, -77612624, -11735163, 119236633, 26710281, -44955328, -47708258, -84117621, -49916420, -64141296, 91797069, -97591624, 33279605, 81621662, 61380625, -17868321, 69577910, -131797582, 42024057, -216561675, 80726311, -33931881, 86947829, 38544301, 53439196, -146998435, 177112818, -77582851, 90012684, -139568642, 21696683, -160170838, 132535443, -14785111, -16476370, -44413652, 117494047, -91102511, -977606, -24382208, -54290503, -102844603, 157666057, -89660749, -18532805, -5345655, 115412869, 11355976, 35547990, 9191997, -74722312, -137317285, 126320168, -36155686, 38596671, 63248329, -30018827, 8957413, 120807961, 14092016, -69557495, -138364434, 96498884, -20059304, 53171668, -14363377, -40990889, 10758422, 48001271, 34044042, -125131428, -95112197, 92821747, 62603511, 29249836, 60352735, -130579427, 49104944, 77479474, -10874061, -129348084, -56676399, 79806000, 37743978, 11385144, 76290525, -26461279, -5348018, 33108924, -62386367, -97090371, 30961849, 116372228, 751404, 72805591, 61745178, -18956829, -20588765, 53645857, -15088884, -59983104, -86481787, 72400980, -8529978, 14306990, 46866007, -102343835, -23619406, 40934753, -193425283, -68819016, -108980030, -28829865, -6521294, -63852780, 143103272, -359528810, -178549051, -101048164, -151199162, 342210740, 3321912, -117315277, -12730164, -145862162, -142279401, -247216761, -183203548, -461384684, -204069927, 431411058, 5495160, -164073035, -78615174, -69417715, -365006059, 121711098, -11555581, 49545564, -279167116, 381031007, -354887277, -43447480, 45078564, 3133367, -6654653, 505243480, -134069279, -110291965, -209318370, 15884647, -20896766, 270504892, -97938433, -114865519, 72377704, 79702750, -182881027, -45930885, -164910629, -88251092, -67620084, 329109848, -99964350, -193957686, -102822334, 25658045, -191259116, 41549500, 2543542, -218884245, -176826999, 133943126, -80816798, -71088128, -24397912, 12902725, 4926074, 169761822, 39902706, -159439340, 17505649, 27620642, 23818491, 46508197, -205729589, -140147224, 86282104, -39288994, -102138653, 58846127, -38800508, 134324417, 66895440, 36330517, 91175184, -227324709, 8671724, -67150049, -16606964, -41545175, -126298115, -31869382, -1965551, 93559168, -5178769, -333381295, -56040112, -105131485, 2419989, 50560009, -45031197, -25903760, 3014391, 93209751, -10260495, -113887042, -96708432, -191192433, -4296960, 103605419, 4762883, 34895882, -5152489, 60051050, -35000093, -106139161, -93188390, -150222793, 62557079, 55401511, 20140102, 28966567, 66350706, 62870048, -83118185, -94860010, -136956945, -161082655, 62232878, 13450867, -5459853, 990398, 20257117, 59345201, -33156261, -75250521, -192373142, -82290880, 96295007, 67370921, -30723361, 45398574, 26659824, 100693129, -18288739, -57991609, -221942827, -23214819, 181526497, 70538074, 8471135, -26297254, -18405432, 38013410, -812621, 180850, -240277648, -19369384, 73358588, 69724657, -24583189, -108182959, 4177280, -37511192, 4875771, 153201476, -188240424, 66501871, -190460891, 84303267, 13709214, 5392147, 66153549, 66182949, -195270479, 220910892, -212850153, 47574479, -125720993, -7160939, -156049550, 62649451, 40047452, 24090497, -160205394, 92648283, -120546564, 75571723, 92830844, -10430366, -109190196, 140507281, -48158374, 111649871, -61422199, 15531915, -114901513, 62211312, 105105154, -33430889, -44573404, 143898070, 6502700, 80011748, -100616440, -53177375, -119690828, 3340343, 9353095, -113264523, -166104436, 114829950, -72621003, 52962903, -109985143, 34889415, -19487659, 3465127, -21356463, -72281197, -111076564, 112651952, -22890266, 46229560, 17489802, -96603997, -18872332, 68453111, -44178039, -196841687, -67833461, 92121817, 8430198, 74913673, 37260171, -60792085, 17109768, -10305284, -16501756, -203496397, -52682757, -301913, 80545828, 56062780, 129381329, -96526049, 40794477, 21186514, -15379860, -353027403, 4669913, 112828754, 151083454, 87898746, 69851704, 64003944, 43249834, 24584930, -102302186, -194705114, 94516270, 88399746, 34531590, 77444367, 46686649, -72280191, -88571817, -168422654, -210985646, -33160999, 141878247, -45981124, 188049048, -110528000, 59748869, -163292184, 11849903, -159371123, -159594119, 198704258, -135259196, -244636968, -18241543, -110478364, -383900613, 49472008, 122722790, 46804320, -254149139, 432484150, -251261115, -93213104, 33939306, -126428738, -177006677, 319533408, -244615585, -376606882, 37464019, 11744971, -132023081, 201496705, -103841089, -152924374, -42451572, 80985948, -123686559, -215368137, -146745279, -1706257, -124615163, 315632403, -166596860, -191836521, 38245998, -53200550, 46693407, -102716379, -69150619, -183319718, -290740281, 193783283, 31778228, -43748770, 51794473, 103840262, -52495595, 28653203, -152551636, -47439430, 18702924, 73226877, 50771207, -24888793, 11288168, -103656299, -95018499, -71362011, -75556755, 17546467, 61837826, 74624926, 74294880, 181677461, 9546917, -45204900, -86517438, 5492220, 17286111, 80582581, 25242608, -12128570, 21737624, 43783605, 96460380, 73143974, -280409873, -115872800, 95371351, 36898609, 11570287, 46788849, 73590204, 92927337, 7553360, 49198836, -296603739, -82308628, 77174045, 19500419, 12988321, 41186638, 48495930, 58894224, -66857286, -25987202, -163055465, -119813234, 37470084, -58355082, 17405318, 18440213, -15637821, 72853662, -12212606, -103249885, -169187903, -15224387, 117332585, 45447323, -62862098, 26986336, 11138380, 30820044, 7846881, -167377427, -182075128, -122068249, 83035149, -2375984, -51378068, -62613487, -79462282, -16242471, -59432611, -113239557, -133605748, -20284452, 150660932, 113674060, -45060057, -33074003, 39425097, -10432906, -67291804, 53057268, -129262254, -11634496, 171220347, 130421042, 63637726, -266606569, 61174162, -68843804, -152190000, 144599006, -116208896, 136120215, -196181476, 35527091, -48714194, -169027239, 24687909, 66587403, -147375211, 165060714, -94635688, 28283490, 11836579, -13271195, -120141253, 38242873, 30017709, 47362830, -322045386, 129700467, -115654334, 31476114, 101706430, -129907712, -71979247, 119006902, 12381542, 68120643, -2544652, 84877320, -14279483, 14305141, 11978869, -92080727, -33721037, 69183528, 10669987, 83204560, -110054284, 78729294, -48562601, 41125502, 7768352, -51480364, 8639986, 70217721, 25398610, 95607422, 48367720, -152106047, 28818239, 66676132, 93148895, -52067626, -56014318, 35387971, 73483974, 125113100, -21145353, -138825715, -3805610, 1257346, 62510341, -9606433, -4020271, -27931280, 49861129, 117811956, -22151805, 31426918, -2273745, -101926580, 21141721, -81857435, -889152, -8086018, 52533403, 69201827, 24420226, 1448936, -29706972, -187102899, 68987451, -263387680, 77206127, 39688878, 45079440, 82852535, 70960566, 119348772, -119509012, -210472330, 39768979, -326487124, 163566366, -33063, 139918372, 150732145, 181717113, -166848719, -85896820, -203047767, 16131695, -527709126, 294501454, -263862342, 238713965, -38498834, 6983798, -197722554, 229845554, -60130388, -96639745, -347182125, 20081030, 16243339, 60351964, -336125851, -167541414, -128926575, 246582732, -21229433, -188595429, 199476972, -325885832, 213880152, 1080528, -406369925, -187478751, 273525119, -153439850, -153747931, 92169024, 122564740, -178810745, 216839522, -287525296, -108521692, -107649863, 122543581, -16359985, -209051877, -85494824, -10059695, -18410843, 265134037, -122223862, -275736302, -71678519, 37360515, -34955733, 43242089, -188539729, -134440258, -175877064, 165328860, -60898513, -28447105, -87033257, 191052660, -210731685, -35412621, -66458665, 225392535, -119056866, 175007328, -63772827, 120499760, -3496349, 170508549, -402322888, -53965155, 18435515, 36012415, 76107509, 111810274, -49549498, 108551517, 118095458, 27155846, -353291363, -161276981, 65764628, 21508014, 125264391, 76673172, 5315190, 72388604, 37160344, -9864216, -230272129, -131334275, 155928940, 22164304, 54325238, 70490763, -10820580, 99134661, -326338, -67738883, -166884989, -142743647, 77270843, -10110268, -26158577, 38040835, -90328902, 65118745, 39628845, -36718354, -134136841, -45679279, 101990297, 23295872, -46111185, -27621482, 6818980, 18300587, 53603172, -74889131, -57841517, -34990083, 94709493, 66980816, 50072107, 10758637, -68337590, 23833033, 16279878, -159997880, 39235, -30599317, 155516371, 94159499, 57400711, 1305103, 44537529, 33992428, 125022367, -166312113, -84772825, -55348743, 117690101, 83428167, -36023084, -200363308, 22325672, -119855002, -20812109, -29189875, 24981773, -19328658, 64841717, 54751053, -658243, -416776925, 32805253, -11288163, -90476334, 229935706, 71304351, 106784500, -80238663, 62215410, -65850526, -144472823, 106469557, 63396223, -252461642, 130995542, -22029186, 30280245, 50732274, -43287158, -44999201, 97880639, 21388015, 24990333, -249417096, 92396691, -89736894, 7510147, 83151802, -72754890, -6657221, -27144320, 59825283, 51959403, -69179296, 28460551, -108595215, -16344216, 38953122, -120816305, -73719710, 68659216, -15460764, 46453886, -42318974, 35638154, 31100698, 67042850, 176691189, -51882118, -101994902, 45613743, 21841943, 107480012, -13559063, -97222038, -33509079, 41675620, 50974451, -53244099, -5294027, 41018974, -21769103, 63188501, -29111331, -162389979, -66634409, -56192234, 103796557, -47478121, -86550124, 11456996, -42923808, 58250070, -89821063, -18603520, -29647220, -43930858, 135813996, -82917951, 7259341, 105313033, -52665785, 98229334, 25404848, -65173335, -64728215, -97465388, 171928316, -14129151, 87967269, 36803745, -25343675, 126488268, 100598201, -147594199, -52077122, -172521919, -13707789, 3530667, 127254665, -54130990, -33047024, 2703577, 84115617, -79114161, 148033276, -171607137, -119766623, -253906935, 148573235, -101965718, 19797986, -192702845, 39702434, 6351870, 199006617, -67222074, 16472783, -448987603, 83464317, 118949994, 60501594, -346694171, -102198072, -7731051, 488564879, -57935305, -63339390, -272083610, -301191151, -77135995, -61604559, -188983932, -310589761, 304505974, -96513331, -155745506, 154156864, 113776922, -45900166, 133337811, -412593305, -78566641, -40809385, 155780911, -195629671, 84855698, 125525728, 30143008, -39675705, 196175054, -137079492, -206598327, -148166150, 219534874, -287141204, 128573954, -187040225, 11002964, -186949432, 98196685, -289662838, -29179657, -159366861, 319710821, -311088443, -59393197, 145665318, 14489041, -344201803, 149603158, -141310498, 129490420, 17374905, 115773506, -320150286, -98264694, 188366517, 140986636, -142354712, 92665061, -125798047, 62045839, -30626839, -145411283, -144093052, -54952551, 103111312, -15495995, -28949583, -25458183, 70827447, 84642373, 81047624, -201689452, -163601547, -56443639, 75613402, 52191064, -11007974, -16269734, -48032302, 59232041, 122710422, -3961842, 65375, -65621562, 69660075, 944256, 31559553, -35720266, -97788945, 50039615, 31848516, -68721153, -33937581, -57760116, 84754594, 27258132, 28977780, -46002772, -117929831, -13527719, 41033886, -96222386, -104933076, -61884660, 70015855, 67035191, 62899098, -76321386, -75755470, -14774660, 9948337, -235279053, 23670977, -66877365, 154261962, 55602219, 147968486, 8575534, -4406388, 22890909, -14358033, -8073407, -72563179, -42849377, 157760292, 51510964, 8936788, -201517373, 44979818, -33317521, 61433204, 154357687, -35243209, 84556460, -19169381, 53774003, 71994193, -304042399, 73304601, 46346899, -222283229, 145396262, -31033531, -9211402, -66625282, -57290640, -11855861, -94683148, 15105066, -24791203, -188013151, 175119862, -56411155, 37426535, 52286301, -58229070, -11723652, -18314598, 66904269, 12304561, -200702041, 148375228, 26752658, 30800784, 77773124, -86702108, 45371182, -15881404, 17455650, 68911985, -240262255, 63093737, -62631965, 12735596, 165788069, -66289708, -45868255, 24021715, -2571208, 71233951, -42890273, -120776564, -91855519, -19417537, 38615827, -84718756, -59120525, 124629691, -73350333, 37824634, -49955953, -266314089, -3783917, 10826778, 125700980, -34240913, 12971607, 138463110, 40944956, 45892064, -15417956, -121175885, -26912, -54511465, 67085050, -42893790, 8901991, 118012041, -46606120, 91499537, 93852401, 5962278, -57170104, 41878782, -21555312, -44898380, 98455176, 36629029, 25602564, 26061881, 20699916, -76177776, -26677180, -32912828, -12652311, -102622651, 45714077, -2183766, -82658269, -26909774, 36394741, -71392141, -52940819, -10008164, -12883592, -82894087, 50247900, 108308949, -79337485, -46967175, 142962202, 10673576, -14521377, -45593757, -104442663, 93404323, 78509651, -24216134, -134165287, -284756422, 133724242, 81972450, 95798865, -237320065, -182889432, 15839076, 169643551, -149000898, 33718497, -410176814, 56425437, 261377275, 465022653, -296817422, -149843559, -344449610, -87651081, -242826149, -10864720, 7149923, -206311911, 418759882, -64545311, -146079466, 207260087, 176323056, 21562384, 156056985, -341274083, -136711001, -204453200, 308236837, -291582108, 147266641, 85790314, -200958833, -106444843, 77459365, -296597004, -100904763, -284987509, 295710504, -17442865, -46672590, 29049110, 38385440, -232429788, 35851743, 14785267, 70330381, -48905045, 240134746, 40981960, 79846784, 57350155, -71023904, -317746103, 13261883, -54013453, 36938965, 169151351, -120912164, -14617917, 14683891, 39532937, -100300260, 32214325, -3039547, -148497373, 29548064, 33396363, -349563777, 93080081, -92281505, 15643142, 25943346, 17691508, -55039711, -109393373, -3090109, 36942393, -61663449, 53169820, -31930227, 54821949, -87654494, 122509740, 19784056, -121143058, 3186491, 100698933, 1019456, -125680819, -126418680, 168380991, -83897904, 84514916, 5914820, -82611777, 70605494, 93098402, 48897248, -6259864, -100860111, 74480318, 28415045, 69637246, -76869875, -69973886, 15110175, 97246803, -112283505, 14004495, -7250564, 91522679, 2448927, 30988568, -17072801, -1063813, -1514910, 25324918, -110162392, -43662097, -18412488, 71507648, 36982577, 33317048, -88156164, 42391382, 46338540, 60775738, 28993402, 4281987, 297447, 132756352, 73872179, 105584271, -212157711, 50937209, -20090226, -45093156, 109761842, 55645999, 36475979, 501280, 39512187, -26083013, -195357189, 80523849, 25715049, -343838662, 227723628, 71269363, 43633208, -12869360, 5966520, 10267506, -91209508, 54515906, -92233576, -239494234, 64158052, 42596292, 25535366, 82049221, -105553664, -13286043, -28566059, 52216828, 862858, -172030717, 109487377, -29927261, 7841003, 155715764, -63467979, 38512062, -25198473, 49653601, 43742608, -102734976, 9193173, 3034834, 7206489, 124585576, -97709566, -53365719, 63049383, -25727494, 59224576, -52822988, -119928032, 37467536, 30471014, 66163123, -21370502, -431705, 97307749, 9058590, 47344051, -10151661, -199943051, 24370724, -6491447, 107375741, -17161546, -5345457, 41933414, -7623569, 21568466, 11166384, -344941497, 1631099, 46190675, 22606369, 3553493, -5410981, 132183924, -96534200, 266471, 7842687, -158304825, -75276300, 20425698, -18029829, -13655728, 22747980, 78490138, -107035398, -26177831, 31802755, -109626181, -21551160, 55896744, 88403352, -15231110, 8099458, 41249730, -75189956, -1984553, 35451300, -235666946, -68702668, 47497004, 32633878, -39272591, 51082887, 104595274, 83760314, 93963459, 14971339, -112525716, 211035356, 162873313, -135985360, 49375221, -3927048, -15802484, -168998316, -233167619, 44468813, -52701745, 216932714, 146253347, -195219219, 290845, 90639189, -212838441, -23061154, -391329348, -189539135, 5684050, 291440457, -327581763, -54296166, -156855658, -98681666, -383721650, -16432127, -143468678, -224361777, 455295801, -203756139, -118667170, 67687362, 49877327, -174263075, 132858381, -422120154, -35771087, -192887530, 423872054, -44151329, 262908846, 55220079, -160437524, -5763030, -36720850, -199095592, -124806687, -76172926, 306678295, 148398370, -38403459, -184432521, 41853622, -85510671, -34407560, -36121931, -36633428, 71717367, 153300539, 140397400, 160856262, -103430070, -21903614, -317941517, -107249908, -55742905, -69490805, 160625473, -7553248, 48006672, 51914930, -138971090, 33151694, -83811700, 16318984, -206210956, -9174905, 60726590, -30121813, 24092350, 11662977, -75691290, 25666617, 37791729, -72401993, -146092981, 4840327, 101555973, -83922856, -18863620, -80498271, 59137546, -81201933, 14898010, 61637398, -35971139, -33859614, 62097039, 5961319, -29824456, -100312956, 90027481, -119676962, 55555712, -23945890, -66937439, 72068036, 47447480, -33946466, -21641508, -133404523, 49693201, -135944560, 84484905, -19971646, -36605302, -11181432, 78019731, -45519289, 29958274, -143445626, 50915010, 16167814, 122498281, -92140220, 36210049, -37597064, 28469933, -47890242, 36589127, -87265640, 54658011, -9496905, 203792483, -215022534, -4023393, 26435655, 74399404, -59066303, -14302648, -39472204, -35037052, -65584362, 126087844, -256527334, 59426270, -52945003, -231595531, 128522113, 138473019, 27912321, -16887207, -2347586, 18406529, 37990931, 88584423, 70403427, -177015558, 155528650, 43254271, 48811365, 24776695, -180402279, 56709282, -6244245, 29674482, -24614876, -174091578, 66030331, -2251296, -67681849, 86604759, -67299284, 10602848, -46639856, -16738245, -28554356, -101564698, 140846580, 34284320, -64103551, 175763354, -77483997, 11308698, 38720861, 20945456, 55614237, -22659624, -120731793, 48140969, -36934108, 114092894, -34423824, -86031154, 29949253, 33798441, 71310416, 31665765, -269361109, 3101625, 9198399, 137509421, 19169239, 47617584, 80070272, 13898261, 47055077, 26094520, -224594906, 40157653, 49665146, 64030811, 14133869, 98380558, 88174753, -59744220, 15002158, 302696, -127696380, -64109050, 48386510, 49100902, -28834626, 22686709, 27308114, -20137521, 18746659, 60626421, -40602732, 50361209, -24023281, -1975774, -34217000, 14867250, 85251465, -92426397, -67585491, -2503526, 50385032, 65232366, -21434715, 78777015, 32576870, 125558749, 15500404, -118557595, -81480086, -11083039, -68970583, 111294247, 7665659, 29997325, -62967494, 47456451, -28953493, -42735443, -38967058, 7970485, -129409909, -54551776, 120673008, -132188931, 22753550, -75359464, -7426278, -28734982, -221354708, -45895413, -43516204, 190869197, 46955690, -210131884, 22711612, 157689467, -78224577, -93942650, -321378052, -125772208, -190310478, 408391654, -533520460, -236299962, -426743597, -89768067, -166966632, -331714541, -158268198, -232585073, 309217930, -29218093, -75723663, -38690280, 77368230, -104893468, 220871672, -394112378, 33064343, -167594194, 372770458, 39631937, 92663229, 19065695, -74697502, -131602660, 51584516, -64714544, -186451197, -108093083, 179640830, 275881290, 206831783, -269481361, -99584438, -185908750, -41160110, -9364993, -139147148, -6009552, 68136483, 136271298, 144785628, -187240019, 135875538, -121583357, 35611089, -174028113, -71418032, 8937638, -252193153, 116966806, 72285794, -51548310, -1096523, -114067927, 94255768, -69554240, -76154806, 82616121, -314063728, 160166860, 27805414, -72980724, 184432760, -33086587, -63290007, -70294529, -123274222, 16008250, -151354462, 51068611, -5872064, -7720551, -5029281, -29116824, -157627180, -39877955, 7895754, 32784130, -126078010, -30981218, -35523269, 95646255, 9400494, 43448053, -37734032, -9438735, -24659002, 26809804, -19336397, 31472035, -64829335, 82696669, -110578455, 90086445, -72000846, 41653849, 33953838, 113323249, -119225226, 33075120, -102694228, 55707190, -92483111, 102780491, -130651534, 62691532, 30045822, 130450189, -126621142, 52299500, -160902485, -34975626, -67177117, 103620812, -155260965, 51913403, 42166930, -46231784, -30205632, 26440516, -104480915, 58362380, -61986718, 78973405, -77637479, 114895135, -6448114, -114322133, 155880630, 110238411, -65674067, 13086232, -112512529, 19811608, -40331163, 36586657, -59509363, -254091233, 112434909, 30982031, -114507541, 108451530, -116315946, 34277264, -17552784, 14161273, -82280502, -170005575, 142469883, 32862369, -122372210, 89443751, -75755507, 4345166, -9809858, -33036340, 41751459, -64859554, -69051757, 23992982, 30831430, 134217054, -4222276, -16109681, -3095662, 46728056, 63946322, 6327011, -206265628, -53915218, 52907925, 70198990, 17352242, 32455217, -3071918, -15073283, -12176804, 58088645, -141489416, 38989834, 7640635, 27990095, -10100692, 45494124, -10663506, -102596886, 18820282, -54302484, -1019414, -12176386, 35317369, -34586743, -54426380, -12846068, -1223309, -49419787, -66346422, 60044039, 85377015, 20959467, -19653222, -22342959, 61960477, 41232530, -53767227, -103588909, -36358036, 25618462, 26133476, 32297894, 77220418, 34674678, 8279502, 115339249, -51955186, -29856740, -82833722, -127224, 23264436, 33694685, 77751271, -50721239, 22694696, 25794026, 11405599, -32973811, -47733214, 62811956, -21023231, 12439112, 55575848, 27079687, 16832339, 11845213, -36780518, -34479428, -43451335, -12311697, 38272753, 43989386, -18689498, -12696700, 2766636, -34196425, -29586876, 101193659, -284664243, -93870476, -41987598, 314598143, -217926100, -141447455, -67348227, 176337868, -10026942, -87328337, -258020788, -107861824, -80003329, 283013403, -448570102, -268570215, -435173810, 32273047, 145142168, -443598986, -207837030, -175673872, 351570666, -125793636, -44374842, -103954546, -165303394, -122719899, 305039793, -338767737, -93660288, -127256945, 243269652, -28296234, 53088702, -340678453, -53038090, -109949604, 319208682, -147819415, -247424424, -73375046, 180053845, -17096896, 110506274, -121705897, -21305479, -239382803, -32448083, -187934503, -90051368, -33353403, -284154326, -17529383, 204694867, -42189244, 137825489, 28236462, 47536388, -197810084, -171819344, 28037176, -304507166, 88309586, 25486909, -72981656, 89447595, -157578349, 46429306, -57947215, -190518931, -11415391, -332080841, -8042021, 54652244, -12987318, 37700213, -24659049, 20714758, 37407856, -51546697, 97713672, -148718327, 22391511, 26874188, 99058285, 55382315, 21609750, -45592073, -6384632, 68964481, 64479329, -31054150, 27167736, -18837932, 328700, 1921099, 69786221, -111044839, -13367569, 29597886, 24148669, -45483489, -16215999, -62341731, 56630664, 14713, 84955856, -63150652, 67209452, -85932873, 98019823, -61622459, 44197962, -119260281, -28708132, -63042581, 135667682, -99530809, 44006865, 23142992, 38402241, -31506605, 25355589, -79475708, -77696443, -51426008, 125199154, -188431308, 61976761, -2301165, 64073153, -41707583, 71977936, -111968629, -45118414, -76817229, 140192255, -105447344, 29416518, -6624629, -178932175, 82869001, 107195325, -92600383, -26399391, -67446433, 161170647, -31518444, 18985454, -94135992, -155103564, 119797073, 88061251, -132395580, 14945739, -58397837, 69036655, -105081156, -18186290, -65041617, -100231431, -33486325, -23312153, -58806121, 91301098, -21829335, 15671488, 13280688, -4106902, 19102175, 7845764, -86813286, 65825313, 11159891, 18158453, -28800856, 51090371, -90864219, -77176191, -16595969, -40431116, -191802546, 60908791, 61482884, -5008929, -30997451, 43512926, 21688657, -61664041, 3470859, -68888053, -46106294, 54102108, 38319185, -24015993, -5579507, 49553815, -74702375, -35515249, -59797633, 21542674, -6743657, 56485474, 28576273, -37647352, -12496891, 139740393, -27229330, -266585, -16810665, 29859757, -41894056, 40583227, 75876512, 23705235, -53967096, 46156436, 56704957, 22520220, -4448531, -62718622, 21198865, 32436468, 30768927, 116747044, 68922117, 90573348, 29778512, -52117515, 84409811, 45192014, -69770254, 80409765, 107386768, -75043216, -29606996, -14938083, -17922336, -51080856, -71691275, -17552124, -98128274, 80664672, 72381526, -97188078, -3485209, 76370746, -130952239, 12452884, -134772629, 94039969, 14866697, 143503353, -6116713, -121631823, 43381844, 18897245, -197588265, 4389943, -297566593, 11942207, 19790431, 169863731, -263613462, -276704311, 87094881, 49707070, -160413072, -114400238, -320830643, -146436259, 224976107, 306869924, -373491943, -334538013, -308836728, -31266853, 9662547, -405186415, -198408008, 218197405, 400596619, -224410951, -144658178, -61942648, 62164050, -122853018, 260796845, -430510491, -193933934, 32918587, 249452427, -97057238, 9079334, 36728472, -34823351, -106722392, 366386890, -285627902, -296367198, -61402719, 73093124, -32713693, -63333429, 47474716, 206064716, -82507290, -69206506, -270582229, -199272856, -55510402, 44541746, 37692469, 83280236, 43529954, 60830139, -13358470, 10903289, -133880958, -191972241, 55973042, -272339880, 85853547, 65419093, -44898309, -47218453, -30606708, -55694420, 1595643, 10280865, 101350591, -283985764, 43749914, 136735857, -986405, 98589160, -54589294, -144191355, -9406857, 4990736, 37775874, 86315289, 20568457, -7504806, 15317469, -17630620, 31665102, -99927239, 1691237, -80503896, 109546736, 20829279, 48600808, 38259380, -19950779, -3109969, -2725920, -85375853, -48862159, -46109881, 94219185, 23385331, 69331616, -40476017, -71927592, -11055478, -13125517, -50199665, 41265357, -80456354, 101300389, 46637390, 131212458, 63152142, -116403893, 27417155, 130161971, -165449902, 43986429, -29943276, 13189256, -69247663, 37834156, -116297692, -84586285, -56188, 119207844, -72170682, 32213118, -93833953, 176204517, 6586844, 86890288, -101751991, -91197237, -46800893, 148632511, -90891615, 4263486, -84141478, -57683829, 78258999, 49629554, -77241100, -40111866, -57263486, 123299710, -16089616, 24757056, -89270376, -98488860, 30580290, 36080524, -47428653, 50053488, -80318943, 91934629, -7141988, -87777115, -31384911, -58161158, -51942226, 7134578, 42222917, 61740376, -34074727, 90240486, 16171487, -104844630, -98334379, -24189031, 34422997, 41797061, 32252852, 80730580, 1624114, 82452528, -83329231, -12358241, -46949051, 37136711, 51060040, 37934165, 24467468, 50663397, -7669972, 93221307, -149673238, -18410897, -21267977, 84445089, 39381009, -7943128, 53898212, -26940046, -36570136, 47434077, -115844734, -47296513, -85087463, -10007441, 86239986, 17258927, 12688874, 46651483, 12396655, 35402156, -116844408, 16720975, -15878694, -1664643, 102691896, -6064551, -17866170, -100345366, 61721701, 21499896, -38212694, 25146078, -77204585, 30194329, -34672916, 85351653, 67351207, -85560396, -7601075, 22779696, -121866040, -1692657, -86302981, 106679425, 62388919, 47891710, -37057403, -165395662, 39790969, 60333833, -177348167, 39919488, -154005975, -50176032, 19502096, 78532651, -16853308, -214214444, 6635575, -57294931, -245391935, 105935007, -88161357, -43863978, 21555955, -7324943, 39435606, -206289336, 97616218, 30451110, -81483439, 70467286, -423186, -5706685, 96072190, 106822677, -68565540, -152571306, 12665474, -40605403, -72886266, -98737761, -26584955, -265294939, 159849092, 273294985, -175867692, -223372608, -135676011, -106926948, -183350042, -315514147, 148037612, 111687712, 344852477, -105219826, -21650037, 208338425, -4863195, -130815431, 171661556, -194602415, -227666214, 58642887, 148940548, -88605873, -29558104, -41129686, 22072621, -202749237, -92136271, -224822760, -96060090, -74665062, 123176821, 40259913, 149315208, 86582370, -103153311, -188041836, -172102824, -250189662, -262838513, 11799199, 140539110, 53859554, 139746770, 89398436, 118370071, -81517100, -204132676, -67722104, -126164287, 98965622, -270308882, 37552852, 95422514, -85483715, 109963343, -164357290, -76458752, 1791045, 74201144, 8438547, -166417867, -38572062, 66355385, 14808078, 68778127, -169247746, -109481595, -74093930, 44540379, -9381102, -32547303, 58489587, 76378040, -132794410, -51432304, -85980065, -214748785, 1336890, 38003135, -5428958, 14505491, -30186659, -7333534, -137337327, -27958162, -53739861, -187967300, 15062463, -97580492, 11290441, -3127195, -60569111, 28423229, -35903193, 41185718, 65057412, -161387146, 35116892, -68068877, 49722068, 21750608, 19430026, -28900702, -123403832, -1365647, 94839551, -137986034, 28880766, -143790647, 45385934, 59913158, 12855480, -17827738, -93228869, -12169000, 86657070, -131745040, -46191216, -162002236, 102540433, 76478101, 30546524, -77636227, -23229988, 4710116, 151776984, -35124585, -37952550, -200177312, 46671186, 72953679, 5988356, -43234371, -95797911, -12979002, 107928410, -63705735, 2407566, -121424079, -40841796, 30264894, 23695460, -19818936, -55373654, -4260650, 179445207, -24218032, 14927504, -40761672, -43707252, 10325805, -22332603, -33584174, 8717204, -56281839, 161884531, -51925838, 10143918, -35761490, 25749005, 16089417, 7526603, 1991982, -15696049, -6335207, 92398807, -86778522, -81623003, -71817145, -7381426, 8872029, 38187411, 48585448, 19387100, 65206371, 82934462, -111670159, -7361968, -45327559, -93115993, 93820468, 23538604, 25339175, -4759209, -3791086, 89097753, -190540463, -40260483, -69930770, 10927410, 122268245, 56191925, 83518744, -66544622, -23380952, 100939177, -196595088, -7864440, -30603334, -111264788, 39492588, 97206660, 54858997, 10991448, 1866572, 83799273, -200560600, 14479689, 16118202, -83850227, 214311, 85044436, 24945408, 57948392, 20127799, 123795383, -125540659, 86478882, -108041100, -3815903, 27835006, 139376089, 20224009, -118566416, 23632783, -19593019, -103055425, -31325843, -107019581, -20591803, -116861142, 58124412, -31351119, -53316783, 85128605, 76992497, -238428935, 106349930, -196672842, -125252903, 29203521, 152570993, -97426817, -81408747, -25863433, 64541027, -171303138, 5103941, 20992117, -129853025, 71253695, 150911435, -203315973, -134384558, -65187804, 49605787, 28155198, -296210021, 18389987, 74300013, 285568982, 243166313, -178187266, -190036446, -136336669, 89167342, -128466502, -398728311, -21591403, -83934002, 354470760, -50538346, -18285036, 162844703, 71184538, 12061460, 68327717, -167156786, 56896698, -178520948, 86305283, 58600087, 85340947, 193271264, 122913674, -167509690, -73427700, -336364746, -14617522, 48595559, 71852170, 92809230, 162394315, -61135672, -155586317, -97921006, -200391874, -237487167, -261406660, -1153671, 147772998, 40385947, 84172562, -186715141, 129217818, -369018227, -192829370, -41442379, 129257962, -59966009, 251924187, -52081618, 9556442, 33098500, -8476350, -254665375, -159019604, -86705029, -11567743, 51967658, 313091606, 71119100, 45147151, 10025280, -69208339, -262562096, -154762551, 95722564, -34802690, 9787711, 90196304, 10536158, -7266650, -248184472, 8675846, -128750876, -188004747, 61829757, -54199066, 34609526, 53377461, -9571617, 33085939, -134499490, -7770308, -4202484, -90378463, -34322288, -84381267, -26799992, 2770466, 38542282, -40501520, -80464944, -27359691, -36050528, -32479163, -45321684, -57251371, 69208756, 21270452, 27048970, -72757840, -115210250, -69420427, 61871335, -31239603, -61493289, -41129060, 64208172, -34747735, 50523650, -49607817, -70012689, -9474992, 63248187, -72851665, -8459654, -38168810, 89946851, -66822194, 29110560, -41226842, -82079619, 2075411, 140465721, -24142919, 18075187, -65211065, 93360253, -116225339, 15379798, -15637076, -9873743, 35528064, 103667669, 43657649, -4338201, -23390494, 53622283, -21598464, 18618867, -9246439, -59401061, 45059647, 102558814, -45679990, 36553822, -88106707, 78474596, 24719216, -17026704, 29369665, 3365084, 60959514, 80867760, -23962222, 48684064, -66399582, 25443230, -29015841, 27957, 72092414, -25725367, 2319359, 60788278, -52927427, 23335349, -12049619, 13219387, 2136534, -9698787, 14308406, -20973369, 11674663, 92661060, -30110437, -32083459, -64074434, 23874739, 116518758, 86710416, 80186568, 25923586, 63716628, 67579210, -85154600, 33383403, -40511645, -45323104, 137445316, 47455367, 3660884, -6295430, 33336308, 52211098, -126049668, -35847969, -140237197, 20550009, 71249627, 37309635, 66339165, 55294327, 35258710, -17419858, -123372369, 10766505, -70627764, 21094762, 211229697, 58623672, -69199264, -44535350, 99411607, -58720089, -116210379, -2036066, -80670558, 25768880, 17235067, 11442135, -17175820, 58204342, 41829366, 68331979, -81612058, -4696619, -106379047, 52839532, -162302256, 141216695, 35069250, 159696758, 104558885, -32232076, -292439431, 33222802, -119928099, -42845115, 122729994, 55370666, -151139319, 15343209, 164348185, -161924556, -341073811, -116837591, 123425066, -133595973, 167916551, 89380093, -293052107, -54430380, 79282776, -153165847, -27847169, -193686679, 178837553, 136033326, 333526164, 17164901, -216670901, -277802378, -25376093, -61862148, 96455358, -127295673, -53875554, -21890663, 213734999, 13896505, -140672207, 267035514, 144423410, -74578986, 113918126, -491172552, -65869033, -140131757, 234470651, 105372459, 73735833, -81695847, -45932911, -12732781, -40188868, -162635893, -136078849, 19250313, 32002185, 108721040, 197616935, -196655497, 121903062, -114194117, -354479462, -228516787, 52030183, -221859410, -29545791, 38207270, 11690988, -152618513, -18933725, -274487227, -178133637, -15897540, 39337438, -139802530, 95598072, 124071777, 110731505, -338121444, 123490632, -373458475, -29841356, -6185680, -150297210, -2298418, 162299544, 14502869, 89367874, -258911282, 8552887, -391584873, -39430276, -35798959, -96014678, 33703022, 24282163, 62006425, 48256092, -113014683, -68617485, -328512639, -45754086, -48373189, -198587105, -47221035, -10698929, 8282723, -10652687, -42511161, -64566799, -49487196, 15131204, -79593219, -7402090, 65521069, 94470337, 114074513, 8201548, -13364280, 48945121, 40963683, -112555645, 58481034, -60943484, 106309235, 2864655, -18422879, 42440683, -72216697, -14491831, 86274691, -49934983, -20979244, -70703737, 141052827, -50153613, 47771849, 24073225, 19476887, 59379797, -16076561, -87056123, 28780989, -50438412, 29652702, 55765834, -10389232, -16697006, -46765566, -2150698, 70756987, -66364095, -7936059, -36285769, 104265161, -50478466, -16453095, -26983261, -50027777, 2532316, 33882212, -106880590, 6509131, -104108773, 69081031, 5819174, -57754207, -948649, 16324099, -19178893, 76012418, -110032119, 65786399, -6866177, -9455381, -286027, -19843139, -26492640, -42998623, 20805083, 52797962, -31314470, 808776, -52210558, 58683481, 86958095, -15500377, 6720952, 57523176, 36355220, 102352425, -34781393, 55005170, -44617172, -8328656, 72620466, 18910423, 53864960, 24797866, 23432171, -272793, -110759124, 33781379, -83184466, 35362590, 82263447, 16857136, 33626866, 1247094, -37309453, -43919276, -154829562, 57328150, -79195537, -91132149, -16473711, 16670803, 81574783, 42686649, -1159795, 26951067, -95475219, 13191317, -103517614, -81908762, 54202616, 89733385, 10019382, 647702, -8073370, 52832231, -171583802, -26455324, -82722470, -18532006, 150451526, -4541018, 39929472, 10725029, 8910055, 70087783, -235250339, 50970208, -85846826, 105913684, -65086551, 122554824, -77337474, 15996244, 43167945, -20261008, -235312030, 84660500, 7245719, 112976559, -92390426, 39262962, -72991386, -59317946, -4432824, -127457336, -191264138, 61259326, 22393895, -118576564, -32543913, 8585023, -58753375, -94203390, 54372959, -236858964, -346625209, 84910318, 150471061, -253817111, 202336565, 39315518, -251279831, -134449378, 27696885, -319932371, -136226550, -85060216, 132325962, -48688244, 367570817, -87668523, -92942096, -45747604, 95365763, 63616134, -1216735, -147270486, -42927038, -141210228, 468747079, -46675537, -66635378, 283896357, 44857536, -93467198, 68227075, -486968666, 4285360, -219942793, 94930515, -102761440, 99646606, 114129022, -21834118, -30675555, 9523311, -101936996, 16014617, -191455960, -117942564, -285039872, 227418661, 58237616, 57315949, -40735189, -166579470, -177435115, -161146522, -228167206, -229322284, -76311477, 260384411, -141808182, -34495268, -151933834, -192086399, -120437384, -226434514, -55178788, 7612353, 44067480, 146608248, -199875802, 128660217, -81570990, 121626340, -8192052, -36026027, -27800554, 32899570, -126648903, 52211054, 13278557, 21423802, -191678464, 109928615, -82654275, 1795537, -56134019, 24312509, -13452698, 74540317, 111484028, 10280585, -335581571, 81776917, -153087407, -153206944, -19816451, 5635395, -76901890, -1193155, 21486664, -90708219, -246485025, 50617903, 16342107, 5390258, 128487989, 8859412, 93880869, 36304150, 59006646, 90334266, -159012869, -70389256, -6225348, -50305028, 139466196, 104701675, 20477315, -20503743, 2905592, 5933550, -139424831, -31666230, 11435548, -6897838, 49061090, -36157560, -31945102, 71742527, 3415446, 55188451, -142017454, -33868536, 26397744, -22207454, 98451100, -25241829, 75584650, 6258181, 56711759, 62623672, -88238686, -97325668, 24082486, -13717648, 72043538, 20750027, 29445061, 18879542, -66287667, -18957874, -83143644, -40952317, 101156525, -61124168, 63177690, -80947720, -44188425, -24185639, 13183241, 66258170, -21685811, -49106583, 17028106, -78844354, 70793048, 39084055, 39874591, 97420946, -72159663, 18627565, -53157136, -46374593, 81865706, -76442927, 51500738, -5715665, -43775629, -29908927, 8487367, 56877933, -43040603, -30316954, 73663943, -40984709, -4545094, 118304901, -56476995, 9145963, 34736272, 18701650, -19531731, -42172950, 15615515, -24395645, 76279238, 111331783, 69808207, 29103853, 37425335, 18733758, -19040102, -27417837, 27858678, -32654647, -80148630, 73742107, 49532361, 6305903, 10595703, -39207097, -23330530, -110629097, 95674291, -25015106, -164127290, 54904826, 66874623, -100954905, 52724596, 47281694, 24021074, -138308272, 34192849, 45158975, -89919992, -16097886, 140225798, -40233102, 69790751, 25547806, -56747790, -138546273, 10293080, -69662981, -36731735, -94596498, 115523607, -88456124, 2458730, -6524580, 20547237, -109352946, 29040297, 39923679, -41629050, -158537060, 77813327, -140636593, -54197181, -28498016, -147506282, -249142379, 87968662, 159635931, -153108984, -130923390, 156674996, -49354777, 13236989, -68995863, -279115409, -251259089, 41906945, 190706968, -100859247, 40335786, 127805114, -283828229, -64456172, 6723610, -218115553, -64597942, -212903619, 41600868, -69571123, 329051137, 126481801, -115393534, 234289482, -19883784, -47061246, -3928160, -272011489, -223068386, -195428997, 374587864, -222528175, -170281336, 149711996, 114091232, -46656124, 165847033, -400619507, 25915949, -240475088, 222249299, -136475131, 60363077, 92532679, 89477129, -113407776, 109335624, -312053949, -57280805, -149047136, -68252459, -252269149, 163516343, 203132972, 220763505, -35172250, 52822594, -296155125, 27264325, -166836351, -172439054, -191916347, 58341142, -43685302, 252463996, -236775100, 68429552, -332197309, -71375556, -24425056, -86959802, -224527821, 71053021, -145287141, 27979678, -86977087, 196270809, -258074343, 90393767, -97189948, 70707448, -234662175, -7308154, -142353088, -20687681, -214436725, 164025947, -173947722, 74731730, -69838017, -111059599, -72257869, 170334235, 6613778, 12875164, -74910037, 95604077, -112449527, 22285353, -115416378, -74871533, -6110365, 109209135, 30659389, 617342, -202989206, 52266274, 41700751, 45632970, -43573570, -24881439, -56387793, 94742425, -13456318, 70675462, -299800515, 38785856, -64825058, 11837311, -137897536, -148371339, -127380461, 102400318, 53845927, 34250833, -483424246, -2204686, 18145017, -4855232, -93224056, -91438904, -81571594, 96985355, 653298, -21579649, -622706354, -26004521, -51503960, -19286310, -46527799, -123010434, -27724719, 51088769, 8746228, -7592322, -178059146, 37137538, 77113874, -17253604, -30116528, -34888815, -49505629, 109666362, -20179957, 30471351, 8719433, 8551539, 11233317, 16075276, -45411404, -20162411, 37961215, 96691228, 61029620, 89725740, -255945891, 34707360, 86376391, -14315949, -93836024, -45855116, 103857838, 15413037, 41857429, 95342465, -190764695, 54205395, 45745064, 4852145, -92210643, -215774208, -17693087, -11882927, 25250459, -40560089, -30700793, -104241803, 65036096, -31828236, -79356410, -128138334, 74567363, 83648771, -29408064, 75488791, -105714791, 41850828, 84504403, 26486779, -84195182, -93261190, 36832433, -20831563, -5929312, 48782349, 310705, -117680050, -6863392, -51106270, -241356090, 11301419, 17858736, -91591254, 61598171, 5428723, -239439160, -70547506, 90387128, -3814945, -238966808, -11739740, -115612410, -32997478, -71692422, 86142294, -275342137, -95056370, 133672372, 27196450, -207633466, -70511833, -56742135, -31004751, 60291983, -30872578, -112548053, -25314407, 25385387, 159083381, -259995282, -5806144, -76820277, -121924460, 37698999, 148905948, -172377720, -79271667, -133671358, 78614488, -332025021, -207328781, -119875088, 70938967, 68217948, 105814256, -136956379, -161477581, -49611554, 90731971, -242233738, -127439633, 51755834, -275683373, 18824499, 188970998, -9953436, -190438360, -125929549, 97176671, -179345876, 137473449, 243904710, -338931441, -97284928, 123286903, -133635297, -128212735, -429253995, -69752000, -137925297, 306663156, 120963410, -411876112, 239317954, -290375292, -170206994, 29678179, -463561147, -30759664, -117294230, 362557113, -79326123, -146540329, 228239939, 264964819, -1303335, 91608644, -245334864, 26960898, -147803485, 296188176, -202804014, -238135025, 130780220, 130815253, 50672267, 93235895, -319973677, 49385972, -258091450, 180536106, -233666584, -255602866, 112829797, 278799236, -73047094, 319230288, -141043186, -13158272, -149314255, 7942089, -182598591, -353093982, 18483542, 294765919, -190146759, 434859484, -307883590, -86909413, -187719598, -177686319, -298034102, -105191141, 83724007, 88287503, 22411410, -16399134, -282659292, 280045003, -163749591, -183044627, -160557792, 29632259, -123021699, -54421801, -56284308, 44306356, -212505162, 148755670, -194722712, -254910529, -178077459, 92789732, -28380651, -100942805, -122644104, 53398173, -84554151, 204795659, -204499900, -225511804, -357337445, 120361894, -178762689, -249060228, -115868144, 176310241, -72608747, 192369595, -214639857, -134971708, -429414988, 152954593, -186541587, -94378144, -98634884, 183153495, -156343058, 184451431, -400091112, -249326095, -490120113, 54350514, -112251900, -50492935, -189444363, 125962600, -124160007, 119995676, -257252425, -568476558, -339297444, 29238585, -130211323, 29543174, -148025185, 162025303, -140873358, 158140182, -374034047, -230065405, -279995829, 111723915, -260546714, -22264831, 9276208, 69018222, -78357503, 85837185, -347544342, -250505984, -175677538, 85115470, -184805647, 72380006, -57087824, 90759769, -83830722, 146658927, -356957823, -238708198, -217559472, 103999414, -186554417, -58179259, -285605699, 66465527, -66395290, 137050524, -442239761, -118145093, -146571130, 12346779, -181274906, 25121810, -266631782, 101271123, -66644371, 133907840, -535583019, -247499973, -146052942, 7400368, -204140753, 72637618, -216175020, 123927027, -125825211, 90702854, -480959892, -293344826, -66168211, 102375455, -186791554, 105587497, -231657505, 143723443, 19881019, 158577263, -488049150, -394672841, -151087537, 46010580, -145340964, 33699777, -251086712, 143585920, 2630723, 217738047, -601101935, -340287000, -293535233, 106094070, -232223317, 40650629, -137997270, 181564406, -66683561, 134267390, -355544955, -449795842, -108535789, 129137352, -264156550, -31602055, -191888794, 108302802, -11001034, 159320056, -384968758, -24875436, -210781544, -91643117, -242152825, 81179008, -126203358, 9458100, -77825367, 224050522, -286305785, 52711513, -200521797, -103834264, -140851736, 190820500, 23269745, 35736080, -267787725, 34712926, -240233153, 10398382, -320943296, -90810403, -70127569, 128095880, -3624643, 132704198, -240036249, 114822596, -229759246, 253388971, -340734184, -329822361, -87528698, 238599077, -129633039, -115730941, -198768437, 64334787, -236687556, 311661303, -121995747, -473960012, -121190771, 327493817, -80670901, 197752789, -161935762, -15196780, -226187751, 458563238, 85936613, -463434815, 147604927, 92752405, -343902, 293439806, -353957802, -49925622], "dense_bias": [0.0, 0.0, 0.0, 0.0, 0.0, 0.0, 0.0, 0.0, 0.0, 0.0]}