{"in": [0, 0, 0, 0, 0, 0, 0, 0, 0, 0, 0, 0, 0, 0, 0, 0, 0, 0, 0, 0, 0, 0, 0, 0, 0, 0, 0, 0, 0, 0, 0, 0, 0, 0, 0, 0, 0, 0, 0, 0, 0, 0, 0, 0, 0, 0, 0, 0, 0, 0, 0, 0, 0, 0, 0, 0, 0, 0, 0, 0, 0, 0, 0, 0, 0, 0, 0, 0, 0, 0, 0, 0, 0, 0, 0, 0, 0, 0, 0, 0, 0, 0, 0, 0, 0, 0, 0, 0, 0, 0, 0, 0, 0, 0, 0, 0, 0, 0, 0, 0, 0, 0, 0, 0, 0, 0, 0, 0, 0, 0, 0, 0, 0, 0, 0, 0, 0, 0, 0, 0, 0, 0, 0, 0, 0, 0, 0, 0, 0, 0, 0, 0, 0, 0, 0, 0, 0, 0, 0, 0, 0, 0, 0, 0, 0, 0, 0, 0, 0, 0, 0, 0, 0, 0, 0, 0, 0, 0, 0, 0, 0, 0, 0, 0, 0, 0, 0, 0, 0, 0, 0, 0, 0, 0, 0, 0, 0, 0, 0, 0, 0, 0, 0, 0, 0, 0, 0, 0, 0, 0, 0, 0, 0, 0, 0, 0, 0, 0, 0, 0, 0, 0, 84000000, 185000000, 159000000, 151000000, 60000000, 36000000, 0, 0, 0, 0, 0, 0, 0, 0, 0, 0, 0, 0, 0, 0, 0, 0, 0, 0, 0, 0, 0, 0, 222000000, 254000000, 254000000, 254000000, 254000000, 241000000, 198000000, 198000000, 198000000, 198000000, 198000000, 198000000, 198000000, 198000000, 170000000, 52000000, 0, 0, 0, 0, 0, 0, 0, 0, 0, 0, 0, 0, 67000000, 114000000, 72000000, 114000000, 163000000, 227000000, 254000000, 225000000, 254000000, 254000000, 254000000, 250000000, 229000000, 254000000, 254000000, 140000000, 0, 0, 0, 0, 0, 0, 0, 0, 0, 0, 0, 0, 0, 0, 0, 0, 0, 17000000, 66000000, 14000000, 67000000, 67000000, 67000000, 59000000, 21000000, 236000000, 254000000, 106000000, 0, 0, 0, 0, 0, 0, 0, 0, 0, 0, 0, 0, 0, 0, 0, 0, 0, 0, 0, 0, 0, 0, 0, 0, 83000000, 253000000, 209000000, 18000000, 0, 0, 0, 0, 0, 0, 0, 0, 0, 0, 0, 0, 0, 0, 0, 0, 0, 0, 0, 0, 0, 0, 0, 22000000, 233000000, 255000000, 83000000, 0, 0, 0, 0, 0, 0, 0, 0, 0, 0, 0, 0, 0, 0, 0, 0, 0, 0, 0, 0, 0, 0, 0, 0, 129000000, 254000000, 238000000, 44000000, 0, 0, 0, 0, 0, 0, 0, 0, 0, 0, 0, 0, 0, 0, 0, 0, 0, 0, 0, 0, 0, 0, 0, 59000000, 249000000, 254000000, 62000000, 0, 0, 0, 0, 0, 0, 0, 0, 0, 0, 0, 0, 0, 0, 0, 0, 0, 0, 0, 0, 0, 0, 0, 0, 133000000, 254000000, 187000000, 5000000, 0, 0, 0, 0, 0, 0, 0, 0, 0, 0, 0, 0, 0, 0, 0, 0, 0, 0, 0, 0, 0, 0, 0, 9000000, 205000000, 248000000, 58000000, 0, 0, 0, 0, 0, 0, 0, 0, 0, 0, 0, 0, 0, 0, 0, 0, 0, 0, 0, 0, 0, 0, 0, 0, 126000000, 254000000, 182000000, 0, 0, 0, 0, 0, 0, 0, 0, 0, 0, 0, 0, 0, 0, 0, 0, 0, 0, 0, 0, 0, 0, 0, 0, 75000000, 251000000, 240000000, 57000000, 0, 0, 0, 0, 0, 0, 0, 0, 0, 0, 0, 0, 0, 0, 0, 0, 0, 0, 0, 0, 0, 0, 0, 19000000, 221000000, 254000000, 166000000, 0, 0, 0, 0, 0, 0, 0, 0, 0, 0, 0, 0, 0, 0, 0, 0, 0, 0, 0, 0, 0, 0, 0, 3000000, 203000000, 254000000, 219000000, 35000000, 0, 0, 0, 0, 0, 0, 0, 0, 0, 0, 0, 0, 0, 0, 0, 0, 0, 0, 0, 0, 0, 0, 0, 38000000, 254000000, 254000000, 77000000, 0, 0, 0, 0, 0, 0, 0, 0, 0, 0, 0, 0, 0, 0, 0, 0, 0, 0, 0, 0, 0, 0, 0, 31000000, 224000000, 254000000, 115000000, 1000000, 0, 0, 0, 0, 0, 0, 0, 0, 0, 0, 0, 0, 0, 0, 0, 0, 0, 0, 0, 0, 0, 0, 0, 133000000, 254000000, 254000000, 52000000, 0, 0, 0, 0, 0, 0, 0, 0, 0, 0, 0, 0, 0, 0, 0, 0, 0, 0, 0, 0, 0, 0, 0, 61000000, 242000000, 254000000, 254000000, 52000000, 0, 0, 0, 0, 0, 0, 0, 0, 0, 0, 0, 0, 0, 0, 0, 0, 0, 0, 0, 0, 0, 0, 0, 121000000, 254000000, 254000000, 219000000, 40000000, 0, 0, 0, 0, 0, 0, 0, 0, 0, 0, 0, 0, 0, 0, 0, 0, 0, 0, 0, 0, 0, 0, 0, 121000000, 254000000, 207000000, 18000000, 0, 0, 0, 0, 0, 0, 0, 0, 0, 0, 0, 0, 0, 0, 0, 0, 0, 0, 0, 0, 0, 0, 0, 0, 0, 0, 0, 0, 0, 0, 0, 0, 0, 0, 0, 0, 0, 0, 0, 0, 0, 0], "conv2d_weights": [526985943, 84428906, 18690875, -1324568629, -1391768932, -1838947535, -278986037, -448967993, -363872409], "conv2d_bias": [361877501010894784], "dense_weights": [-36740258, -188128367, 19794259, 69003537, -65145239, 91779329, -129431576, 54636024, 16625347, -8711591, 21718776, -185182437, 119099185, 57071030, -174334005, -36562711, -131421521, -39495587, 27548568, 68412602, -10979461, -70112810, 120568171, 25902890, -62078375, 29569313, 15800113, -58115851, 92201859, -74985430, -22793757, -178218812, -27175946, 66006072, -91667816, 15921496, 783916, -2394696, 77940553, -28491806, 33096701, -27509136, 100513771, 132161722, -45172665, 33876237, -132110134, 15391150, -987446, -64639322, -92817895, -179525584, 34607295, 51670626, -31422693, -41017827, -128774419, -116910003, 55111114, -112253368, -97978994, -127179384, 138539210, 54924395, 39949261, 14173937, -127899855, 18030042, -6738673, 4919725, 32651376, -29343577, -28629350, 8104806, 45528866, 17173998, -105786256, -59113029, 18532343, 26915666, 57019889, -76939858, 36517847, 50350107, 34766544, 131088406, -236507460, -50644413, 12198938, 47656327, 1046750, -76347150, 45337480, 180664778, 15540294, 47575098, -187359378, -39910670, -3140388, -60849145, 31354792, -34255162, 107222863, 136489898, -14614006, 145543173, -334565908, -51428620, 121705823, -69646664, -76648057, -138045982, 41416723, 196383506, 121106133, 87103486, -340628177, -3133104, 15896857, -39996434, 4705735, -100537717, 73927894, 73201664, 116626821, 45502476, -298029184, 11150884, 84184371, 66631876, -6682180, -141068965, -10383944, 105092637, -28255556, 99275887, -152431756, 80129087, -7906529, -16813748, 26452305, -91644816, 51292378, 58946762, -51413402, 107274972, -175526127, -19452620, 55765230, 78810781, 36038205, -110403590, 23388762, 157965317, 56404907, 144960195, -134375632, -80482632, 7816240, 89914784, 29955020, -90072431, 15946820, 80535032, -34935467, -30841382, -162876531, 49780454, 70335306, 106908835, -44522922, -32113146, 21266710, 132780612, -59395131, 28063467, -195149109, 61975885, 124303766, -74503243, -55812579, -159609497, 91895685, 40377833, -98530531, -14839152, -138823673, -49884684, 75372, -26608642, 68840310, -31623840, 103888437, 104329407, 38712408, -14554271, -161703289, 25920851, 44493280, -88452958, -67987114, -114587940, 138282537, 27816495, -101378329, 153033733, -101515293, 62108584, 26080782, -77586912, 67513913, -62958844, 118183710, 98115198, -119000912, 51098514, -143514618, -110599704, 40889367, -57809148, -25640655, -25946453, -304665, 67859352, -154151842, -17455952, -123195477, -76795474, -21378530, -50449576, 7043384, -142947346, -14720079, 15635658, -138410896, -24894701, 15435335, 51103480, 127149954, 51894572, 41974489, -194056019, 26844317, 176473245, -125317514, 99389076, 30209215, -99752136, -7631158, 12686751, 829297, -62068529, 53025942, 82318328, -107179783, 86206980, -13278728, -102530956, 41822303, -88372439, 27396953, -127937600, 76461770, 96447490, -148385152, -16872788, -19211372, -24387134, 110610031, -82529642, -85918590, -55461761, -23570564, 16544022, -90012610, 21170352, -43483198, -7511340, 136508659, -28487505, -88451788, -45783564, 46813782, 12443583, -90131328, 57518110, -108020216, -46722118, 57663027, -99467553, 67385055, -172899321, 43141775, 93185775, -35856165, -21295136, -17397488, 14159483, -16776444, -49325570, 17542645, -155435845, -16071388, 4352755, -42495117, 144434348, -19051915, 38132798, 115016550, -108261660, -22344802, -102781817, 11604455, 120141253, -85780524, 135100603, -114982761, 1508506, 63799366, -6842188, -4486366, -105275184, 115677930, 32102052, -87415196, 147694573, -195655778, -15961941, 56659587, -47261968, 8734552, -139959574, 51857978, 39776918, -25772426, -10235808, -129043788, -39309759, -2671422, -40291995, 33489443, -50588921, -166726023, 77742264, 87418176, 148562461, -223836213, -58230709, -17527184, 10244446, -61220050, 22853440, -56905016, 62204339, 195028365, 35111468, -301445544, 76303668, 140113667, 112109594, -2818197, 93954317, -59055295, -8013497, 272418380, 207524449, -260082364, 38272955, 121105812, 11909337, -28597599, -103251375, -124391451, -65371752, 251074225, 101068519, -297762066, 136791393, 203431502, 37186328, 120827571, -31695124, -153295174, -89873448, 139400914, 184665576, -421734899, 35826411, 53315874, 170372322, 136602685, -196537763, 59661143, -70576228, 125483230, 146294609, -300432831, 126903474, 225349098, 13006574, 46901815, -74824102, -110153601, -8855166, 199401975, 171811625, -205938742, 96251860, 98646261, 50852694, 127412692, -145522371, 16943211, 45444600, 182610497, 52628230, -106719285, -13706373, 50780367, 35700195, 182632282, 1809911, 34172118, -3834021, 121789470, 83227143, -205009490, -15960477, 42153195, 30042604, 180410460, 27019488, 124906592, 71157254, 28776607, 28887816, -129611269, -5093691, 57674214, -18444026, 173402637, 14402165, 77124871, 7874236, 64406849, 43618627, -212318659, -62708326, 4354646, 105751373, 70607565, -4660213, 47826413, 44838060, -42792764, 39969411, -208575636, -82656726, 40607590, -19914089, 155919388, -78842707, 188660279, 116908722, 19967552, 57598732, -176065490, 58764353, 100378551, 15798237, 18154345, -62834017, 193803608, 136537269, -47716778, 68947420, -145853385, 58714464, 19637257, -6378962, -61263457, -23615260, 152056962, 154273152, 20716565, -509871, -88970326, 32384045, 3821646, 14538658, 42454228, -55368036, -11994112, 151137471, -101913519, 90811267, -173723996, 48322946, 65959349, -43130580, -18439615, -129315630, 127467379, 137001961, -6689728, 133240506, -45815144, -29128492, -30336678, -93493134, -71069643, -184575930, -18620677, 66543445, -80555819, -32506324, 10779432, -124638736, 94051130, 20094836, -45303613, -202902213, 153198361, 18094324, -121137582, 65276258, 12404038, 9125144, 18820424, -92676558, 28780926, -208567038, 30639708, 57408642, -58422666, 112058558, 50160926, -97442739, 10335879, -101934254, -9914142, -136458382, 137602597, 146576300, -123002633, 71697734, 19296134, 34787096, -27010845, -17042624, 35979707, -194478005, 75320445, -33603355, -130021647, 99686362, -22259319, 51304620, 110342532, -21229677, 45304071, -145967290, 83739668, 22687383, -156725943, 90926006, -24941890, -20173250, -24791889, 45616973, 30142574, -23822010, 91734760, -31075979, -24213668, 162775949, -93233027, 72132982, 119553879, 66792838, -64808138, 37655633, -131091356, -153352454, 126696080, 86420707, -47785278, 106333792, 148740649, -31377859, -86108871, 19024270, -192195654, -106244184, 90606764, 129467845, -147329763, 150067717, 149519071, 34855831, -8274511, -10504092, -168493360, -274979770, 221466720, 198752627, -123778865, 181749761, -23385389, 106833175, -14324201, 35985705, -259944022, -326512456, 271722436, 245541051, -156210527, 92601597, 38280260, 67478091, 103172183, 20722184, -233305976, -277682364, 222790703, 133256286, -118656941, 149225771, -30954218, 121961325, -3657643, 41793820, -272348255, -296189547, 363182694, 206362739, -37383758, 212856486, 83041802, 170437098, 54066814, -187646464, -249048054, -327670723, 209387198, 273513138, -137094215, 189031199, -83157293, 145072654, -41811686, -175855204, -157439977, -235008836, 288980067, 224677876, -21496294, 285531044, 22694502, 170007467, 83912969, -129371241, -34547310, -203521639, 196633697, -11935317, -73561110, 104819976, 63136168, 305927545, 16762266, -132564694, -87265052, -228021413, 161109224, -39817378, -91436207, 76466128, -28924504, 346740603, 132704481, 97207136, -10068915, -267975301, 41676123, -121327884, 26801130, 222598776, 67387588, 236044273, 186393753, -59010766, 104598641, -167789742, -38199671, -152896896, -127580509, 206339836, 87199636, 124268390, 240796521, -77379979, 137067452, -7103076, -73918469, -27096236, -265761763, 27996887, 56473643, 241315797, 87090977, -134518564, 116350748, 138569891, -101899184, 4311927, -177068263, 15804207, 74962027, 101961747, 94380200, -62750667, 246952206, 32781497, -126586750, -12481371, -335168302, 59479356, 43478336, 117254198, 124347225, -23403564, 115863830, 237149313, -239432096, -18114977, -170908943, 591905, 106144041, -32173969, 47006290, -142335057, 86923853, 78638934, -101920322, -44433307, -177674174, -68022005, 79044744, -59970144, -34048088, -127409890, 136590540, 207455039, -22249747, -657720, -56879558, 25092885, 16687369, 60241781, -59791077, -30574033, -5343553, 19588314, 3495740, 3337730, -23380598, -27344335, 47109995, 3816913, -78398235, -168361485, -14286993, 169828877, -73836923, 94031937, 16268261, -25203928, 81199296, -113105468, -19076034, -185037389, 144875690, 133239582, -12568561, 5353760, -104659773, -51633026, 34115873, 43073531, 60526650, -129162014, 6295278, 32463986, -27874801, 122097880, -114796855, -65105878, 33871189, -77944405, -35334613, -35681069, 138455153, 53350825, -60549866, 126376122, -75972706, -16948730, 32978371, -106959581, 103193618, -148241565, 96603550, -34130216, -103812002, 89290187, 46749078, -60566571, 103829004, 70844300, -6869806, -186058402, 56896906, -133772254, -144150034, 212854400, 37821181, 43302599, 119793139, -51348075, 53665228, -101601593, 14092794, -265342951, -89050725, 236225218, -38335253, -20496221, 1186089, -33599291, 98013319, -4004706, -47583692, -249151811, 5259022, 208235830, 44665240, 38196143, -2864815, 143602058, 78375138, 159153238, -131479070, -245549843, -44842470, 127191752, -88353038, 18610394, 2625930, 183289811, -48286676, 141176820, -211730435, -145596310, 114905991, 70065312, -3397170, 179838777, 36782902, 201677665, 79497352, 89913711, -163286492, -74844941, 170225441, 111029550, -20288404, 267846525, -36748726, 52500036, 51185779, -8036694, -209086284, -143237039, 263422012, 85148051, 255691499, 284885794, -140470117, 83858997, -53971149, -93143940, -265886724, -69392525, 175506845, 204777122, 380068988, 384418100, -258471936, 58296759, -120935850, -250021219, -300299406, -2223556, 49930651, 41785691, 205517188, 362786323, -177232996, 83748572, -215368822, -452347666, -221599191, -264294684, 38938109, 72018601, 139430970, 370800674, -7468995, 228043929, -138052985, -452871889, -236601472, -306128502, -39665136, 69524214, 82139991, 364605665, -151809871, 333261520, -212264955, -327451110, -285913974, -126331806, -63876793, -123392537, 17150698, 365895987, -141314730, 477152050, -56470525, -146023601, -164943948, -107592858, -86542860, -96824139, -47043607, 370090127, -26332952, 500123858, -167440161, -220214307, -78998454, -9907817, -278243065, -145716399, -71915150, 271728635, 9722292, 360466927, -1667660, -153799564, 44718973, 88701896, -239043787, -2724903, -270999432, 302968353, -44597793, 297558397, 106356554, -201448038, 24161052, 1336044, -109839387, -63808322, -228622526, 163868517, -101019368, 205252692, -16105762, -310888797, 114738345, 172622323, -245818526, 18762434, -60102358, 178269684, -50235644, 134920865, 23614362, -146798104, 135488778, 294823319, -336302519, -211160108, -198997647, 124362014, -38975492, 78118108, 75889088, -113622539, 326616317, 135294646, -316299289, -211238489, -85577846, 48967130, 169438109, 155130386, 106843285, 31806309, 90384699, 263900310, -143486172, -221256599, -67925282, 36537755, -22965813, -27554616, 110376380, -79897963, 43770190, 58216833, -62877238, -126621127, -16594430, -33471994, 66801608, -32060232, -30137153, -63114308, 19729486, 143786281, -163245767, 32086838, 31469662, 22121206, -68364762, 11489871, 55621780, -149658903, 18111892, 108140007, -18745849, -27104873, 50788902, -15129886, 48319720, -91918029, -45036055, -200437978, 28401736, -30062428, -147791103, -23410665, -84839903, 6132317, 126186684, -102173857, -63232519, -97916879, 134413362, -83891429, -110060327, 86753987, 61523482, -9479980, 29785953, 94179459, -3952637, -114932254, -31302229, -170326322, -48424631, 119937703, 73142834, 8516348, 20926550, -39386492, 133678660, -44127584, -48054837, -187709138, -154027089, 157800317, 48958018, 10465800, 208961502, 105556101, 114004232, 61783478, -19069443, -172224298, -76762006, 205126941, 96425958, -19170025, 63043289, 129066631, 72334096, 190099493, -50514888, -80697358, -31745717, 40840060, 2964994, -80668725, 51099509, 149423659, 193464965, 384458691, -152776197, -40683266, -175145075, 72243139, 108659871, -86778075, 109097861, 152268231, 56633830, 353237301, -272427797, -36566667, 16601035, -28925432, 223442435, 75377233, 136583671, 108386077, 40902447, 226703584, -199144036, -34608848, 38830619, -10712218, 287207007, 85830942, 29659810, -148386478, 78951150, 281272680, -132860348, -31874713, 123761632, 91242678, 212508157, 145606071, -155141070, -128013417, -47971193, 213193864, -172820330, -189059764, 152113035, 190077394, 258964211, 160160944, -110027902, -165693745, -159478024, -36416996, -199448705, -129871130, 136967152, 129648596, 170086101, 347572029, -28142689, -62176276, -234874591, -20473447, -90054877, -120674476, -52319113, 60889967, 228665471, 290697545, -166934282, 57708044, -182450786, -119471915, -199718043, -103080437, -37896462, 152800024, 209372580, 362306565, -281477392, 197527513, -198053524, -51090579, -102929868, -58862507, -40078390, 175359085, 126651600, 299003959, -283414811, 89454435, -204677209, 58665145, -85193373, -131669745, 8497293, 28465671, 216359854, 437809020, -113447532, -58874086, -77011123, 67637868, -159551874, -118066952, -14544280, -197841391, 250654638, 316038519, -42415909, 41893218, -106618784, -68543121, 116971441, -125090048, -68739831, -82580872, 168960273, 378170609, 13764345, 32167789, -52667297, -179006785, 169049427, -86991750, 13132078, -101576671, -15210415, 289155573, -122273140, 131506473, 44502284, -224062100, 173048750, 118009612, -151740566, -114285700, 144429699, 202158347, -157942384, 105497375, -120674036, -88767193, 185071826, 127163783, -284852833, -148061797, 128035113, 136157826, 65889969, 237658724, 40134240, -73994569, 173166618, 281913400, -363684356, -337352902, -44987284, 138696790, -1376163, 218360782, 261554033, -22914974, 304979861, 139685839, -318947345, -228951603, -68747409, -18114964, 1066207, 85207835, 121373937, 42987775, 75577199, 43168373, -189560011, -204838693, 16810600, 23995278, 7314357, 17395260, 3466302, -101413302, 36765877, 93778037, -71154043, 15874760, -117317066, 73213920, -45716304, 83933301, -24964835, -118310682, 102794677, 89716978, -91867447, 110903412, 32769255, -95427930, -32673415, 12737917, -77233493, -130363509, -1885458, -9653185, -9777879, 183473110, -34723803, -85116826, 144324735, 32750178, 18083332, -26100587, -21856619, -89768887, -34307122, 235149592, -37623424, 24220718, 58121867, -923947, 37056934, -9368000, -78171894, -176375598, -67083240, 295192480, 132412776, -20506540, 71286529, 201293319, 124994844, 77001154, -63549392, -237832189, -89009590, 166069314, 187992975, -106882386, 209390417, 243323311, 153382480, 160419852, -127349779, -162489220, -183770865, 213596016, 129209206, -242485493, -18809967, 249074429, 284943998, 281506598, -89752585, -101127349, -110008553, -5780221, 91765560, -217182413, 55549257, 287760824, 253702790, 406073570, -3346581, -280625105, -155154303, 84859140, 139521182, -109568074, -3414993, 20148067, 104031071, 195105135, -19812442, -250764698, -58260813, 102459982, 277522922, -206959456, 20171680, -59881065, 188320354, 219299719, 95123410, -212662607, 82880840, -16760994, 341478050, -333865285, 150246561, -175064951, 98606423, 214291081, 64439990, -205301404, 94747752, 25698246, 249171421, -211493894, -117094688, -3602083, 61317392, 384927481, 53806130, -304697573, 96592478, 136836663, 300565094, -190619543, -65473892, -277340502, 145038545, 245120928, 35237774, -18670278, 118287146, 103891514, 155444905, -140743375, -10272716, -579468846, 114829265, 561122835, 28609123, 73155820, 264957100, 190942511, 195590392, -14592932, -416796893, -609282136, 34459662, 658607006, -37035327, -55579666, 253819317, 92335381, 271554738, -126014635, -373658419, -525346220, -47475237, 400723040, 24998946, -97456440, 209696501, 222390160, 208718598, -152751878, -263454467, -657987356, -43365199, 314810574, 82743846, -1282805, 117369905, 88500760, 354261488, -265653819, -231510922, -505554140, 16783720, 296319336, 33759356, -20973187, 24838714, 32748021, 386218220, -236385778, -25960037, -215811104, -65960355, 9002583, -9441013, -31880405, 50586421, 65336563, 332345426, -22690820, 40924393, -151517957, 53469129, 118807256, -7546250, -1584288, -50901547, -189158633, 318254679, -23997836, -62039919, -34126382, 22459667, -48515216, 81776194, 34667131, -150160521, -40802576, 198770806, 48272479, 90852700, 65676734, -256606251, 59058975, 126159862, 159075841, -369652897, 17515177, 87218411, 93355604, -102329850, 238217771, -177475065, 66323332, 282587379, 265521556, -448714375, -249386087, 174356058, 40018033, -164457098, 272856891, 95163226, 108293600, 256118417, 163582519, -379940122, -299688607, 79163432, 62753610, -219860762, 302603930, 214174911, 48012517, 154220611, 143536955, -91819689, -231273547, 47140632, 74146211, -83962373, 191095427, 126664251, -84293775, 86660832, 71178868, -177613497, -113364294, -49686175, -47975633, 2115693, -5231554, -109341249, -65734118, 93714371, 16030258, -35104834, -36096696, 56760021, -65787338, 141293541, -45333430, -26058156, -141016170, 100238860, -66780157, -114684694, 167408064, -101904973, -87159477, 90455212, -55971134, 110905536, -14709175, -70958443, -284253716, -87965541, 226963609, -79175413, -125372499, 113131903, 85857250, 147091746, 4642919, 18130621, -276813895, -164798886, 252863348, 96346259, -183819622, 160461769, 215586171, 100828975, 50397884, -49486324, -202805385, -97455829, 250300288, 245954230, -271957606, 97465634, 147622973, 174555868, 163448840, -170498967, -156741813, -120112635, 81739195, 215094000, -291793376, 57314985, 238319114, 203583881, 381554991, -106679901, -76953918, -90590052, -161752895, 158152327, -246630773, -86978123, 187235400, 150419876, 279757649, 13899541, -1654237, -135275021, -89694098, 118880577, -246266991, -27944500, 104573600, -43804657, 351651788, -155456901, -57210937, 21045130, 4634510, 245497242, -250921994, -52385233, -29262209, 63285068, 283830792, -38716488, 40372781, -54111287, -41385252, 171823710, -286153167, -11781947, 27869057, 90253860, 44939030, 22504812, 54202609, 146542013, 38728867, 180398345, -276196659, -104114406, -132677376, 963828, 11845040, -202925906, 38255069, 38644385, 159078151, 269390762, -52136574, 67812636, -510776639, -111501478, 205874905, -122416258, -155947775, 421550721, 141038641, 151830703, 62553085, 301445097, -908844292, -292599738, 367580563, 4499880, -203830227, 387461036, 95204771, 280064404, 55427376, 197816029, -974377751, -256425858, 227376536, -53154398, -227449119, 287308902, 42999059, 348277986, 105773449, 142105833, -848654151, -290965080, 211481959, -8259692, -296707124, 405420423, 63212171, 400985420, -48630003, 96884266, -715619624, -659750104, 181511059, 316556156, -136121720, 78577265, 45364667, 399945587, -345521152, -42143025, -306945056, -315638125, 220928386, 135749146, -104443155, -161849767, -4095366, 448531896, -222424775, -3438109, -81734203, -20183636, 198277831, 7953717, -62544890, 149714723, -3032814, 376371592, -54421820, -86345702, -37142925, -30776246, 225994498, 56509439, -56448050, 22300167, 58625575, 279015571, -135108471, 46311814, 27926926, -19159691, 110058822, 139009655, -35044134, 6500070, -71327731, 299591690, -264165342, 133771926, -53505883, 25025973, 201112792, 66882409, 140591741, -171269953, -177942246, 234140158, -33812489, -91004439, 202540100, -229563192, 147005916, 213282526, 194529131, -219835982, -252671480, 202406123, 21678222, -237255737, 404751033, -18851783, 77026807, 309659421, 311511606, -212899402, -566562891, 184933424, 107401945, -157679811, 346602052, 191008717, 60088441, 139034033, 125491977, -68732016, -518240035, 95525153, -17132884, -79242602, 69337972, 202550262, -83295397, 146389872, 187249139, -89296721, -125261962, 115542397, -39857984, 6521564, -34431826, -66774450, -24011014, -19126989, 68822809, -38760532, -34698755, -68887137, -92472620, 106380299, 36590151, -4568237, -43626983, 88575408, 15788393, -95413968, 129369438, -92248164, -134969115, 17714003, 118063264, 102424733, -16602723, -22347765, -174265414, -75281873, 313603520, 100104049, -268362910, 140270352, 176452711, 122441821, 26601819, -67385517, -296868503, 60494769, 210943475, 141835302, -215277612, 70566595, 227226555, 84501110, 179337516, -87153941, -137444824, 50069664, 148486376, 176427364, -110725038, -3580225, 187306061, 296082109, 150093183, -41731350, -71826160, 19009197, 52745540, 251833946, -195580363, -90634659, 194834292, 75754695, 255614907, -68838418, 97009435, -63165396, -50615400, 82422659, -166842684, -28346503, -219158, -25873616, 353260219, 113424994, -6629673, 29224854, -1566381, 173927531, -53289428, -238560811, 78797966, -82408056, 321077108, -168116525, 33532273, 137294084, -60018301, 40668081, 14361457, -206643865, 1572487, -8591835, 140968591, -27243201, 48784129, 72012410, -185416862, 63461058, -35736043, -112787485, 196311384, 87485157, 185662612, -83962470, 134486735, -10647930, -193127707, 342824459, -290265650, -163124844, 69422826, -8751222, 39344992, -31856507, 144170165, 208394051, -242153779, 349821776, -94736755, -14180925, -161165312, -250009626, -2408391, -123768643, -290496171, 473540872, 119863652, 256309062, -166021690, 51994685, -309430361, -134771675, -65561466, -104948968, -207719550, 339213252, 156067446, 294146627, -386667997, 257979512, -215737030, -163079247, -129353926, -136617482, -435286194, 295665801, 285695374, 449354798, -183553472, 184857830, -193712816, -447760940, -87641716, 60228236, -326391309, 186066300, 223158509, 437785923, -254854828, 82044259, -107503690, -599255800, 142925680, -2111679, -283075541, 142277911, 103611156, 571127951, -257019818, -13801947, -249459714, -404989421, 171472982, 135095686, -184826583, -20570256, 44922505, 503424108, 41697480, -130542368, -160961583, -152565703, 242302209, -9822585, -248408645, -543779, -67690797, 404122531, -143558264, -162963957, 40271025, 14607776, 302883774, -155534849, -160294861, -61419088, 73829472, 293158054, -205797568, -15539462, 109062806, -81162505, 240239963, -12808645, -199318856, 84642127, 49112488, 299729526, -94144434, -37709255, -23697857, -19412413, 217842519, 90630263, -94939709, -95596127, -58061484, 313847870, -140418336, -54622550, 110312395, -242521420, 325262874, 143625721, 121009424, -45061525, -494931698, 410060048, 12367210, -300187945, 220181853, -171101555, 172019944, 290542841, 281949490, -130731612, -772130549, 347445875, 136949733, -362994730, 207236722, 47035668, 33921272, 189413592, 146569207, -58191076, -641903877, 151612893, 57448700, -141055495, 117735818, 66647708, -83674960, 181452110, 52898560, -155731604, -282633722, 131443784, -23011092, -12613680, 66010088, 66951841, -158336118, -5950251, 154361665, -58040287, 126245916, -58372356, -129938960, 76330326, -34294628, -103666812, -57052448, 27820932, 10862906, 78444876, 69641523, 64995833, -193229228, 127371728, -18913208, 32379664, -53970613, -68603009, -182083547, -14083923, 248749360, 37312459, -368045390, -43303210, 96009381, 55116426, 46760462, -91768496, -189270064, 107215703, 209078267, 259870589, -203047514, 23775650, 178422093, 181122825, 101771779, -98434769, -124394588, 184474200, 260258436, 238744989, 2572200, -178434730, -124909692, 110123433, 231466576, 46544954, -45916792, 62593766, 6106928, 168370560, -67446053, -195993140, 91098122, 44266813, 319260538, 122123986, 76290861, 48096698, -89050397, 103939578, -106191158, -127528951, 21047659, -93267135, 305186778, 166400433, 42335920, 43475274, -132198185, 146972522, 25872270, -209716395, -31847395, -25642237, 146638915, -56447655, 190953389, 190852284, -193114802, 95926784, 14654923, -163666636, -200098246, -86478785, 152840286, -17685661, 414669156, 104723573, -236364409, 206519052, -80925249, -255810976, -59276491, -151191905, 169438317, 113279983, 445988357, -176896527, -168385252, 387904286, -175598159, -187134624, -86311795, -144409120, 214615583, 152518108, 182863906, 141752407, 21774478, 138430968, -80810562, -370195568, -11593576, -235107303, -223616973, 22105481, -33640068, 347523004, 107732691, 102684014, -452290356, 38054504, -148530900, -61913069, -403435409, -21087507, -126296416, 271052212, 241295710, 263759196, -599896133, 231909305, -179972023, 19084392, -344498456, -258791924, -245449513, 148931161, 475637496, 449957252, -416774839, 245861992, 48000518, -218328536, -175832212, -283222377, -269257158, 121246137, 472089350, 653696358, -440656245, 315282166, -86369909, -326520771, 224251315, -280294806, -238610059, -222652182, 446067333, 689506292, -332447082, 178425223, -2278457, -314789176, 414888948, 90762496, -205263048, -146393001, 305182308, 743359149, -366846353, -95576078, -74991822, -316054136, 299209386, -5911767, -274036646, 33735238, 155174851, 564053953, -209597737, -263950586, -23158152, -89569509, 317050964, -50693888, -228666797, -23050256, 238618255, 526305139, -368090957, -111418739, 101540998, -112232730, 332791924, 62893309, -381136417, 83512120, 214453727, 378939927, -182464406, -94343834, 19296177, -198770136, 433360457, 122484222, -178319022, 33289067, 798639, 501672089, -179748952, -181047678, 156473979, -270895571, 321968287, 84039755, 135107651, 64429581, -449396849, 518619597, -82963884, -257519513, 305988252, -69931984, 243337080, 185778365, 196751446, 95647350, -926160336, 264788389, 117892005, -171453416, 290667117, 85688010, -24250362, 128165215, 109107941, 132618785, -897319496, 175687924, 16995404, -48955422, 111823007, 194193259, -15858013, 19340016, 174422160, 85754678, -337658584, 183524221, -93136273, 127753258, 46734333, 939341, -45459773, 23166677, 98338082, 15746355, 107654117, 44237345, -249493390, 115363806, 112382561, 49401727, -103166886, 34750789, 30516131, 47440499, 56434374, 47286443, -365782112, 124794334, 24958549, 16436202, -49501128, 99236086, -39748881, 121509857, 300242543, 136045396, -347381353, -8715761, 107524380, 44604991, 24721317, 34570418, 35487190, 177021682, 237565726, 147297636, -269647330, -123378552, -14810522, 64220250, 278250635, -8543098, -48821323, 334842801, -54277800, 149428785, -43586988, -101814747, -227929562, 55451319, 240366444, 128091410, 184216723, 174763322, -122079231, 11659672, 19071976, -259183705, -142610371, 80326304, 251796842, 208003923, 331486672, -83055429, -213308528, -52513886, 176467448, -210302651, -249909163, 121794298, 153347105, 255225360, 257658392, -108663812, -348997772, -47275484, 128934920, -282737345, -233263969, 173430517, 214129284, 169758290, 432015598, -56531746, -349915385, 12921087, 166599587, -252887785, -221813947, 42612121, 69322906, 199601650, 423360795, -282317221, -183310270, 244983435, 216751382, -291273594, -490098864, -56609675, 298478484, 290137261, 416040659, -449347943, -225916535, 133437738, 12238596, -188746706, -270355433, 36909040, 147331372, 445831090, 291170835, -144754276, -461710662, 79131328, -47340445, -255916893, 17835675, -18784789, -340202630, 371125638, 201263994, 267981708, -111839019, 115753725, -168092877, -311754495, 25829956, 130949244, -571590304, 225530565, -82291283, 445164055, 35112023, 387348562, -448584497, -32962620, 20847240, 130526036, -436222374, 35054825, -8841257, 52464545, 320088953, 429391026, -389658093, 111699395, 168751627, -140064880, -216881469, -30200128, -83247662, -217382118, 325848162, 409503013, -531128824, 383516639, 12931266, -252943248, 223805398, -13146192, -6065304, -430200487, 274628133, 519325912, -590394020, 129841983, -630430, -309520483, 221431553, -17099366, -123818956, 71243040, 247719750, 430550903, -378502250, 11354224, -185024738, -77676907, 287997603, -10637020, -206175238, 126263857, 418949187, 297578722, -236572862, -262894034, -112165898, -164026, 323067904, -107821941, -284160137, 89000486, 497614652, 363903463, -277336508, -263264418, -144507945, -142620951, 446897626, 17256489, -206912071, 175268799, 544662952, 174388260, -303869188, -269334435, -192270651, -398153335, 304518461, 115345746, -59996095, 143295825, 344936997, 284464777, -173069671, -281819850, -18912051, -371643931, 218850449, 178356797, 162553534, 151656047, -106418721, 263124168, 20038698, -381866753, 7089701, -260517478, 150761932, 157985002, 163081333, 331652492, -618554115, 167489514, 143561468, -292198390, 102440625, 45582782, 85798964, 172640562, 120364234, 70283942, -618790448, 157509953, 132006600, -39285921, 96210361, 78038946, -163094044, -21756768, 112960674, -72824731, -266769707, 92749752, -55332061, -29582521, 29884016, -102140866, -118814997, 159048811, 158083290, -66118024, 22737987, -40944967, -290299803, 65010257, 26457798, -57395712, -138376310, 144337207, 81688188, 70858411, 102444962, -12494415, -324085832, 101652652, 48666514, 186474711, -126848266, 151716813, 42646058, 107298277, 198533446, 59850015, -287467092, 41671462, -45151290, 135767564, 50251421, 188135609, 112915836, 114594512, 11704765, 17164033, -73268637, -95427394, -332421720, -79220556, 66900894, 328192472, 226143047, 68357579, -219193459, -55198152, 153765976, -121398680, -283305079, -46170533, 144620016, 518088818, 424125999, 45567285, -242050514, -63536696, -34830648, -279709250, -300126642, 178153574, 273743868, 429043442, 281928122, -223905742, -125414729, -139698729, -31300206, -182447329, -248397082, 176336691, 205477402, 376931459, 209536031, -153826728, -6196350, 32138467, -85946798, -398471236, -281974852, -10849160, 59882730, 473865449, 229736492, -405322194, -41929573, 9029542, 36163609, -320103586, -380233914, -57513669, 218067244, 396675557, 306395322, -455357820, -48061762, -31359717, 113226153, -238611862, -376581579, -59695352, 284662634, 556333721, 261678010, -619379044, -369831085, -117493995, 228152588, -185909942, -369235843, 51169317, 55329327, 810743630, 185034171, -411288559, -616078556, -230414644, 339808375, -387754172, -91018826, -2637736, -456030726, 770254731, -204775214, 413495570, -421601474, 14118393, 61007045, -474077433, 68885028, 309491605, -522643805, 612569332, -215357333, 319332987, -78713864, 394118905, -226333767, -375936449, -164188057, 626249552, -264884025, 488871515, -253053457, -299765617, 96567616, 440732777, -440760553, -206762090, -101135723, 218388498, -138312459, 353713930, -33233479, -493325233, 370551527, 597205997, -524025023, 29767694, -366645277, 21846248, 38406905, 197740182, 36228754, -434631854, 334666222, 278464198, -515120029, 193541735, -301298201, 38075402, 105109558, -8032418, -74464522, -23953080, 187212899, 418999374, -189593419, 86981468, -649492562, -16093703, 228402138, 25927832, -91132440, 130170509, 145765528, 210328311, -205202743, 49521893, -481876910, -82020491, 238004133, 25630336, -12539074, 92457697, 432144821, 114309736, -142017290, 1785422, -331528008, -216200933, 196461037, 111372851, 138142198, 137511104, 665315449, 94049700, -207514390, -55656496, -355345607, -441838443, 287768304, -972314, 225423887, 129606873, 691406906, -143912673, -80487393, -293059081, -323545843, -457744807, 171372309, 168862090, 283855021, 281988829, 354939818, -279921174, 95178790, -239208907, -15501995, -306884050, 60066443, 62079377, 205351561, 242427334, -132883787, -203491718, 189159960, -283777803, 83053753, 71469501, -16567485, -82007498, 100649320, 28222136, -282380044, 73979355, 32503814, -153764695, 41863453, -20916346, -53378914, -16023872, 14030303, -96653551, -57308067, 188555211, -21459758, 59796616, 42758282, -90227947, -57931975, -16862532, 78073665, 58878429, -27871015, -3039426, -242970482, -22538455, 101136133, 82122117, -31517960, 117178895, 44049416, 58559343, 133780554, -27704524, -382385194, 17730998, 33627801, 44987831, -89165241, 197308570, 130820602, 183521986, 116591856, 84900133, -343729943, 11251450, -92756055, 69477148, -40434834, 356878996, 114085406, -7545369, 51839363, 79777732, -84111109, -28945325, -424370319, -198325664, -35812143, 677095056, 356560230, -184770823, -119814359, -152861923, 57760458, -221376359, -374948442, -124830507, 150681630, 814675093, 471760124, -370701224, -197905868, -163984537, -55923454, -153874353, -313855112, 7154249, 22376794, 526424706, 397247374, -464926541, -79531647, 16127056, -1963174, -164173126, -317963719, 84706083, 95921345, 538067877, 213992327, -273683041, -56578204, -114018679, 68486229, -192824140, -234145463, -213541403, 274814725, 412978500, 265596837, -301950336, -84410891, -184234142, 5688915, -40441427, -255085737, -173738465, 662346661, 430570871, 207347482, -457267076, -152824551, -89707524, 69992125, -11957740, -451530099, 107063666, 170342505, 469224095, -44335056, -741300285, -147613406, -252528489, 401933223, 63141674, -204166889, 181888655, -239786923, 485548139, -47575302, -720167279, -233375996, -143882394, 699829519, -428055286, 99540867, 196327090, -515484691, 572328806, -128352448, 174041703, -161517069, 140053332, 567028105, -409988374, -254472971, 738207519, -228233695, 369380236, -401918620, 85225306, -103404947, 52184984, 184911519, -120186910, -389419526, 945604384, -244584084, 359112710, -237219870, -320179701, 198610872, 112526983, -353841126, -55024121, -288883924, 375072092, -240121871, 503333151, 40603105, -458730459, 327441365, 146419346, -505445719, -311044425, -108442940, 91856450, -219787195, 170304909, 27132785, -390087426, 380587429, 126515716, -96625939, -41895606, -109560750, 115929559, -7249993, 42620383, -42662196, -173860654, 254680753, 165199548, 54985829, 40854499, -465618283, 96115202, 323730379, 56941677, -35833206, -169222564, 331286222, 277133554, 8516514, -90393677, -372613221, -98917410, 416905463, -16462561, 306774378, -114308767, 382338285, 137349576, -27821615, -116705790, -283662319, 39566744, 232874900, 96837290, 525090098, -244227678, 549849033, -134608150, -56947526, -211721256, -284074843, -283416390, 86779639, -9248346, 514479220, -225253046, 857704043, -398776382, 34731373, -219419405, -109030627, -587433815, 85648686, 15926043, 275594562, 75380363, 656096637, -614354849, 229367450, -290767163, -41468773, -366265863, -52587301, -82006007, 123032108, 59215020, 393531084, -302576125, 112711601, -278221399, 55759635, -70732221, -28755905, -188168213, 147650629, 36665339, 124052987, 40901504, -51421318, -180380702, 55999015, -3894624, -100477569, -111804828, 164076552, 37818059, 130197823, 41358154, -83986029, -56445900, 81076756, -88485338, -189771101, 6614375, 13890270, -4089463, 20391403, 24192270, -61441246, 69432780, -14999071, 43663897, -34083851, 100899279, 156053320, 90194158, 83328180, -4567844, -285969913, 79885848, -13888887, 56296121, -121084429, 320049345, 93457662, -517546, -891327, 38356364, -176713109, 987958, -210014939, -106357306, -126544610, 488053441, 243386850, -53551491, 721335, -46846725, -78835271, -60938496, -314878911, -315219760, 44221792, 700857401, 303078890, -274873167, 3243447, -250312477, -92555739, -27735751, -229532108, -343823731, -9702106, 457668453, 429618269, -351488262, -48411895, -242281571, 18400384, 36895305, -241359115, -231460184, -95387951, 469983906, 292049944, -356263012, 13501444, 45301899, 200178027, 122420862, -232372493, -70678778, 79981461, 306291372, 110569805, -168922231, -101685174, -122101635, 56919333, 150199771, -99275954, -178532735, 512647212, 258133590, 81093282, -329718351, -132520631, -154564157, 75001173, 169704795, -128614858, -210023075, 882213295, 107990205, 46246812, -353228003, -293256670, -165463403, 222030759, -140928894, -73038377, -66459097, 20733315, 251495719, -125880182, -537937820, -1747570, -297884822, 660616100, -211076841, 234150797, -74726336, -509450495, 125250667, -205849141, -524530411, -110122301, 34690950, 1157185078, -608018816, 187073410, 6915845, -91634348, 110818408, -211233377, 271041662, -278271198, 266424239, 835324109, -303664982, -285805970, 1007451177, -130197629, 134277970, -277255952, 178982124, 161778376, -69424562, 315162271, -409657955, -402714789, 1084654689, -766625464, 196401909, 127400368, -65257318, 428143770, -292760074, -278220654, -579766512, -453833729, 419047356, -558766067, 112696908, -38075622, -360327482, 569093764, 37447479, -206514403, -246658951, -137202218, 198864728, -180026352, 105763823, 32515749, -481528252, 243720874, 195803702, 30721283, -76712310, -138263151, 338525534, 229961246, 109265573, -106920399, -331019491, 192314148, 318289101, -251305640, 144404009, -243387669, 280666828, 425772727, 175130546, -4348530, -387574255, 101696953, 185919091, -156374931, 54940689, -154777110, 113677226, 255720824, 225810871, 312573224, -354402065, 90830199, 44586573, -62619977, 11966523, -307098150, 251364768, 101517804, 97446270, 393704176, -314710021, 365993619, -55897247, 2075530, -22835486, -234409496, -229858398, 37898850, 229725540, 287896812, -99977061, 497892201, -493689865, -8876109, 73866062, -26165077, -450464904, 87004967, 58311995, 210775122, -2967594, 481564343, -574440181, 58483277, 26109943, 125667661, -402124465, -31796966, -253246695, 234976113, 85315794, 426343381, -419394225, 105439998, -53371198, 212518319, -64812347, -105909713, -390509993, 180467874, 17450992, 78625806, -12011389, -1725949, 38148284, 106076896, -68015292, -54271575, -171104103, 100556955, -37622072, 176400721, 31475291, 1018258, -29242760, 63519157, 55599097, -179392114, 49612921, 157621473, -155787110, 68678968, -9032011, -88834271, 110501729, -46489820, 6226893, -100084469, 80476679, 141589209, -27489027, 20865634, 48841335, -236912847, 29317515, 68217412, 141285464, -88749610, 108855791, 17389826, -161958680, 17415887, 215303332, -131816685, 178458780, -222140238, -113238029, -109805554, 430926412, 99892505, -226147369, 129483163, 27944235, -42162746, 160702437, -125339821, -201635540, 16798533, 228246689, 256019413, -249804765, 38987566, -301546156, -32545228, 139929876, -107428692, -432088643, 48792377, 153680250, 321520030, -341126919, 56238208, -169502988, 160836190, 322085738, -56320205, -226715744, 90807758, 196046740, 293626517, -396632493, 157744005, -176081806, 176469728, 261354268, -3738013, -150923893, 199728534, 182738975, 64286649, -181760341, -3503398, -256147593, 77412516, 243321285, -8191050, -306576431, 619760036, 91321342, 252025545, -279098928, -121376947, -29761428, 120290175, 2462528, -47369052, -373898089, 508895516, 18352926, 236500740, -279251575, -255991310, -395928800, 342115521, -137617812, 60426541, -134326473, -77066734, 71957484, -77337466, -323268771, -11585879, -517426074, 806000531, -198358819, 221726194, -231976122, -233556047, -188466057, 21513022, -254786670, 111983471, 26875569, 932649195, -658578277, 81335716, 249282941, 87147966, -384834230, 52959539, 89950114, -35165545, -89374408, 608704567, -695574820, -14516412, 964906335, -138840750, -347579181, -141197309, 94889574, 193952411, -283720732, 290282726, -548362851, -228749916, 790012300, -675940037, 34945045, 86676963, -268527061, 344178468, -108348221, 51557805, -531849682, -299256325, 280539811, -496502191, 224040940, 178066522, -596379876, 307455748, -95399246, 80606043, -26960330, -195446923, 141909301, 15872568, 259032398, 117669195, -548336923, 177579820, 249507204, -70903063, -14604837, -268884420, 209809765, 543649495, 160129815, -99141575, -338340968, 26337381, 326452464, -416090637, -14903965, -282234460, -119435541, 544771075, 83909713, -5046209, -326794714, 126115352, 80777302, -430974633, 185740322, 47427610, 120283119, 390419751, 285231650, 119171254, -342066497, 62494207, 17958015, -380125821, 294184029, 23352068, 150402457, 138260037, 232505426, 105604187, -123121962, -6881986, -89912705, -135450631, 390408427, 9495453, -200594395, 137277752, 324426532, 11672016, -66982485, 60774680, -360119253, -147470266, 343414307, 183909625, -369430393, 107413374, 50642483, 164747223, 23014477, 124482587, -468119919, -194926292, 213311419, 267203242, -357077807, -25853628, -339370400, 90378605, 9103254, 217668325, -152346686, -66804282, 102210097, 355627418, -75055785, -76228395, -261435896, 82072929, 120344147, 141758919, 87409124, 27241210, 26154678, 155890077, -37023406, -73508374, -225738689, 116164245, 10220344, 54043293, 26705168, 55744551, 137502968, -17476797, -108261295, -120773301, -2222107, 30141767, -87214738, 34987662, 31215357, -134200454, -4209022, -41614544, -17368605, -191748157, 9838524, 45848683, -109839112, 125736445, -70191331, -130594730, -6477180, -58311734, 116215147, -151398376, -20050643, -86953402, -66241898, 59169285, 311190218, -51220082, 96400172, -92645198, -304201424, -92531838, 57866674, 7906765, -71546674, 224837303, 128990620, 70888147, 142626196, -89264967, -182780042, 135829538, -78551583, 141638935, -236702517, 133243144, -140479565, 8591969, 265199155, -53191621, -423371643, 131403759, 2746471, 321020842, -356625378, 208214268, -316657841, 157201007, 217054725, -128298700, -303118736, 109570384, 84488712, 315896302, -325033277, 186549515, -281572312, 111299247, 292368948, -27120495, -258386046, 305566490, 36804687, 370849818, -341338515, 139706597, -202043131, 112875640, 173336342, -21461384, -260154814, 449225724, 34749657, 302096635, -268462837, -140684322, -257513732, 164391950, 180623695, -79064667, -264878660, 183643878, -132549018, 72736368, -246406466, 81720449, -652354360, 398202807, -18589776, 89543223, -126198500, -83447121, -76429918, 35736304, -95459208, 42626519, -345592409, 606763780, -213655099, -31280767, -16981423, -134533539, -147559866, 161759764, -71870260, 119371913, -227436990, 622430384, -616478622, 1175524, 613034546, -348020375, -206200659, 47451485, -90603925, 106784739, -382004023, 367413700, -360881388, 91490768, 991401076, -486427814, -258440912, -191456199, -426430851, 239617243, -376542121, 287171692, -113050342, 106976047, 517775536, -230291843, 45944382, 49270287, -633842230, 340786040, -45821294, 61425127, -181947842, -111038342, 205535054, -151833817, 149202749, 208353087, -775048733, 270189643, 152019218, -86452238, 99006236, -128614560, 99704958, 291636378, 48106033, 254307479, -515889943, 38194921, 261640579, -391504765, 80258556, -318490416, 28395085, 835021675, -39410140, -131963059, -185144469, 66524900, -147602454, -549617290, 195979744, -60745418, -26751924, 450507790, 25297878, -183897182, -160112545, 67647569, -218552411, -284945548, 157331780, 53272672, 138829425, 281534612, -50421651, -141611457, -123961978, -5211780, -25245735, -129808858, 409769416, 124532774, -94956420, 110348582, 151329100, -242680132, 116329186, -46737555, 13936793, -147621691, 436325312, 133013517, -178129911, 160699397, 56119513, -92551053, 82939215, 9355905, -142850667, -219941691, 276347786, 330554426, -244154856, 72542049, -88503137, -106215693, 42829867, 115285605, -253341675, -66892713, 216235831, 374920845, -112510815, 40777337, -283743799, 36731131, 206980482, 145377561, -30206649, 19389657, 124042876, 331352651, -10602838, -85000157, -400986880, 154153600, 171827450, 202679425, 12003869, 87331079, -6530189, 54012984, 10134017, -168615952, -360816747, 46002485, 5690170, 51304989, 104121834, 17857803, -32384176, 41781526, -102578565, -105997898, 56407962, -30858936, -75343825, 91658711, -69051951, 48311897, -27379645, -61510604, 148809299, -154082090, 9723887, -79638690, 75722456, -8915368, 4715135, 51294401, 137395635, 52927174, -25972547, -96277177, -127446532, -192105845, 52349582, 12940232, 240001351, -3057904, 146805957, -110339597, -183728725, 88399224, -281167507, -28200384, 53088184, 165344238, 93337573, 52847397, 244197920, 91160119, -277195185, 212147981, -236271665, -1313406, -63214861, 68511963, -97695895, 230726480, 232117862, 25328618, -295027852, 341162384, -41310187, 229309171, -85753180, 66106819, -376052767, 124623932, 17120268, 23696953, -309141368, 273211032, 44095404, 383017212, -144274577, 325980097, -293166101, 43152560, 12771314, 68363540, -246530190, 183907479, -23057556, 261213005, -194896743, 108771197, -386393905, 102151871, -46662465, 91844909, -234455362, 129409462, -177456021, 232920706, 52028496, 124215864, -412800133, 309617490, 31310610, -122285545, -135053813, 108891241, -125800222, 301864654, 135047585, 343185872, -781821966, 417446554, -199025065, -208807617, -262371540, 37798338, 14276569, 239309147, 59924778, 278011143, -360452473, 289516062, -230980843, 12709068, 63690901, 85354753, 11387904, 91567636, -143611997, 228171468, -291476667, 341471374, -321199417, 296654731, 754425704, -713812470, -359190404, 49281556, -323224157, 225362986, -275113672, 260360241, -214941055, 236101404, 595356107, -371094495, -262176216, -27496897, -447416365, 164236203, -211768582, 66008575, -36628917, 107200682, 332174391, 98521672, -170988858, 229703903, -597280204, 233899415, -110778861, 125163957, -28091049, -188753843, 111201726, -86970210, -47492705, 273509622, -391384333, 247013941, 110562682, 84092200, -15739463, -339871049, -45981564, 567721188, -103476562, -116192371, 72746426, -45416296, 139126271, -290215671, -2172770, 11998712, -35067156, 707678914, -46416428, -364083290, -40023517, -147582158, -244100273, -67830347, 233567715, 73773354, -223067403, 441532224, -88087849, -173111707, -116597876, 92095979, -444077343, 7540531, 357248425, 161143646, -43685421, 222189710, -130661935, -127025872, 18595550, -5242954, -91246344, -106562056, 359299451, 88818282, -9937169, 248621836, -46729282, -110099591, -42753920, 46064388, 107101567, -92780039, 235581413, 195116222, -174503282, 92113823, -26882095, -301593870, 40721916, -72697341, -39604962, -14028721, 211600035, 342572361, -38651861, 31911921, -292647839, -159576669, 93797885, 4982795, -424495, -17535698, 135901213, 272510618, -136270165, -7101410, -518716753, -50613560, 152682841, 104985207, -5335930, 73865801, -19935248, 211871937, 45874506, -87645821, -556175888, 49211603, 1256155, 43479104, 79880022, -63579060, 124088936, 125284478, -15637726, 5016967, -339411974, 185044214, -16641114, 68783529, 32225519, -87328993, 13327293, 96087277, 4326917, -131753683, 60889348, 17692467, -31984191, -15542846, -102346510, -85460573, 106494069, -94113246, 111168459, -58456022, 23465721, -91040201, 101514906, -32852724, -22487924, 4174104, 20190515, -28060533, 85619532, -61443117, -400682330, -299110919, 144681707, -24076980, 224228531, 58421548, 221035257, 138054594, -253902763, 174018711, -241208896, -230530336, 144185677, -68067737, 324396938, 43074086, 271561474, 114480138, -194119945, 415455371, -62272634, 25665035, 80414385, -334268302, -81640318, 154996678, 119964547, 157027200, -144062802, 508307219, -219082057, 52690160, -28929101, -87910354, -370013058, 149985194, 6271800, 53449456, -362991184, 386696935, -84545590, 119547948, -28479323, 350194365, -257148325, 113142863, -99137552, 29556612, -304793656, 149374455, -31339616, 256330460, -105692662, 283500224, -285040975, 297205567, -101413511, -43894745, -296534777, 85383765, -105513662, 458830982, 199574664, 194268897, -479334742, 371114731, -176848635, -45021325, -163506210, 225476131, -124168321, 510876656, 169890448, 117104784, -820815027, 269043505, -366379470, -192154422, -132907256, 216176361, -326746970, 410871893, 135593951, 429673344, -676967084, 238341868, -251652896, 35663903, 156917214, 91411144, -432074189, 371957511, -129633412, 306405872, -334704071, 121313162, -436771303, 280042470, 784416616, -661769629, -332998425, 396074563, -133927107, 318177700, -222993806, -13397608, -139521554, 2323014, 549025416, -295367122, -57047389, 160581887, -270520538, 192708358, -92762388, -57471290, -12087902, -214943528, 252550691, 183953062, 443263, 112706877, -471679896, 186760411, -211721018, 305154562, -38499124, -89183278, 23088040, 343877673, 35985522, 10847232, -110499099, -81336714, -200341403, 247646481, -106998995, -52143238, -300320923, 594000280, -86902194, -146818966, 18935256, -145670176, -221916348, 26728973, 39935246, 200148448, -189434394, 430885404, 10574250, -344226569, 69252893, -202179551, -392418832, -25139878, 156927273, 160765961, -22865368, 122056969, 1919560, -85274987, 19315897, 125312179, -280235052, -162936896, 155332372, 253991365, -95422938, 177835539, -21905929, -111544669, 147246957, 64027309, 60669195, 63236557, -8022061, 131696999, -9115428, 94205298, -74006505, -83453186, 23371551, -82971171, 117604412, 192156762, 45239151, 263535917, 14575614, 11011737, -169776812, -335673630, 141672894, -30166557, -57336375, 146232009, 74003465, 267013669, -69986291, -39788581, -368685365, -31383112, 145999059, 117800944, -62401030, 117140815, 28565885, 322242230, -83301328, -71404956, -420355320, 86300947, 17712764, 87093756, 9731330, 96427679, 4774536, 268534571, 86835742, -77341713, -603509247, 249538600, -17159184, 79116657, -2719901, -88487945, 130155191, 139527813, -34887243, -39329808, -324157268, 138947845, 45887072, 21417947, 72898075, -112194233, 6758106, -3682651, 69100305, -65590434, 11929641, 15476612, -113509923, 41889220, -48596967, -88643223, 18269310, 38791709, 63746199, -124645054, 27437225, -167559177, 39425537, 61263364, 36615819, 65754801, 150525734, 91134235, 54499432, -10979550, -320893347, -268484801, 208836481, -28287830, 227055803, 14429952, 265011460, 143071324, 24780784, 271591961, -315170169, -380929738, 226302862, -236143366, 262484550, 188420624, 111488149, 232628927, -105219372, 456572175, -188583463, -109544516, 172432780, -471595168, 86725153, 332380235, 13347, 248362422, -61327778, 516651392, -226926848, 12337089, 182018980, -390384018, -264597684, 290005386, -44067249, 82524963, -296650469, 349927247, -265327305, 201557741, 63965894, -64343415, -272214502, 470870256, -208115518, 50606303, -249463812, 14040701, -166719213, 260455668, 138126045, 109921589, -245076790, 320318103, -297198027, 4747744, -464459330, 305319667, -121541485, 246732309, 338296354, 139825672, -370434999, 347475410, -223044708, 7188931, -278838366, 333888978, -274792284, 296519309, 174847096, 45160871, -483359694, 306969076, -215939835, -14349233, -48643362, 318427265, -524035394, 378943831, 106463045, 244718209, -724483848, 249313459, -281008661, 270003915, 105954669, 129011765, -278572083, 450026929, -22617653, 331816077, -370270014, 27417889, -474310696, 233537078, 265343040, -165662676, -127496198, 450770825, -248692766, 249066517, -221881866, -231086999, 41685052, 113361791, 198190629, -260948986, -28961450, 198726892, -355231524, 107230291, -174117893, 43981340, 152971894, -92694402, 155837521, 220968947, -37166718, -146278962, -235754505, -31715959, -171535045, 414067209, 7910852, -139786109, -239062682, 401293248, -42577464, -307221264, 299060, -72531335, -297725528, 164734930, 68413936, 136068672, -392528921, 391150117, -177006423, -220754370, 347810417, -3786359, -350200176, 323045492, 4883052, 31127544, 18805208, 55100005, -139470562, -264253229, 269016057, -153485566, -194084376, 153488979, 180996969, 187148720, 77502362, -106915779, -2253300, -117947236, 213162139, -28971100, -184170976, 136734575, -44023216, 137072191, 35703864, -26381459, -96849032, -55977035, 193899810, 22470893, -44395752, 133633301, -28641699, 80697134, -69116622, 28342089, -78227609, -257670492, 166495904, -121617593, 118069001, 322001010, -134432644, 145865142, -41236635, -26440119, -234505504, -276528418, 158318192, 35306212, -54302216, 176923528, -96894391, 339669883, -156987876, -28335720, -275658607, -80825262, 289850563, -111179307, -17790349, 285341322, -164749503, 298642814, 32477621, 3845685, -557514727, 150439382, 78581989, -45123726, 126005277, 172088146, -63707225, 226851419, 33767596, -23857042, -398351610, 169758752, 36534399, 113940723, -13371375, -29289695, 152586773, 122917362, -31125434, -233037069, -128419444, 81279047, -127082363, 130363047, 53445373, 15838781, 137238443, -90909712, -2284376, -81421189, 45347970, 116364323, -101021595, -29589687, -22765769, -34419943, 102403283, -14557211, 80021560, -111291781, 107654855, -142996252, -44790357, 55628389, -36601953, 93698755, 96325278, 136121452, 81792586, -3908297, -198285967, -272617579, 84340945, -116569325, 175853610, 6068745, 209907949, 141627118, -37165616, 230217591, -138230950, -370884329, 187730014, -151453987, 368219078, 193018362, 31121813, 207308918, -7829429, 225990847, -170495465, -321248919, 283533603, -321674049, 152514160, 349190116, -34645952, 240794674, -127152815, 275208592, -327264428, -142701119, 226302296, -266456664, 81951775, 426905990, -176050186, 135669500, -22677017, 107429542, -207039282, -145351976, 284023821, -204919085, -39170947, 350692689, -175399944, 89726247, -67061581, 130384162, -96435145, -100478314, 285680890, -127852246, -236764580, 430583775, -129484236, 146682173, -403616369, 151816070, -77312037, -46224959, 500157654, -119167611, -458611995, 322021484, -149418026, 285442352, -604026973, 113265634, -318451971, 178601563, 349816561, -51693529, -774020076, 197119325, 13565002, 478055179, -370257497, 91865994, -274468422, 150399089, 362195849, -174811989, -965317369, 70025273, 45405146, 495417982, -275415748, -209029377, -192091867, 225933865, 317328393, -110414922, -580658734, 63833363, 62179316, 333286136, 29725855, -203305930, -112044185, 165535301, 12570984, -62207662, -310588628, 33510048, 58613967, 264194608, 105107076, 47376644, -205517605, 239424691, -77800952, 75665809, -379464567, 140171483, 87375782, 246701747, -168328762, 318488121, -248114482, -91401987, -26442520, 63551985, -417315453, 158435792, 151674315, 157604754, -337612063, 150403351, -267622560, -204075754, 70812397, 23385664, -425447851, 417135894, 180934638, 428686619, 95999368, -114442907, -251294494, -273623407, 265565574, -9305342, -288648933, 449289203, -65083742, 249144197, 267811000, -166166171, 18738575, -207045615, 295604527, -158804491, -210196078, 420261443, -129138842, 145245269, 22685679, -176658317, 116827175, -152605921, 247303635, -72160468, -145717785, 434216738, -44979874, 62458742, -35873022, -136118963, -112597838, -28863695, 285394132, -149720997, -104318365, 321817189, -39070390, 93717322, -53996857, -5649748, -344075650, -133794516, 300533205, -137282610, -76438330, 454513341, -19525602, 129826695, -86325511, 37305620, -358130783, -83377466, 368513465, -152921200, -11168766, 527897835, -142721027, 324230433, -10885427, -87227926, -265153706, 66371687, 351966441, -80462046, -93951255, 275396973, -54715876, 243748188, 140035436, -212277293, -278199971, 238783702, 60658153, -100705661, 64595968, 90139411, 1111774, 158235356, -15350224, -241708383, -238957047, 151018322, -9767057, -32789107, -15277604, -90449981, 88594832, -4639378, 49239852, -73523082, -65136045, 66517249, 10147440, -26314238, -74429639, -4378333, 75983189, -987111, -109906815, -15429148, 81711024, 145695895, -108849518, 71206488, -115815893, -57109974, 96314155, 30371342, 25957854, 3534484, 128049165, -104655154, -65573782, 121369101, -46000715, 6194164, 114846706, -29672299, 687392, -35752013, -111718737, -188523561, 2853273, 57949949, 211857632, 14296935, 212569818, 47872648, -99862367, -47631819, -231641874, -275449842, 138695285, -168558761, 245525047, 145941556, -18366612, 34291353, -192258075, -17529542, -91591612, -224423662, 273361295, -91741443, 342631072, 364500791, -129523128, 101239368, -180352882, -124277987, -81183001, -167927295, 422768503, -134398773, 81047095, 396936029, -139052182, 205512092, -89170761, 17094053, -137432754, -122935429, 362927169, -323031545, 93258329, 418805242, -52375853, 115934171, -32472152, -80885291, -251591384, 5483680, 457971871, -226684988, -69823936, 334150672, -221473947, 282631338, -429594606, -110910714, -312855512, 19037310, 494029880, -148566782, -304650456, 296936631, -168911159, 361020893, -841677725, -77733569, -170039147, 156024560, 375797898, -295126051, -474520892, 76763302, 44494342, 436543107, -603182435, 9448170, -197796628, 252243042, 419976234, -196349382, -885031998, 73038392, 24861140, 481882244, -175955877, -194727302, -42300992, 58864869, 319192976, -197001532, -778143346, -45676619, 14405283, 317590117, -96996620, -78805134, -48721969, 38370863, 103172988, -147423476, -493622661, -169768780, 192670241, 303544015, 30760806, 349481463, -226133719, -28817393, 98759711, -313316584, -440677077, 21052934, 167492583, 245518565, 120238088, 134206787, -167459667, -148697078, 97768240, -176492214, -569674373, 125744462, 34680426, 356785655, 72824575, -115087129, -142893255, -53294301, -1156347, -9912772, -260630876, 471789449, 14522208, 349682868, 243932441, -137851954, -159818813, -165034190, 124480240, -78973077, -210679084, 350657851, -7400291, 159160316, 80367573, -217099488, -163330272, -44416368, 121347629, -27174342, -141808137, 351011127, -9027805, 150586590, 147949815, -176896080, -358935118, -66701002, 135507360, -52890949, -227079585, 460441351, 3447188, 26911370, 65572888, -180468664, -210520834, -168995738, 234847873, -71676649, 14898592, 366496295, -159603685, 80817118, 60831740, -143746406, -217808872, -192807794, 203001276, -99574126, -85473724, 480610520, -167475060, 158238620, -26743969, -101811193, -302891463, -36142513, 276692688, -269612968, 78035027, 416666865, -193910122, 120381624, 3975074, -117631324, -318773925, 165565565, 118340284, -308598191, 120358922, 211518005, 7481469, 104177609, 658791, -126895219, -247897387, 173646703, 30617595, -71597219, 106839776, 11746572, 116789915, -30668464, 98218426, -139201134, -83192170, 66774487, -101993680, 83582751, -32265324, -79243913, 64883448, -102708839, 46550039, -100484744, 123677656, 167501941, 21598345, -53007878, 29381648, -44197336, 98691069, -106656171, -12559804, -47465909, 38852178, 98022744, -45436025, 140244961, -73968083, 83845086, -2110707, -9058411, 29371044, -95514663, 104279459, -51738273, 53064570, 33754595, 58113899, 48601441, 50949909, -39777011, 204214469, -75076327, -20782555, -165484548, 68609096, -49573746, 143943906, 133490369, 170044675, -37119936, -10077288, -260751843, -141603366, -171146378, 107588165, -10857305, 241399363, 107828304, 80958553, 107050024, -189330503, -232215703, -90162173, -154150814, 339350134, -60495935, 420685530, 244932145, -126733378, 154103518, -76733314, -126737520, -154423207, -175837651, 379196972, 4404044, 183053270, 264008522, -219637528, 214288235, -65702431, 55999503, -119925395, -61385538, 331971139, -127275005, -76548837, 161105946, -58242869, 218871817, 43035846, -106154166, -179083616, 137259, 365590870, -170615792, -233063743, 183897913, -88129736, 137552410, -94405606, -65493852, -140369266, -112771511, 194646403, -98540209, -243869901, 205538884, -236077651, 148238093, -450714946, 204480872, -37234653, -21983447, 234723732, -214669585, -62173907, 222759873, -128195837, 286953568, -441920161, 203108758, 9217535, 198582396, 284918576, -21467300, -418903589, 122781366, -81574157, 146769091, -96609756, 237594545, 52299384, 134892821, 205146626, 6257031, -614154279, -12135785, -315824449, 231018439, 53625751, 338933706, 74115425, -105570219, 200892985, 58294728, -612951338, -105416313, -89420684, 271497637, 209485695, 259486198, 23746045, 59629787, 182509810, -6561977, -566427708, 190386534, -161189169, 174594283, 88249095, 191358700, -15299796, -28533751, 34259502, 12112578, -366319537, 290590137, -186742648, 36966506, 30543823, -123253562, 24899649, 5910499, -42211104, 20904159, -343901783, 111887306, -46545405, 126988098, 96977122, -66758610, 68368696, -76700240, 137218386, -104624830, -269577891, 133458182, -22947602, 238472536, 298972696, -91965906, -347853571, -41942555, 180343300, -87095723, -194282711, 283420324, -30357854, 146978274, 247958034, -198307112, -286474794, -153282329, 67660697, 26206510, -148439452, 495254278, -77503830, 250235707, 203893781, -87451458, -200282142, -192244455, 121745, -3410233, -45543782, 488172084, 17314406, 355088085, 25794234, -151034459, -160380602, 23700479, -41596062, -263594538, 36136881, 467093170, -31469405, 120490633, 175015762, 20166585, -279157549, 238029718, 26260888, -278797716, 153854087, 408993393, 10324545, 42889200, 87305225, -36337256, -289443552, 132839620, 61553020, -233490273, 5242554, 276774555, 63542709, -44038925, -26066704, -24789343, -229977220, 165575773, 70530929, 47701381, 77232637, -13075707, 91242075, -32159593, 53652659, -58339857, -42098280, 91701686, -108648539, 87922387, -38647167, 36647383, 106980078, 30009499, 60945809, -122652121, 43112066, 2454785, -93542747, 50592538, -114273109, 21572463, -22825480, 69580533, -1319133, -28037636, 14546370, 107102506, -151352257, 100737140, -91546781, -80672726, -20476133, 48802756, 56060389, -175087452, 39994001, -153166294, -110587172, 43689623, -51103249, 48005626, 17842555, 88016100, 140434399, -86330853, -88699080, -172380656, -2057295, -34639794, -30391224, 79828925, 84842451, 79752691, 72918281, -342332184, 28692972, -92389844, 50055519, -42193025, 127020970, -52404463, 226563007, 58720078, -8425821, -355173677, -237467855, -24069130, 247797400, 148554951, 356342405, -40757693, 95071137, 97644687, -30975180, -102222532, -122244701, -75827993, 174413577, 96636035, 247276455, -88536933, -154557869, 255985826, -216275260, -123326853, -103541523, 54599166, 334853619, -25069589, 63609034, 74385613, -133639932, 133587241, -100719005, -136440903, -163259670, -30461384, 153422102, -65075837, -92318870, 189680725, 84971704, 136532858, -92776388, -117853075, -37838548, -91072902, 224507242, -85064568, -90413868, 89073844, 177987024, 62900878, -187286749, 137259588, 3050736, -46826165, 6988408, 66316649, -119416952, 273012340, -168434739, -47827259, -396890104, 434845775, 13871268, 92900850, 217096612, -206863716, -41346587, 147377253, -330992579, 89163586, -561786771, 588594675, 125340119, 159207597, 198881865, -113508224, 111067079, 205111399, -545532107, 20825312, -430612057, 332879454, 174366817, 170987368, 257523000, -172995687, -39825361, 125533596, -563411653, 124193706, -106606364, 32763287, 342121303, 2544041, 197520360, 18735517, 61055463, 140979499, -618932843, 34586646, -110750347, 45226321, 296734691, 26161894, 125545546, -59807613, 64122543, 28564565, -420618773, 104651831, -36794040, -21172768, 14351488, -61346114, -22939229, -73401168, -5747247, 2953163, -139515936, 175414160, 46075612, -125867203, -130772695, -51534925, -73436782, -44846676, -13161813, 108727336, -44680584, 378709018, 23670351, -208652183, -232376099, -101898231, -78208558, -2242790, 122434258, 324247688, -8703834, 129194021, 160293028, -25548056, -247637942, -213773698, -210679427, -46670809, 80819771, 312331885, -71411714, 211727262, 56748416, -125467852, -195390373, 46691291, -215960041, -123696513, 9252851, 320675045, 70119999, 243324682, 85854672, -104895733, -192400277, 67995310, -104689799, -209523946, 149571463, 344760329, 86345159, -17372444, 80320902, -490023, -179761782, 211766168, -3698347, -194684565, 121088736, 280434638, -24615994, -18420912, 17499961, -73063888, -175119340, 136403650, 20591853, -29051237, 31133439, 89279160, 162542135, -131881818, 35230611, -20518340, -155311272, 169784397, -2671353, 54308806, 6719278, 111210875, -2022681, -45456495, 14557097, -133573458, 78172788, 152311802, -113442294, 79904675, -39794341, 36503557, 16043320, 30426007, -50597951, -153840289, 66587731, 146514758, -27342902, -43169174, 45806069, -13717663, 48292384, -87909952, -80723621, -112042561, 116834745, 80087125, -166342720, 43870956, -26908042, 162988, 11698543, -71267858, -76767474, -158097833, 29999273, -52996323, -58567550, 4348866, 39338708, -63012920, 153569996, 52141257, 197384581, 18015044, 117697664, -111531779, -95292635, -41119099, 49092721, 47940414, 185405001, -60780786, 130856305, -256279498, 12955060, -254062146, 19280262, 51042009, 8885179, -19147187, 248889714, 74975729, -64427599, -156381682, 22856867, -336018801, 161598057, 124830924, 203878090, -124176510, 225944981, 100527130, -67608930, -105404906, 100355722, -138904750, 89636423, -6113440, 184080705, -230957583, 102908477, 47671080, -87659255, -20772118, -8786940, -108557917, 235527158, -90612814, 212886348, -67071907, 60937874, 1297899, -204186246, -36333416, 31420600, -94657354, -64020798, -104865782, 236148387, -23414325, -9168866, 80165051, -248661816, -19538872, 38528550, -94026625, 85483238, -120008923, 194869369, 75573228, 124823771, 100452937, -281517178, -54188661, -10859497, -136541277, 94374210, -172267154, 256508350, 172118589, 100597210, 17455054, -328318596, -100720979, 17975742, -81332572, 110639997, -138704211, 257355332, 172081232, -42751141, 39720170, -299161196, -81023991, -2526396, -26175406, -83647512, -119348980, 143473685, 262619793, -45398891, 228503421, -204357922, -231749281, 185582787, 52321728, 87358296, 74775644, 201563492, 24483053, -194584891, 215872273, -102943294, -262541473, 263274401, 127327621, 83665013, 48807770, 151965529, -6589750, -214013800, 94973631, -18701768, -12950554, 171824664, 77830315, 23912586, -72251849, 125575528, -134959266, -149172038, 121823646, -83719440, -102930322, 180293947, 129260182, 26009634, 8507119, 112144046, -66118270, -221711516, 188504383, 106122077, -222682908, -34331001, 79518341, -103653185, 33852909, 155718803, 96864432, -294992000, 207919806, 186352193, -226639703, -65584555, -25768172, -101971231, 148625463, 89075372, 212764591, -114437185, 45001209, 375187248, 43473367, -74405156, -133912101, -124419414, 36167145, -35140820, 298154205, -184873581, 103758365, 309326261, -118410356, -59223179, 83390221, -213944361, 2702576, 70880145, 213291407, -178337231, -37501298, 150172025, 65956593, -152693897, 211934641, -185429230, 47321588, -86717710, 392056048, -121387415, -159161597, 38907889, 34696653, -116427802, 198879302, -19492215, -50123028, 37345625, 260119677, -4426125, -198379189, 102869302, -122101523, -89133926, 249465585, 70000418, 35155945, 26379213, 122459859, 80364965, -234605253, 26639229, -48251346, -99271961, 121421449, -37067827, 38576610, -106941454, 11315231, 86588591, -69419123, -65553881, -30296350, 55299353, 162815347, -40049199, -61680064, -14550997, 59614014, 40499084, -66452824, -43412216, -157100350, -33319101, 127102286, -173237815, 33939898, -55318244, -26692439, 129291132, 30125070, -114981793, -109512173, 19528603, 90052925, -127448902, 126871571, -58326878, -54750141, 14778748, -78638524, -274081, -104146287, 99265479, 87973468, -111625962, 58651835, -112982817, -8101768, 97271733, 21633098, -31684771, -91335654, 142764032, -173811167, 22496793, 25075953, 65100528, -2642017, 37594773, 28239384, 94954558, -86497486, 212606877, -191710353, 63757591, -4085986, 44870488, -257363647, 307915270, 43041371, 90811253, -52200317, 361672580, -283597976, 118544735, 35324793, 60229890, -251001239, 263424814, -6016147, 80619849, -6830555, 273168176, -343419582, 3169312, 54753017, 121979199, -292335749, 334958076, -149037480, 181025103, 74028276, 316337377, -304954320, 79592302, -22291791, 127827883, -282457590, 185389638, -124941193, 54024588, 130373418, 239205033, -227129936, 67721866, -276070535, 235824168, -188652158, 16955212, -64176604, 90932168, 115245603, 313379705, -187075987, -21141369, -142675653, 248312846, -132458165, 77350393, -60362075, -30655935, 208141744, 268060446, -215420768, 8597443, -130930930, 358425140, -98392397, -3450037, -42250264, 7785368, 187282443, 168498620, -224512070, 159774035, -243315950, 282395989, -105896391, -21714209, -40770214, 6399088, 119666778, 73525950, -196800575, 256393611, -122741744, 256668687, -131104708, -23038464, -6844514, -143532202, 157121986, -4525074, -169544980, 241539210, -169211835, 402159214, -131398648, 46708196, 66912465, 2418109, 194796443, 10316880, -77516235, 137307003, -167026103, 289324820, -244932905, -30760195, 152008429, 152588293, 67131542, 106813461, -74989930, 194954157, -123815082, 207428619, -329630315, -134187385, -42261571, 134074703, 108757459, 57332072, 92187122, 113905057, 58567181, 242913172, -215656042, -176671565, -143066660, 141204506, 42650301, 383126, -52994620, 126898855, 57012431, 84354043, -57224661, -150422916, -167508140, 292290986, -3833682, -95437221, 93311556, 904370, -14900317, 114345647, 115589611, -147931471, -95047191, 273784250, -37657864, 32911986, 209753141, 19612227, -3150020, 3171226, 138514549, -140341014, -229576021, 77449150, -2196674, 153655320, 138252601, 4721581, 60867239, 46507295, 142072886, -103009492, -278166771, 167298362, -18942200, -47476035, 238394186, -104902938, -43920323, 69283858, 167015195, 93422070, -261691034, 128194630, -61507985, 9077762, 31869709, -13682863, 39573666, 60853068, 136894852, 89460760, -293439001, -32363780, -135373756, 15399839, 128308386, -25925756, 14093345, 45947731, 88897422, 47644626, -42634558, -32831904, -26027367, -33804964, 111701652, -127127498, -79669230, -115599610, 9049799, -8915115, -23894142, 33098929, -69971457, -32243490, 65502882, -42566132, 5368329, -103860453, -71818590, -34991659, 54495394, 66823035, -156864315, 3107463, 133839548, -67345150, -13798323, -23223314, -29613603, -12104955, -96424669, 19808479, -128058419, 69174506, 167657822, -156738609, 52994017, -40452000, -120604143, 39962534, -104243487, 50956894, -200551882, 130196244, 89590520, -142194614, 9560867, -125064656, -81122182, 87236643, 4654073, 14991214, -167378202, 146087989, 49154866, -125203595, 31017484, -108151533, -23587838, -2619436, -111653678, -9749894, -108110018, 225357339, 22974780, -6253774, 14460711, 51647272, -161995485, 130350903, -50341520, 64000830, 12281686, 108554684, -15817458, -25683869, 50203886, -90807043, -121360026, 243898153, -169433177, 52266244, 82686640, 179202348, -269668132, 66064283, 121065393, 18053519, -307314545, 156211510, -291836441, 132020384, 125926971, 350354582, -342081606, 115186870, 78109309, 91713861, -230973840, 246240959, -274930447, 311873525, 129761532, 377117187, -324294508, 249843910, -9470910, 147873357, -321140945, 63540377, -285978347, 449857503, 262959391, 340565920, -350929826, 202711135, -35861507, 195431069, -381683052, 76627150, -296753049, 435915053, 369005203, 265273720, -386766106, 217746958, -197078869, 79961441, -453815758, 102814227, -210859388, 429427177, 396190196, 267281324, -428694755, 342111021, -100019500, 133728758, -398196220, 93068473, -288376719, 367031693, 294730604, 191729859, -381511629, 448083282, -140000224, 96940823, -280237526, 115880340, -252056837, 442850977, 264231056, 57409462, -321481109, 347075462, -199791655, 187461555, -356226534, 71917996, -269718319, 236868620, 265584767, 52219830, -175911039, 207634583, -169586778, 196285009, -190851659, -89607425, -199817151, 362194896, 370546520, 73319510, 53362690, 192224875, -27441347, 187983707, -289618254, -41111905, -210798442, 275456965, 89028433, 224134862, -33339929, 334827513, -113589808, 57186015, -345536143, -165286407, -208349913, 257056504, 92777207, 245000958, 43204658, 389629543, -14591693, 52601229, -283292979, -161575601, -362414122, 186493769, 99595241, 143103227, 99910684, 298135787, 84054925, -9444932, -153479218, -76981813, -278135091, 239652574, -96894659, 156827182, -8369427, 189864114, 100496680, -27566353, -82567103, -18879112, -347199708, 137544185, 9404972, 133489534, 65496877, 109508179, 43232910, 55063784, -86345717, 50180413, -352479964, -21248512, -147095412, 229444221, 43521106, 70032276, -68976715, -29819962, -81076808, 124173760, -246490553, -10050444, -117965415, 201358944, 12011753, 14949332, 67991734, 27898552, 50348397, 20486219, -257544905, -101479299, -37564505, 108248703, 75720280, 32960858, 75398915, -122412309, -32415763, -15870141, -103129201, 8335215, -154771790, 94497867, -927446, -65850422, -9622480, -70734277, 51015873, 102208368, -65121166, -80733165, -197533533, -24788434, 146401837, -3966591, 43962978, -69679007, -116825990, 128626645, -73339820, 5502937, -145964369, 30056067, 1288875, -116876274, 49027234, -101903848, 33976711, 135251358, -13709064, -28357722, -184547022, 39805934, 88353038, -171266213, -202821, -645321, -100627720, 48331764, -113308020, -64010657, -177988172, 105504051, 73451690, -159877077, -12692365, 22110512, -36073565, 40182579, -8443829, -888698, -48750564, 29723821, 171264887, -4793912, 40627085, 21134313, 25523512, 11645778, -1082410, 61311640, -167209208, 7851003, 22521354, -92589341, 140669107, -68817958, -6405672, 99411711, -132910892, 91122389, 9415601, 107103735, -18387152, -66719152, 30411838, 41603278, -21930095, 47467846, -92641436, -63069619, -72615109, 34831233, 48280586, 20486129, 58099072, -60925338, -12979618, 46580344, -225927413, 113356031, -70187509, 53796593, 86601079, 80409959, 94255440, 21123284, -220464632, 57001535, -168816552, 128378183, 62069334, 128364056, -61897289, 210611746, 22195440, -60959227, -249538630, 222964957, -241577849, 113281786, -21790428, 74271999, -80774121, 269084930, 82933292, 1657162, -218631104, 49881991, -347743064, 250696570, 29245026, 164318338, 14674464, 216887176, 130083844, 29854041, -247350872, 109821275, -365249544, 102440782, 33807065, 227951735, -30941220, 293283969, 98374508, 61413225, -255239367, 210103437, -230615422, 94065249, 46998929, 156966269, 30104788, 279286534, -61790083, -10509011, -250968069, 126343563, -364421546, 158082798, 120108776, 223561332, 85373886, 281051636, 126213759, 60872339, -252356559, 123003148, -406052262, 209729016, 133197755, 205861643, 92459247, 408272743, 39876718, 37774544, -267625391, 212441787, -444036871, 89398570, 70602007, 166838318, 118372068, 325874180, 122270748, 117580593, -372470915, 31032190, -353876740, 116413936, 47246590, 123604327, 120124400, 288826674, 154567, -62412418, -390500575, 53511877, -317634702, 89485049, -31584300, 123089284, 74277081, 306180924, 60863513, -1161367, -312723488, 138429970, -250379652, 38191017, -124192730, 89588299, -835136, 226752207, 164813995, -7327954, -326518953, -27632527, -311073393, -61341330, -168773636, 158055604, 70383787, 132627696, 160368651, 42280965, -100699380, 118822306, -207615435, -27124759, -111299776, 75076006, 117819779, 94454914, 140667230, -65240927, -147664219, 92234544, -135149464, -6925737, -132416084, -9794786, 159391746, -75260922, 4942325, -4592802, -33342816, -36422070, -53427249, -107646659, -148444220, 43798171, 41480072, -78016199, -42324822, -105214618, 21538485, 78611903, 5411174, -94185479, -184894472, 94730064, 92959486, -112169333, 136907145, 4100751, -59399176, 127300411, -88300645, -36120504, -140206084, 126129925, 160878390, -145364299, -22172678, 41504331, -98456167, -17724443, 70134446, -74520484, -204286903, 78535967, 39904498, -132868037, 27166013, 30623294, 19202456, -28433444, -73067382, 8062683, -40703297, 51322304, 23197345, -4194625, 73361143, 53537305, -26765399, 111459665, -101215713], "dense_bias": [0.0, 0.0, 0.0, 0.0, 0.0, 0.0, 0.0, 0.0, 0.0, 0.0]}