{"in": [0, 0, 0, 0, 0, 0, 0, 0, 0, 0, 0, 0, 0, 0, 0, 0, 0, 0, 0, 0, 0, 0, 0, 0, 0, 0, 0, 0, 0, 0, 0, 0, 0, 0, 0, 0, 0, 0, 0, 0, 0, 0, 0, 0, 0, 0, 0, 0, 0, 0, 0, 0, 0, 0, 0, 0, 0, 0, 0, 0, 0, 0, 0, 0, 0, 0, 0, 0, 0, 0, 0, 0, 0, 0, 0, 0, 0, 0, 0, 0, 0, 0, 0, 0, 0, 0, 0, 0, 0, 0, 0, 0, 0, 0, 0, 0, 0, 0, 0, 0, 0, 0, 0, 0, 0, 0, 0, 0, 0, 0, 0, 0, 0, 0, 0, 0, 0, 0, 0, 0, 0, 0, 0, 0, 0, 0, 0, 0, 0, 0, 0, 0, 0, 0, 0, 0, 0, 0, 0, 0, 0, 0, 0, 0, 0, 0, 0, 0, 0, 0, 0, 0, 0, 0, 0, 0, 0, 0, 0, 0, 0, 0, 0, 0, 0, 0, 0, 0, 0, 0, 0, 0, 0, 0, 0, 0, 0, 0, 0, 0, 0, 0, 0, 0, 0, 0, 0, 0, 0, 0, 0, 0, 0, 0, 0, 0, 0, 0, 0, 0, 0, 0, 84, 185, 159, 151, 60, 36, 0, 0, 0, 0, 0, 0, 0, 0, 0, 0, 0, 0, 0, 0, 0, 0, 0, 0, 0, 0, 0, 0, 222, 254, 254, 254, 254, 241, 198, 198, 198, 198, 198, 198, 198, 198, 170, 52, 0, 0, 0, 0, 0, 0, 0, 0, 0, 0, 0, 0, 67, 114, 72, 114, 163, 227, 254, 225, 254, 254, 254, 250, 229, 254, 254, 140, 0, 0, 0, 0, 0, 0, 0, 0, 0, 0, 0, 0, 0, 0, 0, 0, 0, 17, 66, 14, 67, 67, 67, 59, 21, 236, 254, 106, 0, 0, 0, 0, 0, 0, 0, 0, 0, 0, 0, 0, 0, 0, 0, 0, 0, 0, 0, 0, 0, 0, 0, 0, 83, 253, 209, 18, 0, 0, 0, 0, 0, 0, 0, 0, 0, 0, 0, 0, 0, 0, 0, 0, 0, 0, 0, 0, 0, 0, 0, 22, 233, 255, 83, 0, 0, 0, 0, 0, 0, 0, 0, 0, 0, 0, 0, 0, 0, 0, 0, 0, 0, 0, 0, 0, 0, 0, 0, 129, 254, 238, 44, 0, 0, 0, 0, 0, 0, 0, 0, 0, 0, 0, 0, 0, 0, 0, 0, 0, 0, 0, 0, 0, 0, 0, 59, 249, 254, 62, 0, 0, 0, 0, 0, 0, 0, 0, 0, 0, 0, 0, 0, 0, 0, 0, 0, 0, 0, 0, 0, 0, 0, 0, 133, 254, 187, 5, 0, 0, 0, 0, 0, 0, 0, 0, 0, 0, 0, 0, 0, 0, 0, 0, 0, 0, 0, 0, 0, 0, 0, 9, 205, 248, 58, 0, 0, 0, 0, 0, 0, 0, 0, 0, 0, 0, 0, 0, 0, 0, 0, 0, 0, 0, 0, 0, 0, 0, 0, 126, 254, 182, 0, 0, 0, 0, 0, 0, 0, 0, 0, 0, 0, 0, 0, 0, 0, 0, 0, 0, 0, 0, 0, 0, 0, 0, 75, 251, 240, 57, 0, 0, 0, 0, 0, 0, 0, 0, 0, 0, 0, 0, 0, 0, 0, 0, 0, 0, 0, 0, 0, 0, 0, 19, 221, 254, 166, 0, 0, 0, 0, 0, 0, 0, 0, 0, 0, 0, 0, 0, 0, 0, 0, 0, 0, 0, 0, 0, 0, 0, 3, 203, 254, 219, 35, 0, 0, 0, 0, 0, 0, 0, 0, 0, 0, 0, 0, 0, 0, 0, 0, 0, 0, 0, 0, 0, 0, 0, 38, 254, 254, 77, 0, 0, 0, 0, 0, 0, 0, 0, 0, 0, 0, 0, 0, 0, 0, 0, 0, 0, 0, 0, 0, 0, 0, 31, 224, 254, 115, 1, 0, 0, 0, 0, 0, 0, 0, 0, 0, 0, 0, 0, 0, 0, 0, 0, 0, 0, 0, 0, 0, 0, 0, 133, 254, 254, 52, 0, 0, 0, 0, 0, 0, 0, 0, 0, 0, 0, 0, 0, 0, 0, 0, 0, 0, 0, 0, 0, 0, 0, 61, 242, 254, 254, 52, 0, 0, 0, 0, 0, 0, 0, 0, 0, 0, 0, 0, 0, 0, 0, 0, 0, 0, 0, 0, 0, 0, 0, 121, 254, 254, 219, 40, 0, 0, 0, 0, 0, 0, 0, 0, 0, 0, 0, 0, 0, 0, 0, 0, 0, 0, 0, 0, 0, 0, 0, 121, 254, 207, 18, 0, 0, 0, 0, 0, 0, 0, 0, 0, 0, 0, 0, 0, 0, 0, 0, 0, 0, 0, 0, 0, 0, 0, 0, 0, 0, 0, 0, 0, 0, 0, 0, 0, 0, 0, 0, 0, 0, 0, 0, 0, 0], "conv2d_1_weights": [-44, 887, 414, 401, 379, -179, 262, -428, 771, -788, -614, -539, -587, -1276, 389, 418, 350, -1222, -890, 564, 590, 948, -586, -152, -1151, 342, -1037, 103, -1226, 1375, -522, 592, -1875, -111, 449, 806], "conv2d_1_bias": [0, 0, 0, 0], "bn_1_a": [7477, 12204, 11306, 7276], "bn_1_b": [1064194798, -292864501, 961276054, -1335460663], "conv2d_2_weights": [-94, 203, -531, -352, -183, 843, 259, -437, -198, -257, 76, -112, -160, 194, -59, 194, -295, 448, 235, 553, 311, 9, -113, -153, 591, 104, 67, -207, -296, -266, 276, -59, 179, -39, 41, -583, 417, 239, -648, 29, 323, -344, -658, -6, -317, -48, -145, -43, -440, 172, -180, 86, -641, 375, -314, -51, -137, -394, 291, 240, 149, -431, 281, -180, 677, 26, 12, -651, 379, -186, -293, 3, 466, -104, 209, 231, -526, -289, 201, 342, -365, -307, 493, 319, -73, 176, 31, -61, -225, -191, -597, -213, 24, -870, -877, 165, 540, 18, -671, -417, 486, 557, 282, 53, 232, -365, -322, -313, -183, 148, 87, 110, -278, -122, 287, 52, -618, -373, 346, -147, 268, 190, -74, 459, -259, 661, -282, 452, 935, 106, -144, -139, 535, 675, -402, -152, -119, -589, -447, -41, 357, 179, -415, 301, -599, -287, -206, -139, -381, 100, -858, -327, 567, -346, 488, 393, -213, 202, 99, 247, 227, 62, 85, -52, -530, 511, -463, -447, -99, -521, 242, 456, 202, -178, 142, 669, -343, -290, -6, -311, -88, 332, -370, 116, 412, -141, -204, 94, 360, -628, -743, 153, -137, -483, -642, -78, 180, -405, 495, 252, 153, -169, -714, -789, 525, -167, -193, 371, 111, -281, 60, 1, -105, -159, 645, -211, -727, 165, -40, 408, 192, -316, -889, 567, -54, 165, -171, 161, -418, -250, -263, -1, 252, -142, -519, -368, 281, -269, -495, 647, 260, -170, 528, -38, 437, -874, -549, -392, -496, 85, 42, 119, -332, 187, -73, 69, -503, 261, 397, 449, -541, 362, -626, 39, -78, -503, 417, -34, 232, -246, -426, 320, -113, -334, 162, 407, 235, -588, -845, -189, -59, 1, -247, -336, -283, 593, 243, -211], "conv2d_2_bias": [0, 0, 0, 0, 0, 0, 0, 0], "bn_2_a": [1829, 2109, 2133, 1803, 2040, 2224, 2001, 1094], "bn_2_b": [-56788176298141480, 360969495773315456, 199355542659759520, 60339361429214480, 60631340742111208, -177301871776580800, 683250474929809536, -12943315505981446], "dense_weights": [110, -22, 39, 19, 71, -82, 126, 45, 44, -113, 212, 3, 181, -320, 158, 135, 81, 181, -236, -156, 111, -49, 109, -199, 128, 61, -20, 22, 19, 276, -193, -87, -16, 247, 109, -217, -75, 46, -67, -2, 107, -160, 63, -10, 85, -40, -55, -88, 27, 98, -79, 192, -130, -306, 306, -70, -73, 244, -186, -79, -267, -4, -302, 58, 191, 294, 438, -51, 164, -154, -20, -120, 160, -4, 175, -211, -84, 71, -36, 59, -240, 48, 279, 288, -28, -259, -150, 300, -30, 19, 219, 346, -32, -144, 105, -33, 58, 38, -69, -345, -211, 106, -19, -40, -86, -103, 171, -83, -9, -81, -92, -176, 190, 5, -85, 41, -194, 114, -187, 295, -35, -150, 69, -62, 176, -128, -284, -71, 150, -94, 65, 274, -83, -46, 95, 155, -111, 293, -281, -398, -207, 304, -159, -236, 587, 153, 296, -48, 61, -508, 75, -50, -189, 154, -525, -189, -68, -222, 363, 584, -213, -362, 170, 602, -63, -346, -206, 490, 312, 461, 74, 272, 218, 116, 31, -128, 6, 255, -79, -346, -303, 487, 76, -334, -11, -158, 559, -259, -158, -302, 56, 189, 46, 127, -570, 469, -311, 154, -3, 173, -293, -435, 168, 127, 188, -234, -226, -42, -19, 100, 112, -371, 137, 99, -13, 23, -569, 398, -13, -227, -332, 244, 171, 39, 736, 116, -17, -217, -69, -409, 143, 41, 140, 315, -698, 68, -571, 35, 539, 240, 42, -465, 359, 172, -300, -81, -177, 399, 91, 466, 236, 69, 774, 87, -285, -620, -294, 16, 42, 297, -174, 533, -94, 214, 21, -427, 233, 311, -49, -297, -62, 20, -196, 249, -431, 753, -34, -154, 5, -21, -8, -50, 23, 27, 160, -93, -149, 7, -21, 314, 246, -172, 207, 324, -161, -238, -328, 54, -19, 208, -107, -52, 323, 242, 35, -502, -214, -229, 96, -113, 13, -41, 72, 241, -863, -181, -121, 158, 69, 225, 236, -106, 450, 112, 14, -137, -122, -57, 90, 148, 123, -99, 215, 223, -94, -269, 45, 252, 155, 299, -116, 92, 126, 256, -18, 134, 192, -123, -265, -265, -351, -30, -621, -141, -40, 721, 258, 59, -232, -132, -82, 20, -293, -352, 423, 123, -110, 297, 12, -242, 341, -140, 363, 94, -459, -395, -168, 260, 117, 504, 301, -65, 132, 383, 150, -933, -194, -144, 48, 17, 359, -110, 247, 249, -39, -288, -174, -33, -62, 50, -109, 34, 243, 383, 147, -246, -185, 330, -198, -225, -74, 153, -107, -36, 252, 157, -84, -9, 42, -153, -39, -32, 161, -80, -81, -115, 109, -131, -276, -101, 12, -75, 193, 53, -141, -226, -81, -22, -254, -6, 160, -246, 31, -109, 6, -357, 157, -222, 143, 223, 58, 55, 84, -77, 136, -9, -316, 164, -171, -75, 6, -192, -440, -562, 175, 265, 399, 3, 225, 119, 213, -22, -268, -280, -15, 15, -164, 149, 246, 134, -220, 223, 211, 275, -241, -55, -559, 589, -5, -352, -87, 202, -89, 36, -57, 176, 132, -173, -29, 90, -68, 202, 146, -130, 293, -111, 402, -72, -207, -403, 254, 138, 70, 391, -268, -33, -267, 330, -577, 195, 185, -164, 23, 289, 477, -146, -155, 68, -258, 37, -27, 281, 285, 37, -306, -276, -230, 807, -71, -635, 48, -299, -331, -952, 537, 191, -64, 327, 286, 69, -113, 61, -494, -67, 318, -106, -350, 22, 313, 97, -98, -158, 276, 317, -583, -101, -465, 317, 173, 208, 28, -4, 446, -234, 206, 224, -247, -68, 13, -370, -151, 524, 66, 56, 519, 96, 168, 26, -647, -814, -200, 18, 350, 214, -160, -101, -181, 735, -172, -437, 123, -66, -77, 342, -186, -225, -242, 406, 47, 44, -133, 154, 504, -163, -235, -18, -96, 694, 135, -521, 219, -352, -197, -399, 145, -13, -461, -100, 720, 313, 336, -323, -347, 49, 13, -187, -48, -248, 434, 443, 134, -318, 153, -1, -652, 420, -45, 214, -105, 402, 289, 454, 453, 84, -47, -175, -265, -297, -253, 238, -146, 541, 552, 223, 230, -611, -164, 281, -285, -406, 167, 211, -378, 10, -196, 557, -366, 270, -62, 24, -194, -378, 240, 388, -541, -14, -62, 494, 399, -64, 309, 228, 235, -44, -631, 316, 163, 56, -507, -40, 328, 104, 137, -362, 501, -169, -835, 240, 152, -116, -180, 120, -251, 636, -43, -175, -410, 158, 120, 87, 245, -596, -396, -324, -276, 684, 218, -400, 325, 87, 355, -201, 227, 100, -111, -233, -41, -25, -333, 52, -38, 267, 248, 471, 62, -767, -336, 38, -16, -290, -262, 346, -536, 214, -66, 534, -256, 195, -83, -213, 148, -201, 278, -208, -194, -111, 106, 79, 570, -86, 164, -245, 58, -86, -390, 121, 739, -104, -209, 225, 578, 66, 414, -137, 179, -823, -61, -73, 228, 272, 33, -329, 51, -63, -213, -181, -148, 187, 125, -8, -360, 219, 312, 171, -27, 0, -410, 269, 144, -55, -278, 110, -171, -140, 76, 211, -187, -182, 5, 242, -259, 125, 52, 19, 131, -142, -35, 55, -171, -232, -331, -58, 243, -76, 167, 71, -36, 221, 9, -111, 107, -80, 112, -193, -101, 62, -176, 330, 45, -416, -362, -6, 359, 422, -341, 108, 47, 51, -60, -176, 328, -287, -684, -496, -121, -152, 275, -155, 240, 235, 83, -200, 115, -233, 293, -177, 33, -116, -12, 42, -483, -6, -117, 16, 134, 251, -607, 316, 192, 293, -244, 43, -58, 66, -183, 178, -289, -528, 44, 571, -109, 33, -309, 19, 199, -420, 370, 514, -186, -248, -154, 13, 170, -342, 361, 211, -417, 755, -340, -64, 54, 68, 712, 163, -330, -41, 69, 578, 309, -1065, -623, 171, 134, 439, -380, 483, -263, 300, -435, -147, 335, -577, -693, -277, 164, 378, 288, -543, 493, 259, 444, -110, 512, -815, 601, -39, 50, -870, 218, -99, -56, -384, 244, -255, 569, 287, -453, -286, 28, 433, 599, 91, 219, -319, -62, -189, -239, 664, -343, -35, 186, 93, -226, -418, 48, -274, -26, 858, -86, -130, -185, -182, -158, 26, 379, 284, 448, -95, -192, 70, -101, -212, -48, 302, -103, -183, -186, -3, 246, 2, -206, -89, 507, -130, 183, 77, -12, 314, -3, -332, 14, -182, -609, -15, 52, 3, 72, -396, 544, -175, -245, -273, -11, 150, -190, -137, 305, -709, 289, 384, -75, -198, -382, 353, -560, 403, 244, 37, 101, -45, 160, 38, 170, -509, -215, 670, 68, 20, -568, -155, 32, 433, 381, -545, 117, -85, -526, 97, -380, 514, -700, 398, -313, 497, 429, -255, -307, 79, -19, 142, -247, -135, 31, -134, -161, -180, 24, -127, 161, 401, -140, 26, 83, 316, -567, 588, 617, -421, -147, -215, 186, 3, -443, 43, 299, -159, 44, -107, 3, 66, -251, -430, -85, 291, 406, -463, 274, 54, 315, -219, 108, -245, -217, -131, -39, 789, 140, -290, -46, -411, -293, 18, -279, -74, -240, 342, 119, 236, 65, 28, 241, 337, 132, -167, -281, 247, -55, -93, -120, 106, 91, -205, 169, -216, 233, -362, -32, 176, -438, 401, 436, -139, -69, -468, -378, 49, 468, 109, -112, 335, -479, -84, -463, 362, -481, 809, 786, -163, -152, 8, 220, 104, -448, 188, 289, -190, 34, 191, -184, 48, 150, -245, 180, -362, -5, 1, 362, 189, 84, -101, -327, -26, -400, -236, 254, 49, -103, -179, -22, 178, -110, -23, 93, -41, -113, -92, -2, 82, -67, 215, -85, 315, -149, 40, 282, -35, -193, 296, -377, -11, -291, 146, -91, 69, 190, 300, -38, -26, -145, 64, -314, -100, 362, -355, 12, 105, -139, -147, 297, -206, -122, 137, -106, 210, -100, 298, -62, 516, -245, -159, 353, -606, 303, 63, 10, 23, 499, -473, 366, 159, 438, 10, 485, -321, 153, -230, 8, -105, -2, -148, -165, -215, -779, 221, 386, 275, -453, 140, 28, 490, 277, 186, -237, 288, -81, 178, -154, -285, -561, 447, -91, 141, -101, 228, 239, -62, 98, 77, -424, -140, -4, -94, -187, -161, 307, 166, -406, 27, -268, 441, -442, -51, 212, 98, 325, 47, -316, 131, 205, -406, -398, 412, -126, 574, -78, 566, -301, -44, -1045, -145, 360, -289, 222, -156, 34, -146, 648, -579, 189, -96, 300, -276, 402, -193, 184, -148, 179, -202, 165, 103, -252, -203, -245, 162, 629, 274, -224, -272, -126, 416, 220, 169, -700, 302, 84, 33, -63, 144, -343, 294, 433, 378, 11, -394, -277, -115, 81, 438, -180, -636, -6, -90, 197, 217, 238, 116, 170, -453, 187, -214, -291, -196, 247, 507, 349, -17, -380, -53, 18, 208, 6, -18, -65, 119, 165, -95, -511, 124, -533, 256, 348, -117, -67, -161, -55, -473, 707, -266, 681, -548, 108, -577, 239, -217, 253, -247, 232, 103, 157, 54, -165, -221, 73, 120, -145, -19, 177, 360, 152, -301, -173, 412, -444, 115, -224, 431, 192, -105, 50, 142, -116, 55, -42, -380, -71, 256, 12, -20, -217, 541, 129, 205, -70, -42, 111, -261, 397, 186, -7, -635, -155, -549, -397, 167, 69, 120, 31, -207, 300, 202, -81, -107, 232, 439, -356, 407, 387, -445, 479, -733, -514, 59, 142, -78, 101, -159, 90, -189, 235, -104, -176, -135, 171, -82, 209, -349, 277, 48, -193, -241, -265, 78, 720, -126, 76, 218, -30, -157, 156, -656, -74, 157, 75, 0, -111, 148, 108, -563, 447, 135, 54, -292, -266, 215, -53, 298, 2, -398, 73, 297, 82, 9, 375, -227, 325, -62, -161, 179, -658, -5, 68, -8, -234, -72, -152, 107, -50, 100, 376, -292, -386, 292, -125, 109, -209, 77, 88, -142, 565, -147, -257, -60, -245, 259, 206, 187, -182, -371, 336, 369, -130, 165, -336, 124, 220, 10, 10, -30, 16, 165, 86, 268, -14, 55, 214, -13, 143, -227, -271, -335, 23, -431, 0, 37, -103, 173, 104, -163, 279, -177, -27, 234, 75, -438, 31, -71, -98, 138, -144, 185, 19, 291, 211, 43, 162, -162, -141, -132, 245, -74, 69, 229, -26, -42, -47, -87, -81, 220, -96, 155, -79, -90, -29, -23, 84, 137, 111, 34, -272, -212, 264, -167, 223, -104, -94, -161, -19, -210, 73, -175, -61, 40, -23, -126, -87, -265, -167, 349, 3, 24, -77, 54, -713, 14, 22, 153, 137, -139, -105, 632, 427, -342, 132, 39, -214, -397, 58, -135, 235, -461, 64, 36, 106, -274, 67, -344, 19, 303, -220, -65, 634, 252, 70, 12, -248, 124, 253, -512, 125, -161, -267, 115, -92, 475, 220, 301, -285, 307, -467, 100, 4, 294, 46, 79, -96, 230, -198, -95, -70, -32, 319, -69, 138, -350, 210, -312, 211, -225, 379, -350, 239, -94, -245, 91, -28, -32, -73, -391, 233, -72, 43, -152, -189, 106, -264, 216, 253, -396, 93, -203, 0, 374, 117, -235, 194, -181, 31, 94, 207, -88, -572, 599, -608, -566, 365, 193, -246, 605, -304, 367, 218, 284, 340, -50, -388, 20, 441, -520, -51, -451, -291, -279, -314, 704, -37, 363, -295, -212, -320, 123, 216, 163, 421, -96, -207, 143, 56, -275, -425, 55, -169, 12, 141, -687, 195, -446, 139, 263, -2, 102, 125, -203, 149, 13, -474, 250, 242, -653, 360, 26, -120, 356, 389, -107, 26, -131, 270, -47, -76, -452, -142, 371, -108, -419, 270, -115, -173, 49, -228, 291, -320, 8, -677, 151, 353, 362, 16, 353, 79, 335, 273, 599, 180, -221, -197, -83, 59, -418, -104, -318, 80, -48, -388, 497, -203, 471, 396, -369, 269, -81, 264, 223, 345, -120, -396, -1, 69, -436, -32, -95, -1163, 18, 523, 6, 511, -355, -377, 544, -141, 459, 226, -69, 379, -38, -440, 23, 384, -660, 126, -127, -81, 296, 590, -604, 322, -123, -277, 170, -366, -298, 30, 91, -86, -57, -214, -49, 192, -7, 183, 74, 37, -116, -653, 221, -208, 221, -10, 138, 243, -253, -26, 260, 361, -107, 61, -29, 62, -190, 0, -131, 4, -54, 306, 20, 78, 49, 206, -386, 5, -139, 451, 149, 254, -270, -169, -220, 86, -277, -41, -45, -405, 46, 198, 4, 251, -302, -194, -79, -125, 305, -3, 181, 67, -5, 193, -116, 87, -371, 242, 55], "dense_bias": [0.0, 0.0, 0.0, 0.0, 0.0, 0.0, 0.0, 0.0, 0.0, 0.0]}