{"in": [0, 0, 0, 0, 0, 0, 0, 0, 0, 0, 0, 0, 0, 0, 0, 0, 0, 0, 0, 0, 0, 0, 0, 0, 0, 0, 0, 0, 0, 0, 0, 0, 0, 0, 0, 0, 0, 0, 0, 0, 0, 0, 0, 0, 0, 0, 0, 0, 0, 0, 0, 0, 0, 0, 0, 0, 0, 0, 0, 0, 0, 0, 0, 0, 0, 0, 0, 0, 0, 0, 0, 0, 0, 0, 0, 0, 0, 0, 0, 0, 0, 0, 0, 0, 0, 0, 0, 0, 0, 0, 0, 0, 0, 0, 0, 0, 0, 0, 0, 0, 0, 0, 0, 0, 0, 0, 0, 0, 0, 0, 0, 0, 0, 0, 0, 0, 0, 0, 0, 0, 0, 0, 0, 0, 0, 0, 0, 0, 0, 0, 0, 0, 0, 0, 0, 0, 0, 0, 0, 0, 0, 0, 0, 0, 0, 0, 0, 0, 0, 0, 0, 0, 0, 0, 0, 0, 0, 0, 0, 0, 0, 0, 0, 0, 0, 0, 0, 0, 0, 0, 0, 0, 0, 0, 0, 0, 0, 0, 0, 0, 0, 0, 0, 0, 0, 0, 0, 0, 0, 0, 0, 0, 0, 0, 0, 0, 0, 0, 0, 0, 0, 0, 84, 185, 159, 151, 60, 36, 0, 0, 0, 0, 0, 0, 0, 0, 0, 0, 0, 0, 0, 0, 0, 0, 0, 0, 0, 0, 0, 0, 222, 254, 254, 254, 254, 241, 198, 198, 198, 198, 198, 198, 198, 198, 170, 52, 0, 0, 0, 0, 0, 0, 0, 0, 0, 0, 0, 0, 67, 114, 72, 114, 163, 227, 254, 225, 254, 254, 254, 250, 229, 254, 254, 140, 0, 0, 0, 0, 0, 0, 0, 0, 0, 0, 0, 0, 0, 0, 0, 0, 0, 17, 66, 14, 67, 67, 67, 59, 21, 236, 254, 106, 0, 0, 0, 0, 0, 0, 0, 0, 0, 0, 0, 0, 0, 0, 0, 0, 0, 0, 0, 0, 0, 0, 0, 0, 83, 253, 209, 18, 0, 0, 0, 0, 0, 0, 0, 0, 0, 0, 0, 0, 0, 0, 0, 0, 0, 0, 0, 0, 0, 0, 0, 22, 233, 255, 83, 0, 0, 0, 0, 0, 0, 0, 0, 0, 0, 0, 0, 0, 0, 0, 0, 0, 0, 0, 0, 0, 0, 0, 0, 129, 254, 238, 44, 0, 0, 0, 0, 0, 0, 0, 0, 0, 0, 0, 0, 0, 0, 0, 0, 0, 0, 0, 0, 0, 0, 0, 59, 249, 254, 62, 0, 0, 0, 0, 0, 0, 0, 0, 0, 0, 0, 0, 0, 0, 0, 0, 0, 0, 0, 0, 0, 0, 0, 0, 133, 254, 187, 5, 0, 0, 0, 0, 0, 0, 0, 0, 0, 0, 0, 0, 0, 0, 0, 0, 0, 0, 0, 0, 0, 0, 0, 9, 205, 248, 58, 0, 0, 0, 0, 0, 0, 0, 0, 0, 0, 0, 0, 0, 0, 0, 0, 0, 0, 0, 0, 0, 0, 0, 0, 126, 254, 182, 0, 0, 0, 0, 0, 0, 0, 0, 0, 0, 0, 0, 0, 0, 0, 0, 0, 0, 0, 0, 0, 0, 0, 0, 75, 251, 240, 57, 0, 0, 0, 0, 0, 0, 0, 0, 0, 0, 0, 0, 0, 0, 0, 0, 0, 0, 0, 0, 0, 0, 0, 19, 221, 254, 166, 0, 0, 0, 0, 0, 0, 0, 0, 0, 0, 0, 0, 0, 0, 0, 0, 0, 0, 0, 0, 0, 0, 0, 3, 203, 254, 219, 35, 0, 0, 0, 0, 0, 0, 0, 0, 0, 0, 0, 0, 0, 0, 0, 0, 0, 0, 0, 0, 0, 0, 0, 38, 254, 254, 77, 0, 0, 0, 0, 0, 0, 0, 0, 0, 0, 0, 0, 0, 0, 0, 0, 0, 0, 0, 0, 0, 0, 0, 31, 224, 254, 115, 1, 0, 0, 0, 0, 0, 0, 0, 0, 0, 0, 0, 0, 0, 0, 0, 0, 0, 0, 0, 0, 0, 0, 0, 133, 254, 254, 52, 0, 0, 0, 0, 0, 0, 0, 0, 0, 0, 0, 0, 0, 0, 0, 0, 0, 0, 0, 0, 0, 0, 0, 61, 242, 254, 254, 52, 0, 0, 0, 0, 0, 0, 0, 0, 0, 0, 0, 0, 0, 0, 0, 0, 0, 0, 0, 0, 0, 0, 0, 121, 254, 254, 219, 40, 0, 0, 0, 0, 0, 0, 0, 0, 0, 0, 0, 0, 0, 0, 0, 0, 0, 0, 0, 0, 0, 0, 0, 121, 254, 207, 18, 0, 0, 0, 0, 0, 0, 0, 0, 0, 0, 0, 0, 0, 0, 0, 0, 0, 0, 0, 0, 0, 0, 0, 0, 0, 0, 0, 0, 0, 0, 0, 0, 0, 0, 0, 0, 0, 0, 0, 0, 0, 0], "conv2d_weights": [4995325, 9370865, -15108192, 13479450, -7661403, -2590144, 5457431, -297767, 8705951], "conv2d_bias": [17755885], "dense_weights": [-250478089, 466913044, -72330110, -322887719, 53734496, 263931960, 55331472, -8842647, -351533800, -40163677, -76484777, 437865406, 48169743, -248233810, 59442956, 260953933, -7432609, 143233612, -270905733, 7454380, -37521053, 354448944, -110579059, -228008658, -107418351, 166886553, 68921275, 12326088, -356408298, -98448709, -148186997, 363607407, 20495571, -219867393, -125289038, 177632168, 111476243, 76188602, -318353862, -133994222, -213051692, 299323261, 137766585, -231949896, -77757373, 284937441, 117295213, -29569011, -354961038, -21260642, -41087791, 273809046, -44479590, -415313363, -284847468, 108780019, 276072919, -36435816, -378446370, -132026955, -183197945, 28882807, 52905113, -373465449, -140801683, 89336842, 264897078, 45443635, -253655910, -199452996, -97580627, -67191310, 209888592, -400127679, -278661162, 26091220, 75699069, -81932865, -334048361, -143175751, -177823260, -103989221, 172246501, -146337956, -324278861, -110454135, 281588316, -118250363, -312003434, -410984784, -193159506, -190863490, 101258703, 95548421, -387745172, -136299551, 243448928, -203904957, -182785526, -257686585, -307719231, 4308789, 143983036, 30339336, -434409589, -190366358, 225929007, -256832451, -250336856, -276769310, -348826826, 156206757, 90051226, 9357442, -128685340, -340110868, 210014254, -96899539, -301239341, -175845191, -137622461, 268022388, 3677813, 45809582, -130257964, -399877161, 232342526, -304272026, -276429385, -263379186, -261036515, 410120696, 61807971, -145393297, -167622402, -326339871, 183206409, -305350065, -332415700, -168870509, -398456067, 348493099, 47886416, -66106990, 52427437, -125262395, 17414123, -245395869, -493106604, -123405956, -473154604, 372166067, 39067902, -194208100, -115464181, -65404713, 44574261, -119626820, -256103158, -73131837, -60146548, 108365029, 122507021, -98283045, -382699877, 18453509, 33111911, -190422043, -65003335, -218666524, -325150, 153893456, -25342312, -215849102, -417707056, 79883091, 120185085, -39252017, -222753108, -135948583, -321742296, 154463634, 130932316, -176169276, -492076427, -31759694, 162358224, -82360268, -48151523, -112678759, -60702670, 89369729, -99670276, -138398394, -258733928, -75564891, 99019527, 1410199, -289529771, -162484989, -214257568, 187378302, 9270524, -196562722, -137434512, -133969903, 331790268, 13191250, -330100983, -491962552, -68206862, 105468981, 137117654, -525260627, -209445179, -299162686, 300536543, -86714990, -396482617, -238178313, -13808985, 108036719, 226284668, -418472707, -105040960, -145935103, 149514407, 9647278, -461407393, -170981690, -67969948, 230528951, 345036805, -243263751, -239831686, 37461303, 164363712, -23109058, -450957179, -94111934, -261085898, 330298692, 340749323, -302820861, -94789676, -124953069, -75284846, 43284919, -290077269, -32226097, -216583580, 385723025, 187989280, -203203157, 11341782, 59348822, -40521763, 38387526, -348007262, -91206670, -72185539, 524530232, -69087289, -184833407, 114674948, 194185749, -112819098, 117651843, -367398381, -72196454, 32827262, 337598950, 150013268, -241660461, -141717032, 384439945, 143059671, 14579979, -290623933, -207047969, -184015021, 434791505, 19482251, -419429660, -142738536, 306422144, 27079428, -62675580, -262520820, -230305970, -46638571, 183670923, -198429465, 121667109, -317694217, 130218193, 174853981, -14930796, -219478339, -179786459, -176115558, 256198227, -11717241, 141665265, -327595085, 264821380, 223269895, 21792220, -203462139, -86466230, -149943233, 3281300, -38522094, 209261507, -87987170, -224487588, 134159923, -66247575, -325766832, -239929885, -9585453, -187171280, 12813085, 124734826, -262819290, -111216180, 216166332, -126337096, -198214516, -370687336, -186400592, -78082539, 173151106, 182049036, -303868830, -84310055, 175754607, -81217907, -252309680, -190992385, 4930755, -242334440, 26224850, 87734416, -309571832, -19530768, 209503278, -244763702, -58316924, -158927739, -81721433, -297773689, 186623141, 94610929, -243368208, 54774765, 89137942, -176100925, -48060831, -324390531, -56402098, -16152058, 67112163, 159442276, -332938731, 33284616, 81147261, -274694562, -212871820, -265236855, 5120888, -111688852, 187410489, -10651284, -518013656, -158387840, 170507118, -451127797, -78461312, -312811166, 57621621, -148157224, 106556490, 154560387, -434103817, 11801015, 158244208, -311349720, -224654824, -434065312, 13080198, 120517537, 58053847, 6051044, -302542120, 4992686, 33621401, -407628328, -99708363, -493976325, -16215680, -53446706, 63401870, 110214137, -56971621, -94374977, 34079067, -295596510, -123920225, -443858743, -20637555, 102047943, 90956472, 103131406, -176062778, 25820900, 55819597, -133989319, 5269617, -373549491, -8795436, 12324883, 12841858, 88483274, -259333372, -28998144, -3696533, -126068220, 85121676, -257014006, -41922443, -99810958, -28648352, 212179914, -47497671, 39762832, -18045716, -51658057, -162329599, -327890188, -156409279, -303756684, -41682612, 149687782, -145860419, 45928810, 32364000, -106633455, 59148956, -74226230, -201318592, -37363689, -108989999, -1456479, 49854904, 112635590, 78845099, -131159037, -82716614, -108508214, -32234352, -222528234, 24740122, 70970342, -76798223, 32319918, 47806431, -50317671, -131320432, -403349191, -284115344, -232964888, 14026333, -193128467, -204876259, 8571303, 68232790, -22856427, 166703597, -501205921, -94798476, -120875508, -18718515, -333193243, -103288956, -67992173, 136616036, 76239660, 110710159, -355035514, -70893794, -35100102, -141440913, -441161841, -341033310, -66223256, 256445140, -150369704, 52838407, -188485682, -110598408, -80454923, 126516059, -362110019, -175782114, 10253482, 131910011, -78577593, -154571801, -115271121, 109917857, 179900691, 246789247, -261977404, -13158114, 123426624, -136040837, 36197867, -144372284, -42579468, -198880851, 459303588, -52398052, -265804023, 183107331, 133255243, -42842280, 126573503, -317719787, -134979799, -142946497, 318555385, -34914523, -112009376, 22344118, 232996374, -43002628, 126479492, -387271166, -155088410, -309594005, 237953961, -34261737, 109436974, 162170455, -136065081, 220136970, 38328685, -111690216, -178830728, -239630580, 59093844, -112848595, 297143549, -64327285, -335128754, 216685429, -114421472, -235132277, -266877502, -175768331, 55184096, 87383419, 83217978, -175304815, -132857352, 84899887, -216961130, -245688215, -283815175, -111776486, -22959568, 34417965, 140919045, 35062846, -272215188, 17120412, -366725266, -232396096, -394689530, -14276547, 201777250, 32204680, 54632444, -71737297, -274392158, 85299149, -420792341, -115398742, -506468236, -10580405, 44071533, 101538487, 13073548, 21629397, -114442721, 32722946, -412336558, -193300, -461705923, -46551403, 28831257, 86970247, 173509687, -56270327, -86065605, -9933651, -649691939, -12505793, -283953547, 21787561, -58124278, 45352891, 45459550, -149065107, -44983428, -108823322, -369318485, 6302993, -228173867, -13327768, 60510881, 92417449, 18250138, -57492509, 26629269, -1711484, -275497377, -37968904, 2694613, 83084397, 33537365, 58371935, 60622316, 57849601, -11407278, -67927010, -279980540, -38351864, -120307289, -42390835, 114013985, 67782179, 107856825, -1408256, -97042590, -42647541, -190719321, 13524472, -57998747, 12817886, 80186680, 21202773, 45946270, -108087920, -12000955, -17731262, -130153641, 52707613, -40464263, -44130359, 13316969, 9837321, 57946030, -5492770, -46857987, -53065054, -255416721, 95720887, -144971371, -41203793, 43446559, 5248683, 68020776, -45298778, -49424551, -71835928, -214142576, 13928175, -258577466, -80377199, 56117620, 67722350, 76476321, -23934476, 13894182, -8290124, -338773668, 16676253, -189879805, 50719161, 12976756, 19046798, 45878798, 117938235, 2745050, -53490154, -322308034, -11890169, -251653850, -82506560, -61345797, 3395603, 3692973, 39514568, -24353635, -34331322, -335067570, 85938372, -85735194, -69213949, 62105354, 16029812, -27315143, 172307774, -30475661, 148321077, -95327675, 28346034, -342183501, 20906692, 23564324, 12665335, 6565267, 84474355, 18401384, 47252186, -153871968, -14204899, -340014338, -30070344, 42701088, -79908177, -45579337, 97775802, 69335468, -25790399, -85652523, -4850180, -539103329, -4980966, -214587554, -132777512, -26805537, 216819376, 64589359, -5733522, -171417534, 42666338, -237125397, 69654420, -76037325, -165080041, -537611663, 96624777, 34446467, 63060187, -1262474, 72469667, -173480749, -36808874, -259676874, -125610009, -321151346, 144189060, 221960902, -31332280, -141438335, 21116186, -231491849, 45340497, -292182118, 151775256, -691123545, -77365488, 153681159, -123426735, -16050093, 75372927, -385185391, -224576131, 391728550, 224391416, -280882686, -38039453, 65284252, -76286897, 41424200, -157433927, -38023498, -205739424, 356848747, -200605869, 171525031, 61612315, -4620222, -249753565, 95460787, -345589608, -101510689, -133519158, 509904563, 50668459, 263329774, 168050900, -426627129, 112828374, -182111323, -192231670, -251515687, -122043967, 300082058, -119893312, 186433539, 963227, -73305413, -265254885, 63319914, -265759587, -330444306, 131960168, 154923633, -69933318, 56162171, 42597238, -178580880, -60638372, -48608232, -141623661, -363388360, 34958635, 194603354, -36977831, 161444709, -17635595, -100189038, -63270807, 186126292, 29841887, -432789832, 100742221, -15741684, 62324431, 26043883, -2860904, -78191176, -15676929, 126119658, -141010746, -188422486, 79781182, -131442547, 23621589, 52706312, 61066706, 84488101, -89410566, 98026104, 37966609, -185401902, 32496747, -91282241, 35899684, 27380960, 17198374, 4620684, 30933976, 50430570, -76002546, -67235842, -72763957, -115368187, 75752243, -7754847, -11718092, -7667517, -136396304, 33756450, 75192370, 84391326, -119415127, -111884549, -28715895, -11151208, 6477821, -50535280, -47649790, -107004181, -52901722, 19028783, -22783127, -44913303, 11189999, 29118732, -27983131, -17898085, -71010761, -122668959, -17230673, 85480742, -36373992, -62319361, 23219818, 78564912, 224460, 36923103, -81529982, 22803536, 29448587, -9435943, 23768770, 60534902, 58600146, 103530221, 17449580, -91931187, -39423607, 16927922, 28135365, 12090658, -73659807, -70316903, 55764847, 28770545, 72931089, -18941214, 3282963, 68987712, 20361450, -75700097, 31793546, -40692400, 16901044, 107565306, 59980854, 21613372, -3158549, -69049954, 16242227, 17280091, 23583448, -16589833, 96867591, 47740705, 38662553, -2666035, -16193274, -87707691, 35828806, -124512397, 4440325, -20939222, 55805154, -70411615, 16364308, -22379866, 36016725, -252314389, 33112753, -32029010, 35114437, -141873807, 123295806, 1538855, -39107628, 57275016, 22614283, -281177312, -31949095, 67165546, 8364698, 1250532, 87131388, 84007487, 27438741, 108471334, 27403245, -168379977, 51889639, 22495190, -95198, -1445068, 82137614, 59543818, -73832333, -59724800, 17248178, -274308413, 39258119, -10119053, -87617442, 45073010, 46031516, -94136268, -48479270, 61997753, -23105213, -146802440, -20015690, -99493288, -17062217, 34567785, -923324, -13374145, 45214165, 33088051, -65510020, 4465538, -28827842, -114780426, -1972028, 115133554, -71229815, -218556941, 110581130, 2784582, 137905329, -218130797, -38647458, -253984511, 27723964, -2185270, -236897662, -223627925, 161689997, 95272101, -130069450, -80546655, 73857300, -154313445, -76157898, -480526537, 11198351, -138195559, -36231380, 203659862, -132527545, -37521608, 41033659, -202817529, -282382905, 53713303, 26698269, -51083498, -22631319, 253985167, 33816408, 127379641, -300126940, -200278312, -115569904, 270717591, -69731534, 212878555, -160724372, -290377319, -77278309, 235979259, -315819323, -175958782, -266311675, 115145043, 199308, 33879492, 66758342, -39154567, 67069881, -27768623, -51796164, -419396162, 60682625, 76048568, -128467128, 138177335, -123651430, 116793543, -297874749, 271487057, -186430335, -478402883, 99039465, -162677735, 47988053, 52633580, 164233580, -156812817, 17128397, 89630961, -32366641, -335960150, 20075006, -105419502, -19188436, 1589411, 122584626, -31849507, 91161057, 57489503, -49243189, -245361954, -39085686, -67180388, 77085622, -499055, 32585189, -67519441, -8325854, 100605480, -114397563, -86762413, -162896127, -193944111, 70400268, 101032749, 94376348, -21892376, -102170445, 106406212, 2361498, 37279632, -58515705, -198573843, 92166580, 23535199, -3727887, 25039313, -87767772, 8358892, -25079325, 10548434, -64602710, -14229462, -57769693, 41742519, -69161803, -65125279, -94994396, 90835012, -20569244, -16067090, 27390800, -11895407, 41425947, 115222670, -116276868, 41013625, -55710163, 28133482, 31818643, -94247155, 66991910, -55326249, 14165528, 137477636, -40996194, 49368110, -113247618, 16890118, 74174650, 29076967, -33241227, -122542337, 48808128, 52630160, -39682500, -65159701, -37967723, 20830240, 1148160, -19123692, -43745868, -93488157, 11007471, 127376601, -115944862, -15176562, -88433146, 38520455, 29972907, 34865629, 94948925, -113355860, 66923305, 19398753, -159240037, -6204837, -48248641, -26591245, 54305278, 42520992, -61279882, -129586130, 51789932, 12941848, -78788988, -46593640, -49037114, -10994313, 26691856, 121896379, 26600521, -74244015, 94492391, 106221452, -75256549, 20301560, -64305812, -18583132, -18677544, 90458050, 55417564, -76174982, 35799075, 55576116, -80091618, 45964647, 17157435, -10511558, 93060866, 90997294, -14257280, -4150564, 7268199, 27810467, -136072382, 40865164, -37210748, -36868237, -17507050, 37942320, 134063512, -10915597, -27957357, -5871890, -31589348, -25638390, -21691285, 856915, -60128864, 64282879, -7079997, 32738008, -15572242, 6715035, -31926733, 65975815, -84517591, -87763473, 45540564, -20552475, 38856167, -3696386, -52375384, -30145867, 10943660, -90702057, -2360807, -88542253, 15213824, -29757898, 20959828, 155263945, -73260434, -31641852, -88269830, 31957630, 3744233, 24065999, -21062171, -158738300, -170828938, -2671646, 8764689, -59042547, 166865990, 55693213, 30752566, -144113511, -40039908, -263272673, -158756599, 151547983, -67306750, -5411007, 139879420, 95932126, -47326162, -96078023, -10243802, -151418209, -221548244, -443963945, 90866312, -343397260, 103784375, 108590201, -30667057, -131056041, 209801659, -175805300, -245702893, -178408399, 184033155, -171222031, -83432958, 264148057, -164368898, 273040682, -391794026, -218838543, -301589489, 301212490, 79950102, 9917685, -83029665, -81204243, -187351242, 340542287, -135934100, -301474303, -287429929, -103099935, 90428442, 17927473, 35476033, -217632011, -294430166, -83706737, 46095651, -414053857, 248392180, -112955973, -48057973, 100343965, 125801682, -102409616, -237010926, 68390168, 67559242, -240356460, -127108887, -173935845, 4791174, 27158866, 122233301, -172166407, -118346572, 18796843, -86091720, -72134331, -98186664, -73099628, 63864052, 7155030, 229969367, -72617210, -96764356, 39837215, -36325488, -159666017, -67054309, 7807544, 8361842, 127456501, -21917626, 116316885, -112587050, 19204244, 71461134, 28941372, -21975819, 16436912, -8302110, 47786873, -41666716, -14972037, -90636313, 46270266, -3019190, -20910904, -154869109, -111063451, 47926057, 81470445, -45247387, 12300695, -61170410, 68526544, -13535, -5013519, -22144426, -88394202, 65862790, 90214297, 254556, 46902955, 9917811, 84890224, -2808078, 11125903, -19302571, -28276155, 50699402, 95639721, -78640141, 30916782, -28862296, 34447454, -67032121, -14806787, 4060654, -89925811, 36218960, 30860312, -34015086, 15451393, -55544678, 87762281, 25454573, 86530641, -54230820, -77255003, -6483998, 13051879, -116337471, 52954670, -67462318, 41773528, -27637875, 43648269, -6802987, -134133548, 6695445, 38539059, -45050699, -10260756, -53241733, 45417700, 17903982, 78825004, 17759055, 23716489, 3164553, 14081256, -69705203, 43528028, -24817498, -11519852, -62156644, 144241184, 39671693, -20255152, -32133643, 28899392, -182708323, -37218265, -79449870, -31273305, 25483545, 38008552, 20736188, -16686836, 51897157, 23285734, -144286260, 19836478, -102678627, 14791312, -11072261, 128049612, 65943599, -70645608, 37191838, 11679076, -87868854, 37477590, -106318869, 11048419, 23366980, 36380582, 128890231, -7293806, -59399959, -14219704, -122667700, -76782703, -117686629, 93125969, -41666795, 95033571, 24267513, -55689633, -5408027, 5978996, 19724334, 29650092, -85255936, 103342250, 72187737, 47283199, 52520849, 13063426, -23999183, -49194627, -31465683, 20047147, -14198698, 29906850, 48064210, 60754191, 919233, -17721685, -47120050, -89520589, -73459379, -53028844, -150441468, 69817692, 45615628, -16216913, 172852442, -88554278, 105106249, -32014962, 105063729, 58914945, -49609575, 79869837, -6360233, -128080755, 5213656, 97523130, -127997980, -83424963, 125111639, 20506902, 84673330, -129305825, 55004500, -86533442, -24097882, 22031641, -68725184, 100676619, 115901619, 139371961, 89018591, -34579951, -32981243, -148462817, -449256718, -555124223, 66046327, -322396159, -4211819, 144165486, 5558161, -176306099, 114030942, -159973651, 217024669, 97247235, -9074633, -123821341, 191285521, 146728143, -84323034, 100359611, -240188599, -218096107, 13975757, 289923042, -118959591, 56554407, 134125486, -152558535, -69835879, 160054341, 73377624, -404425353, 116875835, -89744695, 38026731, 94670624, 202322379, -500054598, -246577844, 106492527, 136772454, -211816892, 42995319, -44655401, -171970293, 19115834, 18675182, -149151310, -303764790, 244746074, -64892635, -73175184, -77085122, -108033493, 13600544, 147443980, 63330874, -410172194, 7828504, 91704287, 147815093, -22647940, -185481861, -147770405, 94627224, 72193295, 28912921, -120002747, -3428455, 81847101, -49520839, -58744945, 63899659, -211128727, 19567531, 71577005, -64979680, -38458683, -121070594, 60132045, 47901094, 1220361, 112963460, -20893266, 14245477, 63178629, 21416988, -65205120, -101567097, 174315229, 39856106, -83243579, -19259131, -200876877, 103454, 37781894, -92037059, 37344225, 19941002, 71027495, 65891251, -22698410, 12761780, -198641300, 9648221, 36328830, 55810910, -58472641, -53502701, 54239672, 2847089, -39854843, 52987635, 4203375, 31390030, 107314311, -11692924, 52505307, -64778000, 52942995, 38745008, -57822123, -83425477, -101180851, 31612437, 53709369, -46367880, -32289941, -50030842, 75680278, 25120584, -24846211, 70662789, 942077, -37630450, -7584769, -39598238, -25175864, -88494368, 40644284, 25224198, 33480074, 31379178, 13878550, 74724033, -19733518, -40194951, -12566547, -86540863, 32667819, 49939740, 44198792, 133591846, -33403926, 37825130, 42787861, -107052729, 106006593, -63169524, 16252516, 17656038, 29352224, 12781412, -59742890, -11596702, -30729078, -101852372, -57527781, -81132717, -18926131, -35874605, 143059, 92944540, -46592772, -5823222, 15444445, -95959462, -30305305, -71473658, 55279914, 26229633, 23229420, -6151364, -3988629, -51580582, 22705339, -78120612, -36360864, -95309250, 22582604, -88167541, 19307643, 93291856, -21886349, 29608432, 25478523, 13107963, 43198440, -58581322, 7006922, 19054487, -20062856, 30237505, 14760682, -5410616, 15940044, 5729674, 7611796, -118745320, -43878693, -18416382, 12567209, 62001146, -33862442, 27278908, 64142719, 17444713, -29247463, -175630346, 21694472, -7537428, -83920993, 77498332, -13334185, -4132669, 4137315, 24079895, 22343844, -49857508, 112249628, 29649723, 10336918, 54500297, -2907852, 121560752, 53741071, 42102154, -49569979, -112331010, -9930511, 10016902, -30125905, 31641584, -79193093, -57603896, -6349889, 123891085, 56606852, -136423290, 34527898, 18373391, -97654738, -86585075, -176509872, -269203275, -45744639, -15907988, 26189774, -22977646, -133260116, 75752422, -170701087, -370975018, -590299428, -74748628, -302819103, -15076006, 305267632, -274948239, -71669072, 28817821, -113760531, 202540591, 289275914, -238637999, 20286854, 175586864, 177047297, -191194624, 43656241, -245895967, -428524047, -733222, 39659001, -90944588, 141444162, -354561150, -123251796, -65042697, 258870989, -35065368, -313981712, 122999512, -343316555, -3734302, 262132049, -250282347, -74840568, -117832385, 275046706, -157705680, -37481666, 140046969, -266549915, 122051366, 46383098, -226372227, -243207335, -688524842, 165124595, 59277620, -47281247, -111033931, 3486463, 41148264, 207258746, -25952540, -326011688, 53979404, 35943903, 18368987, 29697767, -174429595, -11047981, 63941836, 69686018, 56320764, -170099989, 1583757, 71437702, -37150159, 2293965, -89171432, -92984788, 52028757, 84664814, -87750867, 18773172, -112315543, 33122268, -24118004, -17230026, -39531097, -52063655, -35393838, 52378517, 9564417, -61736230, -168442011, 41271299, -627283, -48152886, -39209723, -82500868, 77134661, 51658999, -17724400, 12437769, -204729930, 30183814, -3851434, -64582668, -17883383, -198495105, -8601923, -55073764, -52925430, -4204986, -121543877, 39768741, 24009153, -36493346, 25182856, -20327721, 33183973, -57279222, -14535127, 48151419, -130620420, 107552461, 20898988, -23844, -11695724, 52226797, 19937273, -99056818, -14710642, 46235316, -100705422, 30115800, -24687598, -25502570, 112095676, 4485072, 60419586, -6578947, -45951344, 3558116, -60043778, 163934365, 13792728, -4561732, 35939749, 55254057, 20362563, -38833003, -25409933, -37279602, -104939975, 50853971, -80871850, 14952288, 17872315, 38425863, 61012812, 51921, -94712108, -104265958, -74585475, 18700328, -27543496, 43329742, 20683553, 21357767, 99250205, 41471191, -113234907, -22358913, -97925052, 94308734, 15742408, 89148588, 181899235, -2527436, 4737975, 25791144, -42923670, -44004701, -118021294, 94637081, 38667340, 44694044, 41970711, -2930133, 19790536, -4222114, -14271251, -8791435, -92539750, 131106094, 20661201, 37476856, 93380883, -13415808, -61023593, 44606775, -39320264, -18270779, -158989161, 74303433, 15005026, -66455670, 5886588, -43323942, 2376203, 11026019, -28177178, -32753486, -106978104, 61956741, 15480107, -94284929, 29091792, -18641802, -102492772, 39922200, -35853595, 324018, -150808051, 34573965, -12950134, -67353301, -50153065, -42081557, 23181852, -55404097, 35271436, -16808268, -58271166, -66286683, -20966498, -178042978, -3366564, 3742360, -10051904, 92393868, -88038214, 66084512, -139921099, 48615288, 62624373, -59914254, 107501335, -83950058, -11430915, -82454145, -44627652, 22457583, -153236672, 78855261, 51025033, -148556590, 131701842, -209360063, -268089145, -324615389, -66795953, 201133043, -137164935, 48205953, 112047009, 9091688, -501773655, -706259966, -271647811, -251832098, 74786641, 186811954, -278955698, 79031013, 140075833, 4142524, 295374870, 243187264, -130101562, -5302434, -40611308, 111917593, -230193958, 179225862, -265718251, -294016242, -44561483, -167890251, -83959237, 235651121, -56689508, -229536831, -196764588, 92048697, -353326112, -194486305, 54580551, -410143614, -26927836, 216595873, -115525439, 55616628, -463212430, 76690726, 42426828, 4303148, -51210616, -329484850, 329582691, 136011094, -263279855, -207480207, -377486289, 76972999, -177088693, 197337404, -146937668, -166663513, 207931206, 180866316, -178298086, -133722812, -26553232, -38475923, 132774591, 40322483, 49344707, -192666769, 125364885, 109704137, -22337439, -75751230, 45146238, -17684745, 31006694, 30676881, 30218136, -110519372, 77334650, -46831388, -60122211, -43886371, -78824408, 53414438, 28494844, 46654485, 13404051, 131045192, 11951872, -5791991, -20590931, 71696557, -11995574, 125158444, 12005039, -22329977, 18011957, 56126423, -59555035, -102990896, -82437910, 68410493, -94610885, 36140852, 55318028, 22244206, -24112852, -130114079, 23818456, -101557173, 57242692, 69575928, -88929191, 105291545, 19806245, -34116622, 16031526, -117992729, 74893929, -101859935, 2791632, 27399333, -81188709, -5084350, 18742379, 2888328, 38437396, 16964750, 54523133, -99809885, 60717769, 78612871, -69204621, 40057141, 10367673, 25608778, 57398014, 38611557, 43267008, -46809521, -23780400, 99116564, -24247631, 14856412, 59115797, -77725679, -2269897, -65539464, -39363332, -85894711, -73458441, 42657390, -60964078, -16098289, 6040108, -46676878, 28880117, 49117073, -47097299, 3441124, -36607388, 3998732, -66325612, 67857407, -53318691, -22631181, 26086951, 33110421, -63945286, 78738175, 17596951, -36027201, -106897771, 86155936, -48926562, 40685419, 88015631, 7575349, 17314877, 51817670, -55983458, -52106768, -93125559, 38163394, -5599574, -44920113, 88392891, -6838275, -82580708, 59733439, 30104004, -99285156, -173731565, 26174333, -44569105, -52051269, 30072810, 77027470, 3433917, 64867422, 94284311, -65120339, -132328793, 84698409, -20958971, 25705211, 1660679, 32785181, -47084328, 66095658, 10445087, -20119468, -191185847, 88672474, -63596614, -91970980, 31243857, -117174573, 27468456, 88222913, -15443605, -31786539, -116879299, 28257255, -42027794, -54319937, -27927896, -63205220, -72661690, 125614956, -12406887, 35326499, -90011612, 57623789, 78908674, -29159129, -35955492, -19297041, 30409154, 109578498, -34853201, 16970167, -117193051, 37035372, -13505045, -35895899, -34642179, -151556805, 59295740, -9958911, -45633182, 122577965, -200260133, -36947876, 20365138, 2487066, 95522568, -363400519, -302452952, -577077985, -57124753, 247144923, -50253838, -3842872, 58640860, -10420047, -357728302, -298420995, -269551247, -156189844, -67498051, 157645077, -248836711, 13604147, 43921344, -99590123, 3271312, 396283180, -388828933, -157764241, 2052348, 111776061, -131050065, 254838556, -359470159, -342192918, 72803847, -38965497, -305456400, 303413630, 132608578, -198056102, -175150871, 140547484, -28344125, -223988265, -203266591, -132595509, -65631099, 188887760, -365451604, 242290944, -413615972, 327847213, 46530522, 87822504, -111301027, -149691373, 363728136, 189388692, -254605532, -142651588, -312322527, 36432914, -49253594, 37970860, -78580439, -104594357, 61906915, 49594827, -2762815, 53730745, 89515164, 61616823, 39641362, -8435293, -99934451, -37530031, 9149396, -112672061, -92579596, -43929290, 32399852, 42983830, -31878658, -26861036, -9782209, -105116278, -63246578, -84734678, 11242374, 79965629, -189325169, 85277945, 75770639, 133226007, -68581864, -125354663, -118936412, -103911705, 43266047, 86305514, 5995053, 134485662, 107046098, 48038967, -14854088, -5572508, -169505507, -107279047, 72521977, 36771826, 31553444, 20838017, 50262500, 18120054, 74250087, -616189, -127274185, -17650438, 21664459, 95746890, -25997957, 66158801, 93208380, 46334401, -40725611, -122044668, -167739928, -133733228, 44477165, 69654711, -39415397, 37121527, 84036879, 18824916, -85327022, 10679481, -165111586, -90285666, 41540168, 56913629, 33504087, 110476784, 59358671, 33708751, -34924146, -24663132, -194848403, -145778343, 108003721, 70725098, -75136051, -11067377, 49067590, 69334865, 48336327, 72348818, -186734408, -69372281, 23054387, 136467278, -28266996, 88937990, 110860676, 84074922, -89326203, -23189517, -95393531, -306438, -141267881, 3368812, 7388773, 91119662, 14034473, 45354661, -47271624, 157064915, -50600335, 32315291, -7825574, -3267376, -58986545, 29948171, -104375526, 54195538, -62628902, 83647147, -74823238, 42090688, -9338590, -65654814, -70207670, 141761437, -63188277, -8263731, -23864295, 30861294, -15763715, 39752547, -50368477, -74512862, -206820711, 99974304, -74798077, -46449706, -22686962, 33977579, 16956132, 59890475, -33117533, -45681339, -154127628, 124480382, -29953785, -6460023, 1163150, 15344927, 20434992, 6122324, 9519204, -148671612, -91986574, 51195912, -2629180, 62377553, -33322487, -67948297, -36239721, 82103468, -26704764, -102910630, -33951331, 106410265, -1170871, 122073740, -11380031, -34187585, 2042022, 4928456, -16281206, 4137404, -46874892, 49464677, -66552468, 62748186, -45073878, -118415296, -28242340, 124975212, -43066729, 39414126, -133250579, 79292051, -28747411, 63810349, 12798253, -81361137, -66419832, 41884955, -118340008, 60618900, -12348228, 19737545, -24059813, -16907403, 129859984, -354388744, -255527943, -699455202, -48174303, 305961609, -81595942, -183447108, 103689991, -22373028, -249161452, -72552323, -162316829, -2100408, -223942265, 281660378, -349625021, -129304111, 80356121, -6460584, -348658979, 277884245, -264591604, -295866430, -102163248, -10246198, 963984, 169191957, -191187173, -49417362, -54379549, 303751022, -419937253, -157635823, -173990428, 22444939, -108111210, 298825949, 129669249, -63870147, -169777021, -55703305, -7413887, -71225584, -369938612, 218401060, -438828975, 338193983, -146607205, 252792537, 34296554, -16026221, 40097687, 157038391, -54380085, -247096822, -379696846, 145940274, -151021227, 127102107, -120108433, 109698683, -240256071, 3951092, 12743357, 2605629, 113782249, 100844406, 79162709, 52346691, 4183927, 46823382, -213573977, -114388928, 17755533, -70507713, 6637724, 115153566, 90259604, -86483061, 56917645, -55603597, -222442672, -28355956, 82737118, 7931279, 28512672, 104511499, -40919185, 66147238, -47573987, -29212693, -164682254, 33993229, 63892119, 55137213, 8473517, 41174818, 18129846, 58603786, -31490166, -79581298, -173512012, -52036759, 87201156, 90929322, 9289406, -57254761, -98137, 65246522, -47388323, -115784459, -226169586, -94795354, 152054667, 58274530, 82094483, -13006694, 47245577, 42151172, 21454968, -67913204, -208776623, 12363034, 113328680, 77474020, 18156979, -25484059, 8307626, 82751133, -19765627, -110562108, -191385150, -134035453, 93343064, 52572113, -643547, -61648346, 38930051, 64246938, -79324760, -88735618, -179557562, -26101723, 158149645, 14561327, 40272631, -94027288, 35281662, -681301, 2515262, -41465420, -222131148, 65830998, 13907722, 107905857, 35727702, -97592659, 16878502, 19730233, -87989241, 75029641, -183442444, 41040216, -11472599, 71113862, -42561095, 83784826, 37544891, 39863400, -103498526, 52262940, -204164729, 34343906, 47667369, -9521379, -122855313, 66837922, -27687691, -45326475, -158721551, 158819512, -20186383, 17024508, 21339132, -2035293, -98333053, 153617, -17041091, 167740, -68517290, 26387284, -88375479, 519288, 29173929, -86273275, -73820792, 6158527, -37548915, 24182681, -84779233, 74128672, -39718390, 36677979, 32295566, -68033651, -63319616, 30244203, 7143383, 92096135, -62923789, -7434630, 16521167, 84042422, 25410347, -137032688, -57177939, 43139543, 51832229, 72071686, 14728209, 24235159, 19138837, 44462781, 49857110, -246078566, 100952767, 81166051, 125894219, 71330778, 54167196, 60524460, 20622041, -98688431, 27494697, -385077953, 3872420, 35296049, 156719491, 191883296, 89255385, -18096270, -6801615, -92958502, -59844237, -487807810, -12280270, 55996973, 201691553, 111808643, 97117268, -76839484, -53035785, -159863636, -147187248, -158244789, 99543661, -6652417, 159575582, 145120725, 135884151, -517343163, -81456304, -564825952, -115026072, -40812377, 35751294, -201621801, 112161934, -49676102, -287665308, -49618457, 41801412, 60640294, -284453958, 345704913, -200998485, -115840390, -20446014, -157582000, -47869664, 328058183, 39420880, -363005042, -191813573, 205936015, -54520834, 191545561, -174630940, -89506373, -17005568, 301008463, -449095458, 4245631, -280885547, 330758899, -95869012, 361321628, -255056620, -3689577, 134997144, 36599740, -197109282, -141626805, -12896838, -117005065, -299350381, 425909162, -397090822, 63085102, 110728472, -68089925, -111774199, 282653064, -144002542, -268258363, -391832203, 386672825, -178659782, 7777369, -42120907, 194590688, -123789750, -67046262, -47827363, -63296840, 145028651, 92844099, -104935959, 87018013, -70862971, -61570842, -167846844, -70297383, 110200971, 25420636, -78618176, 4995642, 582034, 12538927, 27263671, -108309910, -65688469, -41096769, 73088460, 54575570, 66366576, -85567728, -49274594, 28061036, 25459971, -101985432, -169428974, -106565259, 66890903, 79425476, -6267628, -69136731, 55864342, 54344062, 10061080, -89180201, -98759443, -103000998, 12082784, -3071858, -6274437, -93357310, -67258760, 50920814, -101859845, -112706609, -40852252, -161565050, 99675469, 51409505, -24484482, -57959355, 61074402, 46892945, -6782855, -120495051, -52715402, -62987484, 137626857, 55631291, -63679002, -92807442, 10691034, 13394304, -36479674, -93347117, -43596093, -65074556, 162456945, 94388455, 22751926, -59350379, 23172894, 61452892, 13296578, -54744240, -74048951, 31028384, 165119678, 84950462, 55309054, -140794978, 18210845, 12614518, -20057149, 10627415, -82965180, -25786960, 134007, 37212890, 81278391, -278969765, -1395633, -41072704, -112058230, 144643292, -73856361, 97224280, -170926765, 17316120, -66672333, -116145119, 41573990, -65353736, -165472180, 153277680, -17124366, -21044372, 37227139, -67787997, -52003741, -61543468, -28746137, 47259666, -120798737, 130385414, -60350448, 80518238, 55711955, -74175075, -20758327, -5934674, -22373039, 67984119, -39557718, 39213736, -28383713, 30680533, 50651517, -60196094, -74104682, -74287362, -9074113, 114166006, -127598092, -38747545, -22155154, 4551807, 45134183, -69566570, 3114839, 13020312, 7667582, 67468360, -66955253, -14013998, 69850355, -32820549, 98841809, -65369926, 11400158, -70544653, -4609627, 122831948, -16908968, -32090344, -12476225, -38502660, 22622854, -24565499, -7004815, -77979341, 21101924, 99776439, 12394705, -25882890, 6553425, -192107022, 95133603, -209372878, 84485352, 44382852, -2824475, 138222277, 13499917, -127937108, 18201998, -241705507, 73066235, -433291882, 26557701, 55662937, 63732587, 102100641, 17335849, -68974577, -15477696, -286188692, -37040804, -316344798, 152748883, -7590183, 149275556, 88605806, 79524681, -253275871, 236044124, -223696724, 11209779, -306284547, 156977102, -63457057, 133324593, -69869108, -50949864, -106046692, 218739823, 105098777, -128612474, 24845824, -123500586, 6841820, -10990142, -470240980, -310426503, 365497053, -2691109, -59018783, -5103265, 337945342, 14202922, 61392456, -311525106, -173873737, -190939426, 304809242, -161269039, 118213348, 138304204, 91637813, -69051057, 262146771, -218601525, -149528667, -272098541, 286131024, 220449612, -62378120, 98124951, -118736088, -329338521, 363714635, -476156592, -2202336, -7735051, 133809909, 159698337, 72260849, 87265573, -149055362, -171885341, 193146870, -133780956, -173752367, 68518177, 246459499, 3669007, -97831167, 163281962, -187702835, -29740889, 42560235, -101797476, 56420691, 3525221, -249875218, -160677239, -137020394, 107669875, 13164814, -10444859, -76797463, 63666992, 163278759, 98292992, 10803804, -49020741, -27448466, 89065440, 39145872, -38016785, -113143556, -4058357, 34290738, 49419548, -92034087, -149660990, -114587024, 100088477, 14435248, -24125656, -50092179, -13278767, 68812132, -4046093, -221541956, -116102770, -163865373, 108174220, -11204221, 50480075, -23998000, 18033899, 16967330, 45832731, -23761267, -81212491, 22496926, 85270949, -10536470, 62333036, -75977795, 9183644, 69422849, 78003444, -173717678, -88443130, -80582783, 56745749, 19390382, 63161686, 29874882, -29069275, 41831102, 48618264, -122391492, -33174723, -3810941, 90365961, 40288664, -632096, -53821150, -11920610, -9139448, 134493724, -16939139, -58871683, -18028529, 176272988, 50632402, -15719956, -223268494, 11355776, -75496480, -49530614, 67159668, -35824522, -15985323, -41605581, -3798921, 35212301, -446478307, -29641530, -72178982, -131836191, 226567477, -45592014, 65934859, -43531317, 23477471, -106016912, -124914840, -34737278, -36437497, -213904619, 86050726, -77768549, 1896539, 59719265, -48378125, -91259375, -112567507, 17634265, -5907848, -346993566, 96164227, 7007245, 23478977, 45550380, -137551501, 33232566, -29455220, 49588963, 7217993, -116771147, 141062319, -28152695, 30904815, 65765709, -129151776, 33519600, 57660129, 15812764, 65751828, -128445089, -30332867, 27720721, -12992990, 15376167, -174981043, -62139336, 34737434, 41483007, 59842419, 25517806, -183601692, -24802176, -85788906, 91600612, -179842100, -72983824, 93737409, 36892198, 139965698, -28973851, -76561876, 1129828, -137358338, 106625557, -29845709, 10008067, 11747743, 17343827, 62296603, -2731853, 29078301, 5958461, -142691106, 87760516, 41580915, 40585734, 44575419, -16824909, -30369112, 19225765, 14764936, -16694728, -287385851, 61748233, 90174846, 54330252, 34117464, -97190090, 12198128, 30582117, -11785047, -72889425, -82253516, 96706495, -172528222, 200619221, -1139016, 34084272, -36913056, 208529904, -222934514, 21268988, -174759448, 17440774, -467670292, 190546200, -37379652, 50603166, -312955558, 12555036, -153723866, 177880198, -40260892, -13311409, -163878903, -83674371, 155132622, -45667045, -342664957, -206749499, 218527704, -136699587, 51435694, 187679440, 341894448, -114621170, -37904371, -411817342, -466436863, -291374773, 397274047, 163383752, 83336227, 189337805, -115285866, 24831494, 430814892, -199592263, -580809176, -22824777, 266547710, 472644448, 86461626, 3391327, -202459425, -358700126, 313675553, -397390962, -535441041, 42433292, 88544257, 218139485, -53605519, -76671489, -130847007, -356622785, -40469252, -188990220, 45959301, -183207259, 82669370, 51471118, 21580916, 165064260, 2825435, -275022984, 12704762, -70381805, 82728930, 26026180, -77844046, -90216316, -120630898, 18334206, -38239874, 43390851, -74648075, -19757686, -53935450, -8872345, -7434624, -93129419, -148256287, 75158678, -50118737, 46033837, -18858379, -31419210, 110925853, 32985579, -35370793, -97263470, -134201020, 83367437, -13911709, -3790942, -106850468, -29831287, 74702866, 77357881, 1242416, -10977497, -112579465, 55424027, 11015363, -19564832, -18310664, -21694617, 41736089, 44296261, 26504742, -34202941, -7897818, 95797136, 48446219, 8712042, 16137304, -60718488, 7548578, 42242583, -41207932, -108969323, -29516652, 132881746, 62310338, 99757813, 9783159, -37665643, 63716926, 80876455, -37060164, -5083812, -29295752, 81549495, 48407417, 127632499, -8303963, -27306741, -2432599, -30941309, -30887883, -11734658, 43583125, 51486831, 87184869, 61736435, -414419740, 33551127, -148275435, -133484244, 103682384, 52378252, 64025715, -72880365, -17629050, 3184543, -253879815, 67306541, -50560359, -251120776, 115819268, 114941098, 71000703, 15072955, -31171117, 89961693, -58159478, 48358914, 19653099, -168559879, 149122134, 16093828, 55927433, 94525076, -51851984, 6969330, 13906206, 84901601, 102103941, -204666898, 132387161, 43239616, -66713899, 18674329, -112981819, 68776444, 35295028, 37698016, 87456822, -84571868, 4245408, 39714385, -38903669, 125806719, -80681011, 8710725, 102933355, 10875051, 140689537, -14187668, 2062171, 24715077, -35263851, 36388095, 22470638, 42107876, 27340427, -25072828, 51145777, -56061644, -203433692, 7679182, -51586606, 78089513, -38054775, 61869539, 51447716, 63231990, 17714323, 12478664, -118809700, -34066670, -19973509, 33534925, -98543443, -14546065, 169391811, -84658682, 34008868, 51453233, -13142367, -57196259, -9943247, 95200397, 3410700, 85610949, 141920984, -50838917, -11439012, 99185385, -89144371, -135057166, -51174417, 20653481, 22775140, 27221767, 41075688, -165122017, -36112621, 136297777, -162543431, 21607623, 30040445, -91458015, 27449606, 122487575, 116931610, -115340501, -201621607, 158620343, -95260561, 88654339, 57697915, -169937700, 113558061, 53826831, -23117032, -154698133, -423050672, 96654564, -216128603, 171181366, -234294310, -32042317, -295511216, 22061665, -157133013, -8058898, -379028171, -387989342, 358581871, 84860221, 124145508, -13426137, 134822339, -150071636, -15374128, -491833985, -200804815, -283686221, 476304442, 268048137, 167114019, -169113666, -229978874, -109010562, -60889125, -185810819, -213672265, -101725340, 283868968, 318489492, 287176758, -305707216, -288579911, 41348781, 54788392, -116625413, -519935131, -134992808, 52075852, 261172175, 58385104, -171032891, 28389802, -345252186, -6420760, 61180260, 85861258, 137827992, 27741790, -84814876, -17664965, 40067010, 44053584, -315715432, 3942235, 29035395, 119810678, -27419971, -140427515, -89360908, -47310632, 31972829, -1427787, -34684382, -13865854, -22078488, 70860289, -20927260, -186785221, -53090442, -188101307, 113898061, -51679574, 33438165, -43910399, 88291198, 76832555, 129789054, -72559454, -19989597, -18122038, 89824624, -91496132, 85373327, 50768171, -41813567, 90815693, 41294653, 66170886, -90239868, -134087533, 138630286, -61140992, 103973165, 49171515, -71955234, 100235909, 98746300, -2620100, 22065248, -10009782, 46227198, 33250123, 110345937, -71375892, -61262447, -10622077, 47488961, -139970675, 73940411, -18612929, 35008326, 28286407, 37403625, -34555811, -37329804, -19002732, -24510559, -58313861, 83160184, 39368395, 80004826, 4097100, 108354725, -108849145, 17808676, -4663482, 23963977, 23605686, 12545206, -45874152, 32899551, -17147511, -4214677, -254818290, -12796304, -124501646, -138939083, 67297913, 44489767, 5505459, -34997765, -32034788, -46336912, -231281355, 18231096, -10220494, -147101879, 218889922, 64304300, -13469694, -59302196, -106577441, -14963375, 1262484, 117554978, -29722698, -216008544, 29472714, 82241893, -31406116, 32216124, -83229728, 71199298, 28098343, 47254182, 77652350, -243628323, 117758237, -9052685, -90609401, 11353038, -172555730, -60670689, -59479572, 19313309, 13359877, -74564338, -84160030, 33748083, -43011632, 65670021, -92233129, -23690926, 75250544, 16932858, 77100560, -8670186, -160645604, 42035911, -30545183, 88775791, -74354701, -22890631, 136735767, -53113446, 17384538, -8543557, -251899302, 83596855, -40442217, 105781853, -15718276, -43181993, 96984871, -142751768, -54218177, 56463830, -254032493, -26917217, 6146021, 34748562, 72992750, 54426480, 123788409, -99469028, 11212835, 102028340, -62293787, 29691150, 87418564, 43105543, -31936474, 65147638, -42676687, -110152543, -73710710, -9113164, -139841393, 10762422, 132539362, 44776361, 3460920, -1764660, -49938835, -166609108, -32742735, 24545131, -227821037, -79852492, 103385158, -65916605, 17910199, -68018787, -45130227, -231893122, -156196550, 49881671, -49545392, 179891258, 152258500, -203416988, 32314777, -11155192, -115678012, -216506749, -422638267, -52911378, -236871824, 306566119, -514778793, -256581873, -298705816, 65411367, -499512702, 43747827, -226425290, -313399792, 495349050, 70994891, 28697528, 14873951, -132646874, -96517444, 67284510, -628932774, -169010416, -5515690, 317460388, 284113288, 110548586, -274972022, -139554664, 87627321, -80981031, -312796772, -414887816, -222449630, 121096447, 97546801, 191100359, 32310326, -142865866, 52573998, 117391422, 50252449, -668464482, -149121761, -77905022, 65549746, 59873603, -31637587, 158891186, -157043502, -152662620, 126451775, -31128066, 48401218, -164531708, -65359376, 70554361, -135335937, 143759117, -414259613, -66736795, 59733510, -74200861, 102812640, -279020458, -6108843, 4775348, -19147703, 82385533, 20654626, -151637033, 147926465, 96745051, 21851644, -75701199, 29475473, 106193900, -1892564, 89059316, 28079875, -41546129, -98478049, -39894942, 54119125, -139557570, -15842898, 5423394, 70071377, -135675952, 86793043, 14816612, -14774672, 6467054, 7815156, -110250212, -1616548, -107911937, 51688805, -122570172, -12280683, -19275013, -112972043, 30358266, 51548701, -102010995, 22914013, -142355546, 11586192, -77351391, 99320494, -14677991, -585475, -89190148, 25091266, -164742157, 40476892, -87575644, 15580544, -38181905, 42110819, -39709937, -11011181, 16062573, 13385954, -3537270, 10065690, -110795021, 57951350, -72000951, 80734044, -169210255, -15438154, 24091206, 16754843, 34963045, 97720355, -69968678, -36742140, -54069743, 55921569, -107261091, 81737898, -170269, -251266956, 115911491, 143439934, -25686849, -73736697, -65638721, 61246660, -149073675, 79917222, -53923629, -153503239, 152365074, 60599662, -61039567, -8218123, -146991283, 556308, 20332616, 111305013, -24404483, -59282165, 69753058, 18732777, -75463504, 64776197, -58788385, -20409763, 675983, 54222610, -10229995, -82013823, 67214862, 61137881, -109514020, 117545590, -36812812, 78912586, -24123427, 29255152, 15878731, 6566579, -173948169, 17314473, -130714700, 23796476, -6807289, -82445696, 106550850, -66646613, -40266786, 19965438, -281613231, -16410138, -9858856, 90975776, 38892880, 40752448, -5608564, -10558683, 951830, 46457853, -270279080, -37251607, -4986743, 55570740, 35084944, 3053932, 1329300, -103487551, -44067893, 68345465, -46572488, -23018511, 77070192, -36892872, 45401271, 27165398, 13839347, -134636417, -30787928, -28406717, -12023044, -16503468, 20014562, -47432993, 51838338, 62851772, 44858035, -125469893, -151784927, -38965251, 127128795, -13834688, 21805149, -21167852, -41594829, 58907893, 97846933, -122920960, -26954383, -33121586, -211813301, 108064860, 111562230, 11093791, -49442910, -39441440, -33871394, -9483154, -98408647, 80427960, 111840136, 40655769, 139232740, -228591591, -8858470, 18616153, -108646937, 72610669, -440293819, -103772022, -243193135, 345690519, -564395785, -192572087, -126044154, 14814666, -403687268, -103156380, -162054464, -231536195, 170410901, 151079535, -12667653, -179778501, -132827088, -47000367, 336561114, -175655171, -85070983, -77053800, 388838440, 93088575, 161709994, 138218090, -291940570, 107503362, 65760940, -264216006, -179813966, 5978316, -172277480, 50225511, 59401315, 198517948, 1712017, 11962323, -169072211, 174665824, -448169261, -368310690, -273402095, 113095894, 128287748, -80462582, 169207647, -372641504, -262760341, 151059523, -251529455, 19427266, -158870205, 18778753, 87793469, -91731757, 100440174, -431633711, -15588593, 44107519, 43027256, 45550179, -337137282, 55946447, 5459388, -117151134, 85435562, -101042032, 39161459, -98553032, 10563170, 36898240, -155325666, -16276836, 603088, -92441179, 122030355, 30361446, -16711159, -151473105, -66149868, 41153125, -129360452, 15185194, 30192953, 10049454, 54670393, -28303334, 85420989, -35305813, -36394417, 53645976, -67792013, 8721408, 44541787, 97811408, 38376946, 42358425, 4484979, -12115583, 33687532, -6840341, -107561745, -1175611, -111747757, 70065327, -92219345, 2358557, -48595965, -6382749, 30981218, 101866081, -1587619, 66837385, -118067667, 12707409, -18401792, 120588407, -153913870, 38114879, 20491410, -9026960, -125162601, 12564148, -156163141, 37213881, -63902512, 108399652, -216584399, 86126246, -17825676, 6397657, 28278343, 54367412, -185233757, -8656404, -63285872, 63359484, -1080428, 40572423, -22805730, -212122753, 42843942, 32746606, -17627561, -32621767, -73103406, 5361758, -19946851, 3201759, 16266827, -152371317, 92526123, 84886447, 12983712, 22134511, -8339874, 133478999, 30029079, 44555690, -55124234, -29063364, 89924671, 20558557, -10368704, 63636757, 56331396, 87586328, 137174875, 31210516, 53995218, 4565215, -71375445, 67527764, 2868863, 61311752, 4215914, 20985497, 82028046, -10242605, 30689185, 4696181, -286860019, -31806339, -24324181, 26372965, 3237620, -14527194, -37491899, -60204964, -29497225, 64276032, -94049580, 74340492, 46289187, -12733491, 58599304, 63231625, 119306214, -146386266, -42076040, -21264117, -68638019, -68692967, 144110739, -39133791, 7449605, 60811017, -66776760, -68985157, -74398436, 70234157, -5396979, 10593662, 39796282, 37358809, -30410832, 87689161, 14877437, -370706, -83036259, 32128051, -29290153, 31987779, 89494765, 12065703, -25371281, 48986137, -117188260, -92424363, -85353099, 90624869, -23976410, 78072019, 68436667, -25497444, 31089857, 96398622, -43245360, 14077271, -83887026, -22333842, -32867823, 64360544, 30263005, -9894772, 73472954, 71939655, -155284107, 14216709, -2230818, -71951240, 103951223, 12324104, -92439339, -75142913, -5052873, 101726234, -40025674, 106283724, -385517269, 5576589, -193862289, 324784309, -648153722, -285792142, -197694242, 69280446, -141370654, -153863326, -196932226, 43523867, 287273616, -98245189, -68131447, -66800438, 70220590, -190611333, 294391692, -167237148, -211894765, -34518059, -42209174, 102673538, 205111295, 364754081, -121346310, -157329261, 14426833, -51846988, -391552925, -116733029, -348915666, -78425579, -4837932, 5347979, 199132726, 78196742, 136500463, 273590267, -259691089, -351105571, -524845839, -40169731, 229141891, -32831717, 253506094, -243452087, -131740585, 113416731, -179804578, 46695467, -75065516, -61743591, 108137541, 38718618, 182989076, -263381034, 101206675, -119902410, 38837142, -22055747, -81862055, 50198786, 55872753, -56237582, 43334719, -71739547, 68992846, -157215089, -65454677, 115469165, -107193448, 78052565, 34236725, -84076993, 129475430, -7252164, 44604938, -63277073, -19864848, 9688738, 31888440, 59233919, 15627030, 20513706, 85912667, 34687411, -59372813, -97601287, 45705, 9572505, -47340967, 32462321, 19612178, -108836986, 50735455, 6905343, 31757429, 11492159, 18118815, -27377218, -102869339, -50150398, -59977856, -93307458, -39891083, 57593193, -172550693, 32992143, -35935160, 68376392, -102952920, 48041057, -89789130, -163672477, -23468249, 139254063, -221776560, 3640841, -75754844, 85828908, -31453364, 56898847, -35825100, -86858124, -56406438, 90243913, -94909929, 55138241, -43697126, 38467906, 14899390, 158397049, -24829328, -78827664, 2809191, 143315643, -66500694, 124103390, -86001009, -107666194, 132890001, 134878665, -42494372, 43713734, 395104, 102859743, 46818189, 61742205, -127724856, -130200371, 125802189, 72567642, -101416945, 55900913, -37230615, 93387745, 9528193, -27462276, -22302315, -67976363, -1355579, 92723168, -56078516, 47929391, 63044347, 76383300, 20747475, 1032571, -41813880, 70873909, -192407340, 27361926, 46272270, 4910570, 50394546, 101741850, -28902253, -21411678, -29654168, 23736574, -117864989, -24532324, 57930682, 30607898, 75598173, 65934181, 8576034, -75904861, -40336303, 40449634, -1121642, -832557, 83857819, -48688482, -1460926, 86060397, -81673183, 6589339, -46735857, 58966503, 9852041, 40667016, 92934288, -101758026, 52314099, 119576730, 69151260, -60873426, -35460606, -5352339, -20109665, -59911370, 1528580, -87402984, 46531271, 58593202, -65978281, 888744, 26920781, -64226910, 73548511, 25047023, 38536530, -84876843, -15704621, -43429963, -80190629, -25563331, -8768605, 47207925, 108290210, -28616959, 55235520, -259845108, 23899186, -11415930, -124823332, -24261085, -109209321, 21544235, -36299154, -17199365, -9037006, -50039634, -3769869, -38725901, -160289213, 29541744, -209867030, 30272542, 1008848, 115870208, -101227604, -237989947, 17476240, -40992305, -60944159, 2249864, -318523884, -101973541, -33328932, 335303754, -490854114, -474243522, -323150069, 115467921, -109582320, -414950222, -235746145, -31035082, 12788870, 234461069, 7496868, -99412493, 50014727, -64880498, 109774403, -182314068, -247964770, 36398798, -10164834, -98447829, 350628525, -158555761, -361678332, -58320913, -28046507, -77041902, -358661562, -193024814, -36559951, -34163956, 66359401, -14442511, -20021601, 1360581, -126143202, 219364315, -157667294, -224647716, -111380890, -78366652, 172430575, 37825026, 220299616, -90197571, -211288944, -242911711, 86569354, -99811554, 154907003, 58042783, 56083992, -194693267, 137682155, -70153683, -41440871, -185101286, -93739204, -20312527, -244404137, 104344219, 128867298, -97724713, 9881923, -180277050, -34146380, -76455541, -11642112, -12300105, 20577665, 33249181, 74647121, -60778204, 13474986, 63281909, -43080654, -47506478, -15015745, 58931921, 23292867, 123136230, 10072487, -166816726, -5266471, 62488802, -121619068, -35595395, -99002287, 116252907, 78357421, 45289565, -40449899, 19823726, 40505022, 77765174, -106497109, 22133218, -172938600, 12025194, 9998048, 39344437, -65981895, -140638545, -66602975, 51635217, -82152851, -41792970, -156216711, 60319725, 34373444, -9549789, -12887269, -227202207, -41530836, 42316996, -137612045, 57620876, -79693913, 20194791, -25799794, 21237474, -84938519, -68654127, -10220122, 84514871, -27537543, 5488016, -119161397, 8627821, -47265001, 7380430, -36252521, -73452562, -80890857, 160876542, -7092987, -57474133, -157413512, -92315793, 9064309, 50617695, -73424846, -53008266, 35003956, 64657159, -15332691, -3236264, -94204508, -38467661, 14965469, -24872987, -6576924, 27328994, 52194737, 110298343, -16915584, -46851855, -61979610, 55569973, -48630629, 21507585, 91039650, 52786030, 68995193, 66920631, 9272392, 9011242, 11897456, 49177926, 56301750, 40730536, 96272670, 10760086, 68205677, 96767828, -96265152, -44132087, -7878288, 17900586, -57896841, 23923168, 82474753, -108586557, 39130744, 83307989, -126734748, 3818105, -7659441, 105352610, 81922337, 26108375, 101083986, -97799644, 72746798, 153157741, -99636771, 8354934, -16617468, 42803988, 158843711, 34692980, 66816069, -79282351, -12303974, 37196066, -185367763, 78061469, -30213034, -70489146, 127238333, 52437034, 51955581, -152094513, 34971155, 96438304, -149960250, 89637220, -29953269, -46030331, 50487906, 26309207, 13377958, -38057279, 39408788, 106109619, -39798364, 34857620, -83517231, 12155768, 4327631, 74042380, 37365481, -191333279, -38987093, 30395016, -31883325, 116244130, -150084391, -99537909, -56120533, 146694720, 30832309, -136297777, 36867507, 63559487, -271411985, 77061437, -37613031, 40771019, 63313402, 62975921, -78916192, -153408587, -28930156, 37616488, -133323818, -22709982, -112302624, -197985232, 163790867, 301034898, -332995087, -468422860, 8916914, -4662547, -32892883, -249293938, -28424934, -115383178, 62311392, 237702191, 24120176, -26496090, -182268769, -131787777, -140225127, -91083318, -275099635, -18097524, 63314252, -40606178, 77937916, -322918266, 86303465, -96712276, -62851898, -112091057, -239427388, -221457630, 156392649, -122681409, -11145402, -244391248, 164190173, -123939499, -235546008, -94332650, -273953408, -152027234, 467301726, 4366945, 111264057, -51050015, 202362120, -58136694, -125477672, -404103875, -58340810, -36638040, 367350489, 24255928, 31000612, -76853476, -11740659, -159733504, -177123293, -191506565, -131410778, 57433140, -25048843, 23234358, 51591951, -116811983, 140791386, -200849801, 44051919, -40251024, 10002434, 43591365, 21624986, -3491209, 55990078, 32399289, 63967504, -10425065, -64441636, -43279450, 60283080, -36968987, 9603754, -7184463, -52366208, -43779597, -40821936, 49885090, -225932404, -26387416, -10787139, 10659846, 12082703, -62230702, -30185746, -70462383, -7440080, -23196293, -7467766, 2566856, -14527134, -17494198, 32405507, 24272434, -26914848, -57693228, 42935673, 49119353, -70162818, 101353288, -87760657, 55628981, 6965545, 28293831, -30653864, -83880477, -34797270, 122091331, -94524823, 24373949, -129621282, 61764292, -25004795, -3699149, -74067965, -35370592, 46698362, 90188846, -27245855, 8640739, -131419972, 55202432, 15397734, -27051479, -91863833, -29699661, 15624768, 133375674, -27162744, -40225774, -158965915, -34459498, 4964269, 39131530, -37982110, -27125077, 49841955, 34851938, -8232906, 17271101, -51465780, 5482468, -48548132, 15010915, -9472094, -27845502, 2493307, 99825799, -8779120, -88867195, -54504380, -32790773, -42593174, -17714253, -16884854, -3408393, 50771687, 101264745, -23896709, -12870995, -65768138, 18880557, -15439421, 10645041, 10061571, -62771417, -36740374, 56389045, -146200880, -29933555, -65783918, 30597059, -18224236, 60106896, 50771806, -46911828, 13438458, 47670286, -139458194, 17912185, -103267260, -82658686, 45997266, -7256696, 61242677, -24237016, -9362229, 29091774, -123811193, 53455837, -49398534, 5026667, 48641142, -637010, -35072632, -102872513, 38532611, 28936638, -30092398, 43784548, -15626414, -65495595, 76052934, 53287935, -18957209, -8488093, 38055450, -11321652, -116299458, -42630501, -58874931, -5625247, 22974385, 107916102, -39822586, -46983242, -4018628, -17615886, -27836995, 37735403, -85554175, 39884586, 21725342, 107150763, -22420406, -72595268, 92595227, 88914953, -282405108, -2827047, -79385363, 22924863, 17627455, 36180936, -60748149, -147188097, 110926114, 109461702, -132605150, 56180120, -47040440, -28598409, 89284308, 39685700, -120165728, -122742668, -13172763, -161052212, -14122368, -107754804, 110063657, -324614406, 181889549, 232366592, -400155723, -351954311, -10495638, -174961761, -123763360, -211534396, 92464089, -205319941, 55684607, 106828228, 20206373, -8079084, 915376, 14078973, -293876350, -204868585, -59934031, -203997821, 167013124, -48957996, 117814779, -215097517, 37532032, -157010958, -335081339, 107180677, -30569363, -384246141, 306283206, -148192242, 178652838, -182420865, 119654454, -145598039, -149476826, -106739506, -164712042, -155516118, 374234408, 32168597, 137935549, -40690798, 35040274, -95433116, 43369390, -483143300, -178440243, 22291504, 161804557, -40508639, -25993235, 48032869, 68877019, -292444855, 2940321, -239923671, -8350422, 77669278, 88699065, 89106604, -16275525, -40689122, -33589192, -205737188, 52097168, 11476432, 71867064, 1828151, -59887286, 9760910, 1025018, -28641921, -92858203, -292604208, -32683115, 31783964, -29214090, 90951249, 24063235, 130416080, 24199938, -251657665, 2787814, -180483177, -118216, 159773558, 2877600, -46695232, -70985317, -24228526, -25417414, -214128181, -64181581, 24403676, -115847573, -28478557, -13949442, 100401133, -74552774, 16123595, -18962586, -70720717, 49638715, 87447748, -48360597, 46094559, 62323455, -15211865, -33236202, 32864083, 57753235, -133911103, 55970050, 83251245, 19715715, 33448264, 75732470, -7257351, -108752422, -22437673, -22568226, -138321400, 3080612, 27971197, -82565695, -41099198, -70203707, 87931998, -49557541, 10851705, -46462782, -94559878, 89678764, 21899367, 46927460, 29251279, 39527673, 32127641, -147385716, -63321471, 15898759, -132670864, 77328265, 101377062, -24767406, -4781814, -24090951, 66695087, -12783306, 10642553, 35923265, -97281888, 83775602, 70498094, -7838446, 39969642, -25714647, 22541039, -33084005, 17494794, 57831105, -74912459, 3734493, 91276690, -23865201, 31786546, -77700093, -1200024, -27033040, 20966500, 72979949, -50173249, 103047259, 23754057, 40161729, 10138350, -37574440, 9197633, 43626156, -63580267, 2937534, -36247633, 16829910, 43892667, -72588861, -38054295, -70677452, -20415092, 218096718, 15461656, -26918948, -68867631, 50157376, 34161463, -77470325, -50069667, -56951303, 15046992, 76226041, 86156532, 38774516, 63818105, 6513750, -24854137, -97557209, 4209321, -29648768, -48138440, 120848261, 41434947, 40459432, -27523115, -43429412, 113893792, -177532583, 88443853, -94281070, 45177929, 84168203, 68495698, -8852547, 50965313, 27505096, 2940333, -152986810, 21435224, -63747108, 33831600, -62144533, 11139718, -59969902, 26753537, 75226866, -70688687, -164763451, 82082689, -79990961, -84755071, -200300738, 40864263, -164906, 81610829, -4914085, -180764958, -253495783, -50631009, -13810088, -140883476, 126715198, 79019003, -322934866, -119294368, 70021793, -151395962, 52337725, -116323501, 167296588, -362941802, 249211684, -48068311, -364359975, -279712319, 146641642, -91446884, -50065789, -238249555, 34205068, -282200426, 207498074, 4593427, 7518502, -17796626, 202689677, -56428935, -275852084, -494699687, -209798306, -154428020, -103679486, -244473100, 337878823, -22151630, 308372289, -93351193, -208132803, -217656091, -211722299, -380848795, -109194353, -300407678, 307718635, -89238487, 291806638, -45322802, 210223213, -273198724, -483124375, -77192232, -85527927, -26993034, 232363090, -218074977, 76867931, -173241794, 172975063, -487355143, -46213090, -74513294, -259842336, -36329787, 90611085, 94117701, 114978053, -45138374, 5344567, -157134265, 110931046, 61764877, 7206058, 26151517, 73482513, -244337171, -43752044, -238034487, 78273036, 45123331, -26057061, 21404378, -51251017, -30033326, -25624253, -64142764, -29693628, -484352499, -62556691, 64551726, -5265225, 30284248, -65055877, -15901670, 91635615, -37410531, 5322505, -135551989, -120889530, 51670361, -43050773, -7133394, -116941199, -29784314, 44033393, -109950073, 58663543, -39397664, -95896259, 82939327, -13396936, 36557723, -32864172, 37863385, 13692858, -81422187, 5560322, -30295245, -133679494, 5050494, -96162550, 99618651, -31562053, -16577847, -65224782, -103416249, 25080794, 54781459, -26560640, 3519833, -36243420, 41037094, -38178172, -50577790, 6323386, -64907931, 27384141, 45732543, -104121365, -803625, -26686648, 67885004, -98802984, -29864514, -27924890, -93400821, 33433653, 69549382, 9217253, 7586941, -19646673, 64380161, -79907879, -23840763, -8188448, -45517176, 18404912, 129884750, -43501075, 15826028, -65469407, -21922786, -80476798, -72879538, -63125871, -52732013, 28908802, 31066192, -117517605, -21147761, -75394519, 93953274, 50570868, -137556419, 8498735, -45363866, -29516714, 64250924, -79618342, -32918688, -43723129, -52158710, 5447782, -19969394, 11752293, 43139420, -20079445, -1640965, -12116514, 11331184, 19276204, -13997024, -2013854, 2765331, 19121232, 27395995, -12346375, -50605591, -74145056, 36044586, -55511255, -100742392, 12923153, 115185261, 46702024, 52399915, -45671664, 94049253, -90011954, 22355603, -61455503, -26703555, 17460175, 118927836, 22476625, 115670599, 19842792, 53922713, -90696789, 12808383, -90266280, -32010652, 138668865, 96640125, -44327591, 116508, 9529530, -136341453, -201780438, -58594953, -19028112, -146311685, 113429472, -7423205, -52268110, 26012737, 2028941, -21013103, -100379743, -4082904, 36766149, 34595318, -327423155, 122357197, -110353537, -28427180, -8865740, 4412751, -112391472, -21530764, -26627539, -25156012, -273521930, 76774232, -82600534, 41606966, 33141680, -187625557, -273299992, 66417642, 64701796, -127195343, 162169129, 71625628, -316550106, -45424730, 3776187, -182125106, -103364855, -143822789, 135014385, -126528934, 107777521, 11788455, -398426116, -29755691, 64251199, -5055247, -5139975, -14893471, -10465514, -286760926, 422350019, 38282052, -228287756, 121354155, 305299133, -60409922, 18974632, -476763994, -318399638, -175901592, 8602955, -315549105, 130692482, -4152481, 209854245, -65978520, 215774760, -151223004, -342271149, 60826283, -211654738, -249693185, 251570106, -245304599, 218658909, -41258402, 190082610, -441441774, -54322872, 41177250, -238375589, -102700837, 137440935, -90491123, 45690898, 38931750, 159022406, -392322481, 8035579, -108753115, -270476609, 95896311, 155900910, -132885247, 86576201, -125848442, 4421388, -196398616, -29797647, -70375219, -92594251, -130270496, 30468229, -247190088, 149350613, -239092201, -50216276, 194898918, 37794497, 23213001, 934613, 22803638, 70294671, -199141622, 6938848, -132581428, -37114590, 101214193, -134742022, 12474150, -25650419, -20644402, -12139524, 42286422, -11022734, -284766972, 9436154, 24203438, -164295524, 51645804, 73720798, 19090682, -39876711, -90820312, 53617191, -95306262, 13641232, 16451202, -52066401, 89997150, 78194976, -7809795, 46293925, 22993391, 41659947, 145757675, -68601087, 28966054, -138857707, 79190180, 74124023, 44029213, 11096968, 6272598, 60349610, -61922282, -42850323, -8847348, -45760598, 21481004, 11191960, 15038923, 49323779, -168135, 25866805, -95428281, -21682411, -16234785, -94550490, 141806439, -54558311, 42564165, -11753494, 2927083, 76386638, 73868856, -80446243, -7562727, -74143030, 44361115, -2438369, 11874138, 51716894, -5900687, 24414390, -62009890, -43581251, 34686156, 11180786, 157361493, -57442084, 36747742, 34950327, 68585999, 21820880, 30224411, -35175003, 68620779, 16636180, 69886729, 10189607, 62995061, -28921172, 58884971, 4848490, 14078183, 3238165, 12136821, -24838176, 44842578, 58078326, -112609, 45970023, 66515863, -22743398, 94702378, -45798007, -286790, -39732646, 70479788, 199066848, 30319421, -35584085, 25973404, -11162635, -108924769, 20464214, 6224349, 42162143, -28523043, 13881846, 79016373, -39248552, 67570664, 39322685, -139908895, -91091692, 127005532, -22070754, -139671117, 91150671, 85575603, 49744375, 57367470, -47393113, 36256552, 17036922, 39452858, 48677675, -124331012, 38646039, 32330692, -45099981, 86866818, -2899259, -49989767, -54354966, -12991565, -44924155, -93461357, -229880676, 68934634, -7237012, 135148570, -77148825, -73425904, -199011594, 19331351, 13870645, -12975705, -87522931, 46076342, -152116448, -102577008, -22008318, -53995434, -133743733, -31821642, 45463532, -54158472, -197685108, 94144769, -142575368, -89956157, -57568688, -317636162, -410920292, 115729302, 54918062, -185360596, -87082595, 198281705, -118950203, 74087873, 58388039, -400729984, -208358869, -67426257, 231987715, -208030090, 264797300, -69440782, -300277412, 77467926, -25162034, -169077352, -113343380, -156834230, -34761637, -232116103, 490048558, -41169606, -257026106, 44327378, 246238858, -38449526, 27539821, -336545855, 9312174, -243577927, 223183498, -31165073, -89644440, 60605440, 145047829, 76062776, 226084247, -208964825, -307511717, -32257207, -211586639, -220184103, 70914946, 147216856, 304508537, -140279368, 104503348, -185280949, -211841226, -273662001, -231864586, -116820641, 116456755, 14718958, 69746651, -199357241, -146973193, -381640226, 116330683, -176530749, -397193611, 280521244, 231243089, 40156577, 99317141, -82776263, -150393113, -142717332, -115981191, 10871755, 98982431, -20564625, -48638642, -188254416, 21851556, 84272221, -54030109, -65175645, -73020525, -321160913, 314163387, -277519196, 164694354, -171197951, 1336707, -122548878, 88147804, -77721387, -219520181, -293335408, 64006433, 13857140, 301948875, 812334, -15264513, -165849537, 34546185, -218481943, -72816581, -100636251, 121339843, -22185376, 118081078, 121399805, -540167, -307634622, 53074267, -109007999, -75291954, -43814819, 92421792, -828069, 1307223, 61639156, 24885140, -125152633, 73237285, -80704980, -48671141, -31291299, 19440183, -81055909, 69063209, 128553420, 93996428, -184826016, 86781338, -84263869, -91226585, -30937780, -10036916, -69240764, 10150550, 163729787, 29867832, -364372820, 43017991, -91566280, -17659282, -14015244, 39263841, -32506935, 87720320, 110155277, -1673669, -320665091, 32669686, 82151234, -62440749, -12688655, 41898154, -92996851, 25903622, 138353199, 49671348, -307443708, 67353576, 63657708, 4994486, -72392121, -5983363, -76321453, 96731596, 83424069, 46008773, -299431592, 38370036, 159142554, -67012571, -88939913, -5501851, -50393824, -3778723, 32577902, 68894126, -264771253, 7898076, 101576060, -48253562, -168917105, -28703451, -27921975, -24275146, 114182025, 125597194, -326295227, 40029813, 170873895, 31085884, -103035614, 76950997, -132317588, 27180649, 43287843, -36499653, -222053215, 31426806, -3915164, -32822218, -129080415, 6235305, 5348926, -24757668, 54255873, 22316739, -84493689, 8423995, 28108926, 58063794, -256360859, 55427913, -47754038, 36690217, 14940445, 35644129, -48518814, -81603982, 47105137, -13150828, -197267815, -77331968, -27909622, -25612265, 29192291, 97015031, 40239975, -117501505, 63257873, 145589918, -135265976, -37196547, 31757358, -84256962, -31308137, 6307662, -54038614, 49867939, -40695179, 147011653, -137059972, -170634493, 10971434, -32570742, -120066486, 160481155, -195955187, 31609796, 110594, 104473680, -162719816, -184572205, 19181816, -79775639, -52568611, 26160210, -152313113, -379784346, 107020348, 157068446, -239395455, -189317629, 132591978, -292977512, -142153919, 48386414, -208785027, -233771816, -174247622, -81832491, -117897287, 341815472, 62506318, -301685721, 131549776, -128233209, 49253970, -197064832, -329747945, -278668463, -136350125, 455393702, 1640097, -302508861, 154057801, 315251201, 8861974, 62500827, -242881194, -63246004, -77335782, 290086001, 17512219, -486298591, 113746732, 205425948, 50309587, 71281061, -347549796, -215743825, -340943873, 207907140, 92604727, -133659795, 73621012, 141533256, 70978820, -396047920, -318377405, 161861047, -254649252, -41975241, -201868236, -34076069, -54731380, 211634099, 77876195, -145651564, -329695135, 198271543, -63980520, -280646265, -336707741, -115749292, -171088874, 121876098, 3927524, 56498170, -276207060, 82338899, -48902068, -37033208, -212690398, -157428250, -123105608, -79962455, -91538608, 242049366, -584674239, 118130684, -343303531, -138405338, -324996620, -154133886, -174220696, -162935376, -180602014, 287228525, -535646796, 224724486, -211210132, -229326144, -247630209, -137522310, 73770024, -256514162, -96041054, 351997763, -490143567, 258595824, -320451587, -110028669, -184972391, -89122027, 90555742, -185363114, -224041536, 287724584, -216571763, 235872090, -252555192, -252427310, -394553721, 54552641, -5231495, -53387646, -371675134, 197350368, -253107429, 255802751, -332495719, -294934452, -318171978, 119012214, -49422316, -112831138, -525726378, 145057291, -65705478, 210471511, -165555552, -300529093, -316375643, 10720406, -31438120, -62999487, -532992780, 132617161, -146139741, 194369152, -226317689, -280382037, -323101223, 63099124, -123907633, -181682512, -700534, 145178676, -56487940, 188654810, -155206591, -216903657, -241273075, 51809922, -117252171, 7098325, -295168221, 168183342, -17327547, 183092624, -271527737, -71798399, -399049610, -26378810, -121265940, -61366141, -346405923, 148865283, -141195446, 80591395, -180322632, -80908515, -255216837, 61167710, -58742933, -52204423, -196542576, 147367388, 54624613, 124661565, -295479774, -269860715, -173938498, 55533547, -148092255, 40045079, 56551758, 128507152, -29061284, 122369364, -174412221, -144127727, -51059589, 45420423, -215653211, 104428098, 44986814, 28123366, -76554328, 50595313, -163702369, -91845833, -54687630, -19111469, -113765523, -57860397, -185374871, 74472666, 18879108, 146239981, -147268727, 1816193, -163555458, 39486382, -150763437, 130117998, -179484248, 91621593, 80051079, 183538631, -302613974, -100614853, -83628923, 35050109, -135578364, 66777915, -200717315, 108569294, -77805, 181869119, -407013834, -56761656, -52529305, -85075773, -159868926, 72335720, -219714448, 96945331, -131351486, 198567629, -334723771, -27345914, -315731347, 65512992, -13343092, 42070907, -111437440, 54822545, -157421753, 112703271, -173422977, -49387898, -56781109, -132928044, -66206761, 77996477, 6736374, -130042300, -251823336, 96234612, -273927301, -96497692, 303610861, -332372963, -155766472, 173429891, 63043840, -136891916, -367201835, -103888743, -235201463, 358468056, 275304496, -374290496, 77099659, -160274491, -21374021, -56051500, -330251068, -214117199, -137775302, 483057886, 21392079, -213028207, 104176447, 243642479, 126277626, -23283657, -268276274, -106017791, -131392330, 414813876, 99711128, -270888150, 55213396, 181985602, 68961859, -11656433, -323971838, 67208171, -142094404, 258830309, -101435386, -132948726, -125209659, 231619611, -13283849, -94165497, -308732092, -9588149, -282323003, 265892088, -90932861, -395609647, -23609843, 340116709, 122681543, 135265738, -353768557, -90834618, -304132670, -260480225, -179168537, -463575453, -206379503, 86003497, -84660403, 364168853, -290956348, 218118921, -343391955, -442873031, -260844678, -456245482, -26086569, -87285884, -49254477, 124493152, -288548678, 476697087, -479724199, -487238705, -336291462, -174756467, 2156072, -101529226, -187805846, 8419820, -321545124, 243132815, -63791074, -557365417, -565953612, -41900266, -237206146, -148745716, -51218975, 194065467, -177571163, 442147285, -239604071, -343773246, -744853318, 4500250, -228622392, -265171021, -102924474, 109386489, -127386659, 354144931, -543630660, -220854491, -583341897, 137184560, -261713296, -157504052, -285376281, 147810310, -213713795, 240257755, -411854804, -574509203, -410312384, 61822068, -231823847, -55836953, -35816163, 198901191, -4845893, 315515459, -437186152, -587667227, -581536651, 215593204, -415923089, -60076721, 13688693, 203799486, -26621062, 217458591, -563641191, -340908855, -304157853, 125137836, -321792990, 54806765, -6895717, 119041875, -126719341, 226616472, -476937950, -266130954, -379669040, 169611603, -393865377, -146596968, -107332759, 104070589, -111291230, 140611142, -347061664, -240349486, 132321566, -83548598, -339472026, -158728004, -73356822, 161082476, -141841829, 354365349, -548148453, -212912887, -219091535, 16831070, -324959278, 180096239, -182287186, 234011799, -244934157, 218264014, -322817922, -611661911, -17110497, -127508476, -391639590, -3297302, -223936930, 142774448, -77969998, 238405123, -529685855, -472093046, -156273514, -92995927, -312824219, 74181043, -82308218, 166765824, -107904755, 179097801, -323128730, -554100513, -239161193, 856752, -306158036, -101156726, -42445980, 251331627, -151614308, 292713642, -258419901, -612237275, -104541302, 147288516, -374980211, -36018733, -340761781, 294049263, -70873104, 120053716, -364963144, -309063315, -211807683, 26525442, -372448385, -88550121, -373471498, 116256140, 9117184, 367468715, -293051332, -219393551, -314749926, 9869611, -318283349, 152732462, -270496875, 205325454, -310782015, 211130589, -354585111, 87859832, -503123283, 43603409, -222835898, 78478046, -27905114, 224256679, -167555794, -9959898, -231084764, 133974776, -256635338, -401471496, -15278702, 339995354, -33843722, 123512290, -242879942, -28774831, -229639500, 332068145, -114554062, -224021018, -146295428, 391421884, -93218438, 76362729, -452059150, -128965512, -92366248, 412294865, 174838379, -178407997, -76220930, 271859378, 37166230, 77816643, -353637785, -194679096], "dense_bias": [0.0, 0.0, 0.0, 0.0, 0.0, 0.0, 0.0, 0.0, 0.0, 0.0]}