{"in": [0, 0, 0, 0, 0, 0, 0, 0, 0, 0, 0, 0, 0, 0, 0, 0, 0, 0, 0, 0, 0, 0, 0, 0, 0, 0, 0, 0, 0, 0, 0, 0, 0, 0, 0, 0, 0, 0, 0, 0, 0, 0, 0, 0, 0, 0, 0, 0, 0, 0, 0, 0, 0, 0, 0, 0, 0, 0, 0, 0, 0, 0, 0, 0, 0, 0, 0, 0, 0, 0, 0, 0, 0, 0, 0, 0, 0, 0, 0, 0, 0, 0, 0, 0, 0, 0, 0, 0, 0, 0, 0, 0, 0, 0, 0, 0, 0, 0, 0, 0, 0, 0, 0, 0, 0, 0, 0, 0, 0, 0, 0, 0, 0, 0, 0, 0, 0, 0, 0, 0, 0, 0, 0, 0, 0, 0, 0, 0, 0, 0, 0, 0, 0, 0, 0, 0, 0, 0, 0, 0, 0, 0, 0, 0, 0, 0, 0, 0, 0, 0, 0, 0, 0, 0, 0, 0, 0, 0, 0, 0, 0, 0, 0, 0, 0, 0, 0, 0, 0, 0, 0, 0, 0, 0, 0, 0, 0, 0, 0, 0, 0, 0, 0, 0, 0, 0, 0, 0, 0, 0, 0, 0, 0, 0, 0, 0, 0, 0, 0, 0, 0, 0, 84, 185, 159, 151, 60, 36, 0, 0, 0, 0, 0, 0, 0, 0, 0, 0, 0, 0, 0, 0, 0, 0, 0, 0, 0, 0, 0, 0, 222, 254, 254, 254, 254, 241, 198, 198, 198, 198, 198, 198, 198, 198, 170, 52, 0, 0, 0, 0, 0, 0, 0, 0, 0, 0, 0, 0, 67, 114, 72, 114, 163, 227, 254, 225, 254, 254, 254, 250, 229, 254, 254, 140, 0, 0, 0, 0, 0, 0, 0, 0, 0, 0, 0, 0, 0, 0, 0, 0, 0, 17, 66, 14, 67, 67, 67, 59, 21, 236, 254, 106, 0, 0, 0, 0, 0, 0, 0, 0, 0, 0, 0, 0, 0, 0, 0, 0, 0, 0, 0, 0, 0, 0, 0, 0, 83, 253, 209, 18, 0, 0, 0, 0, 0, 0, 0, 0, 0, 0, 0, 0, 0, 0, 0, 0, 0, 0, 0, 0, 0, 0, 0, 22, 233, 255, 83, 0, 0, 0, 0, 0, 0, 0, 0, 0, 0, 0, 0, 0, 0, 0, 0, 0, 0, 0, 0, 0, 0, 0, 0, 129, 254, 238, 44, 0, 0, 0, 0, 0, 0, 0, 0, 0, 0, 0, 0, 0, 0, 0, 0, 0, 0, 0, 0, 0, 0, 0, 59, 249, 254, 62, 0, 0, 0, 0, 0, 0, 0, 0, 0, 0, 0, 0, 0, 0, 0, 0, 0, 0, 0, 0, 0, 0, 0, 0, 133, 254, 187, 5, 0, 0, 0, 0, 0, 0, 0, 0, 0, 0, 0, 0, 0, 0, 0, 0, 0, 0, 0, 0, 0, 0, 0, 9, 205, 248, 58, 0, 0, 0, 0, 0, 0, 0, 0, 0, 0, 0, 0, 0, 0, 0, 0, 0, 0, 0, 0, 0, 0, 0, 0, 126, 254, 182, 0, 0, 0, 0, 0, 0, 0, 0, 0, 0, 0, 0, 0, 0, 0, 0, 0, 0, 0, 0, 0, 0, 0, 0, 75, 251, 240, 57, 0, 0, 0, 0, 0, 0, 0, 0, 0, 0, 0, 0, 0, 0, 0, 0, 0, 0, 0, 0, 0, 0, 0, 19, 221, 254, 166, 0, 0, 0, 0, 0, 0, 0, 0, 0, 0, 0, 0, 0, 0, 0, 0, 0, 0, 0, 0, 0, 0, 0, 3, 203, 254, 219, 35, 0, 0, 0, 0, 0, 0, 0, 0, 0, 0, 0, 0, 0, 0, 0, 0, 0, 0, 0, 0, 0, 0, 0, 38, 254, 254, 77, 0, 0, 0, 0, 0, 0, 0, 0, 0, 0, 0, 0, 0, 0, 0, 0, 0, 0, 0, 0, 0, 0, 0, 31, 224, 254, 115, 1, 0, 0, 0, 0, 0, 0, 0, 0, 0, 0, 0, 0, 0, 0, 0, 0, 0, 0, 0, 0, 0, 0, 0, 133, 254, 254, 52, 0, 0, 0, 0, 0, 0, 0, 0, 0, 0, 0, 0, 0, 0, 0, 0, 0, 0, 0, 0, 0, 0, 0, 61, 242, 254, 254, 52, 0, 0, 0, 0, 0, 0, 0, 0, 0, 0, 0, 0, 0, 0, 0, 0, 0, 0, 0, 0, 0, 0, 0, 121, 254, 254, 219, 40, 0, 0, 0, 0, 0, 0, 0, 0, 0, 0, 0, 0, 0, 0, 0, 0, 0, 0, 0, 0, 0, 0, 0, 121, 254, 207, 18, 0, 0, 0, 0, 0, 0, 0, 0, 0, 0, 0, 0, 0, 0, 0, 0, 0, 0, 0, 0, 0, 0, 0, 0, 0, 0, 0, 0, 0, 0, 0, 0, 0, 0, 0, 0, 0, 0, 0, 0, 0, 0], "conv2d_1_weights": [-141, 460, 977, -125, 258, -297, 912, 469, 779, -324, -596, 1070, 234, -1294, -1102, 581, 834, 15, 783, 607, -230, 500, 609, -131, 741, -1162, -972, -895, -143, 1266, 44, -1207, -857, 650, 356, -1220], "conv2d_1_bias": [0, 0, 0, 0], "bn_1_a": [8792, 9773, 10313, 8802], "bn_1_b": [-1170834303, -50375223, -1342272043, -62429190], "conv2d_2_weights": [72, 71, 375, -577, 93, -528, 796, -129, -385, 94, 730, -247, -294, -235, 249, -276, 438, 104, 517, 53, 359, 219, 322, 419, 65, -68, -209, -213, 158, -4, -637, -240, -520, 90, -446, -696, 240, -143, 39, 536, -358, 288, 13, -643, -46, -22, -300, 476, 454, 59, 107, 243, -199, -256, 218, 219, 265, -358, 319, 33, 299, 23, -171, -656, -303, 92, -881, -150, 492, 364, 87, 784, -178, 503, 12, -237, -310, 253, 79, 558, 604, -191, 66, -98, -448, -3, -257, -426, 754, -140, 162, 182, -53, 237, 191, -121, 142, -140, -143, 193, -733, 673, 704, -206, -178, -6, -206, 298, -520, 481, 661, 571, -40, 380, 384, 442, -27, -145, 131, 53, -91, -86, -426, -423, 324, -603, -191, -237, 231, 96, -630, -28, -630, 431, 117, 102, -447, -82, 160, -88, -543, 246, -313, 549, 553, 106, 681, 346, -466, -297, -576, -34, 497, -220, 241, -440, 525, 351, -382, -936, 168, 97, 41, -228, -364, 516, -335, 9, -417, 270, 161, -473, -199, -464, 547, 472, 681, 48, 138, -157, -573, 121, -740, -554, 262, 78, 174, -192, 301, 86, -271, -469, 174, -392, 249, 408, 500, 176, 450, -579, 565, -652, 137, -61, 413, -223, 61, 81, -282, 71, -36, 419, -337, 228, -251, 65, -194, 130, 105, -563, -6, -294, -187, -402, 12, -351, 703, 525, 472, -197, -452, -743, 356, -534, 479, 82, 590, -243, -367, -25, -328, -36, -464, 667, -40, 258, -703, 412, -198, 427, 405, -362, 129, -6, -276, -558, 116, -576, 148, -113, -13, -94, -660, -292, 290, -30, 428, -475, 632, -335, 105, 394, -111, -65, -462, 146, 25, 242, -155, 421, 163, 933, 79, -489, 83, 233, -8, -398], "conv2d_2_bias": [0, 0, 0, 0, 0, 0, 0, 0], "bn_2_a": [1421, 1552, 1587, 1593, 2330, 1519, 1312, 1614], "bn_2_b": [-93971300125122064, -15037137269973754, -156907808780670176, 127074909210205072, -6281101703643799, -124638485908508304, 58632332086563112, -38434147834777832], "dense_weights": [120, -163, 197, 1, 83, -172, -100, 84, -54, 143, -155, -130, 47, -23, -114, -308, 157, 4, 146, 37, -101, 50, 71, 27, -30, -148, 17, -84, -58, -53, 77, 167, 160, -7, -135, 265, -153, 140, 122, -176, 23, 59, -128, 206, 36, 192, -187, -146, 87, 190, -25, 148, 55, 148, 25, -49, 66, 68, -32, 8, -106, -245, 102, -141, -76, 108, 102, 70, -30, -26, -113, -172, -345, -148, -193, 14, 408, -132, 101, 7, -256, -112, 306, 237, -209, -130, 3, 195, -115, -39, -352, 37, 93, 149, 151, -256, 34, 153, 30, -128, -166, -86, -164, -42, -409, -21, 262, -220, 137, 327, 60, 194, -82, -268, 176, 30, 242, 178, -136, -605, -190, -244, 153, 206, 68, 8, -449, 303, 240, -57, -121, -309, 105, -131, -320, 238, 9, -65, 103, 246, -164, 102, -274, -278, -173, -46, 307, 78, -17, -58, -6, 454, -270, -397, -13, 313, 364, -119, 127, -185, -173, -114, 93, 323, -122, 244, -73, 301, 217, -13, -182, 110, 370, 173, 114, 177, -263, 221, -158, 31, -82, 93, 374, -3, -346, -161, -167, -151, 111, 140, -19, 336, 262, 326, 277, -415, -228, -39, 30, -352, 98, 17, -85, -13, 38, -142, -140, -44, -62, 135, 154, 199, 4, -387, -401, 8, -119, -235, 54, 106, -132, 246, -16, -416, 293, 127, 669, -91, -233, -707, -243, 571, -376, -96, 663, 590, 133, -326, -368, -378, -170, -38, 205, 331, -66, -112, -70, 99, 18, 64, -241, -169, -43, 102, -107, 61, 107, -28, -332, 37, 58, -211, 463, 228, -123, -186, 100, -128, 80, 8, 93, -145, 206, 483, 201, -341, -418, -68, 209, -64, -67, -67, -424, -254, 108, -89, -246, 13, -18, 205, -16, 379, -68, -141, -170, 201, 143, -139, 221, 37, -178, 638, -370, 100, 448, -249, 311, 4, -34, -760, 31, 215, 111, -333, 612, 287, 67, -692, 27, -136, 114, -202, 6, 21, 124, -16, 19, 100, 46, 89, -117, 62, -196, -211, -142, 154, -173, -173, 39, 104, -4, 60, -47, 181, 77, 4, 83, -352, -186, -64, 209, 75, 361, 270, -431, -852, 5, -113, 10, 451, 41, -20, -439, -322, 196, 588, -76, 370, 168, -39, -62, 335, -362, -185, 295, 61, 227, -100, 21, -197, -198, 152, -79, 48, 101, 202, 41, 1, -75, -149, -83, 32, -158, -73, 371, -111, -52, 8, 234, -227, -33, 138, -28, 139, -19, -220, -52, 205, -99, -254, -97, 38, 176, 326, 45, -9, -148, 64, 34, -95, 163, 71, -175, -124, -60, 27, 32, 337, 6, -59, 93, 101, -51, -111, -54, 102, -53, 204, 35, -193, 48, -94, 356, 52, 34, -335, 180, -199, 88, 162, 85, -8, 244, 166, -200, -114, -64, -259, 55, 152, -102, -61, 229, -76, -83, -49, 24, -71, 53, -44, 22, -67, -306, -448, 97, 176, 197, -170, 106, 235, -151, 56, 259, 140, -253, 58, -523, 458, 127, -78, -45, 32, 153, 289, 166, -70, -636, 288, -346, 224, -228, -39, -415, 157, 237, 33, -63, -79, 1, -66, 104, 314, 11, -139, 216, -101, -100, 771, -43, -746, 341, -148, -1, -79, 156, -127, -2, 153, -441, -6, 394, -14, -18, -95, -481, 0, -80, -274, 140, 437, -110, -160, 149, -239, 207, -62, 366, -240, -253, -133, 55, -318, -214, -726, 489, 149, 246, -56, 33, 104, -106, -344, 371, 327, -572, 378, -627, 625, -27, -65, 14, 7, 536, -39, 82, 380, -188, 308, -247, -406, -191, -197, -249, 248, 418, 12, -293, -221, 14, 496, 167, 420, 453, 57, -196, -164, -421, 370, -145, -338, 116, 403, 16, 161, -250, 93, 407, -57, -407, -10, -139, 144, 129, 161, -179, 86, 29, -311, -121, 232, -62, -58, 503, 66, 666, -37, 434, 24, -509, -785, 26, -84, -17, -460, 405, 540, 34, -567, 139, 294, 204, -479, 146, 136, -757, 339, 164, 457, 168, 178, -196, -143, 213, 32, -185, 184, -68, -104, -9, 400, -77, -256, 32, 344, 99, -487, -383, -214, 480, 279, 780, 262, 568, 26, -270, -494, -764, 6, -280, 366, -477, 224, -197, -223, 135, 459, 267, 11, -35, -140, 65, 182, -414, 26, -77, 403, -6, -315, 74, 39, -363, 291, 232, 529, 244, -948, 42, 235, -259, -226, 50, 311, 185, -521, 514, 95, -352, -68, 106, -347, 560, -546, -243, -219, -283, 36, -24, -358, 340, 181, -82, -162, -107, -25, -114, 607, 163, -208, -25, 184, 368, -55, 456, 225, 39, -772, -495, 123, 484, 1, 296, -282, 102, -172, -250, -662, 37, 176, -35, 456, -436, 1, -84, -501, 254, 386, 235, 73, 130, 26, -242, 291, -114, 124, 434, 213, -32, 218, -332, -302, -312, 111, -4, 478, 381, -323, -554, 313, 92, -194, 384, 188, 367, -228, 636, -477, -384, -382, -48, 82, -377, -142, -38, -29, 2, -116, -329, 229, 192, 64, -117, -6, 36, 98, 123, 370, -76, 238, 89, -274, -10, 62, 30, -416, -122, -209, 246, 342, 256, 173, -129, -36, -44, 94, 154, 189, -25, 125, 185, -106, 161, -33, 408, 54, -79, 85, 17, -114, -76, -226, 28, 53, 127, -63, 116, -284, -136, 17, -123, 27, -108, 176, -17, 54, -220, 160, -68, -131, 263, -29, 411, -285, -437, -496, -220, -215, 399, -36, 336, 338, -257, -199, -253, -148, 125, 233, -764, 393, 345, 281, -173, -22, 213, -121, 62, 353, -639, 284, -142, 202, 217, -105, -259, -323, 440, -82, 209, -128, 436, -13, -186, -95, 113, 38, -298, 51, -43, 257, -211, -28, -226, 373, 472, 288, -629, 28, -16, 820, -689, -719, 187, 83, 85, 93, 403, -178, 49, 138, -242, -492, -50, 194, -655, 388, 173, -7, 215, 277, -295, 52, 187, -459, -676, -328, -22, 250, 547, -192, 158, 588, -129, -617, -87, 123, -233, 159, -424, 140, 307, 572, -167, 22, -359, 232, -310, 232, -154, 89, -256, 475, 55, -238, -39, 123, -17, -4, 339, -527, 421, 166, 271, 377, 497, -291, -352, 84, -191, -71, -53, -512, -123, 254, 220, 88, -148, 147, 302, 99, -1012, -64, 28, 251, -102, 563, -279, -183, 358, 1, -294, -557, 140, 242, -258, -355, 299, 27, -203, 857, -521, -220, 217, 84, -421, -63, -256, 167, 321, 206, 54, -3, -46, -183, -334, 394, -491, 524, 34, 491, 28, -304, 319, -74, -441, 1, 5, 366, -362, 244, -171, 24, 220, -295, 60, 132, 296, -804, -57, 161, 778, -57, -45, 312, -246, -31, 76, 427, -13, -45, -490, 17, -35, -182, 116, -261, -174, -149, 20, -83, 397, 213, -834, 315, -204, 633, 190, -718, -184, 98, 398, 133, -48, 456, 367, -333, -102, -13, -653, 529, -167, 135, 85, 196, -25, -464, 226, -263, -376, 490, -144, -146, 548, -125, -545, -244, -268, 715, -18, -91, 117, -184, 125, -154, 32, -87, -201, 460, -230, 8, 46, -206, 254, 14, 139, -461, 359, -444, 150, -162, -66, 42, -135, -72, -330, -49, -150, 480, 68, -251, -525, 219, -263, -110, 386, -27, 193, 553, 103, -71, -392, -97, -37, -57, 258, 80, 95, -499, -364, 33, 528, -63, 19, 163, 246, 57, -84, 177, -608, 173, -77, -116, 298, -34, 445, -450, 531, -417, -669, 349, -296, -381, -119, -74, -139, -432, 438, -23, 46, -147, 297, 259, 1, 52, 109, -58, 56, 137, -77, 130, 156, -209, 86, -111, 455, -370, -117, -94, -30, -266, 39, 63, -239, 18, 110, 236, 206, 143, -91, -123, 83, 106, -278, 266, 54, 128, -219, 73, -204, -52, 255, -429, 107, -77, 490, -612, 244, -52, -62, 12, 215, -113, -168, 73, -78, 276, -146, 115, -137, 60, 7, 424, 162, -376, 291, -291, -118, -307, 210, -219, -26, 412, -352, -366, -351, 77, 440, 302, -148, -150, 308, 653, 266, 5, -27, 261, 352, 151, -174, -32, -551, 196, 258, -295, 342, -325, 14, -373, -40, 15, 331, -95, -133, -66, 14, 629, 38, 485, 93, -97, -534, -341, -258, 425, 238, -19, -66, 178, -445, 301, -418, 31, -23, -52, 406, -620, 214, -190, 98, 150, 581, -628, 91, 47, -528, 46, -10, -21, 6, 383, -108, -183, 351, -419, 581, -585, 21, -438, 363, -498, 176, -31, -636, -165, -76, 454, 827, 59, 79, -469, 75, 189, 46, 221, -41, 369, -218, 182, 0, -375, -301, 338, 401, -636, 441, -275, -147, 11, 140, -206, 256, -349, 196, 195, -200, 408, -167, 92, 234, -41, 86, -903, -111, 176, 113, -58, 9, 334, -212, -34, -333, 114, -251, -81, 416, 162, -236, -26, 346, 146, 281, -573, 403, 555, -155, -407, -259, 336, -109, 493, -310, -406, -15, 354, 66, 94, -386, -178, 542, -213, 302, -636, -427, -448, -162, 240, -94, 300, 309, 271, 100, -148, 149, -166, 41, 156, -283, -140, 219, -75, -58, 235, -228, -93, -150, 185, -252, -135, 273, -116, 550, -341, -497, 177, -271, 124, -259, 569, 226, -183, 434, -227, 99, -25, 269, -53, -74, -31, -178, 251, -169, -34, -33, -110, 61, -140, 243, -447, 147, 291, -165, -19, -44, 355, 0, -151, -83, -13, -403, 69, -507, 672, -221, 412, 248, -318, 252, 94, -93, -128, -311, 126, -66, -110, 448, -46, 80, 194, 169, -9, 81, -764, 208, 82, 478, -118, -22, -117, 149, -252, -71, -337, 2, 99, -349, 240, -38, 17, 32, -192, 339, -108, -323, -100, -228, 196, -390, 486, 113, -464, 292, 73, -440, 159, 581, -133, 44, 126, -279, 275, -342, 229, 387, -289, 185, -39, 19, -231, 108, 418, -536, 199, -30, -40, -36, 238, -172, 117, 66, -75, -181, 382, 1, -242, -79, 25, 141, 32, 95, 120, -341, 163, 156, -34, 186, -81, 192, 102, -39, -416, 251, -170, -31, 63, -247, 85, 125, 108, -26, -692, 58, -88, 135, 117, -242, 375, -115, -308, -117, 134, -99, -1, 233, -270, 66, -52, -119, -6, -34, 145, 241, -174, -273, 185, -464, 195, 22, 76, -128, 124, -215, 209, -40, 15, 212, -414, 334, -176, -143, 70, 44, 55, 65, -171, 273, -261, -23, -97, -125, -276, -31, 141, 462, -44, 264, 4, -305, -158, -58, -145, 443, -29, 61, -354, -322, 155, 214, 311, 219, -265, -244, 891, 453, -230, 142, 338, -333, 271, 396, -770, 419, -173, 65, -67, -178, 221, -193, 93, 165, 106, -100, 322, 166, -17, 195, 56, -98, 162, -60, -311, -94, -320, -408, 181, -88, 264, -158, 352, -247, -148, -614, 479, -82, -37, 198, -298, 157, -120, -105, 70, -277, 14, -130, -101, 415, -495, -20, -134, -270, 166, -73, -110, 377, -25, 155, -409, -86, -499, 430, -407, 345, -456, -160, -221, 41, -5, 161, -119, 371, 48, 44, -285, 149, 141, 154, -209, -151, -120, 419, -489, 229, -269, 449, -568, 112, 404, -456, 176, 78, -310, 254, -109, 96, 940, -64, -11, -256, 310, 90, -44, -223, -395, 122, 344, 150, 359, -284, 347, -303, -361, -388, -101, 71, -12, 188, 270, -164, 63, -76, 145, -394, -427, -655, 340, -769, -738, 579, 36, -436, 633, -241, 604, -90, 4, 286, -829, 247, -916, 149, 215, 205, 111, -391, 135, 202, -175, 470, -334, 186, 446, -453, -398, -96, 417, 580, -550, 348, -636, 112, -274, -56, -41, -182, -11, -28, 341, -390, 206, -23, -401, 426, -216, -568, 149, 117, 144, 323, 128, -533, 35, -76, 355, 310, 362, 16, 142, -421, 88, 214, -223, 138, -277, 67, 71, -23, 238, -94, 191, -330, -1, -447, 27, -540, -526, -813, 401, 318, 331, 43, 463, -3, 343, -696, -156, 149, -142, 668, -445, -421, 785, -164, 295, -363, 275, 345, -189, 317, 109, -269, -3, -149, -262, -167, 184, 517, -75, 160, -85, -57, -222, -19, 143, -383, -68, -55, 98, 201, 98, -51, -117, 195, -23, -363, 113, 224, 107, -181, -363, -113, -286, 366, -50, 133, 54, 246, -120, -33, -203, 23, -7, -198, -296, 275, -37, -787, 320, -96, 158, -26, 87, 111, -110, -58, -645, -475, 435, -244, 216, 73, 472, 211, 137, -388, -121, -104, 212, 254, -111, -123, 170, 108, 388], "dense_bias": [0.0, 0.0, 0.0, 0.0, 0.0, 0.0, 0.0, 0.0, 0.0, 0.0]}