{"in": [0, 0, 0, 0, 0, 0, 0, 0, 0, 0, 0, 0, 0, 0, 0, 0, 0, 0, 0, 0, 0, 0, 0, 0, 0, 0, 0, 0, 0, 0, 0, 0, 0, 0, 0, 0, 0, 0, 0, 0, 0, 0, 0, 0, 0, 0, 0, 0, 0, 0, 0, 0, 0, 0, 0, 0, 0, 0, 0, 0, 0, 0, 0, 0, 0, 0, 0, 0, 0, 0, 0, 0, 0, 0, 0, 0, 0, 0, 0, 0, 0, 0, 0, 0, 0, 0, 0, 0, 0, 0, 0, 0, 0, 0, 0, 0, 0, 0, 0, 0, 0, 0, 0, 0, 0, 0, 0, 0, 0, 0, 0, 0, 0, 0, 0, 0, 0, 0, 0, 0, 0, 0, 0, 0, 0, 0, 0, 0, 0, 0, 0, 0, 0, 0, 0, 0, 0, 0, 0, 0, 0, 0, 0, 0, 0, 0, 0, 0, 0, 0, 0, 0, 0, 0, 0, 0, 0, 0, 0, 0, 0, 0, 0, 0, 0, 0, 0, 0, 0, 0, 0, 0, 0, 0, 0, 0, 0, 0, 0, 0, 0, 0, 0, 0, 0, 0, 0, 0, 0, 0, 0, 0, 0, 0, 0, 0, 0, 0, 0, 0, 0, 0, 84, 185, 159, 151, 60, 36, 0, 0, 0, 0, 0, 0, 0, 0, 0, 0, 0, 0, 0, 0, 0, 0, 0, 0, 0, 0, 0, 0, 222, 254, 254, 254, 254, 241, 198, 198, 198, 198, 198, 198, 198, 198, 170, 52, 0, 0, 0, 0, 0, 0, 0, 0, 0, 0, 0, 0, 67, 114, 72, 114, 163, 227, 254, 225, 254, 254, 254, 250, 229, 254, 254, 140, 0, 0, 0, 0, 0, 0, 0, 0, 0, 0, 0, 0, 0, 0, 0, 0, 0, 17, 66, 14, 67, 67, 67, 59, 21, 236, 254, 106, 0, 0, 0, 0, 0, 0, 0, 0, 0, 0, 0, 0, 0, 0, 0, 0, 0, 0, 0, 0, 0, 0, 0, 0, 83, 253, 209, 18, 0, 0, 0, 0, 0, 0, 0, 0, 0, 0, 0, 0, 0, 0, 0, 0, 0, 0, 0, 0, 0, 0, 0, 22, 233, 255, 83, 0, 0, 0, 0, 0, 0, 0, 0, 0, 0, 0, 0, 0, 0, 0, 0, 0, 0, 0, 0, 0, 0, 0, 0, 129, 254, 238, 44, 0, 0, 0, 0, 0, 0, 0, 0, 0, 0, 0, 0, 0, 0, 0, 0, 0, 0, 0, 0, 0, 0, 0, 59, 249, 254, 62, 0, 0, 0, 0, 0, 0, 0, 0, 0, 0, 0, 0, 0, 0, 0, 0, 0, 0, 0, 0, 0, 0, 0, 0, 133, 254, 187, 5, 0, 0, 0, 0, 0, 0, 0, 0, 0, 0, 0, 0, 0, 0, 0, 0, 0, 0, 0, 0, 0, 0, 0, 9, 205, 248, 58, 0, 0, 0, 0, 0, 0, 0, 0, 0, 0, 0, 0, 0, 0, 0, 0, 0, 0, 0, 0, 0, 0, 0, 0, 126, 254, 182, 0, 0, 0, 0, 0, 0, 0, 0, 0, 0, 0, 0, 0, 0, 0, 0, 0, 0, 0, 0, 0, 0, 0, 0, 75, 251, 240, 57, 0, 0, 0, 0, 0, 0, 0, 0, 0, 0, 0, 0, 0, 0, 0, 0, 0, 0, 0, 0, 0, 0, 0, 19, 221, 254, 166, 0, 0, 0, 0, 0, 0, 0, 0, 0, 0, 0, 0, 0, 0, 0, 0, 0, 0, 0, 0, 0, 0, 0, 3, 203, 254, 219, 35, 0, 0, 0, 0, 0, 0, 0, 0, 0, 0, 0, 0, 0, 0, 0, 0, 0, 0, 0, 0, 0, 0, 0, 38, 254, 254, 77, 0, 0, 0, 0, 0, 0, 0, 0, 0, 0, 0, 0, 0, 0, 0, 0, 0, 0, 0, 0, 0, 0, 0, 31, 224, 254, 115, 1, 0, 0, 0, 0, 0, 0, 0, 0, 0, 0, 0, 0, 0, 0, 0, 0, 0, 0, 0, 0, 0, 0, 0, 133, 254, 254, 52, 0, 0, 0, 0, 0, 0, 0, 0, 0, 0, 0, 0, 0, 0, 0, 0, 0, 0, 0, 0, 0, 0, 0, 61, 242, 254, 254, 52, 0, 0, 0, 0, 0, 0, 0, 0, 0, 0, 0, 0, 0, 0, 0, 0, 0, 0, 0, 0, 0, 0, 0, 121, 254, 254, 219, 40, 0, 0, 0, 0, 0, 0, 0, 0, 0, 0, 0, 0, 0, 0, 0, 0, 0, 0, 0, 0, 0, 0, 0, 121, 254, 207, 18, 0, 0, 0, 0, 0, 0, 0, 0, 0, 0, 0, 0, 0, 0, 0, 0, 0, 0, 0, 0, 0, 0, 0, 0, 0, 0, 0, 0, 0, 0, 0, 0, 0, 0, 0, 0, 0, 0, 0, 0, 0, 0], "conv2d_1_weights": [251, -215, -298, 52, 418, -465, -436, 214, 10, -416, 216, -588, 446, -822, -290, -65, -283, -514, -240, 330, -488, -753, 135, 235, 52, -105, -165, 29, -446, -25, -355, 273, -536, -140, -119, 249], "conv2d_1_bias": [100930, 88375, 58990, -32326], "conv2d_2_weights": [-160, 85, 203, -319, 1, 133, 177, 200, 140, -281, -300, -209, 99, 123, 187, -58, 21, -81, -3, -384, 295, 271, 19, -94, -137, 238, 152, 132, -171, -186, -441, -13, -91, 229, -193, -156, -327, -45, 39, -37, -29, -8, -158, -214, 234, -176, 79, 72, 66, 173, 96, 38, -151, -70, -130, -74, -84, -130, 59, 261, -271, 261, -70, 49, -217, 43, -114, -138, -319, 128, -70, -291, -4, -163, -371, -228, 103, -151, -141, 202, 144, 291, -87, 47, -140, -59, -242, -84, 172, -441, -94, 278, 197, 195, 362, 168, -216, -8, -380, 123, -477, -43, -65, 105, 112, -354, -58, -61, 42, -207, 280, -172, 70, 112, 97, 374, -107, 93, -219, 138, -261, 119, -1, -186, 278, -197, -310, -72, -381, 0, 232, 112, 43, -180, 68, -371, 14, 59, -13, -47, -260, -237, 331, -254, -67, -129, -85, -101, 0, -99, 245, 71, 189, 199, -73, -204, -31, 319, -207, 112, 307, 134, -194, 188, 272, -118, -137, -86, -246, 137, -210, -84, -172, -170, 55, -208, -290, 14, 253, 179, -162, -92, 473, 183, -108, -96, 6, -128, -136, -77, -31, 113, -293, -130, -65, -170, 229, 15, -258, -45, 57, -108, -181, 364, 24, -16, -279, -336, 341, -27, 3, 188, -254, 217, -530, 121, -125, 67, 108, -105, 142, -371, 409, 222, -526, -5, 225, -56, 73, -90, 42, 81, -78, -98, -194, 427, 11, 186, 78, -113, -54, 65, 216, 8, -30, 273, 8, -224, 216, -263, -221, -323, -176, 41, -74, -361, 319, -25, -156, 150, 13, -157, -169, 288, -92, -8, -106, 179, 84, -210, 82, 93, -117, -195, -145, 134, -5, -179, 572, 114, 303, 185, -38, -280, 98, 132, -203, -220], "conv2d_2_bias": [-109014712274075, -156688317656517, -67565627396107, -30609982088208, -61470929533243, 62691107392311, -66422335803509, -134596019983292], "dense_weights": [45, -18, -22, 115, 39, -59, 183, -43, 92, -109, -55, 26, -10, 22, 152, 209, -185, 119, -232, -101, -27, -27, -66, 253, 160, -15, 323, -15, 74, 70, 65, 99, 237, -124, -190, -210, -192, -116, -91, 49, -240, 21, -108, 145, -9, -135, 269, 33, -53, 225, -41, -84, -162, -57, -19, 25, 124, -32, -18, 110, 173, 251, -111, -205, -284, 215, 131, 130, -51, -76, -4, 69, -38, 30, 1, -161, 17, -211, -4, 136, 145, 108, 23, -232, -10, 225, 386, -115, -56, -103, -33, -43, -168, 128, 5, 22, 291, 92, 58, -139, 6, -107, 173, 94, 29, -142, 123, -138, -141, 228, 51, 43, 209, 46, -538, -38, -430, -38, -226, 82, -114, -117, -4, 79, -189, -214, 11, -207, 97, 78, -117, 56, 78, 108, -59, -72, -37, 82, -131, -223, -57, 430, -30, -116, -6, 57, 166, 32, -29, -693, -300, -117, -55, -167, -101, 42, 17, -254, 186, 278, -56, 363, -103, -145, 255, 180, 225, -155, -53, -323, -148, -187, -102, 4, -101, 62, 230, 144, 115, 80, -135, -148, 55, -116, 37, 2, -103, -27, -54, 122, 5, -74, 38, 163, -448, 129, -182, 188, -6, -158, 6, 61, -7, 83, -112, -207, -59, -11, 160, -47, -114, 0, 72, 209, -149, -86, -20, -45, 14, 111, -182, -103, 240, 241, 336, -199, -192, 13, -193, -399, -11, 61, 153, -47, -120, -60, 119, -39, 94, 102, -64, 246, -200, 77, 135, 139, 108, -211, -43, -399, -45, -191, 20, 30, -121, -94, 8, -3, 84, -54, -174, -210, -53, -10, 80, -60, 113, -21, 43, 30, -147, -10, 25, 102, -378, 301, -220, 112, -93, 46, 68, -204, 137, -48, -113, 20, 49, -39, 131, -81, 61, -88, 348, 158, -74, -155, -93, -19, -128, -2, 100, -115, 254, 168, 95, -153, -195, 40, 49, 227, -42, -84, 115, -173, -132, 63, -14, 24, 84, 51, -307, 270, -76, 58, 190, -10, 189, -266, -46, -303, 46, 33, 110, 131, -313, 39, 5, -100, 46, 74, -43, 113, -58, 204, -56, 186, 185, -172, 24, 97, -51, 59, 86, 29, -394, -15, 38, 21, -39, -13, -126, -182, -153, -66, -4, 141, 75, -144, 149, -132, 158, 150, 143, 254, 221, -228, -26, 50, -28, -253, 34, -325, -35, -2, -164, -371, -102, -37, 129, 383, -31, -118, -54, -304, 7, 8, 236, -233, 86, 27, 1, -190, 13, -33, -101, 113, 64, -21, 98, 140, -99, 241, -209, -81, 79, 131, 157, 32, -89, 106, 36, -284, -19, -104, 95, -39, -37, 0, 111, 122, -351, 21, 105, 154, 3, -264, -310, 49, 97, -88, -192, -118, -79, 20, -201, -101, 54, 8, -12, 150, 168, -84, -191, -158, -27, -28, -31, 107, -204, -200, 200, 105, -307, -335, 191, 111, -135, 234, 34, -220, -126, 41, 76, 146, -41, -130, -108, 13, 145, 160, -18, -66, -5, -260, 30, -12, 57, 51, 26, 119, -48, -42, -140, -202, 161, 187, 139, -24, -45, 83, 65, 33, -41, 73, -69, -15, -106, -124, 136, 73, -43, -14, 162, 133, -400, -120, -324, 252, 6, -159, 53, 34, 85, 101, -231, -2, -166, -180, 34, 152, -87, -2, -9, 104, -6, -36, -65, 13, 3, 15, -182, 103, -50, -106, 250, 83, -140, 267, 153, -136, 7, 71, -148, 194, -140, -184, 96, -8, -54, -167, 158, 21, -10, -178, 112, 106, 151, -11, -126, -69, 54, 148, -144, -58, -15, -3, -88, 33, 69, -144, -27, -216, 9, 41, 153, 110, -335, 99, 3, 131, -128, -121, -11, 56, -381, 3, -327, 169, -53, -33, -171, -42, 161, 240, -90, -41, -132, 120, 108, 220, -65, -41, -90, -38, -120, -94, -277, -174, 63, 29, 76, 108, 180, -166, -178, -101, -559, 193, 193, 60, 27, 54, -21, 75, -141, -177, 32, 103, -60, 0, -42, 343, 21, 51, 185, -378, -36, 128, -149, -108, 14, 104, -46, 175, -37, -214, -278, -94, -51, -28, 243, -88, -118, 60, 82, -135, -187, 17, 94, -107, 36, -210, -64, -28, -265, 274, 196, 139, -49, 25, 190, 17, 101, -38, 36, 126, -199, -19, -42, 239, 105, -6, -29, -88, -104, -93, -305, -47, 125, 175, 335, 12, 195, -8, -96, -56, -36, 9, -41, -135, 14, -205, -147, 121, -10, -114, -60, 37, 173, -1, -112, 206, -10, 188, 292, -283, -230, 240, -10, -163, -27, -153, 18, 92, -63, 50, 48, -119, 48, -57, 75, -71, -66, 122, 100, -273, -136, -130, -73, -35, -113, -143, -332, -184, -349, 265, 154, -124, 11, -106, -32, 73, -360, -10, 118, 339, 3, -41, 46, -129, 346, -44, -63, -115, -79, -216, -243, -208, 184, 171, 82, -149, 89, -66, -33, -201, 192, -68, 56, 32, -39, -6, 138, 33, 91, 0, -190, 89, 192, -240, 108, -241, -190, -374, -80, -298, 183, -78, -37, -102, -276, -45, -141, 29, 12, -96, -64, 90, 57, 150, -53, -188, -280, -307, 284, -166, -21, 308, 33, 144, -273, -62, 187, 232, -19, -39, -263, 100, 91, -254, 55, 123, 10, 90, 65, 74, -87, 10, -87, -73, 40, -4, -262, -284, 188, -42, 118, -10, 77, 9, -5, -5, -150, -125, 195, 124, -5, 61, 55, 6, 60, -167, -60, -39, 68, -20, 79, -30, -115, 47, -46, 173, -248, -108, 129, -135, 58, 23, -31, -4, 145, -331, 11, -285, 94, -110, 6, 12, 175, 106, 95, -44, -19, 27, 147, 56, 32, -256, 95, 103, -245, 74, 201, -34, -44, 122, -425, 88, -91, -28, 100, 105, -11, 36, 90, -208, -46, 25, -161, -25, 34, -4, -162, 27, 165, 165, 164, -32, 159, 69, -198, -500, -267, -157, -73, 167, 55, -325, 256, 211, 30, -39, 171, -116, 139, 2, -164, 221, 10, -160, 141, 80, -85, -74, -45, -21, 24, 202, -49, -187, 18, -439, -29, -295, 195, 197, -15, -245, 90, -63, 111, -146, -294, -234, 132, -97, -196, -132, -97, 73, -208, -264, 46, 62, 177, 49, -116, 17, -39, 32, -135, 99, -68, 141, -85, 1, 46, -19, -72, -65, -238, 72, -149, 143, 38, 110, -85, -136, 39, 167, 21, -17, 18, -149, 173, 15, -237, -49, 241, 88, -146, -121, -62, 97, -232, -92, -110, -342, -90, 96, 71, 102, 156, -156, -18, -18, -5, 65, -79, 151, -111, -19, 27, 4, -32, -32, -19, 51, 108, 153, -19, -142, -96, 97, 9, -182, -31, -17, 64, 187, -71, -169, 15, 90, -218, 215, 59, 81, -29, 40, -493, 44, -159, 166, -129, -245, 8, -256, 82, 114, 66, 131, -222, -162, 71, 188, -145, 234, -112, -28, 123, -32, 21, 206, -220, 229, 314, -191, 57, 106, -99, -183, -53, 196, 159, -113, 55, 119, 58, 52, 103, 179, 8, -125, -90, -183, -91, -4, 8, 128, -131, 61, -61, -36, 46, 101, -136, -2, -132, -88, 124, -187, 191, -19, -98, 13, -80, -56, 94, 94, -173, -19, 23, 169, 47, 283, 81, 107, -72, -188, -96, -47, -133, 42, 120, -368, 110, -13, 421, -127, 141, 81, -211, -366, 116, -138, -132, 114, -226, -126, 114, -218, -320, 11, 34, -3, 207, 86, 17, -13, 16, -226, 10, -166, 97, -209, 169, -192, 132, 86, 56, -358, 10, -167, 135, -153, 197, -48, 170, 6, 65, 26, -59, -19, -173, 65, -113, 72, -2, -9, 34, -129, 220, -52, 221, 21, 42, -173, -288, 92, 42, 77, 221, -37, 148, 82, -41, -128, 159, -162, -21, 137, 35, -5, -94, -194, -156, -33, -28, -96, 5, -110, 55, 18, -76, 22, 137, -136, -66, -103, -92, -154, -117, 220, 4, -210, 159, -280, -114, 51, -79, -226, 172, -366, -56, -77, -216, -143, -43, -5, -34, 23, 114, -346, 7, -245, 26, 36, 50, -323, 185, -177, -296, -175, -12, -21, 47, 303, 45, 73, 71, -221, 219, -274, -62, -20, 197, -275, 215, 23, -194, 182, 26, 94, 159, 180, -281, 145, -83, 86, 43, -71, 31, -134, -24, 99, 115, 252, 139, -97, 136, -176, 150, 39, -97, 9, 172, 69, -134, 85, 60, -86, -324, 224, 95, 230, -26, -326, -12, 174, -60, -81, 147, 16, -132, -74, -191, 75, -80, -15, -26, 115, 70, -233, -39, -76, 123, 16, 73, -326, 103, -265, -16, -63, -79, 77, -17, -199, 296, -115, 8, -241, 243, -37, -13, 62, 102, -96, 175, -106, -326, -54, 23, 121, 207, 96, -67, -104, -13, 160, -151, 104, 8, 210, -104, 88, -11, 66, 173, 45, -238, -16, -108, 72, -141, -144, 52, -241, -155, -165, -50, 5, -452, 105, 42, -27, -9, 14, -77, -9, -1, -396, -32, 19, 3, -78, -105, 61, -13, 248, -3, -45, 78, -94, 48, -78, -144, 65, -148, 191, -68, 75, -63, 25, 67, 7, 62, -98, 150, 131, -112, -165, 7, -48, 28, -262, 36, 9, -11, -6, 29, -152, 160, 127, 148, 8, 182, 123, 52, 7, -65, -220, 62, 43, 75, -244, 26, 1, 35, -76, -238, 8, -179, -121, 37, 25, -19, 48, 13, 91, 93, -83, 75, 299, -65, 127, 126, -192, 162, -147, -54, -493, 36, 48, 45, -65, 78, -23, -93, 35, 161, -148, -120, 96, 65, 61, -24, 70, -33, 6, -73, 99, -67, 129, 6, -35, 8, -60, -72, -110, -107, 1, 151, 148, -83, 7, 279, 2, -28, 77, 47, 10, 179, -272, 36, -119, -43, 9, 13, -331, 209, -80, 186, -188, 105, -171, -91, 174, -285, -100, -37, 109, -43, -53, -97, 71, -33, -201, 40, 90, -206, 173, 46, 21, -7, 117, 72, -96, 263, -179, 17, -64, -9, 63, 143, -189, -66, 44, 37, -198, 222, 39, 91, -187, 17, -302, -188, 109, 3, -45, -57, -165, -127, 219, 112, -162, -105, 209, -218, -39, 247, -243, 167, 42, 29, 18, 160, -91, 3, -32, -39, 31, 13, 7, -99, 25, 39, -9, -42, -171, -20, 53, 66, -52, 280, -129, -221, -163, 80, -42, 157, -35, 29, 126, -147, 50, -51, -155, 83, -75, -98, 32, 14, -57, -251, 287, -71, -216, 131, -3, -90, 224, 39, 80, -90, 105, -163, -52, -198, -146, -154, 84, 92, -247, 257, -9, -132, 176, -94, 55, -46, -15, 165, -152, -33, 143, 44, -269, 94, -93, -68, -183, 52, -78, -65, -4, 35, 57, 97, -169, -127, 87, -94, 84, 29, 111, -129, -187, -248, 106, -132, -75, -70, -49, 66, 98, 33, -75, -18, 73, 195, -48, 48, -92, -106, -2, 141, -260, 128, -183, 70, -150, 132, 128, -162, -140, 203, -200, 149, 22, -82, 42, -129, -33, -230, -86, -40, -56, -177, 26, -236, 105, -143, -142, 62, -39, -212, 127, -226, 96, 133, 127, 67, -162, -131, -99, 159, -118, 198, -102, 77, -157, -7, -82, 185, 53, 69, 162, -40, -93, 44, -82, -22, -62, -46, 19, 50, -221, -12, -111, 116, -9, 73, 150, -215, 147, -13, -134, -9, -68, 9, 76, 103, -197, 42, -120, 126, 74, 242, -128, 212, -49, 146, -66, -278, -64, 89, -46, -157, -27, 124, -83, 102, 198, -160, 145, 18, -200, 115, 46, -385, -81, -438, 67, 14, 123, -136, 185, -214, 86, -84, -116, 167, -100, 33, -123, 159, -177, 194, 42, 74, 19, 5, 204, 143, -2, 183, 54, 99, -11, 36, 46, 130, -73, -46, -105, 71, 89, -123, -129, 13, 50, 101, 113, -323, 56, 49, -352, -77, 8, -360, 222, 125, -187, 107, -194, -109, 188, 43, -41, -104, 385, 262, 80, 32, -87, 12, 184, -201, 95, -16, -3, 72, -10, -222, 47, -83, -310, 17, -232, -101, -55, -143, -22, 22, 96, -64, 112, -172, 163, -168, -71, 236, -41, 136, -71, 102, -66, 82, 60, -76, 43, -246, 238, 83, 178, 56, 13, 87, 22, 112, 284, 284, -161, 153, -116, 22, 170, -126, -141, -18, 16, -12, 166, -110, 23, -166, -164, -8, -111, -278, 66, 21, 128, 234, 22, -251, 29, -51, 165, -441, 149, 313, -139, 170, -229, -307, -279, -138, 195, -253, 125, 173, -38, 125, 46, 273, -451, 87, -124], "dense_bias": [0.0, 0.0, 0.0, 0.0, 0.0, 0.0, 0.0, 0.0, 0.0, 0.0]}