{"in": [0, 0, 0, 0, 0, 0, 0, 0, 0, 0, 0, 0, 0, 0, 0, 0, 0, 0, 0, 0, 0, 0, 0, 0, 0, 0, 0, 0, 0, 0, 0, 0, 0, 0, 0, 0, 0, 0, 0, 0, 0, 0, 0, 0, 0, 0, 0, 0, 0, 0, 0, 0, 0, 0, 0, 0, 0, 0, 0, 0, 0, 0, 0, 0, 0, 0, 0, 0, 0, 0, 0, 0, 0, 0, 0, 0, 0, 0, 0, 0, 0, 0, 0, 0, 0, 0, 0, 0, 0, 0, 0, 0, 0, 0, 0, 0, 0, 0, 0, 0, 0, 0, 0, 0, 0, 0, 0, 0, 0, 0, 0, 0, 0, 0, 0, 0, 0, 0, 0, 0, 0, 0, 0, 0, 0, 0, 0, 0, 0, 0, 0, 0, 0, 0, 0, 0, 0, 0, 0, 0, 0, 0, 0, 0, 0, 0, 0, 0, 0, 0, 0, 0, 0, 0, 0, 0, 0, 0, 0, 0, 0, 0, 0, 0, 0, 0, 0, 0, 0, 0, 0, 0, 0, 0, 0, 0, 0, 0, 0, 0, 0, 0, 0, 0, 0, 0, 0, 0, 0, 0, 0, 0, 0, 0, 0, 0, 0, 0, 0, 0, 0, 0, 84000000, 185000000, 159000000, 151000000, 60000000, 36000000, 0, 0, 0, 0, 0, 0, 0, 0, 0, 0, 0, 0, 0, 0, 0, 0, 0, 0, 0, 0, 0, 0, 222000000, 254000000, 254000000, 254000000, 254000000, 241000000, 198000000, 198000000, 198000000, 198000000, 198000000, 198000000, 198000000, 198000000, 170000000, 52000000, 0, 0, 0, 0, 0, 0, 0, 0, 0, 0, 0, 0, 67000000, 114000000, 72000000, 114000000, 163000000, 227000000, 254000000, 225000000, 254000000, 254000000, 254000000, 250000000, 229000000, 254000000, 254000000, 140000000, 0, 0, 0, 0, 0, 0, 0, 0, 0, 0, 0, 0, 0, 0, 0, 0, 0, 17000000, 66000000, 14000000, 67000000, 67000000, 67000000, 59000000, 21000000, 236000000, 254000000, 106000000, 0, 0, 0, 0, 0, 0, 0, 0, 0, 0, 0, 0, 0, 0, 0, 0, 0, 0, 0, 0, 0, 0, 0, 0, 83000000, 253000000, 209000000, 18000000, 0, 0, 0, 0, 0, 0, 0, 0, 0, 0, 0, 0, 0, 0, 0, 0, 0, 0, 0, 0, 0, 0, 0, 22000000, 233000000, 255000000, 83000000, 0, 0, 0, 0, 0, 0, 0, 0, 0, 0, 0, 0, 0, 0, 0, 0, 0, 0, 0, 0, 0, 0, 0, 0, 129000000, 254000000, 238000000, 44000000, 0, 0, 0, 0, 0, 0, 0, 0, 0, 0, 0, 0, 0, 0, 0, 0, 0, 0, 0, 0, 0, 0, 0, 59000000, 249000000, 254000000, 62000000, 0, 0, 0, 0, 0, 0, 0, 0, 0, 0, 0, 0, 0, 0, 0, 0, 0, 0, 0, 0, 0, 0, 0, 0, 133000000, 254000000, 187000000, 5000000, 0, 0, 0, 0, 0, 0, 0, 0, 0, 0, 0, 0, 0, 0, 0, 0, 0, 0, 0, 0, 0, 0, 0, 9000000, 205000000, 248000000, 58000000, 0, 0, 0, 0, 0, 0, 0, 0, 0, 0, 0, 0, 0, 0, 0, 0, 0, 0, 0, 0, 0, 0, 0, 0, 126000000, 254000000, 182000000, 0, 0, 0, 0, 0, 0, 0, 0, 0, 0, 0, 0, 0, 0, 0, 0, 0, 0, 0, 0, 0, 0, 0, 0, 75000000, 251000000, 240000000, 57000000, 0, 0, 0, 0, 0, 0, 0, 0, 0, 0, 0, 0, 0, 0, 0, 0, 0, 0, 0, 0, 0, 0, 0, 19000000, 221000000, 254000000, 166000000, 0, 0, 0, 0, 0, 0, 0, 0, 0, 0, 0, 0, 0, 0, 0, 0, 0, 0, 0, 0, 0, 0, 0, 3000000, 203000000, 254000000, 219000000, 35000000, 0, 0, 0, 0, 0, 0, 0, 0, 0, 0, 0, 0, 0, 0, 0, 0, 0, 0, 0, 0, 0, 0, 0, 38000000, 254000000, 254000000, 77000000, 0, 0, 0, 0, 0, 0, 0, 0, 0, 0, 0, 0, 0, 0, 0, 0, 0, 0, 0, 0, 0, 0, 0, 31000000, 224000000, 254000000, 115000000, 1000000, 0, 0, 0, 0, 0, 0, 0, 0, 0, 0, 0, 0, 0, 0, 0, 0, 0, 0, 0, 0, 0, 0, 0, 133000000, 254000000, 254000000, 52000000, 0, 0, 0, 0, 0, 0, 0, 0, 0, 0, 0, 0, 0, 0, 0, 0, 0, 0, 0, 0, 0, 0, 0, 61000000, 242000000, 254000000, 254000000, 52000000, 0, 0, 0, 0, 0, 0, 0, 0, 0, 0, 0, 0, 0, 0, 0, 0, 0, 0, 0, 0, 0, 0, 0, 121000000, 254000000, 254000000, 219000000, 40000000, 0, 0, 0, 0, 0, 0, 0, 0, 0, 0, 0, 0, 0, 0, 0, 0, 0, 0, 0, 0, 0, 0, 0, 121000000, 254000000, 207000000, 18000000, 0, 0, 0, 0, 0, 0, 0, 0, 0, 0, 0, 0, 0, 0, 0, 0, 0, 0, 0, 0, 0, 0, 0, 0, 0, 0, 0, 0, 0, 0, 0, 0, 0, 0, 0, 0, 0, 0, 0, 0, 0, 0], "conv2d_weights": [467504323, 504206896, 193239540, -1609692216, -1113717079, -1888782144, -713342845, -531712532, -486465812], "conv2d_bias": [365103513002395648], "dense_weights": [33928867, -107130215, 68623438, 107806094, -124306418, 6843737, 59315689, -74280046, 23396427, -73701181, 48447799, -203054801, -13872808, -4304918, -9936185, 748000, -36688566, -27662504, 74177250, 89742109, 29293628, -198291868, 131528407, 13337918, -49292747, -50962307, -54428052, 9228988, 64787030, 83352894, -66057354, -202934340, 21689417, 8764647, -79328857, -17500626, -86269788, -23292605, 20410055, -25702046, 45033973, -63406609, 79113618, 129054844, -154119089, -38725220, -73593132, -27387803, -12775233, -33118606, 7933053, -130457878, 30622264, 87487549, -85482217, -52704815, -147479698, 41974854, 121979184, -85092470, -43544672, -132651359, 48132289, 19422829, 54933041, 8817132, -81614062, -39531939, 133648545, 2439804, 31936310, -144373491, 131576627, -5079864, -15573022, 45553688, -226977080, 19423604, 130066991, -50161481, 49445610, -77745512, -18057996, 118428297, 9020798, -25352243, -96841976, -103027038, 28376859, -75857140, -36257833, -84061734, 59741680, 96235357, 11669573, -5706985, -158647239, -8638022, 97292475, -38814202, -28964033, -185065731, -19021276, 78423232, 130562887, 72415993, -254598737, 83402917, 133773193, 97598523, -74071698, -156937599, -39042313, 72264627, 105488136, 159235999, -289705396, -71829513, 146550670, 70677117, -41778024, -161835566, 36765195, 47043417, 85435688, 32112706, -247972056, -35183635, 82635574, 83415322, 23276666, -275357276, 32439884, 70797563, -47655717, 55030249, -146370173, 93794130, 117611431, 127148733, 19780803, -86536311, -817552, 206851259, -67785241, -18799821, -240802020, 78108117, 74962422, -19004166, -70972554, -120373823, 36867071, 54586653, 28386140, -23016762, -151498899, -9393740, 69658190, -9034166, -55975899, -171427727, 73571004, 157090083, 94280519, 44796798, -248413339, -68791911, 138925403, 11593563, 37955269, -83259031, 157209456, 24583220, 56837600, -29988714, -234638482, -53791195, -12748447, 70494838, 94399348, -161486998, 84172823, 190033704, 63859895, 86699151, -280347645, 65017000, 89368187, 66542163, 29969949, -182941616, 30127268, 159226626, -66203594, 115929060, -182830498, 40943205, 44927027, -51990118, 79973169, -135901853, 105919749, -1175692, -49551371, 109572142, -168853819, 59585564, 103504404, -43345246, 47176458, -140719548, 19473361, 48138812, -3783592, 74322879, -142092273, -15955510, 55285770, 95230699, -56141250, -102400251, 102813721, 53594489, -32787453, 120641984, -138998136, -44194713, 120439790, -61682738, 62837668, -179459125, 56009185, 121112861, -91860935, 43782372, -59816040, -30352602, 53583745, -28460728, 37887931, -85482202, 19536311, 60769562, -8459630, -49185455, -35686482, -90191327, -40985223, -3041481, -2835047, -35353448, 119729601, 52843325, -127751991, 3430404, -60279384, -24405455, 130542457, 71863867, -73488086, -125290573, 45674827, 35541780, -114935316, 88045232, -23628518, 3828597, 73181570, 3371930, -20825602, -85823588, 29284926, 100865237, -61302539, -56158807, 9550310, -79091132, 109613374, -57409, -18601192, -155742452, 22393642, 163667306, 4714805, 10705342, 16923333, 3458661, 70521809, 16935118, 36472965, -177436709, 75411566, 112596862, -121015131, 100382835, -21352403, -73332869, 34740634, 36061607, 43203719, -184492171, -35007711, 46900321, -6834454, 104534142, -133752972, -9573772, 92671581, 69254309, -66904902, -182177693, 19175520, 54903973, -13812375, 80286391, -101451539, 2772822, -2126921, -18554175, -47731824, -107667215, -25359536, -2231929, -66422030, 86215176, -156872898, 52428979, 141572520, 10058357, -83010972, -2521584, 4881572, 7902508, 13068840, -1221799, -127600297, -22983316, 110986128, -60294140, 30156074, -44165503, -8054632, 85424267, 153209761, 72353564, -202230349, 24606947, 166742310, -351997, 38086332, -25488591, -219965503, -9546923, 102873057, 123478316, -375868440, 122306556, 127712712, 96025988, 76959625, 42776205, -192586750, -6911738, 210102394, 41070018, -293360651, 34370523, 120778024, 40817894, 37484281, -46874259, -169964984, 24240604, 156000018, 204766646, -274055153, 39072406, 147316128, 32212287, 90017878, -169128448, -135252759, -48546143, 227418602, 214004770, -395190448, 49009472, 85426874, 184711844, 129808843, -235324487, -1074955, -94292790, 226186678, 108974896, -361951172, 142513692, 232269496, 171303615, 14731790, -107134022, 54508951, -66443324, 49244709, 240831286, -168161079, 144740224, 95341012, 123052411, 167431861, -155363485, -56116652, 41179277, 63966356, 113911927, -57493649, 62838092, 181613341, 188665152, 172999769, -75116828, -41477337, -102757961, 10978472, 66646144, -159517258, 51432721, 127658397, 88238381, 226967603, -10863893, 91553457, -93790591, 107982859, 8400876, -159922838, 29632818, 13296093, 184147865, 192187563, -9787993, 16162019, 56307517, 58155701, -78553386, -115861051, 111136697, 183428094, 65672159, 196169347, -60396113, 124705181, 57513241, -97213171, -34131847, -285578728, -69859587, 33047359, 105913177, -15635623, -78944355, 155449599, 14114689, 14133032, 35605263, -181220502, 22323066, 21676516, 29349031, 113942385, -22886971, 105929174, 61127760, -117971539, 32057572, -287863463, -22721849, -40418305, 93452625, -48313297, -58398332, 105028704, 25644431, -129021585, 61724540, -98686926, -35049800, 107591145, -28241584, -71438819, -148036093, -13285949, 125080615, -151169568, -29816709, -61195698, -98809272, -32464080, 89788966, -88747457, -28344382, 88650301, 38102340, -55038135, -49588747, 24593676, -78403994, 17663084, 19422669, -72189301, -173039556, 60752727, 72084375, -149124339, 117827065, 8719970, 2749744, 44221576, -39580215, 28602740, -156762138, 140993878, 164423138, -152895987, -21773115, -100394391, 2599616, 39625842, 25293507, -40738184, -125944674, 37737112, 70945106, -159963623, -45375090, 10977376, 33100668, 52788276, 78453206, 11871669, -116897553, 1454898, 79012714, -14216920, 44002216, -20171858, 77777989, 62650122, -87383389, 89296460, -140740275, 51496573, -241668, -74918792, 58372799, -120084234, -81673950, -22951951, 71985468, -28180761, -206436470, 33759415, 47618143, -130040720, 153220952, -7179821, -37873492, 85987106, -77889934, -62220603, -40123139, 15525445, -61884709, -20793958, 113731623, -77880502, 8858139, 150510520, 64882100, 45334917, -130841970, -120486736, -101721480, 110916145, 138036072, -83145097, 89371108, 12800245, -46874113, -26033148, -60693778, -122843154, -163342178, 23674628, 261976600, -65400571, 72779313, 144438073, 27406530, 13599366, 49778864, -114160918, -273717731, 192524761, 146711513, -145307198, 187702402, -34529850, 109641388, -70662178, 4401056, -197385743, -356145591, 200486571, 189244807, -146217093, 217468917, 114514388, 118761234, 102619715, 41785397, -185071617, -340214044, 297166675, 235643879, -123673595, 140837267, 111537471, 79147793, -23806188, -101357669, -343431711, -249224648, 304127395, 279825866, -13389528, 124162316, -17782066, 206065580, 192668021, -77564560, -223290369, -172739297, 181844726, 299314439, -126702830, 300221235, -48122454, 234551340, -46367932, -250249594, -189320385, -252032965, 110898130, 141122565, -10170977, 297594935, 14517955, 307385802, 43102477, -131381303, -109177478, -285162508, 119153798, 44448715, 28897524, 219718456, 54791812, 404555678, 150111616, -218886897, -70087671, -120474279, 76514840, -21457739, -75544968, 207281023, 96719645, 325978220, 149427414, 45161646, -94659038, -135611758, 144853160, -127549157, -37856348, 202178881, 46268318, 348705351, 151023224, 25019653, 114648364, -45392986, -99034660, -16375767, -45658570, 176958144, 17421501, 306949139, 267844200, -81020012, 61456624, -121029280, -101501614, -70055626, -264010996, 54640383, 151210725, 231564254, 195973516, -25575308, 174969837, 5531240, -108112775, 84596738, -350725025, 172892556, 4784979, 165716186, 170214817, -107142009, 173921496, 102526873, -247630224, 37239868, -374245137, 67559145, 96092209, 168320477, 28982168, -104211435, 145431131, 194487065, -167809919, -70922330, -308331192, -2856114, 124957852, 65826587, 134403870, -93681686, 90221554, 103952602, -213599652, -65998919, -223169923, -49338818, 91357306, 62867641, 92191100, -101327807, 189764321, 227879107, -54950498, -75237781, -69119386, -88104203, -40063810, -5975695, 108044058, -68227969, 89689210, 62537901, -31589523, 47130257, -70812881, -89583047, 130029917, 19888597, 43971162, -133778647, -32876473, 59646044, -59276465, 34765244, -34661308, -24790971, 4890399, -55661596, 22949995, -112527125, 37193447, -6180740, -54030921, 82541361, -38848441, -81303410, 956098, -5228939, 44488877, -196354374, 14950260, 44350740, -100189127, -51906135, -45803886, -2652100, 78818701, -33441246, 55549327, -45073468, 93017809, 1117806, -133316487, 26319791, -1102575, -13643682, 142304569, 3488619, -49045887, -95986776, 119370505, -36817744, -84385574, 54911736, -81321746, -62271595, 171476275, -45518145, 47922224, -58660198, -27568107, -242700443, -26198190, 145365685, 13337599, 92952527, 78020230, 34481078, 82976349, -17722068, -84885821, -215035036, -70494108, 223057479, -36498822, -23703832, 78375638, 21641051, 123970054, 80260672, -82731158, -236086264, -29796755, 199830189, 17891614, 62862352, 45598451, 122168280, -19578425, 177809551, -188884869, -209673315, 9374507, 133714586, -70023723, 29504368, -13382147, 83034858, -10813179, 218826160, -250499815, -95405340, 48657816, 150573835, -99179193, 242570519, 87969668, 185125560, 42694420, 140152290, -216524184, -96152365, 85033014, -50842077, 90148717, 148853093, -11221015, 34077328, 23080731, -32191362, -168562382, 46754770, 164158478, 116224155, 127422184, 393018454, -108340934, -32754906, -136738196, -73462799, -244378939, -88184893, 97981900, 108083971, 411660969, 328797102, -217072636, 82256734, -89950532, -126527503, -354400247, -81195578, 32005865, 22505989, 227009311, 395694405, -84603146, 35483882, -229806930, -417612910, -170727268, -303414702, 42904373, 134738326, 138151333, 451971352, 72204255, 218620405, -281631976, -398663431, -178238556, -223131090, -118472449, 179563925, 96681736, 491967946, -104382440, 382080287, -272076696, -285301924, -329062939, -161328524, 15202820, 2687985, -27432088, 396037966, -40563542, 570515275, 8700590, -220687836, -248142749, -182356909, -101780951, -49536563, -69446661, 416981280, 9008879, 508787930, -182801411, -120004885, -54315448, 50904207, -187789351, -111385442, -68551600, 351487815, 12080070, 382141292, -134186834, -146307588, 31963170, 25491085, -288917899, -67161806, -213728711, 354786515, 105278015, 263776839, 99853411, -269912809, -3867956, -25782913, -108357951, -31693425, -213168338, 303820193, -147853762, 152227566, 88124692, -303795964, 157318890, 136155337, -197325766, -38510911, -101024725, 178864449, 4736914, 242506012, -19669695, -107796572, 182298288, 234024838, -308498651, -141950816, 42429611, 167481139, 35234023, 110144638, 107622363, -171610519, 238350153, 171296224, -279899240, -207360610, -64034939, 178674430, 12283549, 222084582, 66432402, -14159886, 168759927, 128544375, -258100629, -189874932, -157580435, 123684667, 110914193, 111093491, 41962679, 46860375, 145490035, 73050588, -228673145, -194444016, 17721813, 92665955, -6505449, 123864487, 43987267, -136575475, 59788126, 75160518, -144202039, 7191316, -24215074, 66354625, -40103342, 31922918, 36353946, -161332011, 56808300, 76351315, -74960388, 4920062, 55943158, -65954857, 13599137, -49569082, 57958368, -157315388, 123677932, 113534108, -19586517, 144163579, -29183129, 29054059, 114391625, -92058621, 67423783, -27279470, -28895052, -25437932, -78031451, 201268405, 70814036, 11320663, 156941116, 74197493, 101602435, -64237788, 45123357, -182482809, -133796811, 207010284, -44528048, -53998612, 14527923, 34420203, 114037082, 9010431, 45376636, -262439460, -198613837, 263479471, 23527201, 15659742, 89511670, 110572495, 111951806, 108690113, -45783423, -121623933, -153531775, 86575434, -25189929, -90117276, 87829933, 258781701, 83873846, 330904990, -193411812, -94865091, -131945640, 104201443, -65334067, -27742725, 120817676, 238544077, 148162514, 426521719, -210060552, -124991693, -154292792, 53875562, 109469436, -54652203, -34300197, 162087172, 186287925, 279135197, -190053344, -56889899, -61599307, -38591124, 162276223, 91132991, 100595966, -13168231, 176390469, 208142146, -246040568, 7923903, 75301312, 105547383, 288026154, 51386736, 100477614, -41885544, 173349097, 278158367, -87162659, -226230308, 140632764, 254864097, 262156099, 87556213, -99735372, -211771250, -82419246, 230882630, -93941294, -231160089, 86563215, 240647644, 301226556, 105664529, -186532468, -95539734, -174695745, 91408297, -121084787, -72220765, 108444117, 139124393, 225267321, 250000447, -20455001, -74305318, -59175026, -25845878, -237093940, 18157, 17508050, 105285570, 246383846, 353547305, -221245751, -12551663, -117933601, 88425711, -70854723, 69852889, 43115288, 39809436, 207272813, 364620596, -388895720, -20304462, -135029703, 32960441, -44908438, 38929373, 49023237, 238719359, 235083997, 195978627, -365049303, -111869380, -68271868, -20773498, -19096963, -122082420, 88691823, 105822928, 200939208, 291181058, -307095587, -196072295, -5770422, 80614656, -41284919, -64522490, -19755751, -142010123, 330893248, 401067197, -88107564, -213619128, -69156714, -8424548, -802688, -164791465, -32311447, -133253068, 301774591, 273929626, -56701269, -92968836, 35021842, -213293970, 133233085, -198820069, 42042628, -7860866, 50330892, 291664600, -42303309, -60905930, 139160186, -84187344, 69638632, 32588203, -135785654, -149903283, 102131881, 254890323, -63064061, 113399409, -57435248, -156102374, 202536747, 74688867, -261949778, -11172391, 152585030, 215321004, -119979039, 213240996, -58593236, -137095526, 206425577, 90471506, -450394720, -276332796, 3176639, 103454448, 139946491, 306498200, 224104151, 16228836, 267390013, 201771975, -415610701, -367100209, -7574204, 89881904, -51892940, 113305457, 186776623, -3051960, 133876026, 165528387, -247018382, -289977700, 12115623, 24862304, -67612588, 128605336, 26638553, -72757848, 134912387, 151057109, -74118994, -150273547, -57202384, 95284864, -71187332, 29146586, -16577926, -100385278, 53604167, 15540967, -10049572, 1438662, -105121240, -93499824, 51727109, -83762601, -21904944, -155395731, 49313277, 56759045, -92429474, 128623590, 70000693, 5032098, 49382746, 28154505, 90126544, -87742135, 72634533, -207939208, -191253886, 187404156, -41703898, -70161432, 176713571, 107303195, 7115820, -37749164, 6069097, -206176624, -244974971, 289216489, -50346982, -83988123, 158497885, 173418581, 109816827, -65259680, -127727896, -252479166, -111726269, 198641285, 77991106, -64096086, 77581979, 241555214, 24664609, 113283195, -76711431, -210907355, -149442852, 156655163, 136118963, -257476777, 124968246, 320383102, 206007466, 298164517, -13577132, -134614706, -184615180, -25139948, 135739744, -163705915, -85466102, 313387156, 295374691, 316967815, 60631998, -227526262, -264194548, -26576584, 165520608, -182411179, -39164562, 37332792, 137942597, 351419359, 94124563, -194496438, -105453692, 119835556, 217809260, -204369530, 103517152, -19595657, 93454473, 275378823, 15279506, -142984271, -53042401, 57389159, 271862030, -307821453, 110771753, -23921832, 167024881, 167785779, 102906957, -92630737, 14692854, 9394975, 195041046, -269244999, -12642818, 2957495, 154290244, 312337101, -97686447, -170002431, 26881324, 197684258, 364823252, -154195324, 63257217, -166990280, 12281780, 293560684, 112358898, -61130613, 92399672, 204241157, 49004782, -85096374, 109732255, -619909585, 48036143, 591564000, -86095504, 63376755, 243990734, 329818070, 174485549, 43652236, -251521379, -780364215, -50712589, 613158524, -27502706, 73291540, 175393507, 186856270, 185717165, -93893468, -182588339, -736703277, -59803639, 374707878, 105037145, -141379565, 394340754, 271851182, 202716634, -121430926, -123680092, -654029250, -158213302, 363701761, -60297117, 93557395, 54797288, 71406715, 380817503, -148293659, -169499218, -450113833, -91805823, 262706816, 139544144, 148874104, -40550921, 192781627, 410022706, -192522123, -9732625, -234254941, 35891727, 202762261, -91844633, -68567321, -119640477, -8693242, 451967120, -178511173, 28388618, 34236148, 31434588, 53437274, 14864467, 56285057, -55195007, -111569390, 361808687, 42978939, 13102531, 59670087, 87642111, 31608518, 55562135, 87431274, -101521671, -45241319, 334135264, 76291278, -47790021, 12140139, -122100808, 68674520, 129026398, 52741788, -289842010, 1742905, 153903335, 53177502, 19354608, 243619844, -223944634, 111253500, 66010803, 138439134, -516801298, -115133733, 260621041, 174774989, -135482937, 383957595, -13081406, -9524378, 217468187, 309443176, -391537160, -432306677, 23004852, 106298275, -188254446, 256791413, 232574865, 13489169, 294488281, 223368123, -286963999, -342147082, -5535062, 134842202, -59389625, 196483448, 126063094, -23870569, 101823583, 67275718, -162437931, -283619523, -30272834, 122023180, 85589029, 171195164, -56949079, -118221633, 67979082, 141860247, -46524663, 18943904, 18323483, 28473934, 63889742, -51107928, 26632590, -58262754, 79891950, 6568336, -102865189, 37751045, -84699489, -209773630, 7967002, 66336088, -48021723, -61231483, -34856390, -174526140, -177012339, 253573209, -73622979, -28776694, 4137845, 83758846, 90202749, 45129437, -81444167, -307984054, -90246931, 202714890, 72996177, -90316124, 129534170, 171539277, 52813392, 130299449, -198294207, -222703755, -159491822, 138110265, 113038093, -199426144, 11983017, 219932348, 270014703, 86668365, -102747910, -15084208, -121657796, -57393018, 73469758, -219599634, -13583854, 345581234, 301383436, 268129945, -121256977, 49164571, -205076933, -147154003, 233825594, -145346537, -52217580, 219895706, 69427222, 379658818, -94411701, 81738427, -139928773, -106279202, 176081210, -177850872, 19627828, 156723842, -7663701, 415898353, -124255605, 119796880, 72734699, 48479822, 218263119, -237898737, -94673708, 115744449, -134098008, 270957828, 22691071, 50713491, -36395051, -46430346, 66255845, -104871430, -13728048, 62330328, 52969694, -1568457, 8278261, 66119924, -37245486, 68005480, 294534415, -244809777, -139075339, -80315195, 109943576, -17257251, -141794860, 160128191, 126897424, 110059902, 275155336, -41017771, 124468036, -362738222, -252128005, 17114729, -128022060, -142489731, 270183593, 49574420, 211963534, 84778093, 195353061, -667839170, -357944965, 240180761, -132604063, -361149937, 385013133, 189344451, 265002549, -69613419, 225567743, -628149986, -141849354, 104840800, -95049188, -200566307, 154661879, 28742798, 440222979, 165420413, 201876625, -670720279, -313341439, 50532300, 37840925, -404265612, 364993095, 245222747, 309392095, 7294129, 62576935, -658818424, -641288519, 142355353, 257689178, -278107882, 177203909, 157766178, 541870356, -221846163, 97815268, -317834795, -449316204, 157188475, 218651831, -170485631, -62996797, 76530166, 404615819, -161057055, 16318455, -716968, -248822331, 218044996, -49505148, -99409364, 16764110, -4988559, 393365622, -21075871, -211823687, -45154747, 86880133, 132403240, -61773710, -116080008, 1865790, 65056473, 201425239, -165276781, 114460073, -21982193, 10725387, 181881428, 102903359, -98755963, -95461249, -47553290, 199686393, -194560945, 104303487, 53754840, 31677123, 252097189, 16290080, -50194509, -142170995, -136881471, 273158252, -52928541, 37566543, 141334593, -190799505, 252066374, 90276241, 86273104, -199222744, -220658690, 253308386, -67349717, -231624588, 255426198, -166237161, 92514992, 348078728, 346329689, -244795680, -410895914, 200507864, 185340777, -196472034, 356406271, 2380839, 59824225, 285202771, 330068916, -174903959, -643101752, 149516016, 98749340, -205647871, 316903472, 112891361, -52436009, 101929739, 131760582, -80424756, -272258550, 160138696, 130961612, -49227759, 187541887, 38100395, -199451953, 1044132, 63846990, 25781000, -37937805, -86384498, -146939352, -34809515, -11224331, 58742229, -90609699, 5672161, -82800575, -80131590, 200658500, -71708806, -220359966, 136040822, 16841900, -36914371, -69792606, -102154702, -251633108, -61143734, 278898925, 43094177, -242939562, 80124535, 163179085, 116755106, 48726365, -22176139, -254910767, -82516961, 245827019, 174670190, -280413866, -39810218, 111523941, 26555097, 127755672, 19133752, -69737338, -2442284, 123715661, 168142080, -179895595, -159309804, 116765447, 119661227, 216092408, -10836558, -4670115, -142236680, 90618521, 146215439, -138232186, -103889495, 215984449, 189645544, 304688931, 92687666, 44514854, -31532597, -95817760, 64237237, -72505876, -68020068, 81895046, -31755667, 260175765, 135401249, 80906726, -67005269, -72878033, 78740396, -24939450, -245024651, 68462387, -106423572, 271559268, -190342620, 73711529, 73954381, -28262934, -11089792, 45137990, -218605965, -45861095, 56376286, 132639438, -51269244, 91607533, -70393018, -197326496, -3036143, -92675060, -153919697, 200651914, -28576955, 180315733, -9870108, 214116156, 18231856, -291539013, 283494323, -164338097, -192257017, 133425266, -24894044, 113244921, 85247800, 142879382, 114490993, -128302023, 302998513, -20431971, -34801133, -59002604, -43422244, -27438087, 53118695, -151667222, 439128637, 52941587, 98207943, -151279271, -28217573, -249421820, -148328930, -115685649, -87670103, -205504283, 336215675, 271619976, 241197065, -327941447, 168916285, -109244153, -130238786, -91635607, -75590283, -335805088, 134333909, 167744145, 439124078, -176406175, 195068523, -17310029, -302007020, -221159101, -49072798, -422049284, 226040065, 282767504, 408731222, -305524856, 167758733, -41897696, -501060963, 131073296, 6595075, -160476997, 16647298, 218084857, 527047455, -179845363, 38845159, -294522762, -391814202, 167845249, 56293990, -257971883, -73345304, 52622866, 609220386, -57971917, -177834764, -114162520, -186994672, 189287856, -24956563, -229176641, -108898498, 44822529, 525473237, -67534283, -152680293, 7529366, -107507527, 244000718, -181657642, -239447445, -93628950, 71328789, 297941715, -38957190, -144920573, 78389786, -111481898, 209758922, 6915028, -272506386, -12219057, 156758964, 285415769, -217622072, -3853578, 32726273, 18094704, 289420545, 128357753, -148679897, -83961256, -44293821, 323986232, -71549974, -26419302, 60686357, -24238011, 308909893, 120177954, -40793490, 32720953, -281841606, 479258448, -80131441, -185621962, 300320894, -170882314, 182802975, 222336456, 243236616, -115757376, -671801448, 387213171, 55668313, -355435044, 271073133, 112455785, 137672395, 336893141, 265114516, -45872282, -861748278, 220143244, 121909566, -249088913, 181523502, 255727440, 13492821, 150750831, 187495157, -109431088, -426835120, 111437954, 87064452, 56412786, 82495138, -50323382, -104113422, -4736918, 56223057, -129193366, -10936501, 23811143, -60395774, 24582110, 103031784, -60895249, -118766621, 106995493, -91092959, -69859438, 197941422, -35569895, -186766028, 6412781, 144729748, 105160370, -235356, -62404394, -273996115, 31931944, 279233456, -43921076, -375987977, 43718394, 245772406, 117602736, -15524263, -129145563, -94684370, 73056102, 155952230, 184679464, -222403720, 50914917, 116121277, 180639818, 186859861, -120523669, -67005672, 202984974, 124665268, 257520348, 40456761, -30483646, -46777863, 37226669, 161749929, -20263622, -56254689, 79471789, 84166266, 30332489, -32625489, -206427559, -24372451, -51184863, 287232667, 242899731, 55083878, 18255679, -68858519, 17518535, 43139901, -202464640, -17822729, -17575631, 301808894, 50997216, 170732766, 98872930, -122372136, 118030287, 34851916, -144681990, -45978211, -61664410, 147075966, 100036003, 138712779, 180255458, -270366043, 184240237, 130275473, -240530819, -205035895, -142172307, 193297580, 107002951, 416596919, -83499476, -250434339, 216028020, 927851, -169948459, -181780830, -158454195, 157971963, 65687895, 420815140, -237188250, -109436452, 449458420, -16906139, -285326689, -211695731, -222094834, 229417950, 150116831, 157790661, -65869555, -15983285, 146670446, -124676690, -283185065, -41626394, -158958152, -5888702, 169472724, 94153993, 221168458, 157220393, 91859609, -297226191, 7659346, -49806647, -7204041, -387370765, 186592221, -69973640, 179139271, 222879305, 199449003, -483007371, 254081041, -112787552, 18560881, -331254572, -198502451, -151684657, 21716980, 448653758, 349922836, -388556391, 141033098, 114830330, -165221572, -391428083, -309965700, -260733932, 36504600, 487841636, 670883298, -429975629, 310004741, -21414094, -225078389, 226176411, -243982002, -229003757, -423139781, 403215110, 501594782, -414958090, 278538018, -11699181, -299686462, 308396816, -48855394, -239464164, -254246831, 292008549, 623835683, -317256451, -46065688, -105286457, -318919659, 234428272, -17621243, -226791367, 103351243, 147965223, 552806318, -300958067, -176659808, -43486651, -112752944, 308937103, -126721650, -241887286, -117876366, 361255944, 512313783, -324414551, -296916038, 81393518, -133658499, 318476588, 16831424, -403385818, 19631227, 392662317, 357938379, -227541223, -206092864, -9878336, -157807007, 361851931, 109394565, -189262614, -44925969, 155629963, 436875492, -237831727, -188142881, 32221824, -83162196, 338714957, 158344373, -85137591, 12845399, -303015590, 424744576, -69547005, -278167963, 228399068, -179049179, 177076250, 237602979, 224997371, 30159470, -665324748, 274939746, 108881809, -267324775, 317967325, -57778709, 89899421, 310289502, 258393019, 53157035, -891137719, 300648749, 148098245, -84047578, 255049795, 165701106, -84636994, 19719208, 51021453, 11199236, -587164283, 231582999, 59884176, 101935916, 65401427, -11042078, -139376000, 28751522, 64302988, 24215555, 95219240, 76582633, -65453663, 124301590, 14518710, -38386162, -106007941, 68449862, -38541820, -30372964, 53808320, -46043847, -361153752, 115673780, 161157832, -22865715, -45044467, 34644745, -62241029, 118600398, 157271817, 111075059, -311312348, 31006698, 64202346, 94804004, 97559996, -15778381, 12256063, 134804338, 95021918, 81980139, -187067136, -121231616, -210041568, -40337931, 102202594, 13141211, 132945925, 188588679, -18596945, 97372115, -5023098, -163939312, -197880432, -87975010, 149354130, 194542959, 298482716, 17157968, -256024837, -36979318, 141554788, -269644767, -266909212, -52145123, 146311477, 227341428, 385795802, -42146601, -255447954, 33719230, 170867190, -227376342, -280145466, 136575639, 226256549, 203283593, 227063030, -40301729, -296436101, -125562459, 53578950, -267750680, -179530263, 264681071, 112737603, 140501007, 359638840, -161821589, -307538062, -10221131, 156953856, -255271524, -231024399, 27808443, 135133207, 337132663, 463361740, -468506098, -188879386, 74116223, 226825505, -252655387, -320502937, -51542208, 294806838, 276281118, 404811919, -408441156, -334232122, 197966948, 208369449, -192719266, -164173529, 49623650, 187517181, 572068691, 318001539, -316554815, -433848143, -51087517, 137676165, -220979959, 100267306, 16503796, -282937109, 522686481, 69366448, 52083764, -335870653, 96005559, -8631260, -371452391, 50023925, 21249097, -377909482, 329859316, 3127025, 249780729, -24607109, 339371175, -296063006, -158564910, 15366794, 131008402, -386045009, 106036663, -105538584, 33894435, 196316257, 430421889, -366258562, -29344181, 238094360, -129416481, -271417677, 40073875, -11987302, -367217600, 370386511, 576020122, -506028533, 292453319, 27656043, -192035317, 140545473, 76559484, 130046293, -372982562, 272197843, 502226532, -492812425, 117169984, 43990172, -201942354, 178922489, 43997973, -97423792, -196164817, 286940247, 364069492, -341155827, 43596320, -130896628, -120198898, 265833914, 30662926, -277441621, 151080728, 321701288, 341686457, -296862781, -248046547, -207612574, -73753491, 320223480, -114870258, -242089361, 95157303, 408237636, 356610060, -201273859, -236703232, -110980161, -269473314, 369134277, -27359765, -123586923, 173628524, 579339325, 183507457, -173433468, -199244693, -234087408, -429227501, 293118656, 124860995, -43531831, 3939542, 633142233, 116517641, -183764383, -295406878, -74627280, -354688853, 330107719, 61935514, 35758443, 222076669, 283992618, 221225068, 33220522, -302376807, -60249250, -228684783, 117676333, 110748544, 262379020, 334582120, -321973175, 171220228, 142800823, -244333103, 167148054, -27584361, 67802578, 76879703, 114326239, 104046144, -693688810, 246104270, 125418097, -107687190, 141367927, 96414506, -106351897, 124927372, 89535967, 87974571, -441797912, 195466563, 103657469, -36641262, 14252163, -99899851, -143905863, 88081367, 123254672, -57063572, 88373758, 70134915, -274203986, 124742277, 72142430, 72730720, -161393195, 135764822, -70096031, 55606905, 165110305, -15160577, -256899595, -8360844, 71118847, 45294508, -60201727, 155526012, -28356288, 43991029, 164104998, 72780058, -434114963, 60500946, -29565709, 59407175, 525872, 271429241, 118209302, 167564303, 52485969, -4702809, -90399399, -19669861, -342706233, 24992805, 137122110, 439375341, 294799924, 35950735, -177486867, -23088992, 128871262, -211661875, -294560760, -68303302, 101587392, 504994214, 514673471, -109160900, -239034384, -240911201, 25526581, -323678136, -234498471, 129093111, 217800677, 544304371, 362320513, -356799155, -168474615, -139144078, 45310739, -216148868, -243858710, 172771454, 263827085, 408376336, 215547398, -126184925, -42173393, -106435426, -20110261, -307569772, -351730734, 4308582, 258301735, 402563393, 357529491, -211905062, 61648075, 43748062, 151919663, -202800170, -275592268, -64476743, 239925921, 352904230, 253394246, -504491568, 27482597, -29692501, 259089530, -108959399, -390819430, -77260733, 388062745, 592919409, 249507204, -597095132, -310322344, -21588933, 265487701, -117575273, -395661592, 139878452, 131454557, 751943886, 149350926, -424900144, -564674139, -237935007, 372605354, -330205768, 2755383, 61744653, -427971780, 785874486, 31437900, 94721392, -453471839, -41738775, 315356672, -443205625, 64116880, 323408812, -360377520, 684912562, -245790839, 140287146, -104343444, 248017862, -37542023, -220801204, -95069885, 659323514, -207608581, 425310642, -271912992, -158120111, 104657792, 441072136, -339585871, -317786247, -152782276, 141598135, -198094696, 423950851, -272191256, -464487970, 250475436, 438736290, -493576139, 92300475, -327439219, 110935509, -9497073, 257234633, 37499268, -603559673, 384695202, 276431262, -456588000, 65721698, -288540065, 52981962, 45294531, -32792713, 47186214, -210399181, 300477654, 372121096, -69427110, 4518342, -533747554, 41035738, 35268772, 80966026, -70437759, 71602218, 194617227, 365880281, -26002394, 132302582, -605544746, -107602023, 326420635, -3337546, -11719599, 87065734, 352598995, 118073985, -204195157, -71890421, -277455062, -288074374, 255408049, 15757607, 71609326, 31253573, 632406890, -71139708, -242677227, -40823564, -515709043, -353002757, 149944171, 104401685, 216342613, -17431220, 750876725, -108976610, -141381264, -338070303, -336768299, -348309368, 45157466, 54396126, 244851857, 98838352, 537328243, -166315794, 34997638, -256695330, -153589383, -371979535, 89599133, 127836078, 163128182, 112450577, 266806066, -334072828, 233968422, -260781795, 62618293, -137424767, -83358996, -23211814, 53158771, 197361812, -124067910, 65740839, 150974780, -180264249, 204696909, 3651456, -36005929, -75383641, 159144744, 40854920, -238598570, 112618670, 68154238, 40217616, 22627657, 48283819, -195312381, 117102668, 87089382, -87928407, 84768869, -109640360, -247374907, -7489891, 59117027, 58408886, -131514579, 107998334, 10286799, 68879321, 22870222, -36137007, -339838326, 80466837, 33532616, 59507575, -29022491, 141004294, 207688302, 49768444, 116998099, 61106417, -189038798, 76702289, -156787053, -42520482, 57439931, 409236550, 226098955, -62791236, 58940161, -22047356, -48427451, -174109638, -480986118, -144722193, 59772059, 747980297, 432948947, -92358083, -46072140, -138276502, 130320802, -91296233, -290212363, -273719937, -22224881, 780335903, 477133125, -337830275, -128173962, -158156872, 18983096, -84620215, -302909732, -39637893, 60597606, 490642250, 391994238, -512304068, 21453124, -90359323, 138687313, -122225963, -360663593, 6473127, 55484366, 468312025, 312599838, -203672603, 1549654, -120889202, 48578754, -149795443, -192429602, -226002917, 330975741, 397897035, 304724604, -305916101, -163676843, -218813017, 4051086, -70740387, -161891580, -268788368, 714251757, 372831494, 149405852, -571724474, -171666563, -203273058, 43093752, -86788304, -399525762, 45911226, 132805869, 418982238, -9959798, -831200838, 5048332, -278115720, 301703334, 71300723, -177301213, 269156486, -326804966, 496301115, -118025400, -788653195, -81163198, -87941118, 728198588, -375309199, 68665236, 81732251, -377151996, 436392426, -90160474, -67373134, -202382147, 121268466, 703161180, -476215065, -251504719, 613191187, -45709997, 483246028, -245000079, 121295258, -29507512, 44630632, 359742671, -82743503, -538435519, 1035579443, -202869102, 285844743, -224619985, -192119956, 181806192, 1174168, -286165148, -107526079, -256400019, 484803349, -533847153, 418465406, 78954406, -346827358, 244276643, 17647000, -542580783, -341713220, -90739764, 98149009, -152915046, 187143162, 79541162, -541812897, 463057190, 184501365, -129326746, -79727292, 41139297, 124393493, -23407385, 68238892, -28618280, -311441839, 315805376, 177309811, 153046519, 28703587, -413108438, 143869355, 169911295, -13728656, -115213960, -208635449, 296699166, 218492195, -101323634, -89758202, -414040893, -152330965, 413114876, -78427635, 319653720, -239867195, 367070615, 162894711, 7678732, -173521504, -236149758, -85084200, 276633143, 17537976, 510145009, -397534251, 453092515, -42436745, -88577934, -88930279, -308488607, -97460963, 37805829, -10707316, 524686754, -246776745, 699283719, -416502804, 53955551, -233306065, -114693075, -564207315, 123090982, 3179073, 261713654, -9806878, 763741374, -480283141, 160004959, -141842350, -49868941, -386380762, 73015645, -72187729, 262261510, 59725661, 566294849, -563176095, 105525881, -176667735, 70814401, -287319422, 58277246, -176277831, 157188922, -5155707, 271874517, -164025903, 124127850, -220221266, 152096048, -43750860, -31392984, -163307428, 158179685, -63102052, 80016792, 241285354, 44148244, 13726701, 90065718, 58184575, -161703363, 84668927, 142316177, -9369876, 6787653, 19542187, -80217287, 24214400, 96037842, -50960798, -36945973, 82565673, 15614205, -23994811, -28339235, 10334102, -163103744, 108966015, 49355231, 87057903, -182439640, 224696606, 62439207, -83431147, -41579470, 179276899, -158807173, 45038801, -186896399, -131346256, 10773130, 598363876, 216550887, -145500422, -22676090, -57053868, -69589369, 26504930, -232523978, -268430233, -70926718, 615792811, 369722158, -274878651, 73871344, -348737836, -58540281, 64021729, -159149453, -376710951, -10965073, 514440656, 451178879, -349115342, 9208498, -272997767, 103224926, 140734553, -101904936, -319635183, 44727162, 364317179, 312783957, -328021854, 63726246, -94789892, 126673192, 163743779, -175521225, -71375266, 61565369, 383682638, 164303750, -213500202, -54913215, -135136202, 47330838, 184143528, -99603921, -117643520, 593625963, 168037653, 51970173, -300867915, -112950407, -222358227, 104250655, 127936348, -78822032, -341683686, 843617380, 104884222, 70265561, -412193149, -307227671, -227672681, 184688479, -109985523, -111413151, -27862828, -75640582, 166090205, -95479384, -433052629, -109063692, -344109952, 620697975, -347437233, 202211186, -131520256, -488556594, 119872756, -135988504, -501340628, -43318316, -159033433, 1140236378, -734720349, 219062522, -9945468, -163854614, 68834580, -261478424, 155983970, -233546436, 240853876, 979812801, -479967803, -244230539, 922581553, 39321300, 20949116, -91392480, 184459329, 69618523, -111807443, 342189282, -564388037, -423701108, 1106004953, -636475325, 9420108, -7671860, -65371901, 473818034, -306197554, -125975505, -582873642, -472194970, 436795235, -813604295, 149785265, 8846476, -256244600, 548926830, 19364994, -148430407, -380256444, -108702011, 164090157, -237909585, 188434824, 157179728, -562034905, 298784345, 140422195, 4847078, -3693668, -156672895, 360180169, 164601937, 76357275, -86987711, -448339611, 214657694, 312740624, -209126577, 164637044, -284279436, 289691120, 450115085, 110942625, -96447892, -418723673, 55933509, 204085216, -343374908, 69944978, -243781537, 13450768, 398603380, 262188405, 238572896, -376646668, 99217899, 22147484, -35762023, 128629461, -176632240, 226286963, 124699071, 173583373, 461532027, -433372021, 240217537, -92185721, -72777264, 57633638, -258926302, -190834075, 155917555, 161916912, 302622885, -231176525, 454512149, -379730731, -88222109, 160993993, -133833364, -423700035, 54176092, 10940820, 271739304, -57398938, 396734715, -503725946, -17063586, -45972623, 154783353, -411936790, -24776313, -165479288, 211836740, 91441438, 368372738, -477754712, 59124354, -10760157, 248747274, -232848719, -15738206, -253161639, 204784021, 12862377, 292497694, -210923642, 59031386, -63190021, 215999916, -28581776, -84741995, -310640872, 41032586, -19374700, 46287470, 110036969, -45286469, -46758559, -8646389, -23497507, -59795734, 44569734, 95253736, -79158656, 85928135, -51363520, -57047527, 109944344, 45654170, 75950556, -155369028, 80563337, 64424872, -130005226, 28369740, -60109034, -137644485, 142583042, 54873925, 147063583, -130291373, 254626334, 160632253, -130619109, 75009026, 126219302, -35323292, 38605019, -182499036, -171656370, -117062151, 416775465, 154640302, -208519831, 150061414, -90392880, -33513788, 71475402, -175016418, -282148868, -24971608, 217104003, 234732941, -267876863, 91363579, -240072533, 2173614, 189432085, -99517725, -449378520, 132220939, 159029365, 472600311, -352336943, 66357210, -185555071, 175604105, 284099013, -152925044, -287368655, -49848773, 128606826, 272661567, -404049307, 67139462, -251219541, 175816759, 246965185, 81880309, -215663165, 202097863, 146989673, 194635391, -176460803, 129133090, -329721481, -7901091, 144568160, -79208575, -453035563, 547988832, 54359045, 340219945, -238105670, -153588459, -164136291, 157601729, 27356811, -184209481, -432352245, 540685713, 169658467, 228625864, -383881241, -191177949, -367162436, 298528582, -132445440, 102197245, -28728729, -20082366, -14874064, -111193091, -245474651, 15572856, -564796984, 637152791, -154676780, 221421510, -194694206, -376632959, -257555723, 79423979, -284524530, 207950473, -193416551, 1000704050, -585514724, 74045435, 67585036, 177773818, -403871834, 164278090, 70204876, 43058772, -59974354, 691835582, -614020765, -131961629, 1058171272, -42618964, -423408240, -95096171, -120046675, 199319229, -329254687, 202816769, -563318968, -183254480, 862273693, -692064166, -92838958, 81293024, -314364344, 419789672, -117243730, 169720113, -386931866, -296906948, 247222170, -506007373, 307115048, 241504133, -598138273, 381420195, -86031191, -97695231, -155187294, -12567415, 255442411, -46569854, 349043787, 251244128, -566248536, 11216812, 293615609, 84470540, 66825129, -294046581, 253841966, 599299192, 116045617, -35929039, -425153762, 82240850, 263669670, -459066302, -128952563, -365499228, -167482793, 636481464, 65177605, -87610416, -262964040, 129181281, 82813658, -484194130, 246081606, 97841725, 78210391, 366592348, 210847676, 29323852, -406544745, 33340979, -3750099, -312726736, 316635936, 91906719, 105004258, 175314248, 296473235, 28463423, -78402147, -82074046, -43280166, -255154341, 276201010, 122567, -126999885, 182779476, 292565584, -60922056, -95536217, 3659218, -317727000, -62907428, 349933535, 143134981, -333538741, -24270004, 196087912, 9383022, 23293471, 216070145, -344579369, -105117649, 294323295, 358499020, -396509558, -40721294, -220196947, 60721919, 151584923, 146103695, -134501591, -101906620, 194099009, 256352484, -219916016, -105367012, -477478236, 57151396, 799735, 233222023, 58077846, 27482741, 107466452, 163725123, 22647005, -71156375, -315604031, 51311165, -35285071, 123739645, 20373475, 92560329, -33463128, 83511971, -16738918, -112417214, 149891421, 134252757, -175817579, -9771746, 59760276, 57966247, 2942645, 92862599, 104058735, -151010349, -26255311, 50953172, -54046895, 61795909, 59303343, -74776113, 31407211, 122662462, 41304778, -132098481, 9335919, 45238100, 12192019, 20481158, 232425526, -15898155, 238754347, -99549189, -263446540, 48060983, -113081366, 55155665, -169355169, 168115944, 47353648, 115894876, 286881208, 21651546, -155241579, 128254518, -96527696, 156886071, -227052584, 126943171, -127960309, 42459004, 293622315, -2924085, -395420521, 202183321, -49454387, 271570295, -245008945, 200436220, -317715287, 108501963, 176391423, 13527000, -262704581, 247233272, 75487435, 406419903, -270644099, 59822019, -295408577, 216796339, 150318310, -117598981, -308047324, 311869830, -57492349, 274958313, -269779354, 38774479, -365897983, -16231108, 80670550, 37952542, -216295481, 515691459, -40747579, 324562192, -159468055, -113829486, -337174773, 94021954, 154496282, -172978118, -179681137, 173720956, -63658699, 175350755, -220302939, 165475801, -654393315, 494458824, 63932940, 46724688, -162176698, -158322409, -58153313, 61474200, -54771975, 145641610, -416360945, 498180240, -320772618, 40544704, -143057078, -253375947, 13206687, 239006743, -43735784, 206718370, -396263450, 502543271, -492518961, 60195670, 409405708, -232777268, -159404606, 119861677, -222085506, 157680944, -482449681, 450797737, -357753515, 77533834, 878591835, -401310951, -293647021, -81780724, -518845439, 235053107, -368123204, 228707492, -164057389, -112603649, 519588709, -163986981, -135880023, 11652505, -596104145, 398606598, -89218073, 47063645, -196075514, -133485824, 45417774, -193384141, 151857764, 235437855, -674902797, 178320616, 71220964, -60945313, 92466764, -132530779, 51787250, 129202873, -88421099, 231216937, -360973150, 122063890, 121368423, -246014237, 209739849, -351828456, 71876183, 770317912, -43463171, -69155537, -240366057, 20102626, -100519374, -482314020, 196069092, -170807660, -102923185, 554191172, -59520435, -181929767, -142344549, 120334700, -240584910, -311563641, 209661320, 145364657, 131043881, 400637537, -180672526, -131277502, -152865857, 71222782, -144521818, -44249862, 389675379, 40898915, -106280342, 200448096, 18498281, -283800244, 12610232, 415078, -70647724, -135163635, 413302898, 163484290, -187374324, 136785075, 7551400, -241852582, 79306394, -41915659, -123165563, -237209052, 351321578, 318339884, -62829316, 138889313, -65268166, -98212354, 111591123, 55040885, -114751026, -22925813, 250055730, 303106546, -183600754, 20442577, -223201588, -41082513, 159827068, 36312342, -93353935, -42405788, 198193073, 273227215, -48975609, 10814794, -613440692, 118611738, 32005269, 114675850, -53875465, -13087543, 9275383, 129987881, -11228671, -65754645, -410962701, 87126426, 65673485, 188996419, 68114623, 59657924, 116045557, 90737678, 10112960, -202631965, 4874737, -59604447, -73006034, 109988280, -64222686, 67019470, 73850326, 67455135, 125271320, -22697797, -117397226, -161851317, -70140310, 58623932, -27394524, -65890670, 27507721, -25239071, -41339204, -134078443, -202003539, -148142472, 156208098, 69483049, 284058541, 75322643, 142549634, -36884367, -205941767, 39865632, -246981725, -60808238, 162285149, -16727662, 116061464, 12945087, 192753613, 43931819, -223069459, 136204213, -185318768, 45756321, 110090077, 73056899, -214332879, 115342468, 238700733, 186357006, -364212960, 379864901, -77511311, 277627259, -48337817, 132243395, -370593727, 218176231, 48921738, 18660622, -424650729, 289544433, -55020235, 309760273, -107215904, 297887951, -542328417, 71439371, -34118764, 79545796, -361574739, 228027299, 23206199, 281158298, -62178224, 186880082, -287918001, 67888379, -19795926, 67187034, -66790268, 167060748, -102527946, 233613804, 17933704, 67983411, -552525818, 302853286, -3065979, -165423930, -138461709, 49728319, -180745035, 305085301, 237908214, 266183525, -794947505, 472742468, -294590801, -194406345, -254602909, 60771711, -30012067, 218027934, 80403879, 244921282, -455254436, 143766567, -272249728, 68036281, -86852573, -5585734, -81502594, 193201020, -125617221, 277336389, -425392926, 290600687, -381402850, 302355587, 489690125, -621478975, -376563579, 205600128, -227956042, 244876727, -274831831, 311518967, -176903814, 217594594, 684581637, -327824593, -369882584, 93719400, -349305719, 103611328, -196001604, 96999608, -5901203, 15724186, 251403213, 38780443, -171639830, 207668826, -538246155, 323185295, -122807071, 164089695, -34186609, -277041405, 234900087, -47214877, 15358050, 233951375, -317725718, 141925797, -55740461, 178915814, -94638094, -282196134, -32504350, 352939397, -131644383, -84729433, 119165517, -71304247, 113782495, -139018193, -89420490, 79135850, -129868999, 765201449, -97093537, -479382128, -19558160, -116025962, -239433527, -45124017, 87852992, 13354797, -191539586, 424899071, -84160499, -235778615, 5324629, -30523706, -532899797, -65126210, 320294857, 123837173, -33497419, 250627190, -61385650, -140939265, 16247464, 74258193, -131457373, -149982005, 259330779, 137407944, -34878641, 179560021, 62912837, -93875267, -2643208, -32802075, 59250057, -18485636, 185866475, 195142329, -118217416, 130053371, -57510920, -258609504, 38488876, 48576612, 45716636, -32183640, 166799963, 295498222, -36660124, 93423791, -141704828, -200756922, 81568614, 144579962, 15891125, 73555365, 121403448, 305469662, -104239270, -61526109, -406688750, 302222, 169797063, 166242376, -35470486, 32735590, 124718219, 231633812, -16209062, -43532707, -688332319, 124335498, 102618471, 94154902, 28684933, 62930502, 1361137, 180431575, -36658246, 8862863, -580331922, 97547129, -61109520, 92664108, 160801426, 65750308, 93569204, 56724001, 22156019, -200812027, 150894716, 33199605, -53884365, 108102642, 54810308, -100864805, -28405577, -66769697, 93707383, -16086025, -80894828, -98275453, 88206850, 28732151, 89890264, 33428408, 142749473, 123880982, 127637997, -93015030, -385159135, -169575006, 123703264, 4161138, 268277228, 1598402, 141236469, 91617830, -219938770, 178153828, -301864743, -215790972, 255519181, -137801111, 275663614, 84415957, 258227944, 85865751, -99716537, 312072456, -123660453, -5108681, 207012177, -295950085, -26131339, 284095585, 139099881, 261057228, 1833388, 493357122, -99218726, 25485260, -18960368, -107087702, -233500749, 173384458, -74001558, 65709442, -246829480, 419729471, -173544660, 149076372, 81597306, 187711909, -275003821, 235879630, -162025288, 36489636, -418465167, 193851307, -152587309, 253193498, 12938628, 272489369, -357463032, 312403172, -141319469, 2019176, -382277399, 118665881, -31644884, 472396851, 203682289, 133151025, -596752286, 315978438, -166177258, -109520532, -168423072, 197849438, -147354990, 572115898, 217730165, 76086432, -813388705, 232836112, -336621433, -65652750, -202971295, 242852136, -371987224, 417270094, 120561346, 314234018, -709661603, 135321081, -273190022, 185996309, -33937782, 56983672, -522991180, 394689441, -628227, 402349204, -463438421, 101308353, -443750262, 222332284, 496929139, -452898085, -261035502, 443399519, -75585529, 173708886, -297718406, -39846178, -229550958, -39839115, 448872268, -287376314, -153436631, 170716733, -196854860, 143755034, -249549463, -121499203, -42755984, -195792079, 200259373, 99998273, 100352794, 76337889, -332869321, 59434462, -185446560, 273067266, 40421188, -159123003, 22006290, 391550183, 38236380, 27647354, -200205252, -35790894, -160801470, 283293724, -76831512, -19960398, -363613337, 547317922, -47654234, -214420110, 95034234, -220641270, -418033928, 94193302, -81303976, 189166442, -311556160, 398209184, 78273557, -294170976, 127129123, -175230771, -282448471, 43451298, 193356603, 103532948, -49382076, 225151718, -23258859, -136834964, 53304985, 30692525, -223056436, -157947540, 88632524, 189962268, 20777274, 43638039, -125852719, -151385233, 168780491, 41723493, -41211370, 18435188, -28077308, 78700587, -54983418, 26234983, -35256669, -215941370, 147260934, -36178298, 105415262, 146598101, -18715933, 126780272, 19947303, 154059067, -172039628, -357595414, 93348972, 97219497, 107799806, 171790689, -76196477, 284259021, -114110395, -5557119, -350189626, -289267927, 216018915, 124605715, -80647856, 160002515, -52833255, 279578924, 44008795, 65018103, -415609896, 79639591, 112952046, 41321043, 37169527, 173026621, -40946089, 272329628, -5066948, 26873220, -596745551, 183145240, 130037457, 15202616, 155789852, -66943645, -6391002, 265324444, -54557107, -4961207, -363009155, 134503171, -64435378, 120192721, 6571226, -79739600, 40997650, 34745973, 49700368, -34096546, 126278698, 19922387, -129017234, -23227969, 44315528, 33233020, 144161433, 8420832, 164843246, -170068562, 80390841, -298934788, -31158529, 37947811, -37312321, 43953862, 152860120, -17162427, 86072110, -92080086, -321994990, -331337839, 123258688, -102978587, 284326404, -35215776, 146700859, 52479483, 2379025, 116260156, -237823740, -418250233, 211571857, -203433514, 263451397, 57898514, 25193345, 276518375, -23898728, 494009256, -224979728, -224415332, 208765298, -577794373, 194778010, 392298132, 35585277, 111945458, -57863303, 541036844, -289363503, 126447082, 298125923, -446884394, -226527259, 294288009, -20216240, 138975307, -148847878, 354833752, -178982958, 177833304, 234159604, -94235718, -229325250, 411251724, -287864447, 134511143, -303326845, 187827811, -127084896, 165156692, 175656870, 121332638, -321057707, 455977350, -245010510, 6566759, -476481080, 236098990, -49721435, 276714385, 451961219, 66877738, -376090705, 412746519, -312045991, 105833746, -266883969, 467027098, -252463490, 185996294, 262349367, 45380898, -536794543, 115144186, -196480095, 109031379, -226654649, 258743286, -556739390, 297294408, 207765833, 266509086, -693616986, 226285204, -263158232, 442523062, -51255889, 77466980, -248114809, 463988602, 50649505, 153990567, -401519120, -31021452, -180213109, 345579296, 79179741, -165728897, -139235333, 424923420, -98940842, 275814474, -192031771, -320300639, 70369206, 17131545, 27457412, -68910874, -128847986, 236829981, -130356327, 182134479, -146212772, 165298849, 181300223, -62010143, 78846946, 160677552, -9628718, -118036993, -191370711, 73082417, -153692409, 384772599, 142862469, -120528117, -289757252, 438952416, -96143797, -296285421, 152643159, -110232756, -283572108, 110215820, 84075421, 108215153, -517339945, 206266820, -201761663, -240902200, 368041903, -38511839, -396468759, 188901752, 102210030, 41969523, -10599730, 122320138, -293074578, -317048699, 399578124, -191556752, -170425594, 214267999, 56935053, 121742830, 118081324, -33970930, -36466751, -194306895, 276423395, -7952257, -206757814, 289748520, 9851540, 150750503, 56312986, -127530381, 39489869, -158750251, 255808085, -20258816, -40573031, 105136298, -4972452, 43239247, 83758891, -1908115, -36418036, -66740394, 190705925, -15670771, 91260061, 255721629, -160291418, 115759611, 12268674, -39667718, -206654787, -169034272, 227247328, -126117811, 14907627, 325906426, -97874917, 258182377, -87537579, 1495569, -377655596, -121142238, 229200080, -112664595, -145439073, 322084785, -88064387, 324899107, -20998729, -105454527, -436870784, 103117414, 193178967, -126839817, 23684617, 124339983, -65269813, 291273922, -80591246, -152486652, -502446175, 227896065, 18741632, -8050522, 26377920, -30636691, 131033614, 90049051, 19790484, -54278269, -165085196, 149665788, -69416635, 86450204, -66222601, 77657491, 64600669, -30750925, -75589962, -107851461, -15824808, 68285264, -52113377, 49169201, 70444867, 16274653, -8875338, -43930177, 9398289, -113084108, 33337552, -198083505, -81643023, 27662709, -47863480, 33438101, 112209231, 49767110, -50284762, -27743554, -197220102, -282996833, 123885021, -72513923, 169634640, 29295050, 159921542, 114377894, -122175880, 90349518, -212885991, -457714319, 112199120, -177191645, 302020967, 165121660, 34161288, 150210112, 6184252, 230199546, -90222701, -228604764, 282226682, -231214195, 246715903, 215765774, -102414466, 219802886, -108278975, 180475429, -267688900, -139935687, 292414159, -172674909, 67990139, 495507449, -149979770, 93440607, 65978236, 77475831, -207961172, -166219249, 384983510, -263836503, 96036062, 319834441, -225765213, 222495571, 9641246, 129249901, -47525179, -33456504, 317499280, -231089368, -180387765, 343003839, -257103771, 121846184, -471885979, 214452401, -101210758, 61391857, 434781343, -132617503, -440929890, 289877594, -97525753, 189912766, -592367649, 227612689, -223692715, 145982265, 441403449, -32464340, -831619561, 238767236, 15834283, 482046723, -495603859, 153305367, -147353604, 327338606, 474203050, -198842019, -943913341, 6569090, 15837183, 592757821, -250984311, -67139857, -187268957, 144281670, 392348617, -194822878, -718422174, 37321445, 139268711, 366298527, -48046850, -289858460, -27273644, 199689865, 60543861, -100313134, -476884514, -61366085, 136592403, 254070073, 88506199, 157345101, -292059362, 219209999, -39926380, -41864336, -338131517, 23499172, 13124025, 180518568, -132536694, 231520861, -217106804, -56274254, 120653242, 66012882, -484751314, 203183681, 182908341, 200515226, -214583948, 156788766, -321007609, -190988332, 75631976, 35602506, -321600169, 274448305, 75326882, 428717732, 80753572, -26996421, -264673114, -334043831, 232401416, -27334159, -325132668, 406102449, -54534949, 146354929, 171444207, -80292150, 14607003, -296356529, 254822731, -206627950, -108126007, 322915077, -232998341, 135613337, 63402936, -182760701, 109199747, 8580156, 285271108, -85294262, -172241896, 455464840, -49127351, 101686813, -50069101, -37634160, -66520438, -81891067, 324452847, -176352933, -26738958, 355806202, -95065191, -79409234, 1542615, 82258888, -340935826, -140843704, 333053261, -117765419, -39156355, 408274531, -147336885, 141200975, -29075997, 56020953, -284690380, -146449283, 279259622, -114643641, 21815518, 499205798, -63981488, 224206701, -143479839, 6496729, -338219434, -7067239, 373585314, -147335887, 776586, 326511472, -43448765, 132959664, 48566397, -189585224, -195971355, 53010106, 143526360, -84519699, 29412903, 199096277, -68212263, 84698707, 85924022, -85814066, -288226992, 119979165, 132827669, 24278488, 111190975, 3244439, 136474922, 10027057, 82162656, -69134071, -110076472, 138286471, -53999696, 137404010, 32526575, -29420512, 152927861, -37482262, -91686271, -127804801, -52517176, -31116845, -107588224, 17362040, 84240288, -15825393, 45718364, 25984041, 72892152, -145741701, -30601708, -252335399, -86693019, 66791721, -9641520, 11506577, 104175888, 70247792, 80165528, -26458841, -182667449, -146828398, 10393875, -55774540, 148856118, 87733850, 132169187, -2891005, 3897579, -50503872, -57844192, -129552886, 97888656, -167261496, 317329854, 127114207, 57477336, 153607652, -63299686, -100721888, -77556133, -275776982, 301140100, -145012021, 400585920, 221265361, -104102902, 77604599, -174584642, -61200701, -99655017, -238087341, 337180227, -103408553, 72733484, 438685089, -216043621, 193872392, -102636985, -78383967, -83781645, -123459354, 404589772, -216770262, -32466806, 203431174, -101899058, 277569026, -82222417, -37247196, -180183306, -81308186, 484150410, -323796839, -100944877, 343925387, -250625968, 227977261, -435875148, -63526519, -291077733, 70941895, 471413851, -137845159, -131959245, 228359312, -319888353, 288373619, -691234827, -65350913, -164426640, 202640280, 444459677, -280747592, -255331874, 168226689, -58998462, 375441641, -558436275, 211961985, -50571136, 225427851, 353124201, -100777633, -650070727, 92748865, -180900395, 339334011, -200578436, -163161486, 7201891, 183373854, 451343775, -99619001, -691334367, -48186667, -22006672, 287131101, 37666183, -56446265, -10491122, -17552447, 137881607, -18059578, -558745205, -265966177, 98132566, 438675463, 131926313, 398438662, -93146883, -48962351, 34757979, -246535629, -349934727, -89753255, 112299286, 236113593, 63356631, 170167789, -157198146, -26810108, 122040674, -228556842, -495684385, 181380004, 4521767, 346248329, 30533807, 11465010, -55775933, -93722373, -52891012, 22577809, -329471290, 381254166, -127306193, 263107955, 212264910, -224150434, -106291674, -156946912, 104374170, 7530601, -121371999, 227166668, 3218022, 175515771, 96385121, -208488122, -204885751, 16327422, 142403930, -53440575, -159744933, 302973419, -41119244, 101080902, 134499967, -306970984, -307526559, -114950113, 236735970, -23949269, -102026805, 416738123, -50111737, 113051035, 15784215, -79127789, -283556193, -118098892, 217506006, -73664561, -4813225, 322382361, -132520244, 176667333, 111143731, -205670476, -129435450, -223526016, 267996520, -7347106, 18432178, 427738309, -116233200, 117144942, -37286565, -80134585, -296838969, 2939755, 290531933, -256282836, 142775849, 299655467, -23508102, 106500603, 90652607, 58467820, -197057232, 186488107, 180788815, -299716055, 139510587, 365573823, -101526223, 51765073, 10840407, -126955792, -317540556, 76246150, 90788364, -168290958, 161018357, 62310357, 78800023, 99052049, -19270841, -83869249, -157295093, 152052552, -29180568, -28339660, 61611108, 9938831, 188930899, 56982931, 1221553, -117236182, -104151621, 152189568, -81453010, 87199956, -30900322, -71332678, 144674614, 2481376, -42731643, -134607121, -34225229, -30904572, 9340238, -12176878, 46645172, -4059273, 107164830, -65611333, -60136989, -161060065, -2810671, -66476427, -65987848, 116794989, 24956627, 81984006, 147742257, -66827781, 85001223, -129521072, -27929557, -180583641, 754477, 33446513, 118838072, 59021417, 115707099, -23336314, -14207698, -189720795, -123668626, -46962257, 197673172, -55519585, 298925161, 89857161, 40711023, 42354204, -212967053, -146427840, -74540168, -142472401, 305712253, 46171978, 309530467, 178344354, -150503114, 125679463, -167842165, 4301777, -87202229, -100323103, 379714191, -12218045, 163149476, 114865147, -243718773, 59322160, 27717030, 37218906, -54972220, 27472019, 422940433, -72928250, -41945007, 136268914, -103507802, 64137578, 41235529, -56049675, -155744016, 19202763, 325668931, -83676539, -140918136, 253489375, -89855812, 133572072, 108047590, -76396719, 20783590, -19372609, 387243420, -116537139, -150124252, 141470522, -144632503, 114765756, -361444026, 189326793, 17683044, -66648245, 175509632, -71756765, -47375455, 86005889, -173383743, 285934269, -496937454, 225243717, -38241308, 168122262, 288512379, -74695945, -213969216, 66061035, -283836573, 53662565, -366450399, 303849369, 170616716, -6142481, 242467061, 52910820, -379230857, 44768497, -511775553, 116742149, -58058579, 260811359, 119745329, -24329234, 233901218, -6900521, -422950089, -121041127, -377002627, 193266034, 78772150, 373541504, 39310794, 51663656, 100558393, 123977892, -513417840, -2735824, -359490395, 62016059, 7983427, 25222970, 85557975, -1260623, 87725095, -23253215, -185336366, 101799220, -328716964, -83575979, -73317014, -51337145, 172553107, 54761335, -31315964, 56581758, -145715103, 101882763, -171899512, 136929616, 88180847, 6080170, 45863979, -104865685, 78713886, -81414320, -256697178, 70967183, -63488714, 276005685, 261604458, -72179727, -251122862, -42627469, 94073489, -68524711, -71683839, 111000732, -38671471, 117939629, 255370528, -34528762, -314104110, -205338344, 130444944, 8947376, -115971483, 387012899, -169248790, 236903340, 123318434, -149477974, -271333128, -167174846, -64631633, -82554668, -33700082, 313250273, -39241415, 284883529, 163701311, -118249647, -140811488, -40502828, -46234734, -236657947, 143608004, 309665650, -91573991, 113267258, 179365754, -71217105, -152984932, 213359922, 63037500, -296569765, 3758596, 294264853, -52395314, -66903852, 173236400, 4640063, -245137826, 225493684, 12090465, -168656409, 57630505, 202821404, 45818664, -50811145, 33494722, -102366768, -217163488, 217163086, 87799147, -91896020, 85073195, 122385547, 172774836, 22777252, 15055306, -112618573, -57782914, 128519118, 16890768, -60750768, -25389424, 7602077, 102207020, -116748787, 8447352, -68537861, 47164924, -2565227, -6351147, -68857238, 73109657, 4442642, 106350668, 16891709, -32848258, -86590886, -42707633, 95978498, 9874816, -31448092, 5578399, -36367200, 112560086, -71985729, 88263929, -34994274, -8992426, -40096480, -71466900, 20860961, -99323981, 10753036, 161836788, -15828120, 155576438, -170083717, -11002496, -207030073, -8354146, -91608033, 116653055, 24682842, 81723131, 122162834, 85362829, -276223391, -12942559, -91675252, 131109953, 5274992, 142154649, -79583645, 226236969, 172550187, -37744291, -301095963, -110424206, -124170594, 118714422, 172405779, 278141558, 11963877, 72390668, 77748299, -139080673, -215224475, -166197196, -57253696, 238430977, -23829896, 253928632, -167638898, -160844967, 152728394, -70385456, -41283481, -234211668, 5365777, 331408620, -25400136, 184590220, -26169930, -230434015, 53649761, -92523642, -181280464, -92057407, -32173097, 213197827, -170305192, 101008967, 30714247, 23194049, 159377098, -68723865, -28582377, 21287639, -114716567, 177012384, -49716562, -74840225, -2614457, 122154400, -84451266, -250303388, 113215081, -9740688, -48070744, 210242942, -23191627, -43981582, 213889927, 34254901, 15255885, -280112952, 270549208, 129956692, 110343270, 200654760, -129881218, -7461590, 138450414, -224080235, -5253104, -434874594, 472352237, 130537167, 198077410, 143591523, -131107479, 163510635, 155991018, -348813951, 50844733, -438741267, 305471569, 299724072, 85073844, 213905394, -238511741, 174620911, 30038100, -378625005, 109746128, -203576639, -170837507, 327046007, -10917569, 135512456, 23461344, 90586469, -45527671, -573930144, 175797492, -171773091, 41442547, 288121283, 15851557, 268144250, -56586552, 164759532, 59768256, -399989665, 17773481, 3097502, 32455027, 148340166, -35027113, -46640653, -8980408, 157386959, -81864677, -179948896, 195650101, -44696543, -69725789, 52986030, 27534220, -27349366, -48885852, 147724152, 1950968, -95239997, 204496756, 872432, -142523915, -206720635, -102065183, -43988083, 90457916, 172426760, 207783595, -135609254, 180972531, 73928021, -199953198, -229114026, -56839034, -172643915, 36795367, 135775328, 290038556, 8834851, 130766422, 94725735, 9709657, -251229674, -92829987, -192917749, -31828701, 60814794, 290951729, 7213967, 141598895, 147485122, -16360587, -174213305, 101171225, -143587515, -156677753, 80337562, 275842786, -27957484, -76452985, 90765849, 14214714, -146517396, 176355511, -16425535, -160188481, 74881509, 228017285, -11944510, -56631051, -38371474, -48092321, -148383796, 77962384, -63834317, -11677423, 131739512, 189456418, 86015612, -163086697, 17654948, -8543293, -148303613, 115419641, 25616761, -2081202, 106520377, 195528373, 30634182, -158127382, 59996195, -154907033, -120102257, 178702965, -84256731, 63319527, 24000684, 48161376, 56603257, -31666376, -95672227, -117781207, 15555299, 2449120, 18414069, 70987910, -62605575, -29233787, 76218098, 78034483, -57727586, -57430033, 8083791, 39354514, -172573224, 116965815, 6131994, -1717269, -12605934, -527008, 5404421, -140976787, 105026558, -129874781, -141809806, 12720970, -107164219, -19670002, 117465682, -11149076, 8097299, -108125426, 88397183, -205348432, 4811686, 35686657, -64438082, 2708103, 183995441, 114612214, 166341260, -122307092, 171443820, -169382632, 28322149, -60734581, -31048244, -178599477, 143332586, 21166848, 106745049, -207775131, 53800412, -227547377, 65115072, 76901145, 72504930, -152809083, 353687406, 115330860, -43282744, -152958199, 74855775, -289523274, 210763410, 48398849, 240419760, -394064337, 186878309, -84049471, -34270328, -78369200, 196314707, -53844012, 186666772, -110639438, 199558422, -179038063, 8938259, 10924054, -51604267, -30702204, 33080671, -98115310, 31769402, -85805818, 169392452, -38980082, -4906329, -42454537, -183426201, 5562968, 148100615, -115294650, 72450273, -117396392, 279704005, -39599832, 94002135, -58222082, -268805534, 18238258, 129786029, -198773384, 140348941, -192387670, 284542710, 16898772, 94340779, -123321913, -171828479, -61854500, 620292, -35584226, 121675804, -197001949, 339896798, 7980230, -62077157, 4378866, -193175152, -76800160, 9843739, -144154385, 11377103, -101426333, 131603986, 118785366, 8530986, 153279334, -17087681, -235507131, 172105357, 26602823, 95308632, 42924032, 159682587, -85033402, -163072705, 41472159, -138586327, -152848542, 202890322, 128809988, 72771475, -30033283, 145621821, -81981882, -139741570, -40351503, 27436392, -57594012, 176541135, 8686102, -60161274, -140266985, 269266844, -352400810, -60184181, 44012185, -48314501, -113576278, 179735407, 135794431, 79193257, -24381144, 152580619, -270166844, -250604838, 153864548, 93874000, -167700455, 43411780, 152227104, -23158126, 69766082, 217519149, -114863940, -257395178, 82723156, 231990069, -149586737, -25686204, -52883144, -80723532, 89694694, 111513838, 50215866, -259465218, 12248095, 377182245, -61723813, 22769852, -85301809, -31059640, 117883004, -8860767, 211451173, -127491444, -32395963, 239146352, -17643049, 12079063, 141022190, -218081221, 43910552, -84593192, 138739720, -245037660, -82468547, 119733587, -6924286, -163042173, 87902404, -42482052, -56628533, 51814508, 247627065, -54494426, -165367231, 158022463, -51168207, -106906675, 131951109, -89535981, -103435047, 77349529, 285550565, 9199703, -169707313, 116651893, 47720224, -107674256, 159133270, 14540248, 52896105, -75120904, 159946635, 150853530, -258982748, 21085668, 4698322, -12012791, 168268085, 44616956, -92484437, 30076940, 134614766, -27063698, -138300955, -21630038, -176301345, -95892817, 95903799, -122577868, -49535800, 63252941, 53047344, 159909219, 79459123, 14487581, -40373985, 38707599, 94559669, -31512275, 63117772, 24204515, 54830145, 123028114, 48595313, 29696032, -175619990, 8824129, 151164725, -158825800, -18290129, -8762358, -41261252, -3299504, -19539466, 61203212, -109338216, 60426932, -47709271, 16658671, 73257588, -11651183, -35503149, 135824472, 82262665, -35572972, -57726257, 148693159, -93519486, 877623, 29392295, -84301755, -110266097, 31043289, 51153567, -62626429, -69480002, 323263198, -195938185, -83508983, -20885298, -58846757, -189542696, 270019203, -87587178, -27635256, -28953534, 241119057, -330251724, 46796601, 79171799, 67119956, -340458661, 274227172, -160514683, 131925404, 71691334, 376719415, -227433801, 41645553, 61710119, 114995778, -425474703, 313233852, -209861889, 227594763, 76333866, 280154139, -337332994, 152578011, 10998832, 60969312, -437075496, 230657488, -212324589, 130229235, 246547893, 392350882, -159559116, 71661592, -271620005, 155095667, -271735758, 156729698, -107183158, 122505829, 108202189, 410554081, -165221527, 97996004, -84511779, 209795997, -186763600, 45743957, -281623900, 176186249, 294119924, 336636543, -169857293, 39127141, -199084982, 282747418, -230320528, -82584970, -106427155, 144388124, 248129219, 261629075, -142382801, 223170057, -133980781, 346328288, -237501219, -34438886, -211397350, -32610182, 264326900, 127337858, -252709866, 336393207, -213786945, 368909329, -191173971, 81275985, -160752282, 43345626, 108467259, -16123302, -204567418, 290869504, -102401145, 225222796, -263813287, 67513406, -16802240, 76956093, 222233295, 110976614, -93289807, 266954601, -167849794, 217157200, -361174256, -98117717, -72067678, 121605873, 153765067, 25119195, -52896485, 120030895, -94211310, 308956295, -367000788, -156242043, -93129933, 172515005, 147047952, 18973297, 64041391, 254583120, 54725826, 293306828, -314126104, -93417160, -294913411, 219494149, 122115731, 63882031, 37438855, 187387764, 12820994, 90418771, -156067163, -122697800, -139606014, 233909234, 58217667, 32921273, 104099438, 150972679, -16920473, 215484962, -31922985, -151770204, -329339474, 123209171, 19744461, 83433464, 169263661, 43114375, 79481333, 168759108, 75567961, -188939244, -253945321, 229076549, -41326195, 244240865, 132582799, -1456969, 70544891, 11990668, 57057589, -58676515, -291677445, 179140791, 6990134, 69669574, 189305410, 38404811, 86101294, 113704227, 64515375, 122389987, -257282674, 65593161, -8957077, 87952942, 114393413, 31346247, 61000824, 8019605, 76151483, 125671893, -177919596, 29884703, -63159510, -23976982, 126767650, 14610783, 21185772, 22116192, 66502757, 124969117, -93401365, 9350670, -123249345, 41446395, 84208161, -55948038, 99551946, 63060559, 61169006, 80591179, -80641136, 27818833, -170236468, -76241568, 105849937, -84403865, 23365172, -66726148, -41080747, 23134418, -59746169, -97470388, -168171093, -35114869, 112341546, -94425537, -31220725, 38115699, 74972257, 147813603, 6813965, -42878997, -158152282, 129649729, 151498809, -65119967, 43922860, -73065735, 44935144, 99008575, 78435950, -78803666, -141414940, 82064688, 52731737, -128827274, -59941635, 71724869, 7729622, 68619274, -19016532, -99981032, -136859387, 168134719, 126677617, -132051051, -3364559, 4591578, -104851358, 100417770, 40317949, 52468263, -15263124, 101881318, 114439510, 23872493, -51979139, -75410992, -151525959, 175121143, -82768343, 93075223, 32114103, 114171579, 1064538, -49216017, 90887561, -36491025, -153900400, 218227789, -234528169, 61028894, 87493315, 181405127, -50278403, 76179378, 90204135, -73532969, -113909110, 104504853, -289448947, 190898091, 116061747, 274493933, -193011671, 145971432, 134974241, 43854594, -228753880, 242551863, -286840469, 165977731, 143864557, 253400356, -230812237, 289518058, 687101, -9606387, -361712247, 185261399, -324759156, 458708912, 143089518, 326741934, -351575375, 253412813, 107055798, 49684230, -351779103, 229869232, -365496129, 451638788, 364020854, 376077771, -235070094, 219271272, -109107800, 63737243, -430071771, 67897394, -240907177, 361312926, 336169422, 249604955, -369216084, 450191677, -44204708, 106085986, -424933195, 51434699, -366299063, 465337098, 356984437, 245034099, -228087232, 418653518, -195071220, 151920229, -364658624, 180069894, -299697608, 506112754, 268301964, 209346518, -238480777, 330011666, -40127352, 56517363, -289776623, 66899039, -339328587, 315384984, 305270165, 136469603, -108856305, 252045184, -94849735, 154214144, -279121697, -1981184, -301654845, 355849236, 298398614, 187361538, -25660444, 234023243, -3313122, 37594441, -226600617, -39870515, -336929232, 315139443, 162806436, 106680542, 57773426, 358533531, 1748224, 121855207, -375884652, -68246059, -290186793, 249218479, 152378380, 120417967, 125567913, 298545808, 2367943, 180497587, -438865453, -134251401, -265773356, 216364488, 126944810, 253073543, 34671564, 312610537, 37268687, 65425955, -312052488, -96064009, -413615853, 205496699, -44534300, 314328998, 27544003, 314372033, 1062091, 91611087, -167100251, -30969383, -452119470, 111808494, 24419840, 243867993, 73866501, 187626421, 119631551, 101753823, -188917488, -7711733, -351804495, 27763741, -102050997, 125661537, 116842702, 96927837, 20058177, -85467026, -26092572, 136746392, -242656350, -40612478, -33521272, 161157683, 30611068, 17357253, 60660277, -3228976, -107346490, 134483725, -255288005, -4025102, -137288332, 120906979, 14928690, 64384878, 4994915, -44894647, -76020405, 60207944, -143131405, -108029202, -117786601, 117215186, 127394110, -18769002, 79772845, -66042170, 56795377, 141686529, -41093513, -34944888, -165661842, -2170198, 3864921, 15148615, -47170307, -77557489, -77118307, 127927572, 54156851, 64280577, -121941365, -33477619, 26466895, -68247125, 108523376, -68200245, -98297454, 6426177, -33629201, 61440025, -139426664, 72825924, 102887362, -150105506, 78289896, -100552447, -76642007, 39772268, 53593513, 39585784, -156226650, 134778231, 92634216, -137754470, 51243830, 31683601, -42299278, 61322037, 17412173, -90020508, -144530073, -40162235, 106922820, 4079312, -45774825, 76894, -282745, 142946482, 18951979, 16902484, -207702532, 67338109, 5971474, -137944728, 4120733, -52640431, 29734133, 26590014, -95657192, -51423341, -74464433, 55657718, 114162363, 53796038, -2459267, -67021064, 40078174, 140167028, -133433402, 7539345, -43073788, 71790025, 57602275, -14983085, 96705981, 76124556, -8107957, 111158893, -61977502, 17934231, -66969246, 87475665, 75678483, 76250307, 191034615, 36442626, -139127359, 60222100, -135174230, 9433844, -103457376, 54966114, 159586921, 220198274, 132119790, 32505367, -93403913, 41328255, -207989186, 45391466, -30191779, 45831896, 95188111, 152122900, 203341633, 9314274, -192255139, 75991683, -235071719, 42764388, -2704938, 130501106, 138063550, 212324291, 50959527, -13855172, -242772207, 164381593, -228341818, 1720496, 6838367, 82943067, 120089464, 250042200, 62822208, 134830013, -224003553, 165233031, -356734514, 28928244, -23771141, 205009326, 15395184, 298824966, 26164381, 38072437, -194420546, 227990776, -258970112, 2459073, 134779140, 89452617, 8828863, 382027507, 9795133, -19844515, -250333756, 152920172, -480056107, 73510692, 119418666, 128986806, 63755244, 269574702, 53763781, 124626316, -306191623, 131382585, -376129925, 164760575, -46943255, 79534084, 38103983, 315594733, 186595142, -31486172, -307874292, 112908959, -294270396, 44170033, -91227531, 116914198, 149386913, 259746432, 74909121, 61815679, -351358652, 82440898, -292074174, 35279419, -53206503, 186740264, 56170762, 296718925, 201866150, -46320729, -300392568, 99829279, -250660717, -21677278, -160974145, 175342947, 61795294, 117366657, 213753372, -72733976, -248928323, 12262921, -276149213, 25520973, -164164335, 128972322, 98979138, 144048527, 198666841, -77129178, -295458615, -10712259, -145742565, 48528071, -114201590, 76354437, 51454969, 85959941, 40868372, 66345528, -218759134, 114617690, -149653852, 61080117, -153700367, 2007472, 76253943, -54271400, 111895211, -37759658, -77438347, 131704569, -103371963, 66313073, -51869515, -25676809, 35737202, 16901679, 69409393, -18746333, -120319165, 37368979, -122794695, 7811261, -176760405, 22338623, 26829872, -24469614, 55400629, 43329373, -121188171, 124333233, -62793888, -112501442, -66572271, 105977312, 73174775, -52945908, -32286368, 49453307, 2332916, 99660859, -52643809, 15528098, -105971068, 52390564, 136100903, -110070467, 69164723, -28997619, -72748594, -12547132, -76996319, -111366548, -40768586, 136857778, 77323899, -124149397, 81454076, -71126252, 13113536, 142395332, -1129957], "dense_bias": [0.0, 0.0, 0.0, 0.0, 0.0, 0.0, 0.0, 0.0, 0.0, 0.0]}