{"in": [0, 0, 0, 0, 0, 0, 0, 0, 0, 0, 0, 0, 0, 0, 0, 0, 0, 0, 0, 0, 0, 0, 0, 0, 0, 0, 0, 0, 0, 0, 0, 0, 0, 0, 0, 0, 0, 0, 0, 0, 0, 0, 0, 0, 0, 0, 0, 0, 0, 0, 0, 0, 0, 0, 0, 0, 0, 0, 0, 0, 0, 0, 0, 0, 0, 0, 0, 0, 0, 0, 0, 0, 0, 0, 0, 0, 0, 0, 0, 0, 0, 0, 0, 0, 0, 0, 0, 0, 0, 0, 0, 0, 0, 0, 0, 0, 0, 0, 0, 0, 0, 0, 0, 0, 0, 0, 0, 0, 0, 0, 0, 0, 0, 0, 0, 0, 0, 0, 0, 0, 0, 0, 0, 0, 0, 0, 0, 0, 0, 0, 0, 0, 0, 0, 0, 0, 0, 0, 0, 0, 0, 0, 0, 0, 0, 0, 0, 0, 0, 0, 0, 0, 0, 0, 0, 0, 0, 0, 0, 0, 0, 0, 0, 0, 0, 0, 0, 0, 0, 0, 0, 0, 0, 0, 0, 0, 0, 0, 0, 0, 0, 0, 0, 0, 0, 0, 0, 0, 0, 0, 0, 0, 0, 0, 0, 0, 0, 0, 0, 0, 0, 0, 84, 185, 159, 151, 60, 36, 0, 0, 0, 0, 0, 0, 0, 0, 0, 0, 0, 0, 0, 0, 0, 0, 0, 0, 0, 0, 0, 0, 222, 254, 254, 254, 254, 241, 198, 198, 198, 198, 198, 198, 198, 198, 170, 52, 0, 0, 0, 0, 0, 0, 0, 0, 0, 0, 0, 0, 67, 114, 72, 114, 163, 227, 254, 225, 254, 254, 254, 250, 229, 254, 254, 140, 0, 0, 0, 0, 0, 0, 0, 0, 0, 0, 0, 0, 0, 0, 0, 0, 0, 17, 66, 14, 67, 67, 67, 59, 21, 236, 254, 106, 0, 0, 0, 0, 0, 0, 0, 0, 0, 0, 0, 0, 0, 0, 0, 0, 0, 0, 0, 0, 0, 0, 0, 0, 83, 253, 209, 18, 0, 0, 0, 0, 0, 0, 0, 0, 0, 0, 0, 0, 0, 0, 0, 0, 0, 0, 0, 0, 0, 0, 0, 22, 233, 255, 83, 0, 0, 0, 0, 0, 0, 0, 0, 0, 0, 0, 0, 0, 0, 0, 0, 0, 0, 0, 0, 0, 0, 0, 0, 129, 254, 238, 44, 0, 0, 0, 0, 0, 0, 0, 0, 0, 0, 0, 0, 0, 0, 0, 0, 0, 0, 0, 0, 0, 0, 0, 59, 249, 254, 62, 0, 0, 0, 0, 0, 0, 0, 0, 0, 0, 0, 0, 0, 0, 0, 0, 0, 0, 0, 0, 0, 0, 0, 0, 133, 254, 187, 5, 0, 0, 0, 0, 0, 0, 0, 0, 0, 0, 0, 0, 0, 0, 0, 0, 0, 0, 0, 0, 0, 0, 0, 9, 205, 248, 58, 0, 0, 0, 0, 0, 0, 0, 0, 0, 0, 0, 0, 0, 0, 0, 0, 0, 0, 0, 0, 0, 0, 0, 0, 126, 254, 182, 0, 0, 0, 0, 0, 0, 0, 0, 0, 0, 0, 0, 0, 0, 0, 0, 0, 0, 0, 0, 0, 0, 0, 0, 75, 251, 240, 57, 0, 0, 0, 0, 0, 0, 0, 0, 0, 0, 0, 0, 0, 0, 0, 0, 0, 0, 0, 0, 0, 0, 0, 19, 221, 254, 166, 0, 0, 0, 0, 0, 0, 0, 0, 0, 0, 0, 0, 0, 0, 0, 0, 0, 0, 0, 0, 0, 0, 0, 3, 203, 254, 219, 35, 0, 0, 0, 0, 0, 0, 0, 0, 0, 0, 0, 0, 0, 0, 0, 0, 0, 0, 0, 0, 0, 0, 0, 38, 254, 254, 77, 0, 0, 0, 0, 0, 0, 0, 0, 0, 0, 0, 0, 0, 0, 0, 0, 0, 0, 0, 0, 0, 0, 0, 31, 224, 254, 115, 1, 0, 0, 0, 0, 0, 0, 0, 0, 0, 0, 0, 0, 0, 0, 0, 0, 0, 0, 0, 0, 0, 0, 0, 133, 254, 254, 52, 0, 0, 0, 0, 0, 0, 0, 0, 0, 0, 0, 0, 0, 0, 0, 0, 0, 0, 0, 0, 0, 0, 0, 61, 242, 254, 254, 52, 0, 0, 0, 0, 0, 0, 0, 0, 0, 0, 0, 0, 0, 0, 0, 0, 0, 0, 0, 0, 0, 0, 0, 121, 254, 254, 219, 40, 0, 0, 0, 0, 0, 0, 0, 0, 0, 0, 0, 0, 0, 0, 0, 0, 0, 0, 0, 0, 0, 0, 0, 121, 254, 207, 18, 0, 0, 0, 0, 0, 0, 0, 0, 0, 0, 0, 0, 0, 0, 0, 0, 0, 0, 0, 0, 0, 0, 0, 0, 0, 0, 0, 0, 0, 0, 0, 0, 0, 0, 0, 0, 0, 0, 0, 0, 0, 0], "conv2d_weights": [29882986, 15290326, -7997836, -63858598, -161742687, -68786010, -53411420, 127350375, -76852612], "conv2d_bias": [620894313], "dense_weights": [3818258, 108742647, -119585775, -213711053, -232101172, -339941859, -30932155, 161491498, 4027086, 360467434, 37649274, 150399670, -162851781, -101843640, -212316036, -268077135, 147762373, 149267316, -40155027, 313633114, 158014074, 15674748, -115823545, -82842663, -98096415, -347847193, 40366080, 37587624, 3368193, 257655531, 145488903, -13548969, -201761544, -137923047, -191297352, -329691261, 4769873, 18221563, 91999270, 267232239, -74195370, 45100767, -134344295, -170335159, -250726849, -275279105, -102288812, 202306598, -3435975, 311258942, 99559255, 81282794, -77820748, -168162301, -73334053, -231047705, 141348258, 15359291, 48566453, 206049129, 315540, -31253137, -48393011, -68345942, -169538423, -215245351, 214732051, 13691378, 49534410, 173291296, -10581255, -177423015, -4193287, -64744473, -77691101, -174118355, 210607141, -144201785, 54432850, 17351603, -118023902, -180555806, 176066160, -148123637, -227306515, -370177776, 98194443, -49459044, -35332207, 20510616, -62782511, -140362293, 116606958, -148003474, -69828302, -189481333, 162943020, -66808462, -131723225, -29177776, -117705829, -93740433, 89784957, -87270975, -232389539, -199209839, 104846001, -137789994, -65676503, -91706716, -168991238, -19825825, 85867338, -25726324, -192337081, -105294831, 186943933, -99974096, -76344743, -141104415, -103673048, 150785685, -23833759, -176147625, 55820320, -246972010, 69314145, -206155553, -136397660, -122439966, -149608821, 39465316, -724549, -146404088, 136147350, -196571380, 124292865, -227938890, -155369490, -145008162, -126023337, 176146716, -49271755, -187462687, -47845773, -128778160, 94157174, -114631481, -49117420, -157272205, -64601727, 59045929, -71960509, -114619821, 53064141, -117826834, 148151517, -161615163, -60066581, -147888914, -110657215, 96162841, -80613226, -120561890, 68864517, -71403384, 164020836, -125021607, -41652959, -49521137, -121882267, -165151641, -57929192, -225459605, -240129530, 23171922, 233708084, -154209301, 138945460, -44139732, -35048690, 130481124, -168552428, -149660513, 108646557, -165824518, 174766317, -24853729, -18396536, -91208175, -57921182, -166165397, -148373559, -87071404, 123097382, -134294331, 243094593, -144888654, -16404497, -47024328, -89572623, -137431011, -144061983, -156079069, -87255567, -178698078, 270578772, -201444209, -52123949, 87356068, -11474991, -105833165, -189440966, -51644742, 51706150, -119618908, 216698617, -55200640, 85420355, 58763765, -27294204, -75796127, 25420012, -51905766, -162862644, -174434140, 108351804, -129536822, 31994201, 61607540, -31889439, -69548219, 71060687, -101974331, -57762954, -152335510, 11376565, 1495305, -1026170, 111969836, 85137725, -129050836, -106184177, -224540055, -290058404, -346861601, 39212730, 9398340, -74005507, 189431891, 42714916, 169045776, -88923194, -215022489, -248716891, -174696147, 105953820, 239657715, -27718624, 330935985, 97489618, 101943724, -135115907, -80561094, -173837364, -165963903, 17333835, 245692596, 62123623, 325890303, -814345, 54763578, -109727390, -117168903, -293320835, -208856806, 1091189, 237501815, 5683253, 356337637, 141436964, -22391014, -131127581, -254786402, -288271964, -333840907, 77136233, 2186547, -68389341, 300900817, -46700813, 48110224, -216689199, -238713488, -124601036, 13526227, 123993963, 201869830, -52214593, 230439812, 129179358, -63595444, -157921419, 135667905, -43624885, -318396956, -39636489, -84240146, 45545764, 166530356, -100615881, -92698805, -25224751, -41429427, -147097051, -105628736, 91944873, -9895375, -78728177, 97122617, -253090262, -85737869, 77229083, 14672225, -41113805, -317850858, -32318659, -115262114, -83947897, 22999158, -113556348, -167119712, 100026041, 178696111, 195357, -211843580, 30031327, -79840414, -132720128, -151013434, -115623541, -2112459, 114620268, -2681352, 115575723, -137093067, 86387619, -149173155, -105622932, -161681294, -141678080, -15065121, 53323451, 38293906, 181262434, 3350697, 44437669, -104857415, -119773015, -129886389, -79283558, -25128417, 78995980, -25520321, 228903979, -220521241, 27573947, -170067728, -98001093, -155410036, -105112284, -7937375, 66297717, 11150268, 209800079, -53424943, -32210730, -208708555, -148699522, -150062129, 21240154, 75330615, 81794232, -59134856, 82300834, -83591118, 69214530, -204189166, -37324812, -220228940, 7022878, 51906820, -11232657, -73647216, 174699992, -67158274, 21189939, -270277381, -102573723, -142665848, -40088512, 50268874, -17509282, -70118673, 213860676, -47047004, -11599196, -272754401, -29911440, -207823709, 55423710, 94976567, -12977970, -50555672, 150202215, -16754586, 61072726, -210166603, -66916004, -120694540, 567422, 68651401, -27527824, -26570756, 164011523, -25196170, 79616763, -231557414, 7155176, -157747105, -16875325, 68001769, -127661854, -52934304, 207102850, 21841306, 115356810, -210704908, -8000439, -43383677, -31730250, 51901292, -148536652, -73984466, 150258467, -72737783, 83517723, -236441016, -65244377, -179480135, -47152773, 2203094, -217576712, -78146815, 187438965, 38156401, 108854219, -201153368, -131218731, -121569715, -9540315, 87163620, -203765735, -177891225, 176374927, -11095613, 147064954, -231919944, 64954162, -42209446, -93075849, 21120418, -145423904, -219129384, 246564478, 11005052, 126575917, -140191063, -54492526, -28635008, -57680003, -139161438, -163629144, -86627670, 208166033, -36856215, 54197531, -178343564, 58995072, -49185857, 93957968, -163557112, -309847355, -142983600, 78077383, -189433336, 153298154, -191783160, -67383483, 33142749, 38807906, -36944635, -105404064, -89152247, -71891837, 13217648, -10805402, -61900761, -52706566, 181395993, -71994938, -254423410, -195488229, -103253685, -163945988, -182922900, 56779638, -70261933, -88687733, 140411377, -29648241, 26461033, -90790845, -124184616, -173188865, -238178611, 77018201, -37151586, 81081867, 273981184, 45834117, 83530001, -183634236, -147834212, -267817080, -309596419, -1131493, 185659245, 63537195, 434077621, 23478935, -3850210, -92801064, -26929053, -149868608, -241802961, -99649362, -22077102, 16940523, 286850780, -163366094, -152722657, -131495655, -982652, 145133048, -262342811, 7559653, 95150307, -141390041, 32960959, -251655668, 104160212, -81283122, 163923502, 61760284, -209114403, -7560930, 80893956, -56956638, -127643138, -85333541, -116478831, 3459214, 125330806, 270326674, -146418244, -43434884, -56406453, -58266435, -200248823, -75559810, -80933496, 945269, 59085753, 238492802, -153682753, 4594877, -61164081, -109109960, -233265027, -85332371, 92009284, -8798091, 69813065, 280661404, -209286988, -53217541, -50795387, -165627167, -207753778, -29350089, 25728449, 41791838, 31388916, 244866088, -40166594, -82439154, -117039360, -108573884, -222779959, -70690967, 50397396, -883945, 19669270, 210441470, -34226172, -20603484, -199454889, -90114057, -213999525, -12791678, 67963049, 35874292, 19394342, 218239307, -21156726, -194793239, -117365092, -92380501, -238704875, -7205652, 25256230, 1152313, -44524230, 157289833, -103685752, -107143052, -186586246, -27744342, -237958372, 747923, 45532212, -27943332, -52338440, 164253995, -126760930, -156156436, -226293877, -23738630, -222944811, 7574089, 89435883, 35079025, -24864405, 188512683, -43791495, -97925499, -199565902, 24054902, -134479448, 42796209, 58499567, -61411746, -42457100, 127036452, -44809237, -75471729, -287982702, 23715440, -157914206, 51236283, 98317824, -29868130, -39902546, 157734469, -23913629, -7546532, -218188673, 57316292, -118982986, 89231052, 92842788, -105643995, -70298612, 179237068, -20031458, -29424923, -317300975, 67562215, -128869668, 35512511, 112209208, -69561489, -55150904, 184431687, 34485944, 35248604, -262362719, 43164622, -86914137, 84605247, 135283753, -114905663, -64469606, 255069464, 55304497, 22368366, -240880564, 13939027, -146330252, 22854667, 104348272, -148740023, -88196136, 253600091, -29212398, 52876964, -292499542, 6559274, -115562819, 13096131, 84180407, -178497836, -132406414, 252162427, -6213690, 47198854, -88850677, -7557810, -168215752, 58809090, 122039460, -185019270, -104079999, 239225045, 11677527, 80581881, -254674941, -10547819, -169291660, 52446704, 113624111, -294158697, -157264739, 226636305, 92082620, 47450900, -171547949, -1092847, -102005892, -167002767, -44474833, -318365216, -166034639, 234388903, 52819513, -35002701, -200882018, -85258782, -147425234, 33682033, -262929142, -82278185, -141107097, 97418264, 69415070, -139943883, -150998577, 50842129, -11720793, 109682642, -157213941, -94352201, -170344517, -24916183, -34747075, -63399628, 48192378, 5698941, 109499536, 44147741, 82719326, -101090185, -223290280, -317658126, -158477515, 1799362, 289470941, -52067459, 408025920, 131343305, 122582622, -57650190, -73449761, -311904997, -215179622, 117173389, 38525730, 64028926, 338577598, -65014370, 2275777, -309096098, -102649622, -196754530, -77040456, -38070954, -119472094, 39103117, 202788174, 33568453, -73952273, -40346969, 58716390, 46620790, -323028833, 125874460, -73478483, -32696161, -14787006, -205112979, 18729184, -378509581, -10007780, 164441749, -66363417, -197506040, 221344441, -182266250, -178566426, 2154907, 42204786, -204095632, -12476224, 164260522, -163589031, -211155593, 54239333, -153764904, -286326736, -92237167, -31488147, -177810177, 6035550, 121863112, -185527951, -185453400, 133529454, -180510119, -416145265, 50800338, 30059317, 1563224, 30746974, 224171281, -58203064, -32955334, 211787790, -131108046, -294570714, 64920105, -72104648, -106895894, 65915510, 210405737, -81163466, -194581613, 122322761, -123829007, -338363677, -29948736, -1573215, 1873899, 25065126, 206342459, -27370928, -143479213, 42642053, -144579858, -250500202, 15067916, 29424582, 7714366, 64323522, 211177319, 9677541, -207441866, 55882502, -2154560, -150250614, 19021645, 13345595, -62453315, -667170, 191368297, -15034183, -155580267, -28502839, -24960447, -125471875, -7906649, -5479509, -61641186, -45029916, 131950036, -74462682, -293242663, -89639626, -40773589, -124533914, 11881507, 40662635, -23155147, -48294161, 129290566, -5995518, -179301262, -145976141, 13278046, -84709622, 85583411, 72477639, -74866027, -36276050, 137989879, -9692416, -12166432, -128639027, 62097326, -23103479, 31380326, 49782265, -25505278, 351252, 119118407, -24774862, -14222709, -102591060, 56107987, -32778207, 93173482, 37465580, -72935522, -25923023, 119289353, 32205980, -41988805, -144923836, 52359980, -11343359, 16418815, 68485864, -106600150, -34404058, 156911120, 44899363, -38702790, -137999058, 79214819, 3712866, 8248577, 42354107, -118497141, -133502945, 120808870, -45364019, -56729734, -233713686, 28125318, -65800980, 51132038, 131821826, -141580284, -31923812, 183229849, 69989473, -35446722, -221757129, 74926436, -75006284, 33967514, 92702866, -98255739, -67340687, 203931049, 15777605, -9771460, -188938707, 72636135, -72664849, 8138862, 79608783, -180191994, -181419119, 221130118, 46287850, -111161619, -190453485, 35757758, -170670703, -141628578, 135133833, -212895468, 26313093, 252815485, 121350430, -37599277, -325360745, 66008747, -214416385, 38228069, 56952629, -226964369, -195431039, 195568249, 56497648, 163955495, -252628028, -34915984, -122711129, -37047334, -227745533, -228925884, -78523315, 229273051, 139381006, 22575917, -105588831, 60035329, -104730025, 42918723, -136649057, -172592387, -37694361, -133000374, 91612309, -118051521, 40111713, 45224242, 120858245, 17668376, 86872153, -135308877, -113634899, -167866141, -168642849, 77065915, 104084186, 37996836, 272542566, 100016475, -73895544, -177993655, 8666441, -146955922, -78729928, -58213294, 38427334, -34925673, 40863149, 96594028, -26849428, -119167976, -30476293, -166369677, -163962826, -127467483, 192075491, -35086565, 2023183, 167961136, -19673359, -199176356, -129512772, 31211570, -1036612, -63346490, 173330933, -48832562, 9664476, 68733849, -220823124, -99796310, 31335171, 167932451, -147615954, -63614845, 153718084, -109861918, -333207071, 36360245, -102746367, -295812964, -39826650, 132710278, 3876516, -47028553, 236296058, -153286785, -248888254, 67212410, 156134516, -215958685, -81612654, 179668307, -108660556, 50374351, 112513028, -73944442, -299948007, 116912141, 162353039, -174868956, -26691563, 161712363, -56177363, -24235584, 156938493, -102254376, -263409734, 38229764, -23603348, -133380443, -42815689, 139024138, -45198586, -117181450, 129736379, -95865756, -214375302, 30745111, -14484278, -100089855, 2927055, 176164553, -40910486, -177517354, 107345074, -155783817, -233036414, -7157816, -62381320, -87835848, -18267360, 149471059, -23108294, -91263026, 59204284, -53552706, -171975732, 38524501, -95964640, -87764807, -38849931, 107814021, -51219009, -2787818, 19209884, -64501524, -127853110, -9014170, -77337272, -57748307, -18890960, 156275451, 81888907, -114581779, 14235326, 21762602, -8971220, 64383380, -59563555, -75013988, -53012360, 57905279, 25863860, -33295408, -66361070, 1363514, -25797660, 25045576, -42938344, -136959910, -9655329, 72496034, -3980963, 30356292, -95664874, 60276229, 17330874, 114172556, -18754901, -172128111, -38178425, 89445300, -17642273, -6777080, -72680190, 17097740, 56711636, 40550400, -66847406, -153771222, -84983096, 112611257, 35228547, 63176535, -53241026, 65788746, 89641012, 19714033, -13602601, -155493259, -87334648, 119997524, -4587551, 21804694, -35908699, 58043770, 45974296, -48517581, 48167683, -128266871, -82831480, 152296647, 40483154, 1463307, -28524490, 106758036, 17540880, 38122132, 31757422, -252888352, -37676513, 132721201, 1380480, 93822747, -37995391, 81423208, 14544692, 11293304, 16597364, -154815614, -211150080, 90938710, -21900043, 11325408, -109736301, 6964650, -128392160, 70506543, -73659763, -229088634, -192086458, 198618218, 142917976, -38577, -60119312, 18819671, -119779348, 24874056, -35152413, -393550366, -175321221, 189141378, 88420726, -105223574, -153292596, 84275149, -187847614, -9274432, -225869656, -232358724, -73852174, 207355708, 103008762, -15800735, -188903570, 42330042, -166236892, -101536319, -155043021, -78730695, -172894716, 233799294, 91150895, -176362112, -156888887, 133423626, -59331629, 76485202, -163142741, -135783717, -84398724, 142141461, 42057056, -40665261, -7228713, 83087914, -34941554, 91632046, -161113203, -274288774, 114179358, -150392339, -220757574, -74070431, 100293472, 101598300, -4370419, 33613238, -18821029, -19734090, -45432802, -148407698, -146846056, -8094976, -42884331, 13987172, 168856978, 180608809, -127403215, -293347478, -94831206, -94315588, -33664551, -91521047, 127244532, -24554420, 88228747, -22919279, 24517953, -229536802, -90866335, -28441694, -176717967, -78161828, -16974783, -19806255, -187313229, 106437035, 1648803, -245929480, -28753037, 92676729, -170784637, -150030777, 169645414, 1159084, -208617717, -27581537, -40799245, -178004891, 2130319, -9067812, 33251800, -123654425, 138778538, -43861847, -107546829, 39976407, 47739912, -164501444, -118871912, 52080318, -134982064, -248511210, 178099617, -41471608, -203099281, 72816744, 22663713, -102044821, -96683808, 100345619, 71826614, -190428585, 167929664, -69826320, -168498337, 66945024, 19615047, 22153366, -84149174, 110162191, -45554060, -92583135, 152611345, -97984999, -176048175, -30829092, -11307982, -74391425, -122228183, 99511452, -42171821, -74087016, 159983814, -84237196, -125925571, -16998278, -59654087, 1343690, 77576965, 77219494, -53031392, -159701109, 92319541, -59054751, -99426195, -135350376, -64508349, -51059663, 3119785, 65315247, 4578275, -136360809, 76083243, -24505025, -48245601, -14240357, -92119858, 34246378, -101312295, 50700132, -50133687, -135692462, 62945113, 31505529, 39384972, -30876394, -150187373, -2025656, 11251214, 60930938, 128173679, -8212696, 48393555, 37300617, 83212249, 16051475, -117672279, -72657086, 10795794, -13159631, 26375862, 4504563, -2742830, 3379415, 109160788, 13745765, -161666483, -81238404, -55930421, 3617464, 75691514, 16330697, -37119903, 7070845, 115447842, -43286957, -144333914, -234498143, -162168875, -12166394, 49319126, 47748756, 28421085, 2488110, 109133683, -25729721, -80765791, -216538385, -158275202, 19286951, 37603069, 29780090, 18366266, 11505883, 34739282, -18407080, -83795741, -222505197, -185868233, 51375058, 40243611, 60969189, 90410165, 67841932, 53021912, -37126362, -44447973, -267881811, -120455198, 88952348, 65840490, 14073267, 102472968, 40975828, 51768638, -116752423, -46509024, -196976721, -218722910, 103956215, 122785211, 183027729, 138118923, 77568218, 23821950, -53164899, -29837390, -149721384, -119814582, 103883736, 96279874, -6766441, 80623001, 76992601, 18511046, -117629997, 35900716, -217306048, -113312632, 70301190, 86320713, -87931059, 44265907, 59191253, -32405656, -63107036, -186632276, -223458633, -180555806, 151504323, 113097861, 93221270, -21647690, 29066203, -41251697, 65975457, -74717864, -111017190, -113477565, 61843079, 14418900, -77582851, -66285975, 7135892, -119075209, -210000381, -239597023, -112552322, -181348830, 168675169, 62604226, -34106664, -52678999, 67093328, -104375981, 6541509, 734804, 64423688, -11153678, -93554378, -181032047, -81660554, 164251998, 125451520, 17660571, 143523380, -80467254, -103084907, -281705201, -105261877, -146775052, -33849146, 106900252, 47259264, 49767718, 160852924, -147551551, -341861993, -294810236, 17670983, -65484047, -78922436, 64321116, 81472538, 93016528, 120490491, 24016311, -402273059, -205410302, 172422662, -94694309, -98577537, 115831673, -12822589, -88895857, 96407615, 37633192, -350134403, -459029019, 65414086, -144547, -165697664, 175365061, -73831409, 44632178, -83770253, 86038582, -186658174, -110389531, 97340196, -18256074, -99469297, 49662016, -131024718, -14610229, 32630995, 104042925, -141226530, -55005543, 96320197, -106572986, -227260977, 143052012, -37304591, -62042736, 92563808, 159870863, 5641519, 20371819, 88268206, -131367937, -33154074, 135995701, -146957740, -155109465, 45821626, 66564910, -144975, 4301327, 33915337, -129509255, 13650068, 80222070, -40953558, -148213401, -36412552, 29923555, 45066465, 72510310, 63666321, -28421700, -134039745, 89497924, -8217356, -168999404, -111552462, -59843007, 14317816, -14059459, 38575761, -108273305, -13316987, 25157243, -89538135, -136373773, -23923859, -23856573, -13021629, -23975369, 64948596, 39578125, -76181456, 109434687, 12484523, -108712994, -104052529, -95100753, -23279343, -48805337, 111781500, -33940081, -65423653, 71093507, 44204175, -16883643, 7641432, -190264493, 41673440, -92251122, 89870512, -16550466, 62056582, 51939804, -457916, -76781854, -27235592, -133465797, -62938444, -122617476, 26071837, 51476199, 112340972, 59308842, 61567113, -12708145, -53698238, -187782705, -60750712, -93341969, 15076478, 75147942, 55025496, -4629650, 44717647, 43428194, -67670368, -28376717, -100910038, -200421214, 12961023, 122874938, 181285948, 50829612, 10862642, 26680183, -37289567, -16953113, -114179276, -196626306, 2525839, 112398028, 101540275, -1794797, -4594785, 32076929, -50268579, -25690766, -148297012, -147202685, -11139722, 81752628, 72112232, 30356528, -46450645, -4619861, 34077037, 19641843, -229739159, -164096147, 58577914, 132221505, 192031056, 66018820, 58519762, -17739337, -24720691, -91533579, -269142300, -181796744, 21582082, 129530057, 131301329, 92215419, 23972712, -14709904, -107374653, 5931265, -122730538, -18895732, 33452749, 118248731, 147111222, 45992553, 86399019, -84394030, 39277196, -3588862, -132034257, -91526277, 100223020, 155081585, -43426499, -52767377, 66014610, -76819442, -96808359, 13762156, -173301563, -103701748, 126231357, 139767274, 7648425, -56016132, 93781389, -87335207, -315656632, -121598199, -305976808, -119327702, 72346546, 110702671, -30135505, -99371709, 192351937, -56654714, -23194592, -256720752, -240484178, -143778265, 6028749, 53587422, 32059375, -219224408, 72236404, -47916241, 57045467, -89562982, -148647800, -192026138, -177996412, -132459059, -4470218, 46276025, 30207433, 152135387, 65532073, -2894379, -139281914, 104556106, -130184919, -173418403, -92721842, -31633992, -89188077, 121619850, 29764898, 31863127, 62551558, -46219945, -9934131, 154539362, 24272677, -188306317, -98778442, -550241, 64910784, 7078352, 8535303, 94442300, -24420844, -136168793, 218309850, 20536589, -368928641, 41922539, 31135434, -54918796, 73848031, -90574421, 57626981, -89401856, -35328865, 23694286, -208203778, 76976620, 132114232, 92815854, 52313671, 59766740, -12815647, -130001828, -153029963, 27162040, -366549760, 20735936, 189224616, 308858246, 15611049, 41397795, 130501300, -78192376, 93119763, 7036868, -239934832, -58227692, 69207698, 3604961, 67448057, 79034224, 68466768, -155692711, -105563723, 57993621, -8073605, -39525706, 25089534, 14057380, 18863158, 63684545, -18519893, -125349104, -60649246, 56924373, -81478201, -146452501, -78705184, -24973352, 52294891, 14305816, 13825399, -278341889, 83092876, 64139254, -122114062, -93005478, -40886920, 42848866, 23600388, 75487457, 33447001, -33387434, -60051236, 49168952, -3260956, 24721144, -43378234, -81469581, 77186652, 15617276, 54276418, -93074173, 38031213, 70935026, 12489013, 787332, -95719308, -175968990, -11099943, -3363068, 39564081, 8699605, -57967350, 26642673, 48987672, -3004107, -8275436, -365586251, 14664215, -56868352, 63379176, 59573609, 57270, -33753283, 19922798, 30329227, -28343849, -227384076, -33856347, -86389571, 44218898, 84186248, 153936192, -104823910, 11476603, -37463937, -40761098, -95828272, -9676514, -87424137, -47848444, 76733172, 100853801, -107210048, 6595398, 4031915, -201771751, -90568237, -132425100, -111281298, -16815322, 142961562, 162615865, -60292635, 16060827, 14531136, 14850301, 21827785, -125530124, -127323791, 1292545, 99928401, 114435308, -63171759, 7714418, 21286383, -93771130, 89051329, -230536282, -144743979, 733661, 85203230, 124864198, 28582167, 36654621, 51537462, -98251477, -83463326, -155263126, -143981814, -25324017, 182959422, 107474305, 39132234, -62721811, 46717413, -71688429, 61655402, -166550770, -201805994, 62290400, 220020995, 103471935, -16739147, 77375986, -21834543, -70932209, 104352288, -169710442, -122198679, 57921074, 173057333, 139590561, 82437947, 8808102, 22653596, -24323810, -6842875, -135560095, -78550920, -5095896, 153354898, 57556193, -12369982, 50162386, -3455593, -31220106, -202888682, -62368613, -219899803, 17928915, 131640106, 158347696, -215500727, -31123139, -90720229, 39185613, -14076179, -131235272, -34220036, 81953250, 43420568, -96614443, -34145370, 2078239, -85613646, 245480672, -146378100, -198947474, -150048301, 28519651, 144148663, -99075571, -231115669, 89840956, 19517563, 101650305, -45780603, -193432972, -217848659, -330831259, -289742559, 102268271, -160125196, 58928039, 106703095, 184171781, -38549714, -143904269, -101446576, 5803947, 31848595, -26944049, -216842905, -20227777, 143630996, -157976568, 340079, -103714354, 147704214, -13759641, -90347692, -23352005, -99041529, -151983589, 15180786, 53501554, -15637981, -27703090, -22731658, -28153270, -142039925, -35876546, -121083744, -243910462, 80244705, -126494870, 188512832, 98222479, 156024516, -4306747, 8823973, -245336950, -143445060, -391043633, -34750234, 17055919, 196580246, 48757840, 30307977, 68295792, -210143134, -163542718, -10681302, -234137952, -16248969, 7142232, 166993722, 175286651, 48150007, -13284769, -124781139, -130708396, 6131569, -216112539, -90854168, 17609598, 83665088, 130918786, 121237844, -40646400, -95038593, -58989838, -54167960, -141243607, -274855137, -18395329, -4328727, 80620140, 77038735, -17234454, -243004948, -19509951, 138894245, -173763871, -52446786, -122992516, 92704408, 133113101, 137419194, -40564399, -123821974, -32995064, 35022616, -88808455, -77888280, -89748926, 29943213, 79267062, 48019402, -36773268, -160865948, -6528665, 29975299, -75222768, -27763274, -76707892, -152661562, 41192193, 26407272, -51335849, -48693102, -51860839, 70620999, -62669925, -1263741, 25505617, -360337883, 64524673, 45376264, -10289014, 20962376, -11461009, 81349395, 37549015, 57768896, -136508211, -393218458, -21883959, -81451863, -31151179, 2289776, 77725857, -70361830, 25219960, -67919262, -27216906, -432799518, -79062037, -39190672, 30034270, 172456905, 84844068, -97395755, 78842990, 14606003, -39760888, -271373451, -31512335, -125298917, -38388744, 96511178, 136601895, -123660251, -4983466, -22150030, -33661511, -164995775, -178489730, -23876585, -111502454, 60081098, 160023645, -220591858, 13751688, -19958435, -149015456, -15537917, -168657914, -102145076, -84694207, 131697789, 159966812, -53293064, -31065954, 30884644, -177835494, -73816858, -133766741, -98934293, -22245947, 128470063, 105444491, -106794208, 8889028, 17878631, -97765051, 26123852, -121186890, -13249792, 18624602, 190620810, 105094135, -57947934, 19122245, -30475164, -215314925, 15091956, -190296441, -157836884, 24821226, 231351614, 137378544, -41525420, 40704455, 27097762, -183072194, 9144291, -163035691, -44968836, -709215, 128327131, 108221434, 23026420, -38288753, -69885358, -162137717, 119125776, -5921471, -120029077, 26517525, 224429205, 55693068, -77501848, 43029666, -22391217, -202809364, -105296575, -116746701, -196138680, 43428503, 216548786, 44497076, -128685921, 53464405, -155391723, -291708559, -45359552, -59915531, -171569824, 98275550, 159210905, -94238624, -91380395, 6406318, -78051925, 9883835, -65955192, -215721563, -226609185, 58919635, 270261735, -239249766, -121743202, 26569473, -139616802, 263770074, -155779406, -132820934, -89579388, -112024285, -262692213, 25616769, -38443096, 55200849, 40108304, 28719807, -68006687, -152819648, -75614445, -267343700, -71625501, -26424220, -110642001, -76940738, 167511553, 92624642, 14581849, 2020593, -80098860, -8101758, -170459002, -55664346, -97701423, -135075703, -63079461, -77928282, 117862470, 342864484, 187703177, 12698388, 6681281, -65781325, 13137725, -260586411, -216961443, -170996919, 199986964, 166457355, 259625494, -77805497, -329140574, -112362109, -69756247, -482359707, -201878399, -303313971, 7518284, 200835317, 62975459, -159876421, -143074572, -201283529, 77748872, -212133780, -248242289, 61607242, 222311854, 77570498, 180422321, -128055796, -326983660, -66926777, -468559, -220287591, -51863369, 13232349, -2367022, 89120202, 76818317, -144467652, -170769781, -126400396, 147091717, -144848913, -204917997, -59364893, 48567675, 68651617, 63124679, -164363191, -110020921, -12157992, 82437381, -39215747, -133266672, -143386200, 62105071, 62542558, 87660260, -142750353, -138366744, -40451813, 9887581, -122895434, -19813526, -50850, 56933865, 154170424, 132365182, -117617793, -11549109, -95392741, 112023108, -8362015, -9058521, -99996597, -170741513, 109798878, 62860832, -32460816, -11067536, -31496517, 83694018, -64673133, -9547948, 27913788, -408951610, 111586504, 58884855, 523623, -25333980, -31586450, 103586204, -4823241, 63850977, 66891037, -325217038, 18279230, -101241879, 10438100, 79482906, 47371931, 22311103, -6187386, 14667250, 18602651, -463679731, -30652635, -12638681, -38800862, 142409340, 136852473, -75772874, 114197247, 45278791, -3167071, -277570665, -14576080, -43867387, -131431639, 141019300, 169910476, -130125374, 2645189, -18493867, -71364745, -181035295, -136988044, 16721867, -88251628, 115122020, 161190495, -219482794, 49651664, 29137811, -58912735, -59353754, -189958364, 112179883, -119171932, 175233543, 92586085, -155842632, 45629974, 42512041, -142517060, -25530862, -70467867, 19395057, -41990705, 199717835, 115575537, -133023217, 74614674, 5044699, -220373273, -10607425, -95154762, -8443892, 41667636, 191656291, 58100816, -130630061, 42668372, 11861493, -147006363, -41896142, -126969323, -54124668, -3177782, 153913274, 96793257, -37293822, 67055739, -17428584, -168148592, -14494636, -68421558, -13727910, 17409110, 147467285, 57070326, -51111959, -19654723, 27989306, -194518000, -15123544, -80503844, -6025053, -32915607, 309940219, 138112396, 64393677, -20389795, -87224007, -149867356, -49506459, -30376781, -190855399, 75155191, 296458006, 27149199, -90674929, 12210224, -53508028, -228325129, -19982595, 4744719, -403815955, -89371890, 230573073, -70645608, -87922327, 46522960, -133976951, 25309745, -296438813, -190036714, -175660297, 21980366, 350134104, -91398619, -185604662, -8078476, -125300094, 176159605, 25294401, -40949672, -143802270, -216135025, -263950527, -27340185, 6442782, -17191200, 277557701, 154363111, -31051164, -91247492, -61550509, -174206227, -21410825, 84879339, -34870781, -74665099, 144166633, 115253173, -4225732, 140435368, 136604384, -347744197, -38681831, 138446763, -168073684, -169052035, -189182669, -315265685, 82395107, 116522633, 282390177, -321909785, -48399303, -73848695, 61157662, 7847746, -214096442, -301075101, -54373205, 170553297, 180890769, -234666809, -117708154, -324619114, 74602894, -118595995, -350967020, -156384587, 201234475, 310623139, 204761431, -74355714, -298403174, -409987420, 237869516, -553017855, -559770763, 22596665, 248008087, 201286003, 272246331, -215744317, -247502133, -339722663, 186341748, -255534470, -376558572, -64486682, 226749316, 200670108, 123271391, -262396455, -235400274, -85095540, 8603370, -130513087, -142288044, -106323153, 142327636, 86906821, 106198043, -322517902, -15120267, -12750561, 74995294, -101794340, -164594159, -17069293, 143033653, 187917620, 117913887, -208247170, -85755520, -145513177, 161399707, -248607919, -54750573, 37948407, -69747195, 143502727, 64456850, -114053160, -64224787, -234673634, 141739294, -160770163, -89590877, -60562614, -36472958, 123491473, 79068474, -98495990, -55127434, -9284397, 121744342, -102528304, -19073203, 2225977, -239920974, 91012105, -53328667, 9245204, -20313568, -196969852, 161980987, -91424651, 54400619, 12391543, -299168378, 34588881, -54269977, 7543493, 96399844, 12716982, 43418583, -122265093, 8106956, 110918887, -345091581, 11481918, 13727724, -149964660, 52418888, 132404968, -19015612, -46635982, -77525362, 84481023, -274208784, -104244262, 49820270, -207854450, 138161853, 189487815, -114362277, -62174279, -104261510, -3616112, -112968117, -56003887, 102921143, -119742848, 94094805, 91259621, -142422259, 59995890, 2573093, -16451154, -21997089, -112714753, 67287549, -95894158, 39055124, 19960811, -108170748, 19456774, -53066276, -274496078, -49408212, -130097508, 86423308, -16704189, 100787647, 25790798, -18013032, 57025656, -47473531, -389790505, -51495172, -15102516, 99363357, 9401799, 102724016, 15428376, -128556803, 92779249, -67831054, -178078756, -78719825, -105739556, 55816241, -53658221, 114868611, 6148247, -111300401, 94953142, -56923792, -450777739, -73899239, -34833431, 36052633, 9347658, 206943467, 14930286, 1618491, 114719495, -55950888, -131383270, 2106751, 58946129, 98147012, 852613, 288791388, -86441472, -19430859, 60877655, -5059734, -316626906, -132150605, 61679184, -93799062, 65826185, 280017167, -144733384, 43361370, 61759308, -75231269, -274643540, -254104614, -75490423, -386650890, -49017388, 518468440, -263011605, -124212503, 56035779, -213573962, -239033639, -269564867, 14067965, -239226267, -140014172, 478430599, -190497100, -119460881, -33756964, -185564876, 42551436, 163733482, -44609364, 10521627, -265231490, -117762148, 55066917, -104140118, 71823061, 420225710, 274380058, -6816376, 118672267, 13620434, -374562800, -182879567, -54334316, -244591758, -61224807, 92728078, 169358030, 32342888, 264239937, 298954844, -486349285, 133230180, 156963170, 55501826, -120033532, -308323473, -94883546, 90829723, 203024074, 82352638, -343004674, 44937108, -344977647, 75269610, -494227886, -76486647, -367793292, 140546337, 210579857, 277358592, -374730468, -186538488, -275815517, 200829059, -149269104, -375438094, -324220479, 156392053, 321579546, 254361629, -244550452, -30726606, -337862939, 98843917, -185889155, -242530078, -264110744, 32690145, 261706054, 220058903, -520753205, 48410431, -499126881, 227331266, -41061431, -264951140, -119479313, 254681468, 276656657, 141003042, -460145324, -154310957, 16614882, 125669420, -97981744, -62368035, -40716995, 211104900, 137918100, 238080367, -360351950, -82556143, -135453314, 111361511, -138055190, -149454638, -46580866, 219855860, 122523442, 19555487, -198059887, -18287055, -115094163, 217200547, -145737275, -71358189, 12561816, 30383416, 161691278, 26289133, -148805097, -153979883, -158306420, 134735569, -84028989, -99625036, 8770557, -163849205, 146203607, 94726406, -44275701, -24971265, -195397124, 130126104, -146345586, 8394709, 17589381, -423390061, 144148111, -30470178, 68089813, -8132613, -180693641, 130549535, -25050305, 49019638, 90467364, -492786258, 38807325, -6248362, -25102679, 38341288, -7948073, 101471119, -143844336, -107500374, 134921238, -264290303, 23281779, -110078521, -133869112, 12868203, 75826533, 19208087, -181842655, -162492678, 173299968, -316791862, 29012254, 14674605, -375996679, 89020781, 172839820, -146328151, -102737911, -125426710, 97183734, -74246451, 13546714, 55651847, -142935976, 56094423, 88183865, -255845279, -37572619, -88104531, -24207179, -16649384, -51183596, 77293396, -152446657, 91209881, 59985802, -75918838, 51764254, -96974604, -116020933, -13727796, -23059297, 53564630, -21915199, 66970728, 61604291, -112239681, 112250298, -66831544, -359213948, -75788476, -90205461, 88773817, 6633207, 27643390, 42056113, -79035982, 82020730, 34353402, -412784457, -117792688, -15907044, 198906213, -51521722, 50610028, -43497287, 7764339, 98025873, -69221273, -300419450, -275038272, -58324408, 35126325, -30931190, 76497734, -101433754, -21476237, 105297618, -70262238, -281318486, -190922856, -1486174, 166987866, -33899702, 101704530, -118632503, -89553848, 133372113, -70149407, -250540584, -151148707, 25168914, -86243235, -91643043, 361254066, -136541709, -12710561, 45938402, -138720140, -264598787, -365899146, -29449493, -278042704, -58878120, 363454580, -241895869, -213194773, 74269533, -64412437, -137535185, -56683816, 20614272, -308707714, -240158379, 583393514, -108860955, -170773879, 26824292, -14159507, -62325928, 162714124, -189623803, 118791953, -287294567, -248125136, -15154727, -134867191, 7812387, 293154806, 45578104, 178728595, -150029942, 194778070, -327684283, 63327052, 159235001, -13375474, 79724289, 168944672, -226357281, -63868009, 32963302, 239834815, -227674887, 112452969, -5493961, 28991459, -134281963, -260702133, -318190098, 147840858, 196203381, 440240681, -400567174, 98550253, -205830738, 335482836, -340540528, -519805610, -194791704, 140770182, -29817285, 400631189, -245254651, 89476056, -241881803, 28422346, -237309083, -586376011, -395578682, 233925521, 164215580, 377884984, -583772898, 24719466, -262472659, 132432461, -2787804, -376720339, -467779428, 179704159, 18893106, 222298786, -375808537, -46725333, -201880917, 199209213, -11914755, -76040074, -44346534, 249698207, 280556679, 120261274, -285257190, -17953703, -288341880, 26143115, 69172703, -127845451, 17610068, 198614150, 169846907, -51553100, -228600860, -111660898, -108990714, 223315507, -148277849, -84463820, 1882998, 174315363, 61894279, 23899022, -141855180, -7089525, -78392960, 177148268, -236562192, -99787250, 6761437, 77156283, 162196204, 113249131, -37061661, -18482551, -87704711, 271954745, -159052938, 52444838, 3044024, -175196841, 46883326, 77418245, -4992077, 2425959, -174940109, 209279463, -173864827, -27916206, 140740216, -308292061, 82690522, -50583202, 35131734, -20726789, -69129966, 118281864, -233894393, -80002457, 255372077, -292693913, 32900140, 43727305, 21609170, 90458997, 40574517, 119925298, -208315149, -139850736, 108097434, -642918646, -3610472, 150422305, -106761336, 85584581, 114970282, 70445046, -180724204, -135735497, 130684212, -116374262, 85297756, 64448684, -196886554, 81413075, 90146393, -71488425, -94991088, -114066251, 60472231, 7940624, 64867042, 79681948, -315298229, 30251022, 78082703, -212885186, 59630770, -118961208, 31359352, -60704172, 20766791, 84843785, -81934050, 54913048, 26646875, -151410341, 104027413, -91341943, -198073432, -54887831, -12060606, 99495672, -17054286, -59190352, -14166025, -14252216, 152828306, -4705985, -193642035, -109740600, 7491994, 45154896, -61950903, -67214146, -49771436, -69386952, 136030123, 35393681, -140892059, -23469992, 34624424, 112251632, -21151843, -133244336, -74664183, 54288726, 126128167, -25814105, -355797112, 82269259, 51777694, 38615916, -28738728, -64436585, -69776632, -415309, 220756739, 44143464, -254121751, -105955057, 36934216, 7934211, 59591845, 58356725, -332999289, 16113887, 179543465, -55085905, -350824356, -29817007, 26680542, -100898087, 46388134, 233288124, -127289027, -20589476, 151477024, -126427904, -167911276, -95825024, -3096502, -193534732, -58747582, 355109483, -295780092, -109924585, 218977764, -89437418, -249329448, -161192864, 175056830, -66232517, -118578941, 145463735, -127112299, -96510902, 77481978, -84740669, 46189144, 26101422, -199749306, -201615795, -313353062, -244567320, -26454132, 46387106, 50411690, 426503241, 50526824, 11961058, -96820891, 157437280, -266150594, -104543619, -91084979, 1327442, 34336902, 13967518, -119296715, 42707324, 59692077, 250082821, -336653590, 10191625, -99944457, 21129986, -155833706, -419336915, -122597829, 34201827, -88501751, 309980392, -337706745, 268472880, -192593560, -73273212, -98014280, -210032791, -406776994, 76998293, 50053656, 377509594, -725327134, 230675995, -539748609, 135069489, -142139763, -163466960, -387222111, 34911308, 45509152, 306480885, -871941090, 192871124, -303238690, 59526842, -151254058, -314665884, -294833183, 83451711, 106183566, 220392883, -272211522, 189417571, -305624962, 98146759, -186200976, -68732403, -158476904, 266668141, 80429278, 273194104, -484910548, 95596701, -255714834, 117946275, 74815229, -252492428, -105039291, 211884886, 75767443, 153033763, -252934873, 100140199, -177504525, 143835410, -43600552, -153227374, -29442571, 181535631, 99629752, 85223012, -132818595, -163369507, -177637234, 246685922, -99923886, -72374433, -44529006, 17454933, -23991548, -126870751, -77157430, -69430076, -199098676, 236288130, -299042195, 32956600, -10736523, 49029291, 83384447, 93034096, -705845, -3912343, -286690325, 174024254, -256117851, 58692612, 98091647, -407212824, -21133184, 11413025, 32205649, -10544036, -132571682, 3666099, -362925917, 116687566, 79996064, -385736316, -59897561, 70436619, 18629245, 122051850, -24496071, 49042344, -167999476, -3535136, 62849216, -249005303, 32835249, 25291484, -86545989, 2264620, 24388300, 27330944, -151005268, -154610261, 49687725, -9866618, 103630133, 67302488, -272158563, 37119992, 26035335, 70828140, 12823583, -326912880, 56964234, 48913490, 56154549, 94054639, -222319111, -21577369, -19117188, -116479203, 40639818, -216062218, -76399751, 38984518, 17208641, 28924737, -50497368, 8582279, 86051591, -157094970, 104177043, -128552079, -178998590, 5445513, 9089168, 42899322, -32162718, -110428378, -57843126, -142762408, 157445520, -28330280, -199047849, -140969962, 20346543, 118968323, 971663, -124609254, -5006551, -133544624, 168736190, 47221459, -287889719, -68517849, 32129250, -18019553, 9136535, -127784789, -242505178, 2633815, 173719838, 45273051, -223203480, -86446978, 27663758, 65335266, 37820462, -237393826, -38042825, 12851452, 221479118, -15740516, -212607294, -182533994, 162920162, 27082641, 62269915, -122928813, -192792758, -78048550, 206692144, 52720029, -129182801, -136511430, 159658015, -194615290, 2441975, -222847074, -38474217, 10709125, 265670240, -24415966, -51229015, -231518567, 173132271, -66918097, -33962321, -126830205, 38946293, 30368397, 184542045, -21193156, -71454465, -150918841, 73695943, 65007955, 23936726, -82416683, -154601663, 62747419, 112479337, -43927398, -35483781, -137067854, -139216140, -58129802, -210871100, -606362, 22683723, -4832372, -45034081, 214219272, -38594067, 118527301, -11519866, 178243995, -229035154, -137000412, 42278152, 34588370, 36261123, 12874622, -293136299, -155350879, -16001459, 231152669, -611410379, 84220774, -46460606, 101495646, 73090278, -228277892, -685937583, 223008156, -11449046, 352285892, -930014193, 99953413, -141118914, 212199479, -194098115, -311144739, -120694742, 230864987, -117162831, 283125013, -610248387, 99488661, -435200661, 25696246, -215999275, -456369907, -252884209, 95056802, -79501808, 260574728, -578134954, 217895478, -465581059, 17024284, -77309482, -603309155, -86244203, 177447945, -26506331, 204112202, -66485398, 142004743, -412519246, -65291524, -115255497, -248795643, -266409278, 83703928, -66255279, 172766969, -99397644, 183040693, -211777315, 30381126, -134085461, -200062945, -146921501, 247999027, -20575820, 135197058, -108485885, 97574219, -343014568, 140257925, -43674771, -138268813, -47433104, 175563037, -15858419, 86310700, -72895557, 29327100, -236954808, 154639900, -59074577, -61868183, -44148434, 63071176, -67991979, 53649925, 480042, 19710179, -299352080, 96608900, -169103965, 31486437, -13601712, -183104247, -54583251, -28700877, 3144, -33350300, -294410616, -20678068, -151661366, 70999481, 72793871, -272014230, -91929294, 124114864, 80851108, 18621739, -75931937, 20068163, 21554593, 170320019, 22527358, -228493467, -99778160, 68659998, -75240642, 58078978, -12118085, -53013109, -26357569, 73539741, 66479571, 44096451, 21049285, 1450550, -38520236, 10899424, 19155396, -34141675, -52282840, 3042336, -161181062, 6955381, 119279996, 38694102, -207145065, -3586927, -67846447, -4261767, 6932477, -132695124, -48824482, 75010814, 29756695, 10027076, 8129795, 31520013, 79420112, -9296313, 39150100, -43183159, 30093079, -53913813, 37953816, 6290750, 30202214, -82171485, 109748617, -132088423, 41518424, -97155288, -127067536, 3867884, 67594431, -28065775, 128818437, -140692860, -75740196, -61751649, 143881425, 12919527, -50187584, -109533325, 19423453, -118041486, 92835605, -265080541, 28758548, 30463506, 135317743, 59990235, -70688806, -27366601, 104280822, -162613422, 121099174, -212766856, -247021332, 13552942, 90752929, 16015748, -76347038, -147507310, 108473532, -268857121, 96217498, -309178978, -103042819, -27872097, 203182369, 30112982, -186480001, -153620780, 167570665, -123881102, 104080796, -197911650, 45728210, 24902344, 171497971, 59214901, -101335287, 147618160, 164182350, -201689810, 6801902, -272496551, -9295267, -61970457, 188240051, -12465364, -79393022, -141304433, 178087488, -172218233, -72682589, -294000268, 23965022, -121222466, 71565442, -127189085, -344075888, -51633190, 117802657, -52771401, -2758873, -315253377, -62567055, -4563069, 77956878, -79677135, -37502281, -84347844, -189102232, -51863823, -390493929, -165186062, -25522297, 100515731, -18878387, 165034130, 102514781, 32170761, -130752012, -181621388, -157090828, -115223221, 113955721, 41517790, 20202085, 118651927, -265310884, 16856555, 3292017, 119613238, -380631685, 48141614, 6744484, 257124126, -39164688, -215943679, -452845395, 136120871, -217226878, 189954832, -262851179, 138280138, -255674511, -55763185, -188625932, -170087099, -503302693, 70964292, -198126689, 176031992, -213206008, 101692311, -195708707, -43585386, -226376086, 3144150, -335891843, -19617708, -84263057, 239545733, -221131518, 217627376, -365626484, 22767622, -203114003, -129168287, -227397710, 162244499, -125597283, 256186336, -50035849, 132240057, -220120683, 47954962, -126473814, 9329979, -161186889, 58105044, -56665767, 232697964, -85132033, 192508161, -343726099, -49867757, -151034206, -200420424, -112233557, 84107026, -2625908, 179424793, -19883394, 121878237, -271862686, 199353978, -96916020, -81075467, -119011380, 183712706, -63190989, 100885190, -7415741, 117091350, -340604305, 158428460, -124946296, -43534517, -122516803, 26805870, -92450753, 27824856, 45029275, -24129631, -145214424, 85607886, -165326506, 20772494, 23405291, -130348340, 18496165, 114795193, 117428526, 21069428, -220614702, -76750882, 41965, 166644007, -12265853, -621074319, -29716786, 68237185, 97293749, 88594049, -46479452, -140167460, 47569856, 132485598, -21852236, -135484114, -142860800, 67266345, 88659868, -84429011, 14840332, -168043092, 16119994, 56588780, -102185890, 69214590, 37912142, 87512203, -40834822, 31983636, 49060181, -85223310, -9041036, -1748944, -67618690, 126318678, 45250643, -90743683, -29011009, -126608282, -2340618, 159996882, -33075318, -119556852, -106387705, 88731147, -62220074, -86944811, -18843366, -63958831, 58225468, -38857609, 39287195, -16560614, 7019893, 32260597, -7847770, -242050767, 64407282, -19927517, -114170521, 25593821, 17474975, 17688513, -5402492, -43496411, 177538, -245160997, 58863886, -137848407, -72959647, -30440871, 26603086, -23346277, -47208540, -59227165, 6236288, -218326986, 157570362, -172619730, 33275325, 48552331, 105541386, 22190941, -81602789, 12462246, 99577859, -252295732, 97631030, -248593718, -5738859, 26828777, 95703527, 38830895, -60977764, -21307241, 79037957, -175647363, 92692144, -322916120, -15990727, 65158948, 141747713, 2227288, 67408301, 6432300, 103959635, -486367255, 91808558, -79711936, 127931237, 47132678, 3394020, 20736294, 3323493, 111372873, 68667457, -128090769, 33494595, -108147964, 1229809, -65214701, 75761281, -126043826, 98802850, -162353426, 134649009, -243616223, -137624368, -123593919, -138268292, -34324113, 51953599, -85351862, -89599162, -253774077, 151206359, -149290174, -23874531, -91380388, -104510307, 10541150, -64951114, 32447811, 117713057, 107883960, -132749379, -202716663, -257909626, -226964444, 96163943, 286937386, 100447759, 343633235, 30236676, 5658461, -220429704, -71355239, -195799708, -80357179, -60351659, 114846297, -90836287, 101752587, -341631681, 113451302, -91644712, 245949835, -42846370, -123598292, -34776531, 110174336, -24122233, -102294132, -451568395, 18772574, -139878944, 127729192, -55329859, 76097213, -80881156, 153319538, -184111342, -53198360, -236155331, 114954807, -74035756, 221995145, -100398853, 93688071, -276730895, 32975804, -222923100, 39607193, -254084200, 20600852, -283943355, 164038092, 97113363, 129561439, -347441912, 29436963, -224235058, 130604163, -249561623, 114103533, -272992283, 104597487, -3068926, 86506397, -206931606, 140958026, -163581595, 24903126, -169448406, 144790217, -202053532, 161264047, 15080993, 124149352, -569714248, 164522037, -209261984, -104767233, -229111761, 83495617, -73543616, 162333205, -69337912, 163892746, -329385132, 119968571, -177455887, -204246446, -234528527, 110702485, -63327491, 126730591, 609904, 72843991, -246328145, 94148785, -168487474, -27573347, -174883887, 73703922, -57672419, 95780708, 82042694, 122074559, -294330359, -63767187, -110685624, 82716897, -80547765, -404286504, -10377241, 127691746, 96161179, 8536465, -49200486, -172193587, -32011561, 139584988, 55754229, -172366634, 34540225, 93875974, 128742188, 13409575, -27156014, -225232780, 31965703, 87031282, -40661585, 45207243, -22886777, 32237977, 53220503, -54024309, -109265208, -102748156, -9259923, 37497234, -50629828, 115198024, 58502540, 32304320, -24548853, -105267659, 40256806, -63693792, -57147402, -64505033, -93588136, 72170064, 974817, -87945722, -1124454, -42971093, -30119352, 53697258, -63337862, -62845498, -102364495, 29993437, -30642219, -173720077, 88939317, -210246891, 65672524, 22844069, -12342419, 84894218, -4296233, 66683434, 4393261, -349433243, 127275765, -113188617, 12235295, 99129423, 10421780, 50670270, 66366054, -128753230, 54504488, -247840166, 124439277, -204670206, -80259763, 18183526, -22523254, 19205181, -2282910, 58814686, 45616951, -294088423, 181599796, -216539308, 14179903, 173426405, -30812986, 34823336, 101575583, 12546413, 105673820, -203964949, 131409720, -265906841, 119413681, 78721352, -111328073, -75910397, -81104800, 12879291, 99893332, -143454656, 59999276, -232443139, 3015708, 211197302, -9675435, -15507460, 32441635, -241073847, 149550050, -228091359, 53129025, -183936536, 138550326, -56560315, -203499302, 82361825, 152234614, -196947113, 202468544, -278512776, 46972964, -5544176, 79209261, 39232563, -183967546, -144640252, 124734119, -143179759, 201580435, -98042861, 87885506, -157241330, -40965576, -86808234, -270351380, -90636253, -31960819, -268915951, 320305586, -187978208, -69044337, -102072485, -80765046, -237899989, 131250024, -58473010, 124958143, 19176925, -103214376, -222226277, -71838133, -189469934, 45497354, 229151696, 94257973, 30905370, 92629552, 66055007, -356711447, -180664271, -35098221, 84592618, 31955861, 112675123, 101445548, 146310300, -275932044, -106485523, -158066571, -32018702, -109781019, 53516127, -133736372, 14470071, -61936710, 18825890, -343557119, 138036236, -136290178, 86119376, 78440748, -29272914, -179079950, -21602882, -200741038, 141121179, -211501107, 89964904, -318543613, 175164655, 43559711, 19974854, -337066561, 72007321, -142236516, 102754153, -262876540, 112940304, -255962610, 129948914, 51709428, 81083864, -185972393, 198635608, -235462159, -67681164, -334363788, 4492806, -203309685, 125417486, 66025086, 93798466, -113733977, 141986489, -315927863, 77788033, -256547719, 59460770, -115677126, 147826359, 34049030, 84015183, -241935894, 86960182, -271936268, -7687423, -171011686, 177674875, -191903561, 117874153, 40405709, 87713763, -411021024, 187029928, -132463709, -34323771, -75673275, 118265867, -98763749, 140343532, 26093142, 129440129, -310915619, 39904702, -74186876, 8002608, -131794855, 85362747, -62522352, 60979586, 57021022, 111672260, -166436955, 23337319, -61291263, 49326677, -91174632, -306977957, 14372432, 69732040, 77220388, 46670079, -150082260, -244186372, -71634911, 127191052, -60854554, -45456190, -22603409, 91739409, 78515895, -12273097, -93929596, -300145447, 25590355, 84808119, -123379506, 77529147, -21691348, 6154753, 50376277, -55192750, -169758022, -96491806, -43652389, 40377911, -61892536, 132957593, 68946794, -52380506, 42110834, -84045455, -20142851, -15036283, 6623310, -42298190, -90829678, 95588923, 50799184, -181753397, 84062561, -59340242, -50611172, 127799317, -20572342, 61658029, 34352999, 15218691, 34920115, -180444658, 112687819, -110579036, -26749916, 28447477, 34769621, 38462024, -28562894, -47650453, -19178405, -136755392, 36059640, -194464847, 55932637, 30785879, -60593888, -2635373, 77431105, -42239472, -15682239, -151269794, 150032938, -123531409, 110653877, 55002064, -175061360, 72010383, 12595913, 8991397, 53604309, -100404613, 127033353, -214817002, 20470861, 143505022, -232708111, -77322699, 108690389, -55422787, 57886276, -122507907, 111974277, -167338163, -11277823, 100290835, -182677180, -51570401, 139690802, 39381094, 80196619, -157989055, 82358897, -161173955, 41685268, 127765521, -85172713, 47023784, -6283921, 18113861, 148014978, -153963357, 55312317, -319315374, 48494015, 28290635, -121477976, -123461045, 150587440, -190644965, 117025599, -244226262, 105491497, -150123909, 52060727, -27222412, -80311939, -99625044, 63223831, -44948544, 168223053, -33263329, 42631146, -80884606, -120243773, -11581277, -85179515, -255321622, -104798585, -377791762, 366921782, -47349367, -53532157, -203881577, -74666835, -193034112, -66743389, -24529491, 103050895, -44483278, -147183344, -18948721, -211571410, -221304327, -44795904, -10313997, -40709149, 327467233, 86651720, 113192640, -302678287, -385675609, -1014874, -9441331, 21253642, -17778877, -6074553, 281720698, -273082882, 175329104, -292726308, -473610, 141896188, -173883960, 63207731, 109268330, -58182385, 144172505, -172604978, 157835886, -231855810, -75525448, 54066110, -42530816, 42862140, 115843467, -190914705, 125899181, -141204774, -80504648, -305081010, 52113228, 57973303, 28968893, -11436996, 94382435, -304937601, 166061878, -218711302, 131671369, -120566472, 72805963, 18018732, -3450475, -227397010, 102665246, -183205202, -57691131, -210647777, 109398402, -89600347, 111420520, 17742589, 30080779, -90960369, 78006312, -308915257, 57296507, -287373632, -18274942, -30125534, 77075943, 44078916, 94070368, -211693093, 49445994, -311864913, 84192529, -159960449, 135845140, -15240688, 103510417, 10369102, 86172417, -879527926, 79904370, -179216385, -21681469, -217588842, 86284034, -51801693, 158600003, 45974843, 124648415, -336923003, 129074812, -121934593, 96691303, -118866146, 49047001, 27922781, 92606910, 28871341, 121377692, -332639754, -70544861, -73077537, 67659594, -8259248, -126667485, 9109793, 54089356, 65095812, 11498593, -43631393, -126123086, -20568930, 95315956, -75056583, -89707129, 24161916, 56892544, 42744935, 1049886, -122298799, -225035071, -69946244, -610854, 18926397, 19082615, 10348233, 51728677, 61991397, -372234, -38135748, 57504989, -59956659, 58782872, 61357077, 19463239, -412054, -224220395, 25510799, -116413161, 11256422, -95207095, -105649084, -36047559, 78384459, -5902190, -41635696, -80845572, -5155633, -15432452, 111535437, 1609453, -84938534, 105059914, 139828563, -36004469, 64435944, -1885527, 57833064, -15948433, 170670182, -32545224, -147726268, 50160445, 108085439, -11268856, 17572872, -121280558, -54316282, -93680672, 88685952, 16372968, -244072258, 28437270, 73162891, -20284504, 34396082, -113465540, 47349788, -204788342, 51427979, 81462450, -234975860, -48536129, -6142044, 49823694, 8457088, -51783681, 78359239, -133053824, 134692833, 106250197, -149807855, -44240035, 32548770, -181485131, 54274309, -90824589, 114166304, -239439189, 57026401, 192762539, -98787606, -41426528, 61452441, -704519, 70903778, -73899224, 44191591, -125282481, -54393124, 107822105, -110205173, -47084711, 113398060, -79859287, 50733205, -141806200, 7665188, -155511200, 55246323, 149990365, -108756691, 10626812, 85834220, -310214549, 206481084, -62236406, 123764105, -200536370, 12342154, 56915753, 36295064, -128778890, -69937572, -36179099, 246970177, -259040236, 90448238, -159434646, -110406704, -68278998, 45041371, -193174511, -33125881, -263554603, 296262652, -29830575, -117421769, -209734678, 93843214, -59813507, -217316240, -38871307, -19239511, 29716171, -114540689, -269364357, -277255028, -139976770, 33931565, 204546243, 128189787, 278829813, 45679294, 42079393, -147913426, -129218712, -107588746, -53671185, 92147030, -101484425, 94292328, 86741753, -23612756, 194957584, -269195080, -248038620, 136856303, -216921762, 194211468, 7810492, -33595584, 121539302, -309546083, 145262778, -160673663, -62075362, 221078172, -134353042, 205507666, 163927078, -195097283, 55729926, -350181967, 171195313, -98168001, -112876855, 55667184, -77305958, 101366170, 1627704, -213365689, 60296822, -210652202, -4649408, 63856304, 15593347, -9249327, 54045871, -87970123, 119267099, -254056573, 62051695, -319383651, 136224419, 18500878, 146001905, 96585669, 99260285, -136758283, -137127846, -220031679, -71701027, -285362124, 97651407, 14970297, 80375351, 55810943, 39165318, -27585654, 16290260, -181502640, 73670402, -295466840, -2667631, 20198584, 61934650, 77958226, 76834977, -203770101, 97795315, -103862777, 10285606, -157313719, 10352361, -7470782, 50557230, 47483731, 44858865, -92097260, 84281020, -186489791, 27437141, -150577962, 27887130, -49583007, 46962336, 18812073, 91072358, -151580736, -156676888, -67116432, 36898084, -127399877, -108401023, -24923669, 76275468, -93902297, 15211734, -42855646, 11121886, -75928263, 17596800, -16161511, -2240833, 48010297, 107626177, 39820366, 71640760, 38090184, -199443236, -17248932, 87706909, -82699239, 8582453, 16773587, -17806001, 16247502, 1489574, 13870534, -115657039, -22443991, 40852275, 145497188, 30578068, 1065366, 27916847, -55627510, -16091505, -46000376, -53540140, -148866996, 36149882, 94220713, 14157230, -15962727, 79612449, 38085364, 25065958, 71140140, -25839385, -144469634, 106898263, 158374086, -64777136, -12870974, 978296, -15804715, -34449246, 106938668, -25071938, -19097082, 12306717, 67421146, -68782397, 10187853, 45515418, -49217280, -84348954, 136319667, 6169451, -91429032, -994612, 81746213, -87055586, 23058558, -13317824, 28850472, -112347417, 92063598, 12308484, -193657756, -114296146, 82865164, -592812, 44808201, -19936111, -29249305, -115510322, 104442254, 150171340, -140698075, -52983772, 14744374, 137385443, 32015964, -114759706, -5113943, -153977618, 12185560, 48226342, -71610786, 20130433, 49830455, -129340217, 138369188, -15404792, 2668676, -10839779, 63922808, 63722722, -148733184, -22171419, 85190728, -243987769, 94621286, -118472353, 7379266, -95960550, 95481820, -133129641, -50039690, 17499419, 112374306, -42810924, 131162643, -132836774, 18841032, -171495095, 29738087, -27453534, 15458196, -135715708, -26355855, -113006644, 276826203, -143477127, -49234487, -14486074, 66720739, -47515772, -137757897, -216307551, -30047083, -36474124, 220314279, -181100354, -110915370, -142493919, -152265191, -61245006, -126579195, -43332521, 19948293, 150847659, -152834117, -489402711, -276238054, -218362033, 117522337, 244042978, -4459289, 366247714, 76846436, 125567272, -189338714, -229279906, -76788940, -128741577, 23207439, 71634993, 36404315, 163213000, -47003545, 79713091, 18645415, -163207114, -67292728, 14660275, 90165213, 64697526, -168294683, 75015798, 33810399, 81122160, 124097012, -247347414, 282976955, -151068658, 370442986, 43883651, -195263803, 209895045, -121601395, -45240439, 11580573, -88576876, 93720548, -167792127, 164588481, 100349009, -188803658, 125522166, 15235807, 96863262, 109199852, -78770593, 181727797, -45368399, 148244262, 16225535, -136864603, 83020575, -93165301, 304327399, 1345133, 139853045, 139559478, -36631763, 34622360, -42423643, -296532959, -79085983, -43255147, -122941248, -294069, 34962911, 79751872, -3032819, 51493056, -82810722, -192146018, 59960745, -105493374, 173500374, 64233162, 129942030, 56784973, 136864185, -155088127, -189212546, -48014581, -27077354, -143548846, 120900452, 25624171, 72048262, -9048378, 65705709, -84990188, 7632520, -149940491, -30031215, -53850051, -21405213, 63403003, -12191551, 12084164, 35498980, 15725214, 10729148, -234387845, -14565123, -20101698, -102716722, 62879585, 45377113, 8682503, 16989408, 103390858, -20245418, -100057505, 7998577, 116438754, -28712643, 95532030, 144396737, -27801674, -28769350, -14813092, -38129397, -75189359, 46420019, 30240979, -68105154, 60508642, 19542698, -2551321, 81810199, 23079874, -89492306, -23546387, -74722841, 105964534, -153334349, 8821581, 100406542, -96479662, 40930949, 133071288, -12479794, -63800372, -42460117, 96912637, -177912638, 34791026, 48938066, -22205709, -71979113, 153799206, -31895127, -71073800, -4521667, 51604968, -88036112, -18595474, 1306143, -44200160, -16601585, 84994055, -156530231, -26705481, -42767074, 154991359, -247290701, 61079592, 56027748, -84998362, -17720405, 114788510, -84711507, -6767802, -29276701, 97672783, -5199860, -32320626, 33501770, -47409121, -18184559, 66879801, -6505203, -40342707, -68644516, 55378731, -51295843, 120431378, -53879209, -174077883, -90509094, 31725906, 128679246, -103124008, -147020042, 21076566, -93024544, 160084844, 4762417, 17846979, -90366319, 84278710, -4983222, -110127203, 19151989, 79073004, 23469113, 111216068, -44601608, -128623724, -114650786, 7930791, -23312846, -101532601, -137380391, 30900806, -145970970, 87515943, -9734921, -191094652, 65505899, 1731259, -180275574, -69754228, 77025011, 122311547, -244916663, 250431269, -104598410, -61833151, -130311027, 85316308, -212348327, 107654825, -124144830, 78345574, -134036168, 233783007, -176745623, -245793149, -13838232, -66266865, -20028276, -140147150, -41872319, -122566901, 70664264, 117958121, -232292950, -168169573, -109397247, -39902776, -152164444, -115807272, 111359060, 50387371, 71202464, -99377677, -422723234, -244237900, -292690158, 15818793, 282692969, -29961377, 418259978, -8071593, 107642077, -79500504, -210016251, -128166541, -17287662, 105175920, 41585572, 107684024, 268095613, 44127002, 201967880, 4669721, -473302573, 162665248, 107357226, 86766437, 29536827, -53082474, 153850049, 209729329, 149679884, -17530696, -43343786, 97220153, -248473749, 289094448, -17380752, -241769865, 123502478, 93131974, 5111398, 160672486, -139137521, 119492926, -214213207, 90943120, -82252577, -187793106, 128080279, 175929382, 88767193, 124997914, -109111346, 138963655, -116092451, -13824691, -289120764, -87477282, 55719670, 32153726, 100380823, -43572072, 77614851, -121250123, -22468230, -64734533, -191159114, 28916353, -132727191, -30305959, -84394932, -57025678, 33685010, 73990323, -12405550, -5456697, -217086866, 46706188, -379131, -208118424, 197883174, 54489501, 102880768, 104553536, -111535408, -100732841, -185521901, -135961130, -46552129, 15102813, 81753656, 85684940, 70560098, -53397540, 96422285, -99602968, -34592543, -116987407, -33760760, -129733995, 111610010, 67424253, 127781898, 30145988, 54500662, -74581698, -156488284, -82095146, -44217836, -15372952, -41317970, 73613368, 77667788, -44445109, 112916872, 6450930, -112444282, -20944955, -32718692, 44492293, -85026458, 50405409, 36509506, 32771319, 131552696, -27265053, -50580587, -39745484, -64544968, 51587041, -21255245, 70639811, 136448622, 15468611, 111786336, 6677085, -6655440, 37450340, -25574334, 50274614, -106562309, 16726879, 72245248, -73157936, 90100221, 100076661, -153099313, 70423454, -54884091, 53996366, -235061407, -24027729, 26347756, -126573771, 20139009, 101645820, -249887049, -34928162, -35611246, 98229773, -11780074, -30031757, 63287571, -88274904, -14832993, 106340021, -103469536, -299342, -45306940, 123426884, -181786925, -5785735, 35794966, -170419723, -37899464, 122550227, -135570407, -22428719, -68069115, 109320126, -71306363, 53466901, 98808520, -116858289, 5013536, 132611200, -206851035, -47640845, -91318280, 86056724, -36969811, 52999262, 21748625, -101936750, -69941610, 34095459, -62603272, -8002794, -63323252, -33879962, -54827817, 118658960, 69841623, 45175131, -86029023, 76518267, 4108639, -74932478, -199565157, 56128755, 35022102, 83624251, -24716010, -57389729, 50353687, 15963601, 122698136, -97081780, -187141731, -26496416, -250645727, 118335761, -190838754, -5485191, 700140, 60003217, -5768037, 51015634, -127930716, -129678085, -151469663, 272544980, -33013847, -92373282, -107889526, -60020611, 14050149, -17808072, -158828065, -183199078, 59912890, 228631660, -194056958, -95075466, -7322156, -4767388, -113618433, -210786760, -86852200, -111807115, -97948372, 312652290, -83384313, -193859220, -88101618, 30013900, -86767182, -24829939, 4632300, 103457630, 55983651, -134086654, -388834864, -237484187, -205199093, 73143125, 222373977, -37354346, 308310628, 164074779, 214763373, -13233649, -683426619, -81850640, -162336409, 76194808, 94755903, 78836672, 443954587, 57676062, 21196354, -276221484, -492807478, 76524526, -20232791, 165015578, 133047253, -34542646, 162105754, 70640504, -6532399, -37420716, 94921641, 70676751, -250755131, 109666601, -17328843, -251309782, 77914685, 23243325, 232078925, 97126834, -347487003, 45816034, -258990377, 29198922, -208108097, -295137733, 260775089, 80902472, 109288178, 71245432, 107364714, 79447068, -206676036, -85581504, -341171414, 46926655, -28587142, 34399480, 62083222, 41811116, -120978400, 76603413, -173388392, -196712911, -144565865, 43628491, -4254031, -109037876, 97743824, 108723007, 53446770, -9879485, -133600727, -162806049, -190673143, 55870987, -9616963, -21884270, 94042867, -15848503, 53614646, -100430019, 52851159, -29276757, -266617268, -62858351, -197969005, -51188760, 103563190, 22530664, 59239767, -96219763, 81962615, -51471386, -87091520, -73802635, -135562435, -66732027, 25112286, 85535116, 105764858, -40496342, -33890393, -32439295, -117055222, 43415390, -153405905, -21402286, -7753721, 23782827, 21589089, -54146826, 81641085, -118164621, -176982597, -17111780, -89607410, 33842586, -62288407, 5445768, 57757199, -81916988, 119874068, -26822627, -181356326, 61584044, -49818389, 58553860, -74855782, 28173715, 85864387, -98989487, 105114102, 96959278, -169499472, 23759304, -177094996, 114520445, -83199672, -34449439, 17066931, -131842703, 58342420, 28558291, -175583094, 59202019, -50308872, 79849318, -134861887, 10363376, 70772484, -153203085, 33532873, 78629367, -113367856, 55146549, -95429800, 96241705, -107077941, -20925248, 76835506, -113855697, 229122, 81725009, -137174875, 8457481, -94990879, 166947678, -48462845, 33359151, 117052309, 2412698, 52719198, 118075453, 28751079, 22715570, -155999169, 35855237, -27187673, 72007567, 34629412, -158045411, -25974207, -16424997, -126416773, -23602718, -98405570, 120018892, -38732789, 128382236, 61563443, 4334215, 43736029, 59825849, 64376570, 7568989, -162426338, 102131873, -25151433, 137981951, 45954067, -100575179, -4634878, 61115313, -239776835, 18903924, -62682807, -7855213, -31972915, 91343112, 34202263, -19702455, 50149385, -62377233, -40933996, -26900273, -193134189, 8469288, -97775549, 160596818, -154852, 21985570, 86858034, -54705903, -230742693, 15413934, -82085609, 2967583, -277795911, 295008421, -83216518, 61566640, 134034276, -88554405, -203713641, -132095709, -194560722, 19727515, -140536278, 377944440, -256164700, 96717946, -144506067, -178322032, -202794805, 6167511, -237090051, -24994422, -114891171, 234953687, -270587265, -154315189, -104622021, -28576698, 36715180, -32263543, 23182578, -14006501, 24599066, -36941975, -231248483, -261331946, -168178558, -20236610, 177302748, 41420139, 393280208, 148733109, 106187545, -106567465, -359967113, -211928532, -242318630, 34540698, 219171390, -30381985, 347064435, 72275274, 206511587, -69651604, -269362241, -116070196, -312631309, 49947422, 138768822, 86254567, 321006387, 59248924, -68102390, 115789369, 21258678, 43835368, 42237621, 30896451, 48740439, 23852259, 130390406, -207768664, -47714267, -32744113, -74313954, -42751912, -57183161, 45067757, -178069323, -17903339, 145690277, -42996716, 112244874, -22461535, -29394303, -7268160, -52468415, -108919650, -104103304, 13301326, 73118567, 52122585, 102203101, 41605446, 20729775, -4756979, 28424459, -155371502, -17511636, 5618455, 5505410, 85295744, 12006207, 89617185, 93758240, -39406087, -153368384, -241891935, -90154208, 53801153, -120463274, -79570785, 65761127, -1749706, 16324637, -11701186, -7000958, -144215629, -138270855, 9694869, -4271094, -23293948, -20631906, 40544529, 71963839, -71064740, -9691846, -109736159, -12922682, 30643217, -35176665, -46242494, -14466372, 9448271, 113289818, -145989195, -4036755, -183882639, -195301861, 4021, -108849742, -29356122, -67162082, -21066487, 54286130, -37272744, 10526482, -60174353, -41485541, 2865440, -62782958, 23706807, -34915790, 29373392, 78020118, -60742889, 39947003, -52154515, -162217796, 88050753, -72458081, 99737048, -42748697, -15486274, 98778419, -128959313, 117810436, -7891280, -140950561, 60189892, -75075269, 103687696, -109656133, -24568789, 55729210, -56693640, 45544911, 46638649, -162557945, 82414679, -46959918, 122021846, -94312273, -29045252, 43453511, -109392732, 73498666, 137959450, -262110621, 113448173, -84190778, 104442701, -100794993, -26269838, 78128979, -59670106, 58610216, 84028505, -85727572, 45743622, -38702264, 136455491, -52206412, 45553278, 94647445, 593185, 59135664, 14566269, -91658048, 93533218, -135452375, 74432090, -118939385, 33731665, 74469298, -106429741, -28835874, -6782036, -182697445, -2498070, -159455717, -7095523, -115772590, 67315385, 19261394, -16263384, -31492002, 47693666, -39771084, 4596450, -191949159, 109282121, -41737929, 176183045, 49117070, -64561613, 30915311, 29620407, 2893496, -18496534, -262342095, 22436675, -234095857, 96940890, -2360378, -98985575, 75271532, -69449812, -194845855, 37035126, -113779925, 183235765, -149916559, 251155227, -70426412, 44822343, -41890278, -61741471, -215094775, 17531373, 17955095, 125160202, -395399243, 335667253, -205445498, 36661822, 106172755, -298021674, -131296813, 149831742, -152337998, -50975349, -142238781, 55555943, 7414503, -56777347, 45333765, -247847423, -131157160, -42443521, 94617777, 85236117, -674920, -127619997, -110627405, -238216773, 113546230, -118094176, -89480944, -43810755, -54322362, 100974418, 75726859, -143400818, -113175832, -154504582, -187756747, 72137855, 247611836, 68631254, 361026198, -20328971, 84361926, -80435194, -275552869, -201325044, -204022661, 62847689, 101187266, 137793422, 402560502, 125373289, 71965083, -50101351, -261195809, -105130158, -351795524, 39305378, 127342358, 182584837, 268619955, 5872700, -61339963, -283582568, 200342223, 8253841, -245697677, -15453566, -46875224, -70767008, 295693785, -55255871, -91680028, -95004864, 73351100, -116039589, -144697770, 28367452, 152834192, -174705505, -63008472, -88461675, -7720714, -155545652, -66431984, -181921944, -44198927, -102810718, 72217673, -103470832, 19380037, -10873705, -62271141, -80253527, -30498905, -9392755, -92821188, -188107312, 130760700, -76010957, -76217137, 57086561, 25389533, -15896982, 70127338, -59904151, -39096519, -50495520, 98055489, -48684098, 99183686, -21243267, -3472016, -16496863, 22819467, -1531700, -43835662, -235298395, -43487124, -28770875, 1411286, -16739937, 5815316, 19590784, 92848785, -90667523, 74965760, -218714759, 5173832, 89013316, -2661000, 33121753, -6853809, 27433986, 83297171, 20221582, 24822537, -314445853, -24927283, 37617594, 44272605, -49217533, -30727884, 40896989, 87439671, -48320048, 15917020, -291133046, 498756, 74219130, -38178034, 82501598, -107258618, -51894177, 70915312, -44813283, 98300375, -180083826, -120133698, 44382792, -18560104, 59459455, -84189810, 608372, 106448852, -60624797, 76855265, -208100826, -23504596, 96551590, -70630424, 59041973, -178883463, -81958562, 11976243, -127206415, 33458024, -133123294, -184476703, 70106976, -115763716, 124505751, -134904072, -107285880, 58098488, -81714951, 65501727, -54967996, -121233992, 106560916, -67717083, 115786768, -165175915, 3017982, 73136702, -44342708, 20765053, 42705785, -150930598, 150259167, -11536768, 119568467, -65968163, 28902337, 181749165, -8362856, 104058735, 72236627, -147410452, 24714878, -38988758, 87793052, -91595255, 103438176, 46948701, -42912520, 34783300, -48470229, -129783452, 71107171, -78185678, -42767484, -59693720, 38922083, -12630623, -25923016, -28742036, -70919432, -223260432, 85664302, -44159379, 68933368, -219870687, 39450809, 89447848, -32077536, 100595839, -22798387, -71988337, 111717351, -71793690, -54249298, -61929524, 245707497, 18240113, -108395569, -70535570, -173575878, -225413129, -22004273, -33837587, -8927001, -280123979, 196394712, -14321835, 60900822, -127734199, -138997093, -211129040, 121566169, -92673548, -82775481, -153716132, 237139121, -142317012, -47841210, -187140435, -207685739, -455791712, 134040847, 87361112, 114196859, -425729543, 260356188, -181019858, 22210993, -111119688, -45858849, -88038564, -30509865, -21117721, -7947894, 10317043, 153958380, -172336534, -171138123, -271465749, -31065254, -48311338, -24680125, 132385224, 17330486, 104894705, -54976512, -246877924, -260067344, -214282215, 73610313, 162718728, 104286954, 276916683, -59842139, 188695416, -119815715, -196019292, -212569252, -321269423, -6521657, 99401899, 93171805, 306998223, 107119374, 173998252, -37438814, -222931355, -193744272, -302967906, -4079162, 83364613, 17315023, 234204367, -1666133, 240136, -58288269, -134615734, -197842419, -87672941, 55912495, 197556570, -16284633, 223441079, 9465343, -143247560, -241852850, -15789185, -172284588, -175468922, -81901811, 251160443, -115683600, 74981622, -26771059, -242849812, -263266951, -5599113, -166970432, -300582826, -97479284, 180481881, -209161952, 99652112, -131234497, -156241432, -224324241, 145548612, -19994594, -171622038, -48338279, 66083044, -53565931, 66723987, -98029844, -220512420, -201157823, 93429819, -152852833, 26765415, -190880239, 127589792, -159902900, 40562432, -120807737, 7813635, -189877123, 117491335, -124061972, -102100506, -267322332, 106384002, -118795246, 69641665, -103520073, -53850815, -200905979, 179110706, -53804014, 8922664, -162673518, 57634469, -6573940, 58015388, -124558493, -153043017, -66446543, 130323887, -72730362, 29318064, -244522065, 75033933, 72479084, 55088967, -73817424, -149910852, -104268976, 78163639, -104608573, 50772544, -294131011, 15290111, -3008157, -4542491, -193150148, -102219105, -100083761, 110312127, -96885808, 45206364, -131240442, 11218441, 67198828, 3057756, -87778509, -126699179, -56301467, 192075804, -77898584, 32713592, -362665176, -43960690, 97357415, 33006877, -31603161, -68997167, -33976428, 10695164, -111500077, 73275007, -397870332, 35443407, 124488093, -34120534, -60754679, -276832789, 10038649, 184156835, -76964386, 128172606, -211034715, -66597737, 134736061, 6232857, -39594110, -251294762, 9064019, 178444400, -96698299, -2729977, -227530092, -21945793, 134384573, -29954577, 12067228, -260677904, 6219201, 100102946, -89615509, 112058572, -190338597, -3633221, 108622715, 13208897, -4475008, -340887487, 116163924, 144893482, -15374810, 152549490, -135821968, -38194243, 155272797, 23164518, -55430703, -337428629, 6389415, 260498464, -106046796, -14626136, -148564950, -45506477, 112057991, 16511448, -54023396, -272287667, 101869874, 11766030, -17775547, -88984400, -87819502, -49801953, 127287865, 90537123, -13634355, -297335804, 111679144, 15346251, -184175313, 180056319, -126949653, -23016006, 41588858, 7008638, -70856571, -287807345, -71089745, 98498173, 4188922, 77512413, -12443037, -166635171, -33697642, 97184911, 55136558, -108204097, -158643439, -116194494, 20063614, 299149454, -98990984, -274892896, -64999916, 140215993, 54330681, 24120420, -135055602, -57066821, -191674888, 181565851, -146967009, 21351213, -16867049, 171806797, -66968642, 185455203, -11874815, -83583981, -302038819, -232983008, -31969756, 224264562, -92488028, 236445531], "dense_bias": [0.0, 0.0, 0.0, 0.0, 0.0, 0.0, 0.0, 0.0, 0.0, 0.0]}